{"scoring":{"size":[20,22],"bias":-1.3970965781063711,"coef":[-0.019443206312618266,-0.008462655136937398,-0.0056439963412376806,-0.0030632716896851417,0.00505819387986131,0.003867199969294663,0.007378142189325282,0.008408844556368901,0.002107991667489747,0.008802151798966045,0.008463420285129255,0.00913418810487556,0.0021677708519095705,0.005790582602295826,0.01002704292430879,0.010018015835686447,0.011074574130386098,-0.0006169578361774428,-0.0060840083569450205,-0.009448767880890366,-0.012441209862965338,-0.0038650406223106025,-0.00031049888008515014,0.003187872856386012,0.007818302118092636,0.010960251877128001,0.012100913210202307,0.012289318801648701,0.012872315936395949,0.0134197639066574,0.012863004278393353,0.012570470005854794,0.0144288424245574,0.01333943052400528,0.013248442014867023,0.012998181709015256,0.008056198630310941,0.0014670228332206666,-0.011928206846124195,-0.009790927665988413,-0.019951337591485003,-0.014601516863452837,-0.013174779761633797,-0.006051490369656748,-0.0010407140556988824,0.005465099755534548,0.010448591237341475,0.014061216421035866,0.015918382919452134,0.016360925963435087,0.02175676516818845,0.017301016139781272,0.014195207612699818,0.012452400847919372,0.010454129710215853,0.004088301926982683,-0.0014194361456059026,-0.003849859914217695,-0.010769873280441659,-0.011758097810167857,-0.004692730262498565,-0.002213411234938204,-0.003980443406752217,-0.012186682535867691,-0.011886732829841436,-0.008198434083715244,0.0028353930104073055,0.007082018952877583,0.012238372017639833,0.016348014515026394,0.02098025121015047,0.01731275318263429,0.01186526524722499,0.007237133559106634,0.002878758237322798,-0.007467321804467685,-0.012293394385884527,-0.014833951237083715,-0.00838863948674114,-0.001277206299448029,-0.004323776226736641,-0.0007999555489078964,-0.009044693937783461,-0.015715154398522533,-0.01637435302016491,-0.018048467332774626,-0.012034275948581882,-0.00724304399758809,0.0005125240784108197,0.01309194391257256,0.01857040908507438,0.013098815816852492,0.0008591564011330168,-0.0064555113363009954,-0.014574145037132261,-0.018221531408352937,-0.01805986873321162,-0.01666595999261013,-0.016742981997331947,-0.012862200876738698,-0.03740877678221599,-0.02683031532226969,-0.03669286789535555,-0.0347880739448974,-0.0218850319679039,-0.024484660949111742,-0.028068870569776663,-0.018631752402912666,0.0003386250226657851,0.01559117928255003,0.021178968053305464,0.015184030917486158,0.002942909802540911,-0.014374637994945122,-0.025568052116952664,-0.025717989966112242,-0.023218559873459776,-0.043064179414035626,-0.04224466749057232,-0.04056098939759206,-0.029282249261991376,-0.03709718041495928,-0.05020937144504969,-0.043175446636272506,-0.038799263945784764,-0.03791335031217714,-0.024596940746816367,-0.013391546719824746,0.0026176056292311106,0.0161600431397954,0.021950494557360537,0.018824694902420232,0.006927363884398058,-0.006709974776830696,-0.018258612142465137,-0.031150030943545643,-0.030987027023796063,-0.033628054995754796,-0.04343705380087554,-0.034534827602693656,-0.0027688241949539527,-0.004549275180497156,-0.0029637241504820444,-0.003406700423480626,-0.005815867591608318,-0.0050003474884839725,-0.005218902767395339,-0.003509430269612119,0.004807586605047698,0.015230282965296896,0.017877023790346995,0.015060123226282708,0.006830114845501906,-0.0007473542577977511,-0.004712922425024908,-0.002017247560106044,-0.002873371575985725,-0.00003216525956375969,0.005257631846099062,0.0043528918718454875,0.016945619656148794,0.015930900625567117,0.013751773645422991,0.010130474427749569,0.008048089829708472,0.006653967439781698,0.006832470034884443,0.006957704411470728,0.004039912948910134,0.011715241103133139,0.017439724961211336,0.014273924944517397,0.006148597549223434,0.00645013298676054,0.00641548242674101,0.008797261748865885,0.008537108473799983,0.008728211283033556,0.011782866421798245,0.016746943082334282,0.022118218282678175,0.020835875059091086,0.018311801034637344,0.01589801188949137,0.01783342296051293,0.01556573659143182,0.014048773907766661,0.009241576620658817,0.008151842723012729,0.011230814598071655,0.01256801671117759,0.012111623945116202,0.00983817412742883,0.007361162802690301,0.009554115733366411,0.011727533965135649,0.018125902932239795,0.01946924820706354,0.017398513191690286,0.021144199041044975,0.021132145666912093,0.019499184169656004,0.019592876054570843,0.02028149781228069,0.01745060509084696,0.01415914728419608,0.006229051144510064,0.0038367364618697264,0.007020631149365693,0.009656116146710875,0.011406409148288063,0.007327377475605029,0.0046725824974188255,0.005253560299244529,0.0001875842284737577,0.008152362961246195,0.012760089024104778,0.021600004613459223,0.02330330354276354,0.023745752734397885,0.018230549428489853,0.02001338863792708,0.0198421711017051,0.018799688221643948,0.010638029835974899,0.00047497591850582786,-0.007177935918128386,-0.0013492660142831474,0.0015382005340972228,0.0026091901041104195,0.0005404682454971559,-0.0004966422184611876,-0.0004620349686195485,-0.005244022876608114,-0.005215235448209645,-0.010002649985436339,0.0014386382744505852,0.012845063185194877,0.020827676960957435,0.02373841052172394,0.01571668571346539,0.01638066669873605,0.014902611437895159,0.007373035779786103,0.0019356373041797752,-0.006199971232118993,-0.009116541477138968,-0.008810991502401562,-0.014849548271736901,-0.002088752298238026,0.005214097048844173,0.0010527273675475608,-0.010321625138183299,-0.016207678046552692,-0.012439252596672909,-0.013087206027715756,-0.002796996928583211,0.0023632017053047227,0.011157492323637063,0.018368837091378775,0.009522424063657664,0.010552085697652452,0.006561107470035311,-0.0015314856230301123,-0.003249203820988987,-0.003132985735142634,-0.0009277374824954263,-0.0020968871213430215,-0.002752601764726735,0.0009438837129042068,0.00005916433694984531,-0.001725467988837404,-0.0034420772687673035,-0.004577360958590432,-0.0025304599008137956,-0.0003821556159806081,0.0005707858453624459,0.003132596619556824,0.006023783141733366,0.01158476991744758,0.0016262584963572593,0.0032288122743198387,0.0012532877511827127,0.0006274779428878639,0.002376673070768022,0.0028182202873619686,0.0023771129569157626,-0.0033402786707182365,-0.004895422636916792,0.0030746977489523515,0.006264859067042066,0.005023115930404464,0.00044657525636142406,-0.004827090498873711,-0.004023720007629251,0.002498818345759046,0.005458039465951253,0.007288031192023364,0.0036009634090189563,0.010569246292394684,-0.0045836905885612515,0.0005793643998226257,0.00102991877614139,0.0030014799750564766,0.003667515928752245,0.004471800582196911,0.006892742110051421,0.0039124352937196984,0.007139428500837236,0.010304447674314087,0.012609007891982103,0.008958913992549505,0.008603791251174015,0.005540849488829477,0.004672179031230026,0.0047921200350865495,0.005881820100455876,0.005604722572404298,0.005411245001991173,0.007326498514953648,-0.0027341865318231302,-0.002724700534666883,-0.003490049841464953,-0.007995715468728556,-0.004076110506711122,-0.002077804850112882,-0.0028478822594267903,-0.0039662744056797195,-0.00261612035304613,0.0009261126741127569,0.001742688698674802,0.0005518705877623288,-0.001372339198004937,-0.004599586886222826,-0.004201475995629732,-0.005472177851887195,-0.002341678055566526,-0.002544084181193918,-0.007877754680715537,0.00005340267621167532,0.004687346571394124,0.0021887942815206605,0.0013036188253628853,-0.001369820467079858,-0.015804998363084376,-0.016267691007421516,-0.018900936626522147,-0.01765945032079295,-0.011812605534381678,-0.0034436129735933847,-0.00234833217156215,-0.005011146346425207,-0.005092238624051651,-0.015030789874247219,-0.020198024497642013,-0.021620507739756673,-0.018586140603325793,-0.018723839025246693,-0.005572269849920948,0.006448045830050279,0.002682265163248593,0.006001001756989062,0.003998624466137994,0.005081325942641908,-0.005911407232368929,-0.027745788024718613,-0.029251292823436387,-0.023066523347947315,-0.017210413752997977,-0.015963112589643183,-0.021075188283476324,-0.023666705491108494,-0.020005598090990763,-0.019062969033403668,-0.01779211719234862,-0.025322677372927888,-0.0209712403520562,-0.003436645553932082,0.004335089683955427,0.008455718362753438,-0.006321337322179261,-0.0012841346959162978,-0.0012350140140767124,0.004020967306281667,0.009227486761414333,0.0045264965008091395,0.004131589813441068,0.0007710844545262394,0.001758081991837795,-0.0011577021001876594,-0.0036195352433658614,-0.003731990866591472,-0.001666179302724247,0.0031110879435167255,0.0014906582671670387,0.004844301505441868,0.005999082929420393,0.008475097921929535,0.005582716891229391,0.0025145315352065756,-0.004631923000619128,-0.007618251428388232,-0.0046593775053102,-0.0031253513278243637,0.007465336752811483,0.010125926733440484,0.009474705361680475,0.003565757195444251,0.005783369506083248,0.003888133034710705,0.0019960148005530504,0.0015056031401225207,0.0011132050024144288,0.005487654792876848,0.004736573364903342,0.007210635062716214,0.01007774641754751,0.0038570243972044947,-0.003118757327733293,0.00008694979275512165,-0.02144138726654334,-0.007210297606987767,-0.007835905822355455,-0.00594066743311885,-0.00161002982250586,0.005345006481645826,0.007104949657808108,0.01019687544512947,0.005757787329337457,0.007457080004758256,0.006273105317508202,0.00762420836735205,0.006843693093305499,0.007002142239943064,0.008725084064059078,0.00899957896818086,0.0034314447644411355,-0.001989159567628072,-0.007896602411841893,-0.010924672368545567]},"path":{"normal":[[0,1,2,3,4,5,6,7,8,9,10,11,12,13,14],[15,16,17,18],[19,20,21,22],[23,63,24,64,25,65,26,66,23],[28,67,29,68,30,69,31,70,28],[34,35,36,42,37,43,38,39,40],[33,41,62],[44,45,46,47,48,49,50,51,52,53,54,55,44,56,57,58,50,59,60,61,44],27,32],"vertices":[[0,1,23,0],[1,23,66,1],[1,2,66,1],[2,66,26,2],[2,26,35,2],[2,35,36,2],[2,36,3,2],[36,44,45,36],[3,4,44,3],[3,44,36,3],[4,44,55,4],[4,5,55,4],[5,55,54,5],[5,6,54,5],[6,53,54,6],[6,7,53,6],[7,8,53,7],[8,52,53,8],[8,9,52,8],[9,51,52,9],[9,10,51,9],[10,50,51,10],[10,11,50,10],[11,38,50,11],[11,12,38,11],[12,38,39,12],[12,31,39,12],[12,31,70,12],[12,13,70,12],[13,28,70,13],[13,14,28,13],[14,15,28,14],[15,28,67,15],[15,16,67,15],[16,67,29,16],[16,17,29,16],[17,68,29,17],[17,18,68,17],[18,68,30,18],[18,30,33,18],[30,40,69,30],[39,40,69,39],[39,31,69,39],[26,65,35,26],[34,35,65,34],[25,34,65,25],[22,25,33,22],[22,25,64,22],[21,22,64,21],[21,24,64,21],[20,21,24,20],[20,24,63,20],[19,20,63,19],[19,23,63,19],[19,23,0,19],[36,45,46,36],[36,42,46,36],[42,37,46,42],[37,46,47,37],[46,37,47,46],[37,47,48,37],[38,48,49,38],[37,43,48,37],[43,38,48,43],[38,49,50,38],[22,18,33,22],[40,41,30,40],[25,33,41,25],[33,41,30,33],[25,34,41,25],[41,40,62,41],[34,41,62,34],[34,35,62,34],[35,36,62,35],[36,42,62,36],[42,37,62,42],[37,43,62,37],[43,38,62,43],[38,39,62,38],[39,40,62,39],[44,45,61,44],[45,46,61,45],[46,47,61,46],[47,61,60,47],[47,59,60,47],[47,48,59,47],[48,49,59,48],[49,50,59,49],[50,51,58,50],[51,52,58,51],[52,57,58,52],[52,53,57,52],[53,54,57,53],[54,56,57,54],[54,55,56,54],[44,55,56,44],[23,63,27,23],[63,24,27,63],[24,64,27,24],[64,25,27,64],[25,65,27,25],[65,26,27,65],[26,66,27,26],[66,23,27,66],[28,67,32,28],[67,29,32,67],[29,68,32,29],[68,30,32,68],[30,69,32,30],[69,31,32,69],[31,70,32,31],[28,32,70,28]]},"patchModel":{"patchType":"SVM","bias":{"raw":[-0.964306520867,-1.03566919244,-0.874989992149,-0.916328634351,-0.84503678968,-0.844297101434,-0.738523173234,-0.808714131663,-0.726541145855,-0.843675312327,-0.869822246614,-0.917260263832,-0.873711733476,-1.02671396751,-0.98146088848,-0.873014174242,-1.02044597636,-1.05803547484,-1.22124828051,-0.881683950651,-1.03317042471,-1.05134750237,-1.24054665894,-1.16383797435,-1.06699587696,-1.23916761432,-1.18767751229,-1.12345203915,-1.13546600331,-1.08024044629,-1.24021266444,-1.16700091429,-1.11195019559,-0.729540672833,-1.12391599663,-1.3005410545,-1.31472443469,-1.08705339489,-1.33623226644,-1.32469845456,-1.11491083141,-0.762875763426,-1.12163285295,-1.09863140074,-1.29945157973,-1.27843894877,-1.00589316549,-0.912330645934,-0.962922353705,-1.25265133142,-1.29458347282,-1.15225762288,-1.00045652806,-0.887710450269,-1.01416634829,-1.19650803217,-1.03872671577,-0.86719070075,-1.008904644,-1.12379151191,-0.950687461141,-1.12241433736,-0.889224862634,-1.11762094609,-1.22489133968,-1.24702333407,-1.24517637612,-1.09819559472,-1.2104134101,-1.2217112657,-1.17731763127],"sobel":[-0.83934766225,-0.62721260575,-0.558840580329,-0.699564404116,-0.711116468654,-0.800405507582,-0.800598028802,-1.11367567263,-0.800716892269,-0.800194374505,-0.719852733547,-0.699662339749,-0.583473094463,-0.656586463686,-0.82585939445,-0.777588904797,-0.772328358153,-0.858083769483,-0.819377339675,-0.764279660704,-0.799960100345,-0.867018791717,-0.823023270097,-0.742640730114,-1.00863469391,-0.717177931342,-0.795282566734,-0.882814402127,-0.781504747967,-0.996713581871,-0.712255820555,-0.811275119279,-0.961002025204,-1.20550193802,-0.862430611162,-0.755762286162,-0.788966054175,-0.962730404866,-0.785589168563,-0.783168017095,-0.891439881469,-1.08053052724,-0.818953010952,-0.823990582718,-0.610975113014,-0.706369334087,-0.83607795072,-0.86536700094,-0.861887789379,-0.706860677903,-0.604669076545,-0.638959509959,-0.600205200156,-0.601208908689,-0.600265306283,-0.666594192176,-0.706937637112,-0.806432197551,-0.701267093778,-0.697408794637,-0.851407473703,-0.696453841977,-1.00957402773,-0.888081735997,-0.883778307995,-0.801014108655,-0.802707601144,-0.902478661063,-0.867497240701,-0.826525935114,-0.828361611411],"lbp":[-1.2775026474,-0.801223028353,-0.800091623644,-0.800009851969,-0.706840077597,-0.771744181593,-0.764756730848,-0.668987349384,-0.722732252285,-0.669412768606,-0.599571546235,-0.799859783453,-0.800085025062,-0.800151690407,-0.800453693963,-0.770896454141,-0.657297455691,-0.599810309052,-0.583090394926,-0.952970571559,-0.7654582373,-0.799938792024,-0.727414989246,-1.31723075305,-1.14076054405,-1.33781061842,-1.40029321489,-1.29006497698,-1.28367040173,-1.15693629435,-1.21680694398,-1.40041878805,-1.29047691479,-0.928378863331,-0.926795080454,-0.921170431637,-0.911039053934,-0.843072087859,-0.863356945439,-0.975893430292,-0.891645275689,-1.19772729821,-0.994481526443,-0.974741126221,-0.796142704788,-0.771301703397,-0.911422811844,-0.920856682866,-0.865902542856,-0.849751055127,-0.806605497263,-1.05057278424,-1.21923288747,-1.3182935345,-1.30915908452,-0.608079191461,-0.939755202343,-1.10582615252,-1.02794612196,-0.913831959238,-0.874524304042,-0.818753505759,-1.06509012802,-1.18557061801,-1.18891869024,-1.3461331468,-1.39693404573,-1.19088607628,-1.13830203374,-1.37361790282,-1.39128680085]},"weights":{"raw":[[-0.00641929350098569,0.029808749809618604,-0.026783847528159686,-0.022626445601288438,-0.06769654478392964,-0.3330801701058753,0.028196651717386736,0.18244853629138108,0.015034328565348129,0.06785273618154651,0.06670760102804295,0.04375774477293372,-0.04943204693546423,0.028764976579739795,-0.023780221712776294,-0.019043996534914023,-0.1459760995456534,0.07674812965123064,0.10031267415956342,0.022404267686006132,0.03948930481064268,-0.06917255594192799,0.06445393061200727,-0.03568078024136126,0.029477578218046946,0.013670321310075631,-0.04008674643487946,-0.16483725729324836,0.060739714509717116,0.1342127393151894,0.02422269183439342,-0.0231794397202719,-0.023938362360883966,0.0008056447282202492,-0.020188203981491876,0.035394353296754666,0.0205064246422616,0.02899344816440129,-0.15875938903288647,0.08638017630000529,0.06961235394930866,-0.005149628317893187,-0.08621251663291626,-0.11615256372599751,-0.10171915312404266,0.05044362294149464,-0.010944856179506302,-0.001993957790501183,-0.08249632373737503,-0.19805282268418445,0.14503065839704138,0.10472965706111854,-0.05450410065575717,0.058558989674775644,0.02150968078817124,0.01730546008925736,0.05479743583896092,0.08144986165856803,-0.015926761159011912,-0.0266458258524559,-0.293957896046404,0.26045433455042083,-0.014750981039322313,0.013565969503019568,-0.05204369663142167,-0.06850765601608066,0.026714598423665525,0.015030040573038209,-0.0036695544345779346,0.00383258647431671,-0.029296334816602605,-0.2168604461047042,0.23218142341105868,-0.00327038976446066,0.0010937576464049442,0.022865074396730092,-0.0024710599676689565,0.027138580199090406,-0.01679885289520537,0.05289654559111395,0.006877363228005057,-0.11534615443720748,-0.20002833023471947,0.26776687274414374,-0.012990564848598472,0.014507044952519324,-0.028376794482919257,0.00618216485194005,0.0889219146062195,-0.02926862382222637,0.023549402065920405,0.005011976866251447,-0.10302390187256479,-0.11265110616376864,0.2362166399750627,-0.023189771813893006,0.0035722520614683423,-0.03418213706662514,0.05063039309457559,0.010945258403000244,-0.0026518946618147438,-0.025155322122281942,0.028530077090590744,-0.13115618895267522,-0.09325600139501289,0.16420560614466395,-0.010547265652414012,0.03555013933252189,-0.020259214475918323,0.02246656772503501,0.034170311222606,0.11907609035635143,-0.0015743444390024786,-0.064020366156778,-0.22057027736788293,-0.07230997390748017,0.3020467193547322,0.023274069917025395,0.063584377222265,0.042978528220157006,0.1184620505912367],[0.1666751450718194,-0.06105649607736628,0.006921123396451054,0.017084537322497012,-0.2260817686595176,-0.3734473319351409,0.0799408682638239,0.16478474110226196,0.022649460741459224,0.05289358066562716,0.029321578215087005,-0.06568683076912647,-0.017175099236391184,0.05342642508666981,0.13196524692583625,-0.03891597035567766,-0.2214210563511815,0.1701888918075543,0.037968714516855254,0.03243303857962143,0.013114263754535838,-0.004713976681790598,0.01449378481921762,0.016836144088159047,-0.03538252197938949,0.06459440929029997,-0.1686419424136731,-0.18183649747692435,0.2201119970415321,0.017097680726078424,0.044439120834852616,-0.06574464759714618,0.1020917702829201,0.012977428388828996,0.01977596493630697,-0.020715077614501087,0.03753609961730282,0.07318814378973455,-0.2573933108232303,0.17910460975300116,-0.012201308491933793,-0.012488637353357972,-0.027937934041822002,0.09083951985921551,0.05606169228127485,-0.02959213495132615,0.08379737554962405,0.02690901960800999,0.02844725619429324,-0.2672429524643786,0.17601512398468455,0.05747403764496381,-0.02175445157089756,-0.016094120395692652,0.034960605520111765,-0.06613609379939898,-0.08682227581682511,0.021267627399376515,0.02491383906151458,0.08335124804544296,-0.2123391815448888,0.14528347788592133,0.05210322011013152,0.00605269353127303,0.004105795692207578,0.07374252723173551,-0.06315098228507052,0.07170651328073925,0.05027696784566078,0.05947386035797521,0.04109277684503734,-0.23158549693983016,0.03982435330236364,0.03516809644185254,-0.03932662577032886,-0.04671341171222192,-0.029438846368243326,0.03037322262500354,0.010642421674176408,0.03544309823317393,-0.06489736931049253,-0.032863903246691833,-0.15394029962311223,0.011777952930909712,0.17418487412288675,-0.05475758571404693,0.04792406601368864,0.05434649000577907,-0.0033548564463232317,0.023589666170022047,-0.024599944457705122,0.06065500572988429,0.13656620662733865,-0.09366338113990888,-0.04744440772227543,0.06287271944447118,-0.02272823079189625,-0.02726612072929817,0.1294937855467878,-0.016064969466370635,-0.029023009596784263,-0.05570334330637803,-0.0840107251201864,0.06758267309536246,-0.021201313484205356,-0.12021659219227125,0.09485936016857895,-0.023785622470961085,-0.031181057005649077,-0.004546101199478264,-0.0009687804195086802,0.07543593802259964,0.010017282477206416,0.06897995798959812,0.07714796080101254,0.01605850787004124,-0.19045442262141093,-0.010877182945437318,0.12221413195895285,-0.0351155412356487,0.06195748510363465],[0.0011017024675275405,-0.10082831174460544,0.00008594795150784762,-0.004422049478273848,-0.09673952628000249,-0.13240523784777558,0.13984373949584222,-0.00313787541686765,0.06839962137118966,0.041644858137291046,0.1246603542346705,0.05746879604248942,0.07361120898568357,-0.010863604812754085,0.004840634820014525,0.01639620645886397,-0.021671035744779854,0.044733205419186794,0.06792156583497788,-0.01587229208239721,-0.055943430884781355,0.01970238776563854,0.01861633041967882,-0.005658956684688951,0.03403751236246519,0.03441147508211587,-0.10871009154186473,-0.08095953984145883,0.0674276232825569,-0.019879897471494754,-0.01366520816807866,0.035789793103949114,0.06623139637196183,-0.04591799977774408,-0.00420191665726459,0.021126802087625032,0.040187642280355346,-0.03666439487226949,-0.030092902147062638,0.008811740476730875,0.0024160167750989087,-0.03859253346469508,-0.031144322454676222,0.03504205275969649,-0.018244427580942767,0.0189160005658235,0.0008242036653817869,0.09247456507290092,0.0732971691285424,-0.024311595897201867,-0.0027452015976400512,0.06792073218745394,0.0011865809331642052,-0.02829414542225548,0.04281208602061819,-0.022452858987935732,0.02261009594352785,-0.028250777066103218,0.04326259106400333,0.0925323906952393,-0.15324339008135635,0.05021126046953936,0.013929622339187875,-0.0008978138468668517,-0.06366120100595833,0.004848552355720334,0.0785800941235526,0.02575794561866239,-0.032352350433290294,0.028485056134963452,0.02362139569139944,-0.2117470445371154,0.10461485137190293,0.047597936964786855,-0.013272615927845698,-0.060311993172769994,0.02193128143972145,-0.05466583518135374,0.02458965449621621,-0.05314264114611795,0.04992839103128853,-0.024452908798012384,-0.13669941087219498,0.013882012829174228,0.1070905994912941,-0.03027728857497334,0.045488870557272854,0.021158864845617006,0.004550470470934022,0.05214959922096879,-0.03112491408752256,-0.025892240716889583,0.051505846702740755,-0.15850714978032798,-0.07743410057907743,0.1444219758540272,0.025520694414871425,-0.013359740227537047,-0.032691479720369884,-0.05076075577061953,0.006726712466217588,0.053582968166709294,-0.0660913290710981,0.028319458261919814,-0.023395468585636847,-0.12189855936069849,0.1264108145125255,0.04107040225763695,-0.038345327797452616,-0.005103783589953988,0.01115753611454251,-0.025558001982792473,-0.015803280214702852,-0.014570255682172791,0.058581784915518444,0.048613151833675504,-0.2965749163672431,-0.06764565935277526,0.13108882918808282,0.05456992979648274,0.06252397190390564],[-0.025232963701757677,0.022348786079614824,-0.07225884031672042,-0.18573054835716424,0.06115371568490616,0.16052559660045873,0.03573522287613719,0.03264581953820091,0.04997287054493556,-0.017744962590501873,0.12327939069776968,-0.0020676327098313324,0.01746290767019347,0.06278946307849151,-0.11704698186369022,-0.06525458717047697,0.09452513318995885,0.044950125896693824,-0.028763679134251888,-0.0075590072060936625,-0.018042703509056443,-0.042766926478698966,0.006472665330244001,-0.02449852894821654,0.015095977860562756,0.011479770091646538,-0.22511989496614118,0.1374997596027168,0.0421743831469316,-0.0009797392756477757,0.005345865322224516,0.006695870860846068,0.05293878324449834,0.02866288570467257,0.008378826462652478,0.00039142479042951484,0.05893591963645446,-0.20560278009245425,0.07950278129895037,0.10223896059315847,-0.04113799190793238,0.02733007338967257,-0.010752121223537789,-0.0022306851331074934,-0.007924201477948527,-0.008279495647935058,-0.03208506233715542,0.08612259920756052,-0.12113263279497796,-0.12790727680874353,0.13902963426409898,0.008853966604374208,-0.035846424270882665,0.004579108178465921,-0.043586755702451435,-0.02644030622989594,0.012179387770686292,0.07404187243630776,0.01288390088442623,0.0631378025037042,-0.3001337956577562,0.19884603307627666,0.06381579707055893,0.049734977180621504,-0.059941845556548135,0.06608231683752042,0.018259553212376337,0.017779633684347013,-0.03063237250430595,-0.05294008910372007,0.12680914791412304,-0.23860332882902754,-0.07293743785631161,0.12736775458078498,0.0635659183412351,-0.05117287506106216,0.009779050114535295,-0.004340704267483765,-0.016155615544080057,-0.009192392330326163,0.050665742508667524,0.006098472165673663,0.017307742609543222,-0.20367784360158347,0.12046177714866035,0.012913438963355811,-0.009205184571941166,0.03536275630143247,0.030747952698754938,-0.006848330425988862,0.060769663776634064,-0.024830671275067155,0.03220482558814165,0.08851298653495965,-0.20132344254131007,0.002548413815897023,0.140122587765108,0.01961859385120905,0.030770253761956967,-0.044844034190508676,0.010829012004067717,-0.01860457458041309,0.004870118723122603,-0.05383562252519328,0.06565573244826663,-0.08783449445825132,-0.10019900548070505,0.019098697970463,0.032625675487211764,0.013786208177970036,0.01459298085632256,-0.02245319975032244,0.023627062323695644,0.04456787584724979,0.051820387537472895,0.05896083203079447,0.011808887606369993,-0.24302913455395336,-0.10331035325930389,0.04312222197544385,0.04478411411677549],[-0.11131891807709643,-0.14268474406555598,-0.11319512819486531,0.16616863430344642,0.21669051126658584,0.14580497808064175,0.015659490036423723,0.08129976577263026,-0.024809345136602795,0.04021044222676087,0.1147788050575636,0.018929993321792474,-0.08089736615545767,-0.05933670525564233,-0.10482248256522532,0.10573530196882865,0.0631408717985007,0.059506144939088096,-0.10685781396759031,0.03408209651191432,-0.04492878624667285,-0.023391401657096106,-0.021033602025377948,0.011729129297605986,-0.12518841502550898,-0.24524516894120252,0.07503634089773896,0.16915003534917084,-0.01104335485702547,0.01869801655833349,0.008919381060601264,-0.009574206883586497,0.0749513760802387,0.052515621176523086,0.0007625567461485294,0.14447253116659836,-0.16116755572117158,-0.2943535080561774,0.21097730948472182,0.1532239111676963,-0.031396770107823796,-0.07319949962206841,-0.0005813891955292749,0.03837364808790836,0.07166124298300858,-0.02522805699198942,0.09435561905590027,-0.005506626027510814,-0.31676942832713584,-0.17017797276453395,0.20181171910078166,0.03895103544935513,0.020699071667054786,0.007352495909389606,0.01925107008541585,0.02771336549368973,0.022207504221021385,0.017801567429584678,0.1612676210022263,-0.00979265416273932,-0.39692367057618455,-0.016344797834207933,0.08433496504920006,0.12332269298102864,0.04685154450642956,0.002636755382792469,-0.01561848475266879,-0.009436542015435909,-0.02615768632490699,0.09309181623129058,0.015836673962272785,-0.03610417595442539,-0.2519463776351575,0.06651888922706571,0.08876872373304114,-0.054177349140414666,0.11363104423136496,-0.07433609691566458,0.026411919672457762,-0.0069934713872144005,-0.011837151565905812,0.20495766925622727,0.04065257446984291,-0.1095170141673022,-0.19525613842871348,-0.026690291071139877,0.025635090198280266,0.0841424871807917,0.08156051741344665,0.03389958127434067,-0.04177793659445489,-0.009501675246059646,0.014146738677450046,-0.008345664039773965,0.06615605391728069,-0.13607639700339172,-0.07520007682223616,-0.0994873515069512,0.097954762781141,-0.06803133834165287,-0.028816943621434,0.06211656943949179,-0.056509543958784436,-0.01645775253059964,0.07817870576774648,-0.011547980097176877,0.054587296091729326,-0.01756300038547995,-0.07269143851776608,-0.03485607595050838,0.05857371177073828,-0.0602890204905569,-0.012302959633281041,0.05215547808996612,0.07522769209224177,0.05372691554672293,0.0021832390619121317,-0.002344923538649027,0.06900194647824753,-0.05514982572329348,-0.1813815383750435],[-0.23224131638764922,0.07903469662446332,0.2067918064109477,0.17116975450055194,0.06039325579902376,0.07007210980485583,-0.06190466024121998,0.10747334033766655,0.01433196398767149,-0.03256186482121042,0.09613665022049653,-0.11702112011574746,-0.1864804302468564,-0.07263583233067163,0.12519462388086205,0.07088720261632298,-0.03271329648281499,-0.014132673438533166,0.0038161968326955314,0.06596606828134262,0.02045739986512317,0.05133413578390264,-0.001116824372617925,-0.08650385257532717,-0.1785625235356172,-0.024882107163551152,0.17291742960211148,0.07663613794861675,0.09577626737118992,-0.07664408368156322,-0.054109190285893664,-0.037610346895478264,0.10646735039870757,0.005106033165145046,0.05630446848381131,-0.02815452123015502,-0.3172866921301339,-0.058091370831929535,0.11556013989779028,0.06572349088657835,0.030550971916660702,0.04174710309339162,-0.06958785825069148,0.09246126396658998,0.05229901039500466,-0.010485795012401211,0.011062345730906517,-0.04525324732355647,-0.23598087205664336,-0.07089255746370644,0.10680685304416297,0.11990972610746585,-0.020183291742381704,0.0005727301827296999,0.09656302661129444,0.08439413274340078,0.0061097222161349135,0.052438465571679,0.012127916344441741,-0.0257064038739874,-0.3742573188077962,-0.1276874097835226,0.057044219322174475,0.11342314858398521,0.08990901529141647,0.08875860180043092,-0.017367003795174522,0.05857393693614622,0.0024241782448618243,0.08109965832409753,0.07161451991128079,-0.01563620268743912,-0.21764039015095288,-0.20280985898846876,-0.10017064401745751,0.07648124633085683,0.07207247607484658,0.07483195051351595,-0.07166912711289458,0.0033343139896645224,-0.020106231127842517,0.12484552374687989,0.088741504624313,0.01253935252290507,-0.08037165138919668,-0.20667576524399633,-0.04282468905818822,-0.041960654306219244,-0.01131931097222521,0.008735105318849586,-0.00734658047955114,-0.014035434722362766,0.06098093434751581,0.004495721964022023,0.06013604234048665,0.12862638541641686,-0.04340711738426402,-0.17199184431209702,-0.12411968467220214,-0.0678783666252617,-0.01454311580267198,0.01330421418710441,0.0866161567100902,-0.05086944418717247,0.05903651637207552,-0.03008247843263918,-0.03915069183312177,-0.013410175971461852,0.08202413261695805,-0.18429763963038856,0.04381998829312517,0.031005210064727645,0.010111390046324928,-0.0064173858317888854,0.024542598321298154,0.003326533057552636,0.04021021589655824,0.10549988851835322,0.06646601329742752,0.049201722388277136,-0.0939321536148138],[-0.12203267064152819,-0.036980237066742305,0.12682937376396922,0.10063288694137082,0.08215419826803332,0.031376504219097656,0.0761930646076317,0.02964354031201931,0.06719515773118173,0.014606114158926237,0.21693479369516466,-0.09199099991065045,-0.11495742760629782,-0.05785437441465155,0.02698330863563836,0.05370374419050639,-0.0273941556868533,0.06205078188675167,-0.014064800119151746,-0.030464390345027792,0.0502232298623065,0.0695221694583664,-0.04791508006637751,-0.07631273807225611,-0.10542836060878844,-0.06996306274716022,0.06388780976819086,0.047703502973526726,0.04962563211466377,7.937110578365436e-7,0.06693802016800053,0.0223312679300762,-0.013204459193458515,-0.051208345754393744,0.017251686675046174,-0.16855866147278023,-0.08171836268720581,-0.051493312235764005,0.044258122147233556,0.07986075057146982,0.04025690490590825,0.06116790096664046,-0.04445412975620007,0.07605855153730079,0.02448453321308726,0.0237388901616193,0.022211385002816955,-0.03909556756500325,-0.26993986747191345,-0.13809797457481326,0.10638240754104332,0.07416453466566666,0.1361114507013107,0.08862011177027157,0.023942633928693842,0.05945503505976131,0.018810531601996444,0.1333285511666898,0.019080517712641562,0.04095366870170747,-0.19369280785037196,-0.33096708018422843,-0.3153716399945978,-0.051011822183710684,0.10153083596477822,0.10646364340542763,0.014630901225096263,-0.0037911814153038514,-0.031174186442994762,0.12574438878630761,0.08274660855089384,0.13910378358879222,0.015618015934354273,-0.09701003161915218,-0.25736850771835984,-0.23890047875932624,-0.3920141608141943,0.014631649728319138,-0.004957651679090035,0.03224914217266181,0.01990648283333149,0.009003071269804548,0.026111426002791746,0.06289786783199448,0.1463890162014621,0.10175160175705127,-0.008366542972654184,-0.22694639696488025,0.016644643336980125,0.010640427487024477,-0.033902595425888096,-0.05887030600117281,0.022391466116807472,0.010861548153134476,0.028661031141596176,-0.00897323660083852,0.05200412153695907,0.030892998140363448,-0.06629876851654298,-0.045462972141964375,-0.03653407501604951,0.05825510998520326,-0.09030077093272416,0.08752918060369558,-0.048367137056150394,-0.02186992064128039,-0.061934612997809474,0.02284265461094593,0.0870990153167514,-0.038225524845750966,0.042582590594014876,0.04640395416303122,0.0380440573383962,0.013279662526628024,-0.0244758709967295,0.04264842707545879,0.021205045270171127,0.02354074407698388,-0.007329919947495406,0.00907767220495534,0.07270438554369765],[0.07613532294423606,0.07592874232876966,0.10248245044059716,0.12142390869553117,0.061858857352832766,0.025464191080837695,0.048676474818140573,0.030285797856824295,0.11128631305542007,0.1945532737788299,0.11002956054185524,0.07460681426549293,0.013898060531860643,-0.012868505144617515,0.03811974665790328,0.007148462430406344,-0.03738969490673246,0.027891841345889026,-0.004018077277820727,0.05119166474350638,-0.05141505993337936,-0.06594790510444799,-0.07721628063745908,0.07879227456062733,-0.014940451970767085,-0.04242817117298531,-0.02277362203587799,0.009552105313378119,0.0892249730187428,0.0026288446459537393,0.02779528927690774,-0.011245376233293055,0.00277897025591206,-0.08464626341108711,0.1085122984586782,0.06478748838514646,0.07177453301553025,0.101565447736036,0.13538683839366522,0.022702180797543253,0.08138250439122006,0.10182220145207069,0.1341459901576617,-0.06725473581240397,-0.25199554524555356,-0.131377327178401,-0.16365674311148973,-0.018740825554245097,-0.06288280746917164,-0.022204060979254633,-0.07230826470434813,-0.06002150860570432,-0.15902262422755242,-0.2376226356188884,-0.27876101597724223,-0.040263587475045666,-0.08015604055016233,-0.054338910081926026,-0.19775317420562621,-0.28232046584273385,-0.23353688528539848,-0.2887146857983052,-0.14101654202670044,-0.1025403206842016,-0.09107919131866912,-0.00007602192051990307,0.08433377565121718,0.02577687564589032,0.027110928294315155,0.12586947033203832,0.1709457201826477,0.12107947589739056,0.23253719852668123,0.02250844292994217,0.10869072456768857,0.1033561446413986,-0.004469702938813581,-0.01904362338576933,-0.038539230833867344,0.05962320530191288,-0.02837250486063366,-0.029359754569747713,0.0008751651167976204,-0.06591807220345962,-0.06935624266520128,0.023580387356890727,0.021727207917053997,0.0395706064528708,-0.029876932333496215,0.03870634021722194,0.054322914583595866,-0.04361035086891106,-0.014678116576553712,-0.03939690057342893,0.028347288864635375,0.13841137622066219,-0.09066089747647116,0.036895873473620874,-0.03722916214694882,-0.009894930351075984,-0.0452390438366378,-0.027744940547884053,0.04194009544497118,0.01055398542008456,-0.12123151432640322,-0.008749343949550598,-0.022343273408815235,-0.036722825249752025,-0.07423504949617987,0.13502817700337175,0.046152107059304906,-0.0008971308328727529,0.05590475965294445,0.07280055024298283,-0.014134363015890009,0.047445934632441455,0.08585904743319968,0.05507048598685206,0.022278702781022022,0.06417229339280382,-0.07076569906072622],[0.11799509004720471,0.07821040962176024,0.1281616951498617,-0.020597034003169923,0.014336534229225872,0.11621450358247642,0.08905643393668677,0.05443846379640299,0.040501447910613234,0.07708874490871268,-0.1658906017777812,0.09832791591756529,-0.02810333763323619,-0.02658838870983915,0.02405475335525964,0.07281433646587437,-0.012893740245567331,0.08129422425099614,-0.01963885112438346,-0.05946135547166009,-0.07071909172253173,-0.1275944247901823,0.02999311492449748,0.001969744529841,0.026356695570939392,0.07745617703691782,-0.006579905739970027,0.034984205817837566,-0.011141116727752032,0.03720594351235931,-0.07804833218835576,-0.04293728091952059,-0.127535289131475,0.02845913050306173,-0.02514121956008758,0.03211084759065019,0.04295176152957764,0.11294381552310545,0.02004775184404517,0.05151590030912234,-0.235725744910211,-0.0723083822615434,-0.019056219840507427,0.003032114250306528,0.09697112519659604,0.07580971830316449,0.1171582304881571,0.10956914475118423,-0.002478119754026231,-0.06415838742812259,-0.26848100360863303,-0.05975449894120426,0.061910526180559394,-0.021664296531182625,0.0861100259271432,0.05323351302011188,0.1717544124205841,0.028047054519386466,-0.08590298082104386,-0.3361141075282763,-0.2814411422220313,-0.008033032578359078,0.10513880861366756,-0.016382627034826625,0.06894681074416012,0.03299796127286976,-0.2575094211066173,-0.14536580095096197,-0.35542177348703685,-0.31543540234741724,-0.015389034147835323,0.25815532917511536,0.08960742973783267,0.024873996600298487,0.06881003961835548,0.03489017570215826,0.009440239145994206,-0.3317042945602514,-0.08402150713002367,0.050999687890954576,0.11407450625706317,0.12380980581221895,0.0615416857398525,0.02453750806553323,-0.05141269110053853,-0.03796914500894999,-0.08315921986961804,0.06097402386871387,-0.06968263999399987,0.013136896914555662,0.05433543614442471,0.08637574960433275,0.02576801827516423,-0.03028474620608318,0.004674564793187563,0.014048250096520054,0.0039043180440717223,-0.013243528792716869,-0.010234982174629259,-0.03434871862675892,0.08930669941750319,0.023672596441143168,-0.07406388091432402,-0.03941626691223293,-0.051467563793051355,0.006651409176777756,-0.00560210732348132,0.037530284479276185,0.022917723699947115,-0.028514057580272867,0.047001295013920974,0.011663892903344658,0.03157742912810527,0.03674321708145567,0.00016789538350847621,-0.032412649376776737,0.06117671525999013,-0.014965782274795558,0.027963582472569012,0.04959601543222854,0.01749369590499883],[0.09511182747695554,-0.06159820603503502,-0.027848508902761582,0.1628509117750848,0.011485186070697095,0.08822763141834358,0.03347684156076733,0.21311907036597436,0.12562992528833603,0.005658534272657195,-0.1966929150915634,0.12201627871631479,0.0650038757477849,-0.06463757847623203,0.007601127043420197,-0.014992832356838792,-0.01371412582796748,0.06518983519203567,0.06050177288708594,-0.007320488021864191,-0.1583739057936029,-0.11374672007199678,-0.011219765388015224,-0.037241451866588046,-0.003534620740694161,0.01418414744662963,-0.018804529282363244,0.0022002993190636394,0.08630412389588042,0.050730302973426275,-0.19347784099407583,-0.024336852899701306,-0.022104084039211852,0.11856239536141804,-0.0040746848315117296,-0.02163636804096198,0.032834767679033816,0.0800344731484097,0.18177097586869298,0.04019529190670533,-0.2702679651504349,-0.046764731646186594,0.008852085437052834,-0.009539810787766306,0.07383822425025457,0.0022341455913789526,0.08094684201408663,0.06491115331910723,0.06885287564917604,0.05292714860543306,-0.410107120913947,-0.0033883005740702465,-0.07662046460696448,0.02802671910476224,0.076992030561193,0.13499559219777985,0.0010835539682531592,-0.009452155890097347,0.1189809113716918,-0.10886395857171732,-0.3183906210009257,-0.07953657581636578,0.08803540022726711,-0.01994821470243107,0.05503118151079713,0.01735589174740365,0.11548823748390151,0.04731880261354447,0.0035588736908875526,-0.19090242902977161,-0.16923224535916537,-0.10343904409632039,0.11611444215342794,0.030139907826970232,0.09203792773944927,-0.0005281111654557753,-0.0198996720404131,0.11041139740159193,-0.11354626622456132,-0.13266289678027732,-0.1682771948622956,-0.03667619558596544,0.07817736675850409,0.06504914695853675,0.06126589575010016,-0.045421314698528795,0.038673845042327876,0.026641279640920345,-0.10482185618696178,-0.10700981328292422,-0.06525874643904839,0.10279723823243007,0.025140628570866255,0.07899525265930846,0.05558624922961755,-0.0282367233747758,-0.0025877363105662674,0.03312745537775298,-0.028093023704546808,-0.19114920828266518,-0.0843724450404052,0.03275218120073499,0.04457342148390127,0.07856958017781845,-0.07616797315805927,-0.011917584687660975,0.03886281331675661,-0.044585012472417355,-0.041774790744191534,0.06654393572162462,-0.20856381862218065,0.1683937797503331,0.028096195344995425,0.02974664466893967,-0.028107306876337092,0.040206628818593826,-0.005022332794664606,0.06168318096730564,0.11123093181504413,0.0025290457228258033,-0.02120297614281566],[0.09043563503585106,-0.04229707907295113,0.07943640034074831,0.03842552427230031,0.018479439174666504,0.1518877271211962,0.24325152032590197,0.1180155679366982,-0.0801567958141105,-0.21178228375212024,-0.1321898119943531,0.01847519834858842,0.09201844332333244,-0.050722043815425485,-0.06837456067208372,-0.01537540593449041,0.031479819423878536,0.08735840730776676,-0.06835423776229127,-0.1466417272423975,-0.00015826019866193447,0.01568223599310714,0.05170912892782582,0.008747090174751185,-0.08297559742427506,0.06105929068549017,0.055712846563533064,0.11256404620171304,0.12009580657518015,-0.2412015915622755,-0.014823455006292133,-0.021320510868446968,-0.006482678969039604,0.011517249723710349,-0.002937897815077306,-0.03651189081303338,0.040278214553535516,0.0514440140450457,0.17560605653482164,-0.1655984657580802,-0.17723807338794942,0.06664090603454581,0.02544398237775264,0.01188465218452904,0.0289513499031155,-0.062269615752451546,0.008151008187768163,0.07413923996606689,0.15951734948521942,-0.023426085135995006,-0.3978217497642247,-0.10908536196954385,0.198107190750192,-0.03969354994135716,0.07471723651890819,0.06765746234109257,0.0023721387419759488,0.05010623382157028,0.11669499140233328,0.10445484529679147,-0.18066291770941748,-0.13732855962266888,0.12305831238941373,0.037248666546407946,0.04039521027170892,-0.013511371889906032,-0.012463530395042041,-0.011253154667815578,0.05726371459440446,0.06412373474273139,-0.18290915356692017,-0.2869372990564419,0.16662290255364237,0.052133698720201724,-0.03451997264628831,-0.0020692840094172008,0.06741251393032432,0.06937855150391262,0.01734148416121529,0.11249597819545545,-0.12114447333731211,-0.16394194327719122,0.04261853427181071,0.00824423904044877,0.03221154330120412,0.0013431370481797045,0.05979357567988297,-0.04185352167064698,0.16141583247142297,0.025290287768054538,-0.09277195016263434,-0.2215981176835778,-0.017539993864623925,0.04468468836207484,0.07652630029505583,0.056281907644482626,-0.03832256952568285,-0.024136451744282625,-0.06372718452176626,0.1019524390722753,-0.11143716683774609,-0.13769182869235727,0.05085564633400147,0.0118757042451966,0.07578815217910018,-0.07629006882364105,-0.0814113136736546,0.07294179897639616,0.06876848468158583,-0.033997564379039544,-0.16790192551365551,-0.13094257760158287,0.030092743795544198,-0.020741964391416696,0.00030251423268644675,0.0886427375796117,0.052492146460725884,0.08700777751717687,0.024692689071073824,-0.11263451468661019,0.07566395763319325],[0.10661930608242243,-0.024041018022432886,0.023732105856747315,0.012547179712792927,0.06620015268771856,0.07288083873685963,0.141959809755441,-0.1884630302757157,-0.10001494467301893,-0.03039936470744807,0.006508432539056433,0.03539598055038491,-0.016756476798346576,0.0399634135437803,-0.03292076128242971,-0.005227900049309453,0.1455513515779632,-0.045218123785947764,-0.15712918904629083,0.019388410485656385,0.06907342606271524,-0.0298852890481313,-0.013668142441217765,0.03550729334105425,-0.0339053532299763,-0.06639806441685941,0.06936725822695652,0.09906846780184428,-0.1617694660299022,-0.04974368531705499,0.04941732724894762,0.11584329961758463,-0.009976533533724782,-0.005894615309377543,0.024852267791530103,-0.022953834411929233,0.03536477637026525,0.07091098453159729,0.16506591436250806,-0.20260600332750361,0.004082260035043597,-0.020994635237100143,-0.01738045300747007,-0.0681694778746119,-0.016583306399167802,0.01633535683844098,0.017414685172079863,-0.06550954477620465,0.17533271724699692,-0.07779762905043745,-0.16426179882147435,0.06799082437012988,0.015164258343913037,0.007850917795739223,0.023952622885856464,-0.022724061899056167,0.006468972562307412,-0.004686262441803951,0.023956271557396727,0.17796984486026562,-0.14583559757339518,-0.06427923090509419,0.007285889169011656,0.10176352460866914,-0.05375838816707103,0.031829796138471395,-0.006931087788905416,0.011744209650540821,-0.022880287482633932,0.06170435943557881,0.07377432172162823,-0.20953311948246117,0.0228569133898398,0.05472937737865659,-0.019111901041743054,-0.03021023886313212,0.003031327469750489,0.015874354673913807,-0.006452292082758354,-0.029379891777454897,0.17844565039391092,-0.07110452708435416,-0.12962834428996683,0.07450443681000475,0.028226182768918535,0.028593401178049288,-0.01959147691077351,0.02627469148789329,0.04932937679184403,-0.002525771203732069,0.01518419078458555,0.07937762244019535,-0.19505648192438618,-0.03458185384929216,0.03928442530245542,-0.06096185307071548,0.03210462198422711,0.001008720871932746,-0.0029091919090189974,0.001344468156507149,0.005023713003350715,0.10378546719878355,0.022547607122337512,-0.11488746863511244,-0.022120532171003134,0.04365532771842716,0.006775696120825271,0.025228229845891133,-0.019273769704258592,0.021906840282590274,0.07611102221477332,0.017667767612816868,-0.01550884847076102,-0.23798198014252242,-0.10029292828221784,0.06896242747818639,-0.00958082155355134,0.07180806987187889,0.009692454495817494,0.008957116977043107,-0.008277462473503971],[0.1471154036752462,0.04870375978312018,0.03828157145025493,0.07333208261344225,0.09260331466273668,-0.0694062794405356,-0.18039118017356837,0.03046188792697367,-0.07652780153927276,-0.028459829410684742,0.0039885048607745666,0.09153106699799837,-0.09704741860389973,-0.021416261913473872,0.022880799394652915,0.11630110494121575,-0.1109134904433731,0.005260123748833667,-0.0013446292981080382,0.019772833215237998,-0.01068052654249596,0.08790171771830792,-0.006232776333750578,-0.022953022264458,-0.011871195380737234,0.005762706715319532,0.09058996390258162,-0.0325911561965106,-0.028720174599054245,0.018764947431906404,0.03419839806504654,0.09248312592865889,-0.03903575783794387,0.04606097164647015,-0.031919717673297834,0.0359756576146678,-0.021429646453529204,0.08731212903003346,-0.10752464144662353,0.00152080949832821,0.010463878802001378,0.01772082101834206,-0.05437049272297912,-0.04194883289533528,0.025352619756942793,-0.033214062148915535,-0.021243138027047942,-0.0008823990590214881,0.12798500264531565,-0.14587827997097436,0.004915455687989331,0.1154467113814605,0.02439416473282259,0.02683709160566132,-0.007026041908772006,-0.020081222854955234,0.023704875110253917,0.02295042461409627,-0.05338528177481898,0.0831341083498527,-0.19190518676745988,0.028255792687062964,0.051622701485504116,0.026882922200025916,0.008377616973125737,-0.005670991108533512,-0.015187911842930016,-0.052821700067161415,0.00390644247145519,0.005281151829406819,0.10527786608533028,-0.15535307659177727,0.012627301510895916,0.03327206086519928,-0.016015509511655836,0.04732339385165741,0.02967603368046102,0.06267237670914183,0.020359709219910163,-0.05632841301488273,0.0620322629350282,0.13944415500977614,-0.1628837619018858,-0.06273619582859068,0.008907350651879399,-0.0034474543722587785,-0.01618817237363423,-0.05835778037156301,-0.038566049097796054,-0.007742247801509866,-0.04525485397522294,0.13886799518652831,0.08480154460363377,-0.19493114682149953,0.06796205402333232,-0.03966925365228234,-0.042999032230963616,0.05692279356728236,0.021310369562604587,0.02365210042359392,0.005385039849544027,-0.03187215578986556,0.12124236413591115,-0.0967183304019613,-0.09464086971309904,0.0500533099786503,-0.04109568378358891,0.06766934251303211,-0.013020222193800675,-0.017936312558531065,0.03088458798641326,0.01794055692503145,0.1231815166762023,0.08261243140085138,-0.19694230673329102,-0.08458714194399125,-0.003658775266082319,0.04619076988589604,-0.015214414660308498,-0.037796750375678645,-0.037660099586230414],[0.028789729303638767,0.024918790237205758,0.04618374488536684,0.11406524547975325,0.12089401164677463,-0.33167640134016596,-0.3019921406198615,0.07550502772956444,0.015980848677207844,-0.03024616910429527,0.07077779981499352,0.0217051545082647,-0.014784416452853898,-0.09279738694628449,0.07338712132904485,0.21513353226194643,-0.13135516496728,-0.041009990688083156,0.0027232866435380892,0.10443594986053156,0.01923470231389363,0.02666839309457343,0.07745434217814501,0.03770465398827287,0.02834589176207839,-0.009978163134861707,0.1639247590037968,-0.12998366709084602,-0.16954434602341487,0.044201694038575996,0.022535303634435802,-0.08057008558198017,0.02832273196113292,0.030852307058754604,-0.05728126290696384,-0.03064229252466788,0.027439907981706396,0.19418932496000404,-0.21394127367168303,-0.10822827097568048,0.07877628685823149,-0.05472648405401626,-0.0018935512700742757,0.02755405503595884,0.12724208320232813,-0.05340181008736572,0.03257936953505483,-0.005366876389614403,0.14925943338428535,-0.15555203727220704,0.007001480168193544,0.04759665424917628,0.1576250635167004,-0.0017752319114590492,-0.07847953723896937,0.0473805967808605,-0.05401735337902787,-0.01080960218579173,0.031689669706736825,0.23862777088364684,-0.17967729863408127,-0.0025414623844454364,-0.004492274547398853,-0.033450167802196534,0.07325147963052886,-0.0025312860424687696,0.04727033427370148,-0.018763729160332636,-0.08570708165879015,0.03745633447412122,0.24243173611028618,-0.2540866535861975,0.04329414106499292,0.04014814340000768,0.013087435326473265,-0.01985332459618848,-0.02322582618398012,0.03017700297747758,0.030922203127136713,-0.04095285821911897,-0.005933061506276691,0.059823934711038376,-0.22840162828405616,0.05383586489573299,0.039215482051845246,-0.019168216146914205,0.036601452638986925,0.007121698155200182,0.005519491684324002,0.017118320543367746,-0.010329430802956993,0.022891605120926584,0.10730721508339976,-0.08107168941575164,-0.05273116873786587,0.020938629685354523,0.027472939746776587,0.008732138872189002,-0.0119734318888386,0.029541130454324258,0.02543753191678985,-0.0032417425087455515,0.09216900132169707,-0.06348471226183452,-0.08486420181923614,-0.005545540001265031,0.047829727088973206,-0.03872852314389602,0.02165612388923753,-0.04840402618833343,0.0811061440872816,-0.050252564268459365,0.06253850150864079,0.050008949642628864,-0.06683406976276449,-0.22862797363149073,0.13880779851328123,0.0819568934706139,-0.03653428459406832,-0.0197239565455885,0.07425296558847368],[0.08097454476787322,0.05652987009549951,0.0325475746002,0.10152684966806072,0.0464353057497012,-0.21467483931903908,-0.20894615765238955,-0.014892577371206056,0.020894015871834565,-0.0067217043883879,0.03525206208069309,-0.0060354856627079095,-0.027461302429899262,0.010095861403046108,0.05459236563694944,0.16828861382181534,-0.17463234553413226,0.021867928311703422,-0.04139614121234397,0.019379712333095322,0.012675043495296218,-0.02769514972624032,-0.04124356774303546,0.016051533116298963,-0.00101868400485787,0.1443779580581858,0.07840763971617284,-0.21215391984114734,-0.05768089573932096,0.12664817413140378,-0.12395328524150205,0.07177306687717147,0.007574115007237647,-0.05186632546637224,0.03844472826365078,-0.11281826148125848,-0.013662478929553454,0.21924860974778201,-0.14332413200544142,-0.054997300283757516,0.0029602719156689994,0.047502977291317666,-0.028485684862829264,0.020466736113513295,-0.10612328436560343,0.011155779036764471,0.013002308851003064,0.023295819752587626,0.26377227907343925,-0.2593114787690108,-0.08109145681460468,-0.0003967438491567221,0.042663298620291695,-0.002947897600341226,-0.02670641642999412,-0.08931025185163168,-0.005043909355646095,-0.005502048300267223,-0.04536679903201592,0.23013430030607201,-0.09011555355216193,-0.21358662268181244,0.06901078184379858,0.01987760740252234,0.0044608961159714605,0.029591032895087147,-0.03501687061020328,-0.016930134483468168,-0.028665218589185693,-0.01412651469531108,0.2322333547477818,0.02002227602869769,-0.2510070762993298,0.08930726728169826,-0.007704470738758448,0.033183418337549606,0.009776425117414306,0.034273315295213935,0.020164835552348936,-0.01004293041366619,0.008413773164709273,0.23502650629556968,-0.024429730500986124,-0.1683160553754982,0.0005290142948826404,-0.023487633169125,0.096815945866332,-0.03617787949756057,0.002670053453748697,0.0060485344731694285,-0.03294986612777788,-0.029843164527927693,0.14655979582549006,0.0353911847412616,-0.20847127037801366,-0.05789190603857196,-0.01027014008034767,0.07653773694218623,0.08278152241511945,0.11258631635960367,-0.01659949953591877,-0.0939475830037867,-0.02515826814708777,0.13710963679628882,0.1328515249193337,-0.22309506076529734,-0.12553570046740603,0.0251101088832225,-0.03021547801359524,-0.01174868668974658,0.14400425060338853,0.04316351632896839,0.08594108251756169,0.03518474139012809,0.17622159819914116,0.19444104428116626,-0.23633459893577083,-0.07738918159815503,0.01463895746781499,0.022800332745270047,0.08354573665288247],[0.12261253014406985,0.16705127800103603,0.19069455483447878,0.06420078538135668,-0.00016272403782892353,-0.06594284936202306,-0.007935106047411558,-0.057893265858712836,-0.05400622028081925,-0.10458693453007292,-0.0541799679401193,0.06698967860824229,-0.09921985327259494,0.062446370884785274,0.09094500180354774,0.028277578410574628,-0.04706939185341526,-0.00715103160335491,-0.050252538655332246,-0.01470682832330765,0.0954797205454355,-0.11061849427089886,-0.14255959604920565,0.02685876773169789,-0.1946544063779132,0.18484819329409546,0.17890314023634024,0.15499366437705026,-0.02824153524614157,0.04479597904441586,-0.05844408099644072,0.013625007131520706,-0.07969283436026622,-0.11450496688056046,-0.12377645767247314,-0.06590643546844899,-0.15742481688127266,0.1298542504205754,0.20266035853202718,0.038497383031025165,-0.025653639466894,0.07572582376521164,-0.022083431516520723,-0.08548666750395979,0.03208052290688007,-0.1647946456821573,-0.22037943812265476,-0.2229737334363267,-0.3806112513021312,0.12775872709984104,0.31739568607954666,-0.01583423996906068,0.055459428402900815,0.011929160033288685,0.02419312724618705,0.0909706152760127,0.16123203632279148,0.008911780115480258,-0.017294928512088706,-0.3585408236670206,-0.48144436153782677,0.033786213483589664,0.1209940431097762,-0.022527387589338276,0.049459009623695566,-0.029490765269415273,0.25612944261482823,0.11469128278773146,0.1280808496538225,0.11403331019353928,0.3050689704613208,-0.19904848217033866,-0.20053793259626246,0.03964120520327791,-0.04376670404571352,0.033609985206833295,0.00989966406617964,0.11272141584817373,0.18547440193507447,0.1524434424661974,0.06114521088463705,0.11826241926353079,0.12074606754768391,-0.019667238146597897,-0.00048386258516668057,-0.12175688660479972,0.036172066069231526,-0.11868521523662726,-0.1250203703417119,0.03590491922718671,0.017839906841583555,0.060859449561677506,0.09635166317000958,-0.04921249262557434,-0.04537260738200266,-0.05589734571682231,-0.0023764214791030455,-0.03838286527828639,0.006411603378155321,-0.17558791205718122,0.0023250224817987636,-0.05172725980261646,-0.057790529308374375,0.013791061402471952,0.13644846669520244,-0.010155313334871414,-0.017625717203356758,0.07365290214345152,0.0006932854524008755,-0.050008478647772345,-0.3192788812600195,-0.18353351499079812,-0.08553823582354872,-0.07309629001232881,0.0901901782107604,0.10660823241153998,0.09035141763949854,0.132917195679079,-0.01185735726791673,0.052935295307996386,0.043012618340511746],[0.0636870265598327,-0.02747449334477116,0.04079252412326359,0.03394429370263362,0.06749399659832274,-0.08420299053786681,-0.024906649626728283,0.00915836869445534,-0.06882017046042568,0.0031107283830948407,-0.09710858504912417,0.11878373624948577,0.03710017079293685,-0.0894027100464124,0.021829275829537725,0.05069263318004659,0.012340313923680318,-0.02368578576938657,-0.026839662252448132,0.034846261621930025,-0.016166129228329065,-0.02786495830089994,0.12115538210609175,0.0037368644565901332,0.13531841970369599,0.021592046315438054,0.01817100573094571,0.015072771881264005,0.07040088369444276,0.0022893852554199817,-0.038531873505113653,0.07341259725477861,-0.029637114380846583,0.14796659731395348,0.12294211400056784,0.06835532178907966,0.1684693398714534,0.09208858358733514,0.124710416844108,0.06941030055801004,0.002828209679920146,0.028941147392732833,-0.08240586386178332,-0.09934010666270433,-0.0023105045076858566,-0.044477583601388274,0.0008809594027263945,-0.08509910778848345,-0.006458648569850088,-0.04429511418026441,0.10095939402980549,0.1485911432241273,0.14469873810179945,0.07867563696833521,0.04110277787821804,-0.185748731574369,-0.17064830498300138,-0.17155221512879462,-0.25171330168462724,-0.27337273571997955,-0.21265235556569007,-0.17172557194975863,0.02752712495534959,0.05618012242699108,0.12158172746105769,0.0793384866287001,-0.12195189294100098,-0.13969446903752442,-0.0265722227610123,-0.0741704803065521,-0.145127075010832,-0.11500093509170173,-0.18278877520622416,-0.24714583432028586,-0.1374776022980368,-0.06839261036959236,0.09867159287027971,-0.1674030675690175,0.07527407612466389,-0.0044961465547186386,0.13260037497576577,0.3123405549781268,0.15517911386484973,0.06645992820391539,-0.015467888667656748,-0.030267329366836557,-0.05625951840729994,-0.03821591469125371,0.06712871954308432,0.12318688834042112,0.18468566964642463,0.0865250012197846,0.09578353948499435,0.1593076190452768,0.07562987308980218,0.11756704875720572,-0.0760161520649867,-0.011817169363246532,-0.05195737709430641,0.17488796559917713,0.14148464642191833,0.0869568383172606,0.08105847566397013,0.04695877234878462,0.04918174254075236,0.003410992382455305,0.01558094374411114,0.02651508429838243,-0.06287888673146473,-0.056347428448159036,-0.09378127446608192,-0.2396439753724413,-0.13258713878159228,-0.08436585933662782,-0.12790680365138707,-0.07008370693809016,-0.04496190763532695,0.04925129846530313,0.07244661869675435,-0.016196819754861112,0.10029423625804029],[0.022794829328282723,0.03185540222137828,0.02436717299490787,-0.08829056624608388,0.07232262276136471,-0.06292516861381596,-0.004086146110761454,-0.00007972988029088246,0.01396609724411256,-0.0251310357298712,0.017075722683559433,0.043144050114759525,-0.07779117219058024,0.048533511736318036,0.007217025612539632,-0.0354751368789569,0.03569176722755009,-0.005375235042171175,0.04305370316223915,0.03642594292131633,0.026331797944731436,0.018922402485978082,0.0344245723793809,-0.0433065305205069,-0.02376931591851794,0.0809939677232169,0.0014022744912380036,0.06800816187289091,0.09510458708661795,0.10798396936955548,0.024411086728309606,0.04370802516100046,0.05651039482804686,0.03801298940438935,-0.016918964127942582,0.1307634062004953,0.11446285199173112,0.2123910909324717,0.28795590334995447,0.0926874508077318,0.09676400883214167,0.07011596892193131,0.04694467724843658,-0.02810952172495436,0.1864395624402158,0.07787071989570529,0.11792219460655051,-0.03560826755933394,-0.03664881215874992,-0.13441333664206742,-0.1209205303400708,-0.1562438512284114,-0.17025727483799705,-0.12517931808717464,-0.14934420137275992,0.15932332483022202,0.04839021776339017,-0.10847969953324497,-0.12255999835004713,-0.19725754430522846,-0.15715530383375914,-0.21752678931536223,-0.20062628687872636,-0.09226733990822335,-0.02057347231288091,-0.07163667099809229,0.06339759934382078,-0.10020592169765151,-0.1558036149028662,-0.14943697528943115,-0.11920849551682298,-0.08120227653725197,-0.11695355604037566,-0.006728370826129856,-0.04683793895431371,-0.0077863170130979195,0.019980965641957497,-0.121667094665772,-0.11522589823910821,-0.05747177610963532,-0.05222910064785673,-0.04689107902121323,0.06157405580787187,0.11811240080682403,0.17401725345189034,0.1337150650275799,0.1927256229810148,0.13837697707498475,-0.04368248952610823,-0.035940773077983296,0.011031099888345858,0.06603510802719832,0.16273538350576014,0.1001587158991207,0.15018677215060725,0.05156079973064387,0.05840588957394238,0.020232732914280432,0.08034215705932544,-0.06688430472152501,0.0430917720201435,0.061075670741261745,0.043764943962592874,0.03137922924483363,-0.005463533366559248,0.039411450527978564,-0.017169301013184327,-0.027826140912018828,-0.004714899656728756,0.0361035243729722,0.05466723031402954,0.04623956359132372,-0.04545606793086849,0.04940225271078921,-0.04766846057913162,-0.014224514341087915,-0.05950947149587994,-0.13173838602104682,-0.010384251552911242,-0.08781221112410761,-0.07760331144516386],[-0.03235599468881076,0.018326722847476676,0.017295570021311088,-0.027670634962396815,-0.007680939104993054,-0.04137668585653098,-0.01506163061039549,-0.04378113665897382,0.03647714971239879,0.044228566218286886,0.18106239449231315,0.042891343822209826,-0.02085324572429434,-0.024082163468429868,0.041552139122004575,-0.014678545508214125,-0.04084197637584003,0.01743202169508909,0.0070216535002669556,0.12929994168147696,0.15511189221305455,0.24789881463360725,0.01524433890020907,-0.016082932861742782,-0.051589389728025764,-0.09248737426657166,0.04574401673887636,0.05751681891908622,0.16869815200400168,0.2635471084233346,0.13879401206280972,0.1425191292736655,-0.07845550913751209,0.0045617718808213525,-0.04996569794639541,0.08036867162942538,0.05014678092238277,0.06747673498101589,0.13151901964758053,0.16708907133321474,0.014140597465528995,-0.09537822385677033,-0.20288372470514504,-0.39934020254115926,0.01878272803339666,0.055848444235998176,-0.005273028114115508,0.09488362821079908,0.0926620841901206,0.02634239108860291,-0.08683895061096016,-0.21345767462167456,-0.282107822115785,-0.14895903217754436,-0.15887716612865338,0.014524384805330928,0.0641050616596199,0.015209021241474052,0.09483634647478044,0.056562751972782294,-0.16636322513631874,-0.241320708765963,-0.2596236883574559,-0.1398205940714011,-0.15531689505376495,0.011694908155279474,0.03201061104057169,-0.037560894238744175,0.06660778747741622,-0.0076642057689953885,-0.04070977708688811,-0.04226030127644731,-0.09001186030957144,0.06926683868168232,0.15114898488461287,0.15845318802936526,0.1565353536374282,0.05796322755853696,-0.03160324201159791,-0.0055733045265627945,-0.06334520571126113,0.014274572871990451,0.03168059960306968,0.03982017671620115,0.09341585936541662,0.11919257043750534,0.03989717150118903,0.1715005214515096,0.0032916843093048626,0.004484666942523072,-0.021098541490893137,0.02580972076749155,-0.13673281369087914,-0.000012468117886521579,0.04530363098145215,-0.0526550700395952,0.020909495487494364,0.08478967987071337,-0.06333911092467263,0.09137694505686653,0.07252165751693404,-0.07920992614819855,-0.06729398745387948,-0.04390991712744949,0.029396455943145994,0.023947405883684936,0.0171670258216942,0.030553476010320116,-0.0586216899830546,-0.00984268569256612,0.20196311694537442,-0.023668678155415387,-0.014001946149787309,-0.03728327654318217,-0.023078128502029227,0.015589706964187003,-0.013168968136987605,-0.031499036112030365,-0.03978623603377021,0.0545163256041528,-0.04051296895686381],[-0.11874501434881572,-0.08229285106151511,-0.0956081678686052,-0.02057786834221975,-0.05184628950761827,-0.010859373167837721,-0.022716678939708967,0.12820642967693277,0.20208152628630544,0.10326830535107219,0.19572108975580454,0.018529266875907807,-0.06234376403958489,0.03617672535394453,0.04106993308366061,0.007976201268774658,-0.10314299674810966,0.006495517179795268,0.12398900983956046,0.024168115641601748,0.030884610087337075,-0.07499913799626025,-0.04039994706996733,-0.02634834152878826,-0.0040063358136547406,-0.0982142012530413,-0.03343598299911335,0.11941221649994889,0.2555558860547529,0.03896020421376146,-0.07260447413235296,-0.08030629503994723,-0.10380646122757918,-0.05732049324245034,0.015515746045367804,0.06255592200477092,-0.07382948751156268,0.09234710762260769,0.19891060046749282,0.1697336598168339,-0.044617838703860296,-0.17458925689074178,-0.16855591416735904,-0.12959176095156721,0.0028653211948725388,0.039281815318144675,0.05181104086434815,0.054229861553504496,0.13870864137978747,0.27288253125832607,-0.3143878348089388,-0.4393019728526426,-0.1406383436455399,-0.11423051269906785,0.04779660456302437,-0.06506150510615961,-0.004260423637650848,0.02946332359287078,0.025104961380266577,0.14743399932390186,-0.34597564760602995,-0.4201722978505261,0.0350728315572825,0.07959646999214702,0.13322835735966732,0.13339746737800906,-0.0619576139450089,0.06892042530749935,-0.03853620657347431,0.04721526298898002,-0.1433449789679961,-0.21161459673878405,0.14176441081563174,0.17098183292990443,0.14174756095000518,0.037859045933541086,0.3108572822718966,-0.02922935514410599,0.015150100201128183,0.034324197511492696,-0.011781519634235918,-0.07739711582860612,0.0008248139395220372,0.04253496183022143,0.04985424198595359,0.13020790077736055,0.20732411001715473,0.07004194288134588,-0.03702686021725021,-0.031791667690004716,-0.06480616459090541,-0.08258662171950007,-0.07437530116242388,0.01385894189294383,0.15057409353019663,0.13055028224014828,0.023193912685637932,-0.0793709118644385,-0.07674722077519751,-0.05651538715616186,0.07066301035783962,-0.08298069385057515,0.03859091949287638,0.03688503261834894,0.10304253122200434,0.02858154892479417,-0.1138945464654084,-0.023276097872029958,-0.02020813146390732,-0.14669512203229218,0.02373056640770148,-0.018262941034164024,0.11113049123798203,0.017809780077411436,0.20203876814616534,0.050784801616453046,0.06146956758956332,-0.007550751209127307,0.00039041405665547757,-0.1472153798567385,-0.36919673052117485],[-0.11817248565975272,0.050807995924907354,0.027086462019090568,-0.05832408598310841,-0.06975188697206569,-0.021026807770255104,-0.0010775384566174273,0.07435038493842659,-0.008399653634296178,0.024897232303854835,0.08743561284106252,-0.01909898532346485,-0.04609789190069946,-0.03978145183433568,0.008889473198062846,0.007556922405348734,-0.019310705820979837,0.05536781248319076,0.044255697213517686,0.003269187287821218,-0.010373408718694646,0.07260112152530654,-0.008100354989332079,-0.024375359119167946,-0.005175740470757712,-0.007608303655937336,-0.03860774568782323,0.09247837502307099,0.00029773934680776826,0.041278394763053186,0.08171588879027601,0.024739987393328,0.18485522219427483,-0.0256447127811721,-0.025676231567332224,-0.06974714637606025,0.054381153884765894,0.049824898758326436,0.13026732540299155,0.17109724133509682,0.059607917528576915,0.0898551064946915,0.09543727716276107,0.1587642227085923,-0.05913375761020232,0.09097655659151871,0.09510881397945067,0.11556486887071599,0.17970536904884052,0.033055045328156785,-0.035525492509829046,-0.10877929753051407,-0.05079396460228644,-0.07639132244393337,-0.05675798967236886,0.1347731234822974,0.12869357538617032,0.13013531388087007,0.006388712212117984,-0.08972948672558663,-0.31295031978607873,-0.28325157301095855,-0.22477218093756324,-0.2145675780259611,-0.13307930518541367,-0.26981212419965894,0.005016585566453173,-0.08039808860717024,-0.08521624861927016,-0.18399362322745855,-0.23965470437008415,-0.12035412983362095,-0.07698358306804472,-0.018020432830199287,-0.023775391914850265,-0.10766179954942284,-0.16700211823558328,0.015040770227884616,0.04251038144007874,-0.1295843290841098,0.029351080812140877,-0.0197858882149356,0.12163685368807528,0.19449321821046042,0.18157312421218158,0.13917958348474402,0.03625925982605473,-0.05933035618988736,-0.053816217365371406,-0.05801219277539678,-0.02499106046491168,-0.0396560923543915,0.16051410507047068,0.14621181331244598,0.0765292418848361,0.2061768947045735,0.08612988608968827,0.23683312856300526,0.17799588816524972,-0.03156868591107587,-0.011339033584039513,0.007592900019644758,0.036795050434868116,0.033074275171315504,0.02413735006868855,0.025795926857207403,0.01249666081014379,-0.019552843326395453,0.05284990813360595,0.09051803542268566,-0.012948046871117346,0.07767191529914241,0.03560950915943991,0.07732824755456554,-0.03709406667288549,-0.004715107385355787,-0.05921655824523059,-0.13706040241569367,-0.08499799651345004,-0.2036404817250472,-0.1023980466551825],[0.0032466543865972697,-0.005061914962075351,-0.02181781055551349,0.020873615011084853,-0.023531149044787023,0.03236851492334604,0.023279668597308872,-0.06907932017764035,0.028858662573673435,-0.02291220091069275,0.03504956758463669,0.021373318115011183,0.0431771630216619,0.031000576507821495,-0.02272799250828532,-0.04113033790693525,-0.011956655086753407,-0.0073657698466143146,0.01951306245600455,0.05648936597537918,-0.0180069174946471,0.023594044549755097,-0.06097471095863413,0.13275136748820646,-0.02028861314235185,0.0933234697534089,0.183759358028883,0.0933077625261312,0.017002171822373846,0.02900112839294272,-0.032620309649792054,-0.07714446633666172,-0.026312985524931123,-0.03637619977745446,0.03001653999320339,0.08106844871887645,0.17134303640361637,0.1454521161962567,0.14411586594973091,0.2508953402160685,0.1895315775753576,0.10961959096303461,0.11868995411865033,0.0976490741614215,0.01753917806278653,-0.1607658351969666,-0.08944189051045412,-0.1662700174191715,-0.19945945515698124,-0.12053950329957802,-0.09997479716657263,-0.0030787654511070864,0.17592486845741467,0.009404761123874367,0.24137587097504254,-0.10616945372175415,-0.04129526390997809,-0.18662857060598367,-0.10128658810243146,-0.15612237408478322,-0.19263459821003462,-0.26517496264532614,-0.2107547873859761,-0.15240183455933287,-0.016383869315923158,0.10147080642825733,0.008766114310321066,0.033117317571517424,0.022841544673590577,-0.12277060576748028,-0.10456605790706747,-0.04681087742708395,-0.051309908127680354,-0.12955150951531408,-0.08588318728862879,-0.21065306139257753,0.06742355168622795,0.07409025822200359,0.08214740786947217,0.09575687890732651,0.12800788880163314,0.19242466407747882,-0.010488011809805561,0.0024629531735309296,-0.014172878937930886,-0.06993883875353082,-0.07193778845464721,-0.07364200527100781,0.03140427344801179,0.1105219490341731,0.08262921650452189,0.0722242208307422,0.08194142882250403,0.14730626716129064,0.1368836421937018,0.09392788242913958,0.026163487559181867,-0.03421725273288698,-0.09625367662647977,0.052568923694275654,0.058021118675766356,-0.06948662344056641,0.10387349833640262,0.016885436566802817,0.005752374710489408,-0.03385762730057319,0.09919971997827448,0.002758758622581625,0.02888308251792683,0.007798772719153607,-0.026129748383045506,-0.10092939633783646,-0.05972518155086229,-0.16032203807483622,-0.026295964226010465,-0.08181702664666154,0.019856334497422835,0.011592637104098677,0.03353573139538846,-0.037190296797926556,0.039208766263747495],[0.1510565981517946,0.0077705624895111625,0.04042802168461637,-0.0017942995443031018,-0.041653694509876826,-0.06859077437682252,0.006298784217715708,0.026863472745659034,-0.032303950577093066,-0.01903335591525457,0.007997959526692383,0.27835546979835657,0.06863127471111802,0.1003446445291738,0.09687976547773058,-0.0033597601637389563,0.05432613468920053,-0.05594167487163827,-0.005418728541006751,-0.007755238576383203,0.004575943998333623,-0.00017646288706738011,-0.009475982818670042,0.20486066918593301,0.23125707799370063,0.16313521549416574,0.09853910567431817,-0.00992570736879192,0.05367234352995434,-0.088888704815857,0.023933003966042796,0.012746466899076839,0.013847645420023147,-0.39203581787528585,-0.21351183585569017,-0.1791720163353998,0.01068683181804335,0.1669535291647476,0.20160459511575174,0.16448815854770155,0.011414537180906403,-0.026561248426133832,0.00725645807883285,-0.006350824391933685,-0.1600711578168632,-0.15188987832197204,-0.22445870647203575,-0.21974868512281032,-0.14907696976575383,-0.011673426129634679,0.10655889056027106,0.1667289488285415,0.027289163008064776,-0.008044546331004432,0.07580932711770764,0.02383788693419224,-0.06031878412843887,-0.15808704038753496,-0.15079581692449417,-0.21784799920378062,-0.1841139188637343,-0.034761650797478574,-0.003078110011040372,0.1443522382170338,0.09819159401433701,0.0188995113243184,0.14330730009269013,0.13334147887544215,0.10003033854405316,-0.011990871182064697,-0.08118372537331713,-0.09185322612857909,-0.059061176343404506,-0.03070241061676092,0.009131792422277976,0.030031451106893217,-0.02916560965388293,0.11124860010301604,0.10478624646896353,0.060405900026046816,0.13088294144967497,0.0944468233253217,0.04688844062754824,-0.09989417050319033,0.00043866828312585926,-0.07915901899077886,-0.03095799592580474,0.051180956797886826,0.03653220034115198,-0.026313715866520357,0.0487715405583303,-0.019626512408325483,0.041811742473138486,0.020274853199404738,-0.03531125186149117,-0.03570043534772557,0.03777639113084559,-0.015390360725990176,0.10246466374888295,-0.004494955166304659,0.005158808183997554,0.03834429330297548,0.052952011747411765,-0.02014141503088371,0.03891118599786242,-0.02580996905072971,-0.054106671252965456,-0.05908080867179331,-0.019798138018163675,0.05184924826995934,-0.07376317515842332,-0.03834091661300342,-0.06687962421744942,-0.018985614490330482,0.04871042816996554,-0.01980872890750089,0.010561838400676829,-0.02456274941936872,-0.01514121795616151,-0.04795833725693799,0.21088916658617063],[-0.1251912106765544,-0.11688358418954034,-0.05896115401747269,0.04223537875473468,0.027384636957009777,0.0733784772929354,0.19970246516712672,0.18078323729328397,0.17754089590649072,-0.12635528181833747,0.08320974959041295,0.029824111195079443,-0.0015424767491013895,-0.016459376017527724,0.07753356123704731,0.00013267738458831377,0.09375027916191704,-0.04472699730074159,-0.19635306229962388,-0.22782377363617864,0.1158824654511761,0.2894446913107698,-0.06877233841174803,0.010802089827676834,-0.007867632781378895,0.07985107130712792,0.21292640866678078,-0.008978445378834802,-0.06841787699813894,0.022956354752557615,-0.026211043907313703,0.057828305945572214,-0.07948302025407236,-0.0161717155946158,0.06268931522460307,-0.021796237786981598,0.12691374422028867,-0.04752547764539633,-0.04930128304103931,0.0482064777494462,-0.2171608705725426,0.02813017983255572,0.12406052692394327,-0.0861311209500024,0.07689460503666104,0.03813505264063799,0.011628762315091006,0.07069849377635645,0.008413533617812868,-0.11267273154459259,-0.3975484240537875,0.07304069354916054,0.16994373683501546,-0.11001260539983146,-0.24501206201543754,-0.016540271332897986,0.037588646441523585,0.12220568704299391,0.04683975277378849,-0.19361692505980962,-0.5034060728708488,-0.4622460574539702,0.3012728616783651,0.3851257612605975,-0.19298521871344812,-0.5088287167621777,0.0577662914811312,0.0859156882107849,0.0025825469644762365,-0.15401989963515647,-0.0810666445754652,0.13998594331352224,0.17360289429870265,-0.008211331775624785,0.03416443347671071,0.033688177254881144,-0.15383945741404872,-0.0035717910256200143,0.011347483637652627,-0.017873166525061147,0.03914679658772492,0.1063684799467139,0.07624763639976428,0.13995849083497702,-0.12176042704433512,-0.06437548220810757,0.022871601462242333,0.20473954746266876,0.014948129510764279,-0.039363453803276216,0.024752228243803808,0.06253014347756412,0.007827349934518012,0.08753987689455507,-0.03454293596457564,0.0587464432839514,-0.07512628597575663,0.07659748512077515,0.19454209279112086,0.021682122234847927,-0.07348869550130263,-0.05808267910197129,0.012328447567534092,0.07603887813254051,-0.03691347272445111,-0.018862970847490845,-0.07931652130403127,0.01609398288094103,-0.18419160468838913,0.04922668323196122,-0.06145731499091828,0.0282830319555805,0.10422016934925292,0.018036735639772688,0.06290511255874787,0.07205279732777245,0.01238787011781239,0.09073002929031532,0.1143934398810977,0.10142758766032614,0.19506458179923916],[-0.03747154794061502,0.07900305916888334,-0.118094514839233,-0.011575517807246187,-0.04735483715894843,-0.04381990508782336,-0.02204068674980534,-0.015582330906619458,-0.060450140546324756,0.005671070917878641,0.08734219976791799,-0.04748458685556487,0.05557846862917353,0.014640579783893624,0.10885390788005234,0.07256075044057561,0.05363600621372138,-0.017555923047039936,0.04213350785318807,-0.02906136252712694,-0.12501847301134028,-0.017196570903083498,-0.01339795071661689,0.011501218082141058,0.02770235909099609,0.02741155292168642,0.029974564956617343,0.07336426312558758,0.010914273919724583,0.07540989196611064,0.13043893685947877,0.023410994104295653,-0.004825368563342529,0.07497843221817937,0.054355304633943134,0.04204747510162269,-0.0154640673353326,0.022630801443203577,-0.06388823754110312,-0.04044630874727343,-0.11272446316765139,-0.07731188141641226,0.01898064857748586,0.07948412647314071,0.042423015302388865,-0.0006940351035240808,-0.06922908845278616,0.07743030379264013,0.20473753110391857,0.2871923796668266,0.30503589992248753,0.32550043922428146,0.14073163480952872,-0.015200746246803488,-0.041860347134460144,0.17135640555161447,0.1527355824602927,0.15944325028772327,-0.04636067975835752,-0.2227663558507864,-0.343742026059417,-0.3875625228553149,-0.37352669157727963,-0.17546418763106925,0.02494184485831446,0.03853348528230306,0.12621571033694096,-0.29897191326894157,-0.47416602764115157,-0.4053376998776362,-0.044666674782561915,0.12588265080168398,0.1850321413968945,0.07448172492372299,-0.10021514102767744,-0.3473176366872461,-0.09928221388321762,-0.2983750610269019,-0.1866202358670671,0.03565212625203349,0.4013035269477947,0.06080080045364062,-0.020916204012535085,-0.017432090909172804,0.0064526884627329265,0.314471233100664,0.2781426659269365,-0.042857339346656316,-0.10711074543649843,0.12304888506893627,0.34204207221679617,0.11781479381803128,-0.09820750529246548,-0.22534157766971744,-0.173369554604215,0.025185350745411,-0.11167805937105306,0.2142012132418766,-0.04395005843596544,-0.023906769270708315,-0.06558463884581744,0.0920406527523769,-0.035310034547302485,-0.13396895532331693,-0.03899490443982933,-0.12154265439434478,-0.13006356630340574,-0.17041731619250497,0.11042010979150567,0.09265124738716436,0.13111238457685057,0.058001891637747924,-0.002652110312396515,0.1572234782164298,0.06607130870328556,0.039488088992435756,0.03927448274994905,0.19071883885744992,0.10773181848300134,-0.02812558988695802,0.05797883312162265],[0.14781185661120058,-0.039386331432373266,-0.022921264342725164,0.05388189603876585,0.12598813182555718,0.028202774466358597,0.0346074867144123,-0.04238131256263251,0.03884963956920999,0.03641008565585076,0.16289756506012004,0.08984523861558368,-0.046052810070111194,-0.08209578041456302,-0.22396972511791116,-0.11679212172424258,0.10053680749504602,-0.00823224882303256,-0.01090733225309412,-0.029537833982867273,0.004945131369650824,0.10219160122974023,0.1866374510485118,0.21337195182960642,0.09692801730212781,0.08222540149967027,-0.042534134329079154,-0.05225940644990682,-0.02030912059550327,-0.10672463441898887,-0.08822130798732822,-0.15579389025604545,0.23092722621811365,-0.079955537176635,-0.13801119251604682,-0.0569662885529685,-0.28523441407005473,-0.006823425984885539,0.2637658797263801,0.03525661052999585,-0.0009694807897623753,-0.13354739530762744,-0.09529223469456388,0.10809316225785848,-0.22622473692942502,0.1375096440563321,0.3058868523607385,0.47089738278075627,-0.26225597341681434,-0.2429165794956724,0.22231836629884105,0.09054374170971215,0.0433012887700934,-0.05519533311547409,0.012450074560341884,-0.483386622957673,-0.41101568836876,0.015182853563479719,0.2686700361155807,-0.18587591997040018,-0.6574604765676167,-0.3708028169924963,0.26181673556057816,0.20685619441423742,-0.06291346653609113,-0.0046315163613586535,-0.3460271088384187,-0.05787583147321959,-0.0800736633904083,-0.06073296828377071,-0.06313172224047209,0.33222972618047136,0.1600402390728511,0.08404710209986747,-0.02976989350386039,0.04542127487553971,0.03450430416325412,0.3753624233823881,0.08893561816209909,0.18255926007618903,0.07993617252967636,0.2352440711079648,0.11129319261560268,0.10974139035902221,-0.04722071086520177,-0.11616310797947724,-0.06730980582471298,0.03459913262322464,0.23285705965606096,0.1319034928296215,-0.04174928439903445,-0.18971912136060662,-0.07031412451546298,-0.04433981468312003,-0.052799114165529494,-0.12425748565008495,0.04548785477452552,-0.13703396222511421,0.05917219535467702,-0.05667902413997435,-0.07418473669584665,-0.09695247453613126,-0.02183641852612041,-0.06573120701236759,0.021349416929545006,-0.08341902593987408,0.0525663677690868,-0.0026602316535740966,0.03873498024493624,0.06817581722807808,0.22646127086716095,0.08289023239764355,0.03539905465475633,0.06732065297074195,0.14239677197520148,0.08513876908816612,0.050369804354669645,0.0010887532169456537,-0.018280111009442837,-0.01722592461817163,0.08422037289529935],[0.11800749409978381,0.048641544731680905,-0.10678911358350332,0.005291117990921301,0.23136181762806476,0.17221088012028055,0.17682279225882522,0.20044631087373868,0.05212243965219243,-0.1402595079578749,0.02243868573975058,-0.01982804806120863,-0.1373081753593374,0.09257718698058398,0.20995915555570394,-0.16372378150074623,-0.15700734079198975,-0.1736927596916677,-0.0580537721038506,-0.0157237265316914,0.01939859961370008,-0.049310374137502805,-0.11375225205060403,-0.014247453019732223,0.07073949494212364,-0.0883277135102292,-0.13682329114661984,-0.07888847959680247,0.053144758392313945,-0.19437922851131084,-0.0001706889902193115,0.13424778030432938,0.009332072526130886,-0.18143139441084224,0.12020647648261903,0.2963908916390815,-0.009097465083453715,0.0398558854537292,-0.08463057056034079,0.03693155284069398,-0.1478889489144798,0.19686627422843606,0.40663533420008574,-0.1433628367370896,-0.18437286091816663,-0.0387524786508332,0.29570661700880807,0.05368898279511149,-0.19564754353990196,-0.3448638572850823,-0.5012130700076909,-0.40626297518108834,0.13382493808540968,-0.00028761919063780006,-0.20091903070867112,0.11021116432324056,-0.18695906308384752,-0.2395200513010894,-0.18820014759183346,-0.020408212645899093,-0.10626227681963624,0.10776229335456736,0.19941878614236833,-0.05827657288789745,0.02752174113496536,0.18134851852604528,0.06869487900843496,0.014109730230775254,0.019795706580671063,-0.06951944503242655,0.08599870525279386,0.2512168355426164,0.24991886206451533,0.20675478705920156,0.09380246704308468,-0.07150568358107444,0.08395660862250853,0.04266422246954499,-0.04489797514980388,0.0756332294513642,0.18470969085810693,0.09231209792140999,0.1647712315503363,0.0674074677084526,-0.03539149215963413,-0.1005117354806793,-0.14948457456306743,-0.0859115996358253,0.11899616835413444,0.02223203994893508,-0.05960418036718538,-0.08371413479598194,-0.12267228192899818,-0.07181755365520867,-0.06136485403133418,-0.03712235502712,-0.024043277802218023,-0.007718335058683745,-0.027902500393156213,-0.07022897684458969,0.06728304821879091,-0.022096929111434786,0.030068653546629937,0.016508794156056245,0.007991022812565085,0.053657963888500304,-0.01697467785547141,0.03788848360559102,-0.10340431444912367,0.0939470116916453,0.17568681512805212,0.05319327446333484,0.08332828325168111,-0.012241690018234677,0.11152581385082602,0.00008877751397590172,-0.005979464667969045,0.07957622903533018,-0.011219166299368227,0.13062677267175682,0.13093666750650848],[0.14423093057173975,-0.01008076678423761,0.007377104459413508,0.06526902731825053,0.05584860582390246,0.05236387975722907,-0.022518577948855645,-0.00998540544349874,0.007488119357989409,-0.007637027399657208,0.09511536499739359,0.007486862308122141,0.015230162163870492,0.04021789142515911,-0.08536714963206432,-0.17282741030837942,0.011588285357803,-0.05898200358863245,-0.09121420159304248,-0.05548553721852835,-0.08505617995392528,-0.012889357099271234,0.08219150348451196,-0.08821554146779652,-0.17609926241410598,0.020767875260274078,0.2973162999706101,0.3447305749860291,0.35075038554356563,0.1675765045908931,-0.08431744533615992,-0.08765032447768258,-0.0293005697765467,0.008219759797923734,-0.14178517944724803,0.2016378749777812,0.30622658040655926,-0.08983427255695514,-0.3299115437753259,-0.23770186950896088,0.14059485558234217,0.2293501884825727,-0.06954897481239436,0.13056609682447454,-0.03149728621810852,0.007927379146063895,0.08481154415183993,-0.2914627030183241,-0.12913123455806388,0.07096605105569494,-0.08948667472649491,-0.07685719628317632,-0.03186671799932277,-0.09490557138676806,-0.07682123007601649,-0.28837628451753605,0.08779954200080047,0.20019432782413554,-0.17096915847133118,0.015333878953658897,-0.28908252284426406,-0.02952668950598297,-0.31385369627251253,0.043040218080409316,0.4557678194478584,-0.1807055900807637,-0.13846940283256665,0.04262264840257386,0.2723173783565324,-0.1914801913205901,-0.11016274974475865,-0.1176991482916686,-0.20542229438804735,-0.34623488704400734,0.23754568531606332,0.2859997220700538,-0.07796298777428269,0.034879273993081605,-0.026162450274433972,0.12712327036253446,0.14403182667963604,-0.03414888705288188,-0.08855082368809689,-0.027745606072896507,0.12772199691917124,0.10001931959841266,-0.18643104606782843,0.041460676340255576,0.05771435221180913,-0.08388195420023732,-0.08331277637087868,0.02614741925611943,0.057512048083849625,0.09877685805254571,0.20838336844764122,0.08141626738643452,-0.031359090867443505,0.010864074615252003,0.05416772437770708,0.03633576655386271,-0.03773405682796377,-0.058460234722864275,-0.050705505416570866,0.07210000699293825,0.0772373715279393,0.03203418995256717,0.08368828595046637,-0.0187409316170321,-0.06823692076172613,-0.06725245236398913,0.12643108826975322,0.09241136185081472,-0.03283218324214139,0.1036074935038833,-0.02064167472267718,0.05039606128905021,0.014052376131391174,-0.02423136333623187,-0.05009375566336979,0.02935370249151292,0.10979499165058046],[0.06063756206193438,0.01163357669854459,0.114137229829593,0.11754589579378544,0.020855057347248462,0.1097493044915731,-0.04499029293678297,-0.011032547892272426,-0.053612766250269506,-0.04475819760291194,-0.10039035625686599,0.1343544845920419,-0.024159164234305225,-0.08452442777970376,-0.09196037551452901,0.10788802496504861,0.04599807823235408,0.0552750050379892,0.06435881986085769,0.015789766512200487,0.020929919215574633,0.0408268323092314,0.13163339908596128,0.059409419123521795,-0.026657113464773563,-0.14316517070653423,-0.105418542401858,0.07323749589709133,0.08243361011408763,0.06259632374994317,-0.003104446434026492,-0.0858401391142894,-0.05285515481307368,-0.05803703807964217,0.029721950798359945,0.09266920936373313,-0.14987389757269964,-0.13353796595923728,0.050257684298183,0.014996004118443262,0.11313878950895426,0.052153057368792013,0.010577754712894294,0.013768087181216748,-0.23145094612919812,-0.06758686960983734,0.14187556860642475,0.21502139869877795,-0.23699602207891432,-0.28070386994651997,0.02443305911955751,0.017265628634335395,0.017657686358856672,0.026414327638663804,0.08807797576864566,-0.19378616438963833,-0.33747330456037095,0.10010384808690605,0.3681340911471589,-0.03425924318529136,-0.5152900491931715,-0.21455976987161104,-0.029064252143607,0.029684271548058694,0.11428024956830421,0.03599724323714473,-0.3178054530585862,-0.03893900280960352,0.1708263110456912,-0.01983209806788927,-0.015434962482212933,0.2106729777023667,-0.062119854775684574,-0.026936094188691473,-0.05553110408369888,-0.025879857930813016,-0.05653702058897206,0.0822515132533288,0.13249378757784364,-0.050895123398873254,-0.023068884844874127,-0.006580414354771538,-0.029028619952673668,0.16670678797071425,0.03728723954927361,0.032006611053345235,0.02298554186851373,0.0330979700612698,0.25106958648152244,0.05524767984135848,-0.07842728617881933,-0.06517953010256305,0.001902992764642758,0.015118472262848806,0.03162932993377893,0.0744705682056874,0.032407934317240886,0.033762676771467104,-0.05510921371766836,0.029518107237236926,-0.00557251827090087,-0.022571921481206444,0.004978260357756517,-0.03489286195148675,0.03015227783836147,-0.04631753619484458,0.01721742444845621,-0.09059543804766393,0.010986708242086585,0.01475361802999256,0.11880942290428557,-0.018853830715500133,0.054570000910600755,0.052880256948674695,0.0833878827973407,0.06829123863233161,0.06359772129360039,0.0518869232839437,0.08308711624415947,0.021602565983420394,-0.059861424749677705],[0.09080714473952173,0.04477713049248769,-0.006004236596012319,-0.05036343325604714,-0.038872008341752945,-0.12117244583538275,0.022973279126560026,-0.0317124478295967,0.03805414842795499,0.004598740943125623,-0.035659664256043694,-0.035674765832077376,-0.09299015020156876,-0.03916261171227617,-0.006904393089097821,0.0138362499846926,0.03066070836750659,0.07054913875846983,0.02941004691229679,-0.012521892141359542,0.051323314480405155,-0.0037634551331882926,-0.07001383105665589,0.01086073225646847,0.03272678318756453,0.1374861322513778,0.05818397355634958,0.1375096932090067,0.07872032070283921,0.10378646515411444,-0.02894911437094108,0.06208158795328925,-0.036944529962483555,0.11289672176654392,0.034425804553726264,0.04491504898654261,-0.05700718304868935,-0.15438271229617534,-0.08287102372873018,-0.1298228276365384,-0.04361166568800395,0.06596435175319629,0.036324136181226305,0.06371398603755794,0.02173517939440031,-0.07825856376940868,-0.03695665713662548,0.1335536638973711,0.2820127488291951,0.3248715566879344,0.3382707227204252,0.1853812908283755,0.07322333197701335,0.019788327920499546,0.13765137512483783,0.07806827112667367,0.08518024330180544,-0.06912579487432846,-0.09087857281110145,-0.22904348013123638,-0.33513853608255195,-0.3410714482164571,-0.3514787315094477,-0.1429837248305727,0.07534805803134563,0.14776217747988318,-0.0458557013057877,-0.24152324430590322,-0.21753420627734718,-0.1309360208776029,0.020511261336832037,0.0976716577514131,0.14601331736207362,-0.12506767652167178,-0.3725235767315107,-0.4082390489365429,-0.04590580754479254,-0.1600759086755924,0.07937818266133348,0.3143974221346838,0.19157945898080572,0.02903065545276176,-0.114833479865943,0.0767261382297855,0.3013511457136653,0.27545746842581786,-0.006862075032061946,-0.3652247609294275,-0.06701923494448854,0.20620489038853418,0.052499913955829466,-0.1326523991171371,-0.0789502460821889,-0.206419805797655,-0.24381499902372766,-0.08679768063808978,0.23653031161361043,0.22019310254213031,-0.036973082188424586,-0.04916248284765505,0.1462592159198925,0.14505339243853665,-0.22743035761938601,-0.08206610455658943,-0.12119372823467633,-0.04318168254304364,-0.09801604542519023,0.029470016170797184,0.1374726762360411,0.006291702539247157,0.16322306590540175,-0.09136353558362603,0.07328769661982434,0.11422898762272718,0.08521042286656524,0.15331572095963925,-0.07266053822766287,0.20466593159451976,0.026700931142256593,0.03601107429783196,0.07882770790371899],[0.18112261990369827,0.07330552477050538,0.04073594357969182,-0.030592173175515824,-0.014723051663569992,-0.009717724172896347,0.12724950542153152,0.03039707805193355,-0.05888919817899542,-0.026611166982695778,0.06668104671222798,0.06660808816758836,-0.0719187452250616,-0.008316532379624916,-0.017286314033053696,0.03860276428662211,0.06708355106867812,-0.07028210329075844,-0.06969068677450957,-0.025274574618584636,-0.11014662057019094,0.24938498020809974,0.13937639935994262,-0.05719784127987072,-0.07333099431064974,-0.1447911227660449,0.052420027937541525,-0.12934942016932524,0.030685317385975658,0.06161111711627355,-0.10213214383142413,0.2239301020176982,0.11685706457732412,0.16687464021324355,-0.1111052075644686,-0.17122260866286426,0.05658186998329005,-0.04893903568767982,0.15917940910095132,0.19178174933281159,-0.34144279330828603,-0.0002934693651933523,-0.04690094735591402,-0.19493783020620092,0.0454123494907242,-0.009503367612825525,-0.02911712645509991,0.04140979388731324,0.23150478397061292,0.05244868872817422,-0.5672713598377552,0.3002926921538524,0.46090762088909437,0.06831896235005604,-0.37007579263516616,0.042656412910046834,-0.13943043649625064,0.11478477562923234,0.2674056989846191,-0.10448691247946103,-0.6682765409186954,-0.28237532775707574,0.17754279911041,0.17370357234732237,-0.172164890655841,-0.47505336754415434,0.05483627683056928,-0.03016239745576678,0.0684929075971628,0.14670950434159008,0.007173184059208887,0.29965767091965445,0.20250028242592366,-0.1778433792734916,-0.11561865754268655,-0.1332395677790339,-0.09722185347399298,-0.028986446755459486,-0.03580733604518049,-0.10615355684023776,-0.13901885393191493,0.016240710560221847,0.17310497729481505,0.19618607123165227,0.11531910216918494,0.08586332648038018,0.1662738713960034,0.31073734902957373,0.04635899062683328,-0.006680554768541611,-0.11949504899391879,0.049149985727881776,-0.11684899113755934,-0.07762195316655388,-0.15566484457471233,-0.042823410792438815,-0.07595852938904664,-0.047231781924106236,0.18266592599709178,0.10710563631894213,-0.03180444558515859,0.06409971260243988,-0.0833395715986823,0.08860645005897541,-0.049001943443667206,-0.06079112950227804,-0.01193856606819367,-0.02896633660169206,-0.020442949029082044,0.030720122959175578,0.060613751104797636,-0.03989766326711776,0.06370141812986851,0.04736875093917328,0.02939838110752288,0.10605597723541271,0.08701259983398457,0.06714372555475887,-0.01789226663164903,0.06980756581123632,0.20793552791413253],[-0.03618525659164709,-0.06842365139802556,0.03394826901898129,0.25798065842164275,0.05575468840983275,0.14928617791426527,0.20629310863112724,0.22367188663579815,-0.04603354314311116,-0.10954993360673064,0.12202419922148086,0.03368602518519828,-0.11811717921720266,0.12833540839950633,-0.1289736286658285,-0.05630428493998846,-0.29473302723096206,-0.0251960264590843,-0.04980420634957777,0.05295377195778636,-0.06701949757192097,-0.06822657644339594,-0.047831454949617075,0.026913257256672624,0.08873411083890301,-0.19263180519366901,-0.011955075780035074,0.08630641050648535,-0.16802175795413904,-0.0833792793293596,0.08789596149715312,0.12511813454172754,-0.12767661265744493,-0.21930070432606474,0.4048499986447403,0.2168179404643775,-0.07267430101361208,-0.08764912913266763,-0.11089339548416925,0.01529602176215343,-0.11229804131529554,0.29574346278635255,0.08099137436155679,-0.1694969856716752,-0.09718111838701589,-0.07648951845905894,0.2409585525298908,-0.24206344311267508,-0.33278560146628966,-0.40823989525531124,-0.1698311866948436,-0.11497220840475923,0.28957955830284815,0.028529279547082176,-0.04802349179664002,0.06300024473077781,-0.03072187457794187,-0.06696304681523214,-0.01101372815939157,0.07593151427854354,-0.08086212076080368,-0.16771239481709987,0.10099670337031591,-0.24229068894050565,-0.3155489339818376,0.03738906044904006,0.15550442487747781,-0.021450780534793025,0.07802412591630939,0.22670078648533437,0.3000180336950578,0.2480396752804122,0.09553868166157423,-0.03803456347604652,-0.02863161982409773,0.008302809789431043,0.09655412538737305,-0.09365578170734311,-0.17003471525346986,-0.046727860698759775,0.05438730002622244,-0.011590570354357996,0.19038974433125128,0.08009708874232974,0.18123484236756301,0.11932337787747498,0.021024215763941437,0.00924516718706997,0.06740553047068025,0.017941188287962664,-0.040749800063489494,-0.0824405264837239,-0.11871195451512397,-0.13318249702629348,-0.05403632677909899,-0.08100167732143712,-0.02666368597188626,-0.010406736043617935,0.07620903935649641,0.011611786985809086,-0.005668402381206444,-0.030538187745098727,0.02057524731714261,0.053927702112941525,0.047348833795707576,-0.03821865610616923,0.03433663622575353,-0.00018565997117961364,-0.026356654841611753,0.08069116291754706,0.12906802891828614,0.05459184679453908,0.05656101126111417,0.04819361188817354,-0.03235204198972036,0.015293367697285426,0.016804531631558026,0.13319266151582276,0.003858408301107147,0.11727652977520774,0.10128996888306026],[0.08703900182821628,-0.08603086192239877,0.02399938271861143,-0.05500080253829832,-0.04527545615333299,0.02871882797765658,0.023278548014906846,0.007215412469654849,0.07922698843858238,-0.03263231259403387,0.15267091964537238,0.044269487995447235,0.10051883763832034,-0.11766420459825427,0.06744641253041428,-0.016434712072576442,0.03005259848934051,0.10105556654675149,-0.10170349865733713,-0.06647672300628357,0.012013167877748929,0.006246493542248601,-0.05765997313132239,-0.11952174430584045,-0.014950531682345641,-0.030954419784185765,0.18711958320008767,0.2158829444493494,0.18760853314788856,0.09582257029334881,-0.0402218539555546,-0.07324981058296466,0.00427782188615114,0.05578173796802546,0.0821923573331367,-0.012445928409250004,0.1770510242908752,0.1158017657021186,-0.2410736481902913,-0.08583678680040902,0.1500735566893015,0.2849842667051099,-0.14535341708480665,0.010094356111924016,0.09591670670864094,-0.29873458100190536,0.1787464039020454,-0.22302317330187477,-0.1748799384747195,-0.04371284561005248,-0.11620374099610192,-0.23806617911756578,0.004300379571986694,0.05421223197894738,-0.11567683342313427,-0.2933900664902095,0.12100456390445283,0.44189519506953484,-0.15496760773507526,-0.022722335616015554,-0.21405336749991405,-0.020547287844339426,-0.27084401995117324,-0.09504419903562081,0.28060020656129225,-0.27074453207286275,-0.1368725199810682,0.17055001589057026,0.3385971361439663,-0.27109736561922526,-0.3558606466659258,-0.2653473240178172,0.08294313791592142,-0.3584667824051136,0.34730776588311096,0.15494380599014224,-0.10539865152649901,0.09482805238671117,-0.10941051423376011,0.019908568726464734,0.13261552724999176,-0.04972481104338111,-0.1069662016590855,-0.2543870855366049,0.17440858544741758,0.106900230981372,-0.07767114581696778,-0.009371867736708964,0.11752430326382256,0.0257521198608271,0.06802819580542684,0.109859958346973,0.19781198384741466,0.20369617905172333,0.17359025162546643,0.16858127865343278,-0.07158828773352177,-0.02785843176203006,0.02699518121637298,-0.04796739911574098,-0.1744826031817358,-0.09643156876483198,-0.07082085959804948,0.12975749185900132,0.10168587218941928,-0.012905483555157513,-0.007214488876249814,-0.0763086595547202,-0.07477688141721188,0.049861846430829346,0.13897204424792844,-0.016419927285720337,0.08786080203387957,-0.03555942986073202,-0.03426567268440027,-0.04115834635724783,0.11153373670141298,0.021064007443562835,0.06665374839578932,0.03112257100450526,0.21873333106656628],[0.024271907098944792,0.2115259074770901,0.10968836638996259,0.059160601041090916,-0.04224950737739813,-0.0874798377525959,-0.010602704832708497,0.08245487941116698,0.12207559803506536,0.17548011074082592,0.04848664317003136,-0.10566377044967423,0.007271286441249761,0.004826482494559969,-0.03710832182179358,0.03696918924262571,0.05926595272339992,-0.09112427948614352,0.016031767906761155,-0.026239172447726146,-0.05902193542915756,-0.0886727039049454,-0.07726406615726103,0.05627513322316084,-0.05104738191599313,0.02338781460654444,-0.017324327411277735,0.012251187743591036,0.02566561133241816,-0.020852848518282376,0.006696834539652391,0.07368626960106157,-0.09990258345110824,-0.12413190403188956,-0.018048937015446576,-0.018586297307219612,-0.04479300570534413,0.017307608148219817,0.10244118561809155,0.000327998002201714,0.006467135179971887,-0.1022459225049749,-0.025294477732110757,-0.03444156941877695,-0.1278928232704679,-0.022149310544806594,0.014835263850125215,0.12138287707221934,0.03188295858123323,0.032470116515611644,0.009095652074956856,-0.06347866160303998,0.10606577340598457,-0.0991694513237349,-0.1638198945736264,-0.14343340117378295,-0.032182651726264416,-0.05801804456528885,0.02291614513355533,0.04015014638434972,0.1059135990465968,0.1170336117688416,0.051143184046495,0.024664034757263892,0.022331370571566023,-0.14794372876832823,-0.04622553224763706,-0.05297556705197623,0.01763335871577283,-0.08308803979537915,0.039154465132006294,0.08355877555883494,0.07437151644464061,-0.010152289765342187,0.0052220614930217485,-0.09477730846615871,-0.07107653498195644,-0.019630080815721984,-0.04040811670233907,-0.04665257173207507,-0.01262859087675526,0.026326307291913,0.057107467446696494,0.09172417840424178,-0.0027241597818778163,-0.15413869342653225,0.04417172095985869,-0.037480373466733836,-0.05858180541180702,-0.10281951751655544,-0.030064069517148434,-0.030479321832951416,0.09260783822417436,0.04494467880990302,0.04540409714496889,-0.010356704162888877,0.006004097299951078,-0.0740531500924772,-0.04177688565691491,-0.0005014536555735596,-0.03499091395166101,-0.03612566084615568,-0.04510043410920088,0.02586124884961563,-0.05321849606461524,0.012117104458325631,0.12779186353261135,-0.16438404194145712,-0.012740091450395306,0.01918508147926716,0.08477090641897354,0.019614329268121566,-0.03480721117425563,-0.0017216001979017959,0.15755321182059503,0.005374991982287608,0.03944387013558573,0.14282549594886118,-0.04793440470126041,-0.10055944078648103,0.08325739558742525],[-0.12767186993116422,-0.06241249849097049,-0.09414071614574093,-0.06479614654348836,-0.01780983423676153,-0.06909977220751642,-0.023074608267024246,-0.017483825565269805,-0.0664528454354431,-0.036871983239677726,0.24167468985862534,-0.043100584664250055,0.08879797960904616,0.07457891471218783,0.041306113766767155,