// trained with C=0.1 and epsilon=0.1
// bias approximately -1.0
var pModel = {
  "scoring": {
    "size": [ 20, 22 ], 
    "bias": 0.17020344468449602, 
    "coef": [ 0.05848669714989517, -0.001132367540481646, 0.059487846728915848, -0.025864286252220068, -0.034893374796143642, 0.025236835389183407, 0.027092341819606652, 0.044787181714074857, -0.028837908784904779, -0.077344072559906774, -0.13680728065415793, -0.10005683483554044, -0.064322379385986062, 0.015873900703005601, 0.046369632589723021, 0.037643367856084312, 0.022966447239825598, -0.031112431269228129, 0.030808498353802442, 0.053466457765253675, -0.0072409147246441305, -0.0045379549887022159, 0.022531112207594808, -0.018736829890567443, 0.0034597463505548105, -0.0088922887864219639, -0.0099571811555391673, 0.043308411834440307, 0.016094630860577969, -0.034866501267074176, -0.10222615272011541, -0.089627492760433636, -0.084605579222766986, 0.033885536158646944, 0.025220699221807981, 0.00087003990969602204, 0.015855644544387992, 0.0028814008544072126, -0.021260590977469726, 0.012539176237359896, 0.0087021206603180162, 0.0090519618559338696, -0.015941626575917175, -0.015121363089615241, -0.048734444668926034, -0.013427764063555555, 0.023969357739519533, 0.040817908105164072, 0.048818894001382854, -0.0077080974541316851, -0.071622439991277695, -0.087519969921043814, 0.0018067819705698341, 0.048489629198968591, 0.058437463886395889, 0.019777634526933322, -0.023156967313720252, -0.034654792261793819, 0.01009532850124289, 0.022011855867089709, 0.039519510732152485, 0.033955131405300015, -0.032312114876100438, -0.044468694958855713, 0.081267520951335728, 0.062042774334748751, 0.13089148816643822, 0.021599786086243349, 0.089131282422776723, -0.0065365181208788823, -0.05421785654075538, -0.035855269042028792, 0.067235696239173956, 0.079478215171031347, 0.093849132209281941, 0.094366830113061503, 0.07826242593172078, 0.042523248131947723, -0.027599880108232999, -0.029431986718149297, -0.019680882458777561, -0.036511141731236998, -0.027366394211305003, 0.0087467017425717636, 0.033388532147622954, 0.042718574184146228, 0.10118350889445266, 0.10997488407654614, 0.058402840898052408, -0.033004925531947601, -0.04796618470423171, -0.062166392578690194, 0.018815108415213666, 0.094667043414283919, 0.10295782831302369, 0.022271454896622703, 0.044600254681382095, 0.019273990635107208, -0.03026106815644812, -0.050090654140964863, 0.014017760053219717, 0.0096041311455323918, 0.028567681273063143, 0.0053425181483214429, -0.05719846498023038, -0.038249854612858708, -0.0095331251585060364, 0.012738712615241229, -0.0058526453371517424, -0.050116763497490953, -0.046196116157019615, -0.036876104675001853, -0.029217268951533468, 0.014748736263296848, -0.0041332602520099439, -0.033320072699343541, -0.025846822636761135, -0.051963299252234002, 0.00081711603136339853, -0.015001051190554365, 0.0011301089235245471, 0.019066063137576257, -0.0022538929291161811, -0.0091178902646384605, -0.042907724994028736, -0.040637244986987037, 0.007254061820657659, -0.0076715170780118982, -0.032747426047151897, -0.029545883777062406, -0.0050340231295308499, 0.013119193875201159, -0.067807871290163135, -0.024071708509841673, -0.0057753243584729623, 0.0060716840503104164, -0.030826669946017349, -0.02799750630957118, 0.0097031513334066618, 0.0080852072037647989, 0.010060106772934551, 0.0079424279399498837, -0.014762743527399223, -0.0057504611995258508, 0.005000612883521138, 0.0030806601893554608, -0.023270589195999229, -0.066615005089164112, -0.054340507180739815, -0.010857586943248334, 0.04310890338584019, 0.05653501392728983, 0.0041598862367060278, -0.063747326101813911, -0.059581622049529138, -0.014163405574312594, -0.022107165748071943, -0.0079533917042889351, 0.038596001277408191, 0.058076741848099821, 0.0018359182377631119, 0.0048387123530175546, 0.012826956156329537, 0.03812091584721379, 0.018985246215213834, -0.046836627344546918, -0.059653462705847947, -0.020240078733837711, 0.042028346764377791, 0.017074006092172571, 0.0378345031264119, 0.044030671532044693, 0.0010582623518691787, 0.019084819331753929, -0.037324113016970591, -0.072831160035631795, -0.036084247729723712, 0.010651214516064014, 0.033598564221901252, 0.033259051840144285, -0.0063428804824075908, 0.014708414398877035, -0.0026869257432523439, 0.040022331768982247, 0.0046053117973501312, -0.050828834248956414, -0.050353636094331147, -0.024415686760201415, 0.03532124036177265, 0.054002467516525238, -0.058929275790112215, -0.0094788665341080137, 0.063761392176052992, -0.0066997810892327602, -0.0046997002065330322, -0.043391919418669281, -0.019663129346428335, -0.0058453411833607003, 0.038411167370220892, 0.0047105714477614514, 0.031763051886460343, -0.0024637851616337667, -0.010408711056852895, 0.027155415326723116, 0.0051386307867615074, -0.024227641892288584, 0.0036694067007388021, -0.037451952181246882, -0.018281036179640782, -0.001113951083554646, 0.0053531323165736475, 0.014593925297715287, -0.0024478507879002482, -0.019493620473389164, -0.028905970649841552, -0.0059630332697517821, -0.023968183958688414, 0.014464533195164758, -0.019139333880870531, -0.02844100157723839, -0.0050146010962077827, -0.025016451805882814, -0.011757288270747106, 0.014528104965459192, 0.02483272123318454, -0.027116200201785207, -0.0065522589583120123, -0.016699556275560599, 0.055398481521076681, 0.015875326537020902, 0.0011833884103142431, 0.017188229793233693, 0.06040178616672115, 0.016012824303499894, -0.020080209274129325, 0.024417155553804852, 0.00088819770923970112, 0.033162286690010812, -0.013830790947994505, -0.01807312591952074, 0.0034463008893637747, 0.011360301438464622, -0.017959130638932962, 0.0010823565575310817, 0.017100826336029194, -0.02115889748704184, 0.01521041929777955, 0.019201435294793769, -0.0064940970960322125, 0.014456605056147601, -0.017817193804517233, -0.030600900917895794, -0.023287539130103334, -0.010972249522547736, 0.03284426543609098, 0.018279278445056665, 0.001025481494464707, -0.0009620560448831382, 0.0077585250100684813, 0.031698504040252297, -0.0039134438040235482, -0.010387370637964286, -0.043011980683516485, 0.02174419393673873, -0.01675221114703794, 0.016248894640326708, 0.064029688721233366, 0.0011019684419673725, -0.028441056796466677, 0.0069386534894797583, -0.038963872981571467, -0.010625354071406459, -0.0017403530113881171, -0.0097421047597496396, -0.0014228059560914491, 0.036520947639405485, 0.009722243691447972, -0.046283642617760572, -0.0052555650454774745, -0.0049999864877697218, -0.028355150034614942, 0.0017536544155127131, 0.027366005349452119, 0.04245588035157527, -0.0318070212688416, -0.032952583421366095, -0.02121278078684305, 0.031947008383274966, 0.040395551936579135, 0.031595518201192413, -0.025964215706088919, 0.027845717630848171, 0.030246978271066764, 0.030989442224198586, 0.019134306519409137, -0.012628540544437192, -0.040992010104980367, -0.018866359225772997, 0.011659586908614596, 0.041973209482533143, 0.0070647217563241035, 0.011177378015616284, -0.010791525708546055, 0.025414472662025116, -0.018957368447074366, -0.065706627673604454, -0.017826881248956278, 0.025728548656485831, 0.071613829586587935, 0.0088084630905312343, 0.019755466912144533, 0.036161423422375709, 0.037622798049898973, 0.080412023884971942, 0.00041879542907110982, -0.044213497467193517, -0.062595452254745651, 0.029978865027710775, -0.025381609494694823, -0.0072750171012475363, 0.012489474993144536, -0.025708010218244134, 0.014970475398786761, -0.00090735577216561128, 0.033254868973072962, -0.03468790386118821, -0.0089742790624176422, -0.031603235543120743, -0.00045149340791254128, -0.041548618187628325, -0.020140870974613017, -0.031887497030922154, -0.018920379978691965, -0.027328881431332573, -0.054938905157963576, -0.0049822875465781978, -0.027153509770573868, 0.046345931498939764, 0.016443396595560517, -0.003454878156306334, -0.031642172727978653, -0.041155962728968945, 0.012273937743998898, 0.0021444813789730337, 0.018427034162992274, -0.027642560734578756, 0.014764354499861833, -0.0060736320472628896, -0.00079787313221423017, 0.0055716368621570277, -0.048846293576114232, -0.041253282225638135, 0.0057093974480818613, -0.0019482910387512431, 0.017916907052151126, -0.015226306676235295, -0.019494263912366139, 0.0098648637924581596, -0.011870080386884259, 0.0027444904163551778, 0.042428586229061184, -0.0032419118597936713, 0.011484931163111254, -0.00091251142327331176, 0.032453615729239368, -0.013746756318797182, 0.0051965880281426326, -0.014264978070637396, -0.008569853236315747, 0.034558828761783511, 0.025904093585940979, 0.017883738885897092, 0.019686785026756883, -0.018650346786340845, 0.0033470352653510848, 0.0032364184303014824, -0.016790092725347944, 0.0231310201608513, -0.005045388133995363, -0.023290953319794732, 0.012368169384003071, -0.035848135686040131, -0.0021323331931472709, 0.010278159502551997, 0.038654423104674172, 0.015952423730872987, -0.0025392017109297023, 0.025485233581217483, -0.02231162650345116, 0.043146779840085039, 0.00025004913981083784, 0.019454702435144564, 0.023039155800561786, -0.042487404769205137, -0.0082824331975302409, 0.0056329550863132008, -0.0052706297749568415, 0.029862883296778105, 0.036637056787862048, -0.0061099037288174498, -0.0082244017005364285, 0.0014984824378522785, -0.017637323325441451, 0.018727425319157671, 0.020952778320635471, 0.025165607061547787, -0.014903278786733452, 0.0039809112118349543, -0.03528826067024067, -0.0070008401331676275, -0.018950617980791055, -0.012154852092949746, -0.012947648245881738, -0.058793490171119275, 0.0052622897933128094, 0.024242688673923488, -0.00794933472958953, 0.025770430084840555, 0.031998227834208533, -0.0068082721547122558, 0.011969052114866173, -0.018242955853918906, 0.033442786339974544, -0.0075797803779364984, -0.015511985795472111, 0.019277098519037042, 0.033744498077671721, 0.032948166825308552, 0.013967405933773692, -0.05289997075378005, -0.026002371989215203, -0.0072934100770107504, -0.00014238308568646947, 0.0069919146162640946, 0.044030560480178851, 0.044925828954916723, 0.018711211670852122, -0.021683433451840983, 0.0017255251700811968, 0.0064214123972561963 ]
  }, 
  "path": {
    "normal": [
      [0, 1, 2, 3, 4, 5, 6, 7, 8, 9, 10, 11, 12, 13, 14], 
      [15, 16, 17, 18], 
      [19, 20, 21, 22], 
      [23, 63, 24, 64, 25, 65, 26, 66, 23], 
      [28, 67, 29, 68, 30, 69, 31, 70, 28], 
      [34, 35, 36, 42, 37, 43, 38, 39, 40], 
      [33, 41, 62], 
      [44, 45, 46, 47, 48, 49, 50, 51, 52, 53, 54, 55, 44, 56, 57, 58, 50, 59, 60, 61, 44], 
      27, 32
    ],
    "vertices": [
      // jawline
      [1,0,23,1],
      [1,23,66,1],
      [1,2,66,1],
      [2,66,26,2],
      [2,26,35,2],
      [2,35,36,2],
      [2,36,3,2],
      [36,44,45,36],
      [3,4,44,3],
      [3,44,36,3],
      [4,44,55,4],
      [4,5,55,4],
      [5,55,54,5],
      [5,6,54,5],
      [6,53,54,6],
      [6,7,53,6],
      [7,8,53,7],
      [8,52,53,8],
      [8,9,52,8],
      [9,51,52,9],
      [9,10,51,9],
      [10,50,51,10],
      [10,11,50,10],
      [11,38,50,11],
      [11,12,38,11],
      [12,38,39,12],
      [12,31,39,12],
      [12,31,70,12],
      [12,13,70,12],
      [13,28,70,13],
      [13,14,28,13],
      // right eyebrow
      [14,15,28,14],
      [15,28,67,15],
      [15,16,67,15],
      [16,67,29,16],
      [16,17,29,16],
      [17,68,29,17],
      [17,18,68,17],
      [18,68,30,18],
      [18,30,33,18],
      // below eyes
      [30,40,69,30],
      [39,40,69,39],
      [39,31,69,39],
      [26,65,35,26],
      [34,35,65,34],
      [25,34,65,25],
      // left eyebrow
      [22,25,33,22],
      [22,25,64,22],
      [21,22,64,21],
      [21,24,64,21],
      [20,21,24,20],
      [20,24,63,20],
      [19,20,63,19],
      [19,23,63,19],
      [19,23,0,19],
      // below nose
      [36,45,46,36],
      [36,42,46,36],
      [42,37,46,42],
      [37,46,47,37],
      [46,37,47,46],
      [37,47,48,37],
      [38,48,49,38],
      [37,43,48,37],
      [43,38,48,43],
      [38,49,50,38],
      // nose region
      //[21,17,22,21],
      //[17,18,22,17],
      [22,18,33,22],
      [40,41,30,40],
      [25,33,41,25],
      [33,41,30,33],
      [25,34,41,25],
      [41,40,62,41],
      [34,41,62,34],
      [34,35,62,34],
      [35,36,62,35],
      [36,42,62,36],
      [42,37,62,42],
      [37,43,62,37],
      [43,38,62,43],
      [38,39,62,38],
      [39,40,62,39],
      // mouth
      [44,45,61,44],
      [45,46,61,45],
      [46,47,61,46],
      [47,61,60,47],
      [47,59,60,47],
      [47,48,59,47],
      [48,49,59,48],
      [49,50,59,49],
      [50,51,58,50],
      [51,52,58,51],
      [52,57,58,52],
      [52,53,57,52],
      [53,54,57,53],
      [54,56,57,54],
      [54,55,56,54],
      [44,55,56,44],
      // left eye
      [23,63,27,23],
      [63,24,27,63],
      [24,64,27,24],
      [64,25,27,64],
      [25,65,27,25],
      [65,26,27,65],
      [26,66,27,26],
      [66,23,27,66],
      // right eye
      [28,67,32,28],
      [67,29,32,67],
      [29,68,32,29],
      [68,30,32,68],
      [30,69,32,30],
      [69,31,32,69],
      [31,70,32,31],
      [28,32,70,28]
    ]
  }, 
  "patchModel": {
    "numPatches": 71, 
    "weights": [
      [ -0.016744843680552991, -0.016592381054227005, -0.0063669667348200407, -0.0073418901657607959, -0.050663002035595574, -0.011421842843879869, 0.088490892914139252, 0.0039475521957941708, -0.032308455766299808, 0.0050438691621407187, -0.019138226305678834, 0.0038188320470225906, -0.011452160677510533, -0.0050858397199950427, -0.011060743780245619, -0.008109634434359499, 0.00047078108999666526, 0.040353286802204957, -0.0053754705536832809, 0.0051671288996537647, -0.0062232068340603141, 0.013080817506486519, -0.019750159099382124, 0.003095526298511223, 0.0081893629335485149, 0.00050053923101551568, -0.037688349139723243, 0.034910727043370116, 0.034466856984256347, 0.00044509420247844898, -0.014519080149960067, -0.0044237417905081244, -0.0012063748345449549, -0.0088181918268262095, 0.0057199115827272001, -0.0034120406331450449, -0.0029847450611866517, -0.028427789650866363, 0.012264485872026479, 0.063734168053446713, -0.030489257050143881, 0.0083975026939089367, -9.5747082639886013e-05, -0.022474979017854599, 0.0086578737480124436, -0.0090616779232704746, 0.0038371512670003645, 0.014421222088263767, -0.070631303355817299, 0.052375972956472686, 0.039715635468192761, -0.026032981339871881, -0.021594793893040455, -0.0050048358310337947, -0.0014386691010358395, -0.010240061109412422, 0.0241052328645593, 0.0028174226110778107, -0.0073718311711058063, -0.029064717683518742, 0.039898957426889058, 0.038052710739819313, -0.031752313408392144, 0.01134310312837288, -0.011719739306321378, 0.0097844442917731853, -0.0096987711215411557, -0.0098192195555683835, -0.004319383291354905, -0.0071353974988289989, -0.041381435992135854, 0.073507311606316211, 0.044708859844894616, -0.050350803307977518, 0.017283008315610866, -0.015974736915335803, 0.00016834243910040375, 0.0028038140194766811, -0.0011139882945996361, 0.0067870617208918484, 0.0095095800076418595, -0.035368564465638727, 0.068870616771627161, 0.0029293249304043808, -0.025404986160315043, 0.004376842834609946, -0.00049531973214910732, 0.0072471844881717134, -0.016597502359804499, 0.0067954362606981681, -0.013445800766754338, -0.0030506425826629289, -0.016036467861326658, 0.065915363019020387, -0.00044977571260984735, -0.032919676436387039, 0.0011650956511496196, -0.012109735062182181, -0.011903401207635953, 0.0047072528626092101, -0.002753475806638735, 0.023777177950459288, -0.01883429771578379, -0.0020561981838989134, 0.044680297090730126, 0.0072070187547215742, -0.018281313711866462, 0.0018520028867991321, -0.010630740870179489, -0.012970132153997851, -0.023124401949645074, 0.012542278983838213, -0.022084436789199538, 0.0034066327292766384, 0.0087506149491345456, 0.088804181020204112, -0.023474401039462335, -0.035952780545886083, -0.033487713713643688, -0.001704682611456421, -0.033894758401778614 ],
      [ -0.032451899709383364, 0.006688715013490356, 0.0034870817526433933, 0.003174940317213909, -0.01251961741255214, 0.0071626075075223068, 0.080286326100150879, -0.010343379950339088, -0.036838074597977846, 0.011755131212564298, -0.024941204010538079, 0.0079771332804716294, 0.0048912825443114174, -0.018552699174628567, -0.0098594553958361447, -0.001065019332912873, 0.0073265021448333852, 0.015388429697047235, -0.0085560849832637953, -0.0063364338770254131, 0.01509241604129137, -0.0070358335944103109, -0.0077313904708766895, 0.005226503922294996, 0.014275956536617743, 0.0061166953084359973, -0.028602423475325652, 0.013644362423253655, 0.034067296404585223, -0.010414179001764903, -0.0054473744885731243, -0.011368337904209921, -0.0072026770557327702, -0.0014666480912578495, -0.00041882243193470947, 0.012414488860690687, -0.013018380240437728, -0.011189167217518822, 0.0065616847295370123, 0.052329496194386052, -0.035292806490148945, 0.0091143475671408708, -0.014639452633066624, -0.0040582717570349161, -0.0019280317194780017, -0.0050296497365126744, -0.019024455053723896, 0.022542148082068225, -0.020022142893160396, 0.026080285932331013, 0.0099477803023865635, 0.0017860327281319158, -0.010630960646059938, -0.0096589817120067631, 0.0080499624526941607, -0.0098925393374806707, 0.023501301068038612, 0.020153494766954706, -0.018838280476128486, -0.031700768225172614, 0.0077841388745732848, 0.032592762850964463, -0.024828677653965677, -0.0060462840387444233, -0.0010839822194393806, -0.0033263622921016686, -0.010616316058369261, 0.0018691567047445356, -0.023666620088886148, 0.042072017827426825, -0.044204132371738154, 0.022609126564840293, 0.0084916035099907999, -0.00749866529516581, 0.0058291763235126942, -0.0058083720103934491, -0.034288594094526975, -0.0033789423569742048, -0.0093135074287843071, 0.022573946232826367, -0.020807497068360398, -0.0085640101386513234, -0.0019739549917025395, 0.035996854741093098, -0.010287101010491472, -0.010868923602428941, 0.0071562095906935845, -0.010232497480739872, -0.011397573936365712, -0.0065700106474947395, 0.0038598405321476001, -0.0045230040281757644, 0.0024998032530832645, 0.0035429688038651763, 0.028399444397398943, -0.013455459993115758, -0.012495151098746604, 0.010821556735189038, -0.018434198474355633, 0.014607008133906195, 0.010495292102780742, -0.012907924919473738, 0.010406114879566494, 0.0038468406624754935, -0.0069894186464573016, 0.019660769618945625, -0.0063227640704697219, -0.0066079152026028293, -0.0049311343123513568, -0.00076771278181300695, -0.032575341289593607, 0.0040865313465352354, -0.0087739150746627831, 0.0080078980799237719, -0.018058636429093243, -0.010241258379978649, 0.05084843414122249, 0.0044863452446560065, -0.022917704297304435, -0.0046854389460740387, -0.029318565221160178 ],
      [ -0.014307055831851351, 0.0060014912931150386, -0.010104377337210122, -0.019002639129125011, 0.046326337488996845, 0.0055549230738197227, 0.0051718951337162179, -0.010359479156171247, -0.020153441528123331, 0.0043280003716641563, -0.028300566135071835, -0.0055297026570040875, 0.0097875870676752685, 0.00078693200477314429, -0.023739683207240056, 0.0041957396254157092, 0.027122695173447984, -0.015253909088986384, -0.010304719705685875, 0.012998614498935995, -0.01330189299211948, 0.0090490249606477169, -0.0047507818266077223, -0.024413408287541662, 0.0058709665573279529, -0.0081677022507123109, 0.013156522249255804, 0.021957085538985101, -0.019954296309126533, 0.001037976595565062, -0.0092286625770311628, -0.0016440732432604702, -0.012204216281746304, -0.025768433421656377, 0.026799332620201309, 0.00082764633452632463, -0.02639600407327064, -0.011360402558776394, 0.03284255711094939, -0.020620427978497849, 0.0064146758806166906, -0.0083252860794950315, 0.0044845563465310181, 0.0030524590896423868, -0.0046088496981568361, 0.0024215040051314973, 0.0038604633550827321, -0.015577610679474148, -0.02832602160845215, 0.042855989105889135, -0.0038456661460303729, -0.028033419782237452, 0.0037720646954368438, -0.0084423436704853926, -0.0086668931833662338, -0.0036640979823679559, -0.0068547153011461609, 0.017912149469946466, 0.0055433450389252084, -0.012422502645906379, 0.031083201560593826, -0.0021404938268111684, -0.011462668609942245, -0.013613702103201668, 0.010969220131524501, -0.0092018454309019324, -0.010970053268604688, -0.0041130838440871786, -0.0065888095486337991, 0.02021648205284144, 0.008050714628277382, 0.031149076644294879, 0.033179839120455912, -0.041631197527574215, -0.0017090183040453649, -0.0065233827945143791, -0.015066519202056518, -0.0063001165023434183, 0.008255988854617681, -0.0040394472415333366, -0.010514979716742229, -0.0041831084308352195, 0.01263374699571853, 0.051234217576398296, -0.03327853002702659, -0.001771457727779667, -0.019479017982110901, 0.0016917535342393861, -0.0053422362815694555, 0.0026919983718278126, -0.0052262441556683789, 0.011134547440741223, -0.044448925144708232, -6.5359496821050522e-05, 0.059477719060574148, 0.015999491694732484, -0.040083037499838957, 0.0035135260944246932, -0.017663265711791304, -0.018123020668643748, 0.010443731385686224, 0.0052125687591670113, 0.0087616791504379482, -0.038764383394412058, -0.0031297680645488921, 0.055193177714721306, -0.0076602995346537819, -0.013690489759020284, -0.0015918172791378679, -0.0068847922342598344, -0.035647157773011362, -0.016540132620572027, -0.023434927199103374, -0.021143415617770188, -0.027847636807548475, -0.090227074820586367, 0.061984943941184069, 0.083056847185460414, -0.010608100051911866, -0.015411083012590081, -0.032795736613897272 ],
      [ -0.0010331725746629272, -0.019241553238333667, -0.042238875209259348, 0.080394274807154872, 0.086072279569751053, -0.039056453431784099, -0.052082082558347433, -0.0053025147929400343, -0.022042936281450889, 0.0029491145067432542, -0.014936358037105558, -0.019761555091773256, 0.010980208742675475, -0.018353372213287138, -0.025496627639979702, 0.03712196490495491, 0.047925880372485859, -0.053510942979769688, 0.020400956936760237, -0.0085484371041550725, -0.012751588085437006, 0.0026836510065428379, -0.0039931432127981031, -0.0010841726187178213, 0.00025557684328236796, -0.034573261977573232, 0.074652514181188484, 0.01675176423344435, -0.027073227977338972, -0.02245048825568707, -0.0050621818614678613, -0.013802451463116133, -0.010085131706225561, -0.010720751719191006, -0.015807561026811474, 0.017318404260026399, -0.053243905960027434, 0.016813545040934283, 0.10705834553975907, -0.065657843796602472, -0.012280887327626278, 0.012023909995558718, 0.0043111843460475439, -0.013393279078356746, -0.0014731295639780068, -0.00049404529271865338, -0.016022634715370368, -0.016922463079313305, -0.014562067653445532, 0.077130156352997845, 0.0052114430019233812, -0.030881542753024634, -0.014132844624222922, 0.0046074960391335809, -0.010578206257469053, -0.024692055854374159, 0.0077459198482932243, 0.0040125211558753593, -0.019036607500800662, -0.056385999821297397, 0.071500023449923747, 0.046150672892459298, -0.034879567455592786, -0.010245126996298787, -0.010552515295824405, 0.004148837940767508, 0.0029100221909466317, -0.0080759567961378453, 0.0019785545021917261, 0.0022239235036093426, -0.052489079540688113, 0.023423353353143158, 0.074015246211539598, -0.024871946734807956, -0.0041160142045077591, -0.004460809792059664, -0.008331522942505637, -0.011871365302286437, 0.014883135871741502, -0.01976448462468431, 0.010984484532404894, -0.015845472408141027, -0.015431392444798245, 0.068114413996928941, 0.013415173667404523, -0.030224692115444866, 0.0018076298157949366, -0.022688558977107948, 0.0024645682953901814, -0.023642955358846234, -0.0011955706412065618, -0.0046573304096000218, -0.010317630929286691, -0.052498149249045875, 0.058545512478524991, 0.037186283088142133, -0.0088721911313113608, -0.011269261968629637, 0.0022061028200692917, -0.021853649475468723, 0.0016943586060883947, 0.014387829394004528, -0.009278419512650191, 0.0066662883321648436, -0.026764844978825503, -0.016959186553748139, 0.074279760729565644, 0.0023186934246663873, -0.018645697682281068, -0.019849724527250062, 0.0019168802114804453, -0.018979993921422467, -0.01888922902847355, -0.00074491366568149066, -0.03251409234404537, -0.019039342139500155, -0.037575207363777959, 0.021937576049564519, 0.050270473725169143, 0.027193805901151641, -0.014706558771559991 ],
      [ -0.04232851164105704, 0.0033762867111284678, 0.072673415978973227, 0.03818246357288653, -0.034255606329846103, -0.025709724172742639, -0.044483806928997997, -0.0018173706272768377, -0.0080647272296920699, 0.0026015562764911699, -0.0076339354406204504, 0.02196318123134558, -0.036475708454150144, -0.010589469849315525, 0.060067227357591152, 0.018707224573152652, -0.028699233119413393, -0.0019334782463015926, -0.016327168209275402, 0.005323765626603953, -0.0011795941230418458, -0.0081000468507661169, -0.011231084068042855, 0.010538990761690067, -0.043648608221512335, 0.022418970237668798, 0.067179054905146016, -0.0058193233480738453, -0.034399180664410459, -0.0010872498041916787, -0.0041616976462968899, -0.0030572039190948086, -0.0012820996342109807, -0.0085909207110808454, 0.0077456662781225996, -0.020873446355763031, -0.032280019649724899, 0.045552620249169125, 0.050200403787076492, -0.011849967041763665, -0.029892970200986239, -0.0042542995379157983, 0.0050857119872157464, -0.024645022941692081, -0.018599617824952806, 0.0018905252221184331, 0.020212995832868411, -0.054934049853208947, 0.019261075436026204, 0.059010569859151263, -0.00070304532525061053, -0.0052129142622707736, -0.018050746984283141, -0.0022130411522810964, -0.019240449105699886, 0.00086155059950593881, 0.00067983436525146583, -0.021407161145101983, 0.013103077425417674, -0.0492420062542306, 0.05387061208272835, 0.0084785940180604133, 0.019237053065002147, -0.024871101813123356, 0.0054753175898865237, -0.0046296564307976764, -0.010578934539578793, -0.0042802237119449488, 0.012621293414499492, -0.015599770532562644, -0.018021223908691871, -0.03261584607810708, 0.083565091581774109, -0.031727446526262131, 0.023463917068554895, -0.022265099203538467, 0.0032993255368698061, -0.0053804510168011287, 0.0064358754458485306, -0.010443761729183737, -0.0034054940409510544, -0.0073792090943482118, -0.016683681995095512, 0.013966693271941586, 0.030853331321120399, -0.0093338630418430147, 0.011478391942879524, -0.019594858521833299, 0.014760902854039783, -0.0029439406155061815, -0.03493069971846452, 0.0096919266488317106, -0.0056720329020139952, -0.033001949013191374, -0.0059700441095397088, 0.032825862031309744, -0.0033690114958751073, 0.0010572481027075031, 0.013384806050491995, -0.0099259919566079963, -0.0076586072748968574, 0.023863447215797896, -0.00039984923607555984, -0.015162047379139187, -0.0070690175100567836, -0.015774741789670442, 0.016897496875070014, 0.037719154206683952, -0.0039837722557392041, -0.0086682850765876906, -0.021550029953372806, 0.0059910594705923402, -0.0072280929802094104, -0.0020206503152427812, -0.0034678137842301935, 0.01080039471446537, -0.045573550860506372, -0.023689595027526333, -0.00045271209181619519, 0.026527620635757553, 0.0039058290198022787 ],
      [ 0.00025082016687340525, 0.00019936656937454711, 0.00029759995451330738, -0.00036360879259944036, -0.00020127567010264929, -0.00016836102616019666, -0.00022466337918654775, -1.8377977220778595e-05, -5.2665542187540324e-06, 3.1926690306795415e-05, -0.000193434408097614, -0.00020270722556798947, 0.00013450492312229529, 7.2173548536716065e-05, 0.00036733466495157951, -0.00031412235479497732, -0.00023847347154450386, 0.00032348354429796754, -0.00029232839020225268, 6.2892472596006092e-05, -3.0889896981119773e-05, 0.00015619656468698461, -0.00013238221041644391, 4.7219758469531603e-05, 5.7479705147736937e-05, 0.00028165246245252784, 0.00022981326716750591, -8.6424968536102324e-05, -0.00032035615059301998, 0.00019309310614420102, -6.5638689167731736e-05, 3.0084587192023078e-06, -0.00017305145868087477, 6.727975580655702e-05, -0.00038641709290627735, 5.4401797469589276e-05, -0.00013132581658226519, 0.00045613328366694199, 0.00015803736715772442, 5.6131665093779125e-05, -0.00055870728088941652, 0.0002774176640680285, -0.00030566068265126562, 0.00039765634554068854, -0.00031425309285986082, 0.00032091952222053377, -0.00072027053591557631, 0.00017383352274011595, 7.8721269651282715e-05, 0.00029629414837008771, -8.4204261528231202e-06, 0.00044553996993013101, -0.0004023175184915223, 0.00018408259360775956, -0.00033710633546834776, 9.1026651840353333e-05, -0.00031302066083123149, 0.0004043302240650907, -0.00055528453950058675, -0.00019709226085645761, 0.0003608561924177799, -4.5882123673741738e-05, -0.00010110407024803367, 0.00040490515176898188, 1.9761151703893143e-06, 0.00020363209073639049, 8.0524254592469072e-05, 4.3848185890688785e-05, -4.8077019264335252e-05, 1.7602684646204074e-05, -5.5317956487278675e-05, -0.00021330595820248413, 0.0004515753210984078, -0.00016028604492545332, -0.00021385021563086052, 0.00025525349238563491, 1.1001623711017751e-05, 3.6137863629708908e-05, -0.00017476342752387994, 0.00023506118827133006, 4.7647844581079166e-05, -0.000387591053718461, 8.4682854202679659e-05, -1.5138664567445904e-05, 0.00034461174728059242, -9.26897496434898e-06, -0.00027362245711135924, 0.00016089536980255851, -8.4530585736373364e-05, 0.00022773418378185483, -0.00030329431686797014, 0.00018564787044109948, -3.0470216295471657e-06, -0.00037335375617025173, 0.00030818714646871809, -6.3964816956970321e-05, 0.00032862428992528405, 6.5762241967501481e-05, -0.00019966565846865698, 0.00013493184959967861, -0.00027650701882874195, 0.00024630829176647642, -0.00039126543107844178, 0.00032580453744114168, -4.9437162634839963e-05, -0.00033199254684115984, 0.00026056372167757914, -6.6003659064265251e-05, 3.1975226258374373e-05, 0.00019420879318496212, -9.7555243238251518e-05, 0.00013428671067008461, -0.00026068934918063263, 0.00010271456892832774, -0.00023075537341530694, 1.5244675888342722e-05, 5.8150896086617435e-05, -0.00023457179259412666, 2.9185314741119773e-05, 0.00017204649020328229, -1.1899521177052557e-05 ],
      [ -0.00010488044158721462, 0.00056496919001988721, 8.4300520016185321e-05, -7.015291595497547e-05, 0.00014955814394980449, -0.00024276203554556702, -2.6823592641528338e-05, -8.2408345664662652e-05, -5.7476882651071037e-05, -4.5530567469448391e-06, -0.00026910356063519075, 0.00032433330879122133, -0.00021843821084478049, 0.00013885066413531211, 0.00033027091140742926, 4.4502311231514602e-05, 0.0001786828015707953, -7.529540718831558e-05, -4.1492305539664494e-05, 2.4655454842318486e-05, -0.00015100977013688321, 0.00016532227947446514, -0.00018615843785490583, -0.00010965433527064701, -7.9285706205314832e-05, 0.00035922717141675942, 0.00028646472220436592, -0.00023819651423527544, 0.00016472562135803892, 7.0648157471302903e-05, 2.3708813637234732e-05, 7.3399901010568706e-05, -0.00024953177507990726, -0.00019944824273227923, 7.2414087246841508e-06, 7.6951836495996184e-05, -2.7331014409513743e-05, 0.000287773484186956, 0.00057676475789147225, -0.00015182496454145544, -3.2394643521404393e-05, 2.6578603123907779e-05, -6.4816802967895826e-05, 0.00029953152902565533, -0.00039819310517352161, -8.9293371435678059e-06, -3.9920814324675979e-05, -0.0003478248647644528, -0.00018004549682258241, 8.5822926571485492e-05, 0.00040693463690950893, 0.00045409500370156147, 0.00015669947871777695, 0.00024796504785455642, 9.367924133478478e-05, 0.00014647129166175249, -0.00039081798766957276, 0.00035559508682397878, -0.0001165910018830589, -9.4626059109133222e-05, -0.00020673855161480043, -9.0945952029602983e-05, -0.00013953814030050193, 0.00013978424769908737, 0.00077339652148195395, 0.00045878887123943987, -0.00028273235266206009, 0.000143641432168988, -0.00026603761183112418, -2.0602085222098249e-07, -0.00023578909271110456, 0.0002998026183784956, 0.00012871534274813776, 0.00031991948654632157, -0.00022027023782972971, -0.00080669289377314352, 0.00043349629930519717, 0.00041936115200065516, -0.00054473497876898758, -0.00024775819908216985, 0.00011038064297713506, 0.000101922560991086, -0.00053200633915133464, -0.0003629429883541483, 0.00039393311728089394, 0.00052541011623704649, 0.00077607815638786048, -0.0006247180183871423, -0.00056936282363490021, -5.017291209551307e-05, 0.00071881385844129331, -0.00044964948402320942, 0.00033628376704109095, -0.00042719991438271176, 2.4529238453137005e-05, -0.00051222208422834533, -0.00056675312412206996, 0.00013992688080834842, 0.00058141835068793724, 0.00018271212416899607, -0.00019680379634100242, -0.00026950688609667789, 0.00028703898595498767, -0.00029633848434722221, 0.00079693493502743656, -3.1122755769413812e-05, 0.00014553550841424844, 0.00012408627996415844, -0.00047111536427758144, -0.00013863620021744433, -0.00012168066366757824, 0.0002451890790537356, -0.00015804662889915, -0.00020697095061797399, 0.0002367738858945409, -0.00031786711520618433, -0.00017191275454645633, 1.9456944849728132e-05, -0.00020578557603436083, 0.00011203027678101385, -0.00026062205946120881 ],
      [ 0.0013450408208376312, -0.0049248595787388886, -0.0082144231895838003, 0.00074225862519050763, -0.0071355316530615446, -0.022061536748704778, 0.0028944076037328787, -0.0030761180090377177, -0.0043186242322372365, -0.012487436775585364, 0.0042014477126189886, 0.020431610447166026, 0.00308456915470765, -0.0056288706191118341, 0.0027912096176797071, 0.013075846094345664, 0.0043030532953785691, -0.014886650273851429, 0.0066507190674342511, 0.010362477252062935, 0.0096178803634702492, 0.011895707867309591, 0.014832246445588219, 0.0099375224159876062, 0.0099872378495962227, 0.0041778905813525738, -0.005722096320098782, 0.005429196855709255, 0.010920101535397658, -0.010067198402420666, 0.012447053453378792, -0.0095342075455159686, 0.025879702582419326, 0.040889233319830916, 0.025264478679646041, 0.025601759667445757, 0.0015947856875852386, 0.015985898311339581, 0.0059125363047083327, 0.017359790836959321, -0.00049752027142909697, 0.019607465560289021, 0.034856680819300136, 0.034841160233229883, -0.0054678493278372473, 0.019488066019667197, 0.0030293081524032845, 0.012252710477226789, 0.029182172723720465, 0.030426658470216091, -0.00074171248135374631, 0.028357665783313661, 0.02359695775371265, 0.0074368076430198719, -0.0049107914277150061, -0.014569153115377452, -0.0079727565930153114, 0.006640637074459145, -4.4909582182957319e-05, -0.0083984197888361672, -0.019688770589556433, -0.0031791118570844903, -0.015322823334990141, -0.0024130163741699229, -0.0029865304339954011, 0.0021993848554282486, -0.025649642261146591, -0.0048496547029082742, -0.014863107669774422, 0.012911991854916659, 0.02160605465976664, 0.0097802525158706688, 0.016075202911669868, 0.011262032320620168, 0.0049503272474519643, -0.016685233070580344, -0.033352126589535819, 0.0027860124688755981, -0.0069029796426544306, 0.0030359211308285802, -0.0066196720496016223, -0.019285918765438212, -0.0079388275926072054, -0.01209801285896288, -0.0031216144290139342, -0.014521421867749526, 0.011529881260089596, 0.0073245152230142366, -0.011107443148091176, -0.0075866202709889904, -0.0093207913696065382, 0.0016467995186787224, 0.029039139211161975, -0.0080200771697573753, 0.0095150927439422491, 0.004308308136231705, 0.0010539226387778072, 0.0060440216364800754, -0.024535792631003656, 5.8483268042560169e-05, 0.013100475806304759, -0.013736197104294658, 0.0058770363698370798, -0.015092887661013714, 0.012215201148732646, -0.0018604128634680324, 0.0013638325268981368, -0.013608879770589206, 0.0049470021148886982, 0.014895313417708283, -0.013542890564956493, -0.012902006285129381, 0.0009088245271422421, 0.0032573990316977341, -0.0024427864987388351, -0.0087188064105970728, -0.0029306639937470712, -0.011406893210989914, 0.0017067870513270084, -0.0058741684641304606, -0.029255440805914357 ],
      [ -0.00075013496600453977, -0.00012905398482578045, -0.00028207209334036448, 0.00027835480366644738, -0.00074319553851949494, -0.00010384134445071136, -0.00040484845043321088, 0.00053667893471903011, 0.00068125561000809826, -0.00035885519856902921, 0.00045043194285480925, 2.4550586026420018e-05, 0.00031442930374334099, -5.7932710747159166e-05, -0.00027003557925751875, 0.00019042043372456685, -0.00022120569691355674, 0.00042238090278322316, 0.00036019533001713233, 0.00070070385836535493, -0.00017378946801372558, 0.00022699988989507286, -4.5798146177382371e-05, 3.7038785396441981e-05, -0.00056030998567122015, 0.00036941991294717896, -0.00021283274852092714, 1.7040672681795099e-05, 0.00014398855872679167, 0.00088740750034046675, -0.00045709372227316358, 0.00094202183980285348, -0.00044890471398990189, 0.00019558158674529494, 7.6489702387459724e-05, 0.00053181601284957303, -0.00056822902173450651, 0.00043246683798391777, 0.00039718894121962278, 0.0008505250247804047, 0.00026217998933004277, -4.9106209786889399e-06, 0.00030668072968077775, -0.0007616805060267906, 0.00072218672787411828, -7.3576516980186635e-05, 6.5496770819226113e-05, 0.0014640459027229283, -7.7353661130638574e-05, 0.00098441308952181006, -0.00011177706683548894, -0.00026910299261419246, 1.2066817317371581e-06, -0.00061853542877949447, -0.00071983436963139052, 0.0013076999486265478, 0.00059487401816341046, 0.0011273197182557482, -0.00030598428773739861, 6.7419458718312453e-05, -0.00023720913279771938, 0.00028845018335749845, -0.00036366487436447631, -0.0003975919343609316, -0.00022526105612902247, 0.00015961621412064614, 0.00037249614675326226, -0.00021998326230011217, -0.0011797807918226336, 2.3998937460514499e-05, 0.00067438261979588243, 0.0004886074442188304, -0.00048320298286548546, -8.0552810522594581e-05, -0.00062104698331375691, 0.00072268395282719389, -0.0005684392250714515, -0.00052402163528799187, -0.00012055634041413521, 0.0016300879450548214, 0.00082755647241902763, 0.00026095491331012272, -0.0005891926943865089, -0.0012687938361086067, 6.0935680301441725e-06, 0.00056695932044998482, -0.00061684424032729113, 3.6975972261890644e-06, 0.00050106403175455283, 0.00056027865489698819, -0.00046345386112540965, -0.00098227296862147574, -0.0010795093423091179, -0.00041107538436968745, 0.00034447204495274136, 0.00056342665544004134, -0.00087304432919430713, 7.8005523879001726e-05, 8.2170678274276487e-05, 0.00034489750344394304, -0.00068715990016615658, 4.8518601712156662e-05, -0.00034868058604262467, 0.0010048052457046208, 0.00014266690913422586, -0.0002989269630918126, -4.723928148215456e-05, 0.00025581127108649233, 0.00015986940723469734, 2.212856441223543e-05, -0.00028954413643481405, -6.2428982966905577e-05, -0.00025147344030518153, -0.00023998686576257727, -0.00053771643832191407, -0.00034041808125087614, 0.00045177055600572648, -0.00034377153386228043, -0.00016289056266547905, 0.00012196437926753276, -0.00060666033295597721 ],
      [ -0.00013232277158173192, 4.7473587137076721e-05, 1.0075475343676761e-05, 0.0001327140666345691, -0.00064197614769550149, 0.00029707808376619352, -0.0004382892992143302, -6.0402590672829532e-05, -0.00013155248821851017, 0.00013773013849228966, 0.00014815334308993823, 4.2562208833049273e-06, -0.00011299612831384932, 0.00014671619079386277, -0.00027857424584891324, 0.00050988210324804382, -0.0004675588249830932, 6.4070872740911496e-05, -7.3407311012118996e-06, 0.00044864294694607642, 3.3139990568820067e-05, -0.00012293605316840038, 1.0102796143776887e-05, 0.00011789173076677453, -0.00016407889597348617, 0.00032918359466636805, -0.00051558420351436609, 0.00011722432807840166, -0.00029201578026344594, 0.0005219341337998353, 4.5587242610650681e-05, 0.00017671815367202625, -0.0003116804346817853, 0.00012178908767234982, -0.00031798839503676627, 7.065864009234851e-05, -0.00014809587900542259, -6.2187467634344557e-05, -0.0001616138453808079, 0.00060853612270700885, -5.5521602057959259e-05, 0.00014084199726286219, -0.00053495877543056859, 0.00027267217050176012, -9.8069543231122302e-05, 0.00034635111197936388, -0.00010676774081113066, 9.1270324838568003e-05, 0.00017947900385679874, 0.00020040370687101662, -0.00021954427344782136, 0.00031552171525043833, -0.00065030965442278784, 0.00039586997457886604, -0.00025044619341103164, 0.00013194988717626097, -6.9100489508557169e-05, 8.526549704014532e-05, 0.00011570370608614136, -0.00012754397956649902, 0.00010778116594912547, 0.00029632298091623345, -0.00055018953208741143, 0.00026478487617202947, -0.00021789966782622848, 3.8429235863668421e-05, 3.6741399644465598e-05, 5.6398801427172277e-05, -9.2221029170694475e-05, -8.7374143564822662e-06, -6.8259128908823921e-05, 0.00037101501418871675, -0.00026339392677697179, 8.3222720716911048e-05, -0.00012884220892823463, 7.2095956063383294e-06, -5.0588132345653165e-05, 0.00019688669755938272, -0.00027527589815570797, -6.5056979090373957e-05, -7.682537309659722e-05, 0.00055082274620175324, -0.00035033703729860967, -3.8576650263091872e-05, -0.00024538008888126813, 0.00037149902189489471, -0.00028513252716436946, 0.00012679489622710073, -0.00024719360576477855, 7.0209667938430048e-05, 0.00014327442690331899, 9.3328949840103216e-05, -0.00032495518010970605, 0.00020360640174166321, -0.00028105444442743798, 0.00031531106587182121, -0.00041721813141523516, 0.00020244729972830394, -2.2858929969536658e-05, 9.3918229138381572e-05, 7.1571477054855779e-05, 0.00010796156217130262, -0.00011468478008793597, 4.4510848686669328e-06, -0.00023749290716257006, 0.00022349824409299054, -7.5821314674253131e-05, -4.4031042383696961e-05, 5.2149220498122397e-05, -0.00014608938889375776, 0.00013290198349044614, 8.6938879692287276e-05, -0.00013845475036811192, -0.00012502894281240162, -1.5091950800439312e-06, 4.5778923389725584e-05, -0.00010415969253465629, -9.0835652084712772e-05, -1.4803922308961057e-05, 5.7071435536146329e-05, -0.00016977155519557374 ],
      [ 0.0080708735834931419, 0.0026892934950461106, -0.0091420828108933587, -0.0034250669188929193, -0.032790755500843823, -0.03380848869230213, -0.03081133597090769, 0.01673631822945177, 0.071470415851069946, 0.031012041463624684, -0.042044754879512654, -0.014148041234228116, 0.00018861822527472399, -0.003191840376816836, -0.013471793511436132, -0.0088049581294145224, -0.019496093535259724, -0.00434070740016676, 0.05615994245199156, 0.0024665366101394477, -0.025422380946338564, -0.0052691796843077135, 0.0081075266564396634, 0.0041328096690298119, -0.0078357106533922319, 0.021623874057534131, -0.043528749656777187, -0.014726679987666386, 0.030225491510552184, 0.056355123841234131, -0.024163675981703527, -0.026095902932104266, -0.0009194705516783544, -0.03363403828804188, -0.0012884123912264983, -0.006319096994421191, -0.02274386418407031, -0.016579345438544269, 0.023880068458542784, 0.076478142835718466, -0.010897705207256018, -0.04392760228779416, 0.032438688075010463, -0.017395331755285612, 0.0085623377185035932, -0.038465830030259406, 0.0040041014728118968, -0.019085377434379824, -0.0043577267163767419, 0.049877424679745597, 0.032016381343813155, -0.048476984900644206, -0.0044277771905098101, -0.0037427614950314575, 0.0062071029588365995, -0.029467481219856512, 0.0084037426659386433, 0.00032168448543198197, 0.0052952316815814589, -0.0016660501322813132, 0.054885494462980175, -0.021431685197000963, -0.033942985900877007, 0.006612937628872155, 0.00052915393726075954, -0.010339748629954459, -0.0056104045469044239, -0.0086429398175203245, 0.0065951994560299043, -0.0070540182152082631, 0.043160989423851132, 0.025414474112794124, -0.038240118223539968, 0.011338497254718749, -0.01367459422809722, -0.0039736466306312945, -0.012157608349037858, -0.017257471320622886, 0.020150526619926307, -0.0015280476101678236, -0.00050444418793098994, 0.031788630570262308, -0.003117312208483318, -0.020017161064131005, -0.0063124706512077411, 0.0020808688749013454, 0.011100661337829609, -0.0031916549699225055, 0.024000088000251163, -0.0023920811062174141, -0.040834456274721667, 0.039230910053712598, 0.035833190198356901, -0.04095253017986613, -0.020933497596872516, 0.012970402371613246, -0.0098373485503352245, -0.0091073262329428445, 4.990076498603141e-05, 0.0042013855979556869, -0.034836852284199915, 0.045599599680074335, 0.038024047562868826, -0.035224996762818886, -0.001279385782898379, -0.0089397451756346533, 0.0033296147573832167, -0.0080157126461483444, -0.0017306423486848216, 0.0020135971844697786, -0.020005143492662726, 0.041822143235837758, 0.021330630053521593, -0.029858118315990209, -0.0321818745049018, -0.0068544565533794483, 9.3822299813632604e-05, -0.0064870605473557469, -0.0061317201491919299, 0.014363321836396326, -0.023554694027286917 ],
      [ -0.022760182018439712, 0.0041959249989668296, -0.01788381876003281, 0.0021830770317390752, -0.047911460911155244, -0.060314990874740695, 0.0798043613065096, 0.086205501555869785, -0.040776225966901856, 0.0017461646867444336, -0.0067045098853523305, -0.0056374104437648537, -0.015343519048188183, 0.0029761970652168318, -0.012388673630603614, -0.021667140390262435, -0.016687105455246529, 0.071312356195003354, 0.011108308512350756, -0.041419670687292007, 0.0046567526730585881, -0.023304594984388527, -0.0042174520529164455, 0.013469045992429984, -0.027784455651089474, 0.014674730185857729, -0.043853824517165921, 0.012214948993802932, 0.058777185639551519, -0.03681345722718822, -0.0021256362937577405, 0.0012308807388845128, -0.0022568747524459032, 0.0047061772006218444, -0.024259576607367883, 0.0083317037071661826, -0.0095220068330527097, -0.037814809035956604, 0.053827609668705076, 0.051569036588798842, -0.047928729233638716, 0.011652708837949284, -0.017461110542287987, 0.00057880788330793437, -0.0032307236275756906, -0.0045281530987985666, -0.010704499926662399, -0.018853777985828116, -0.03822481828918587, 0.093413204165246011, 0.017642646070466665, -0.059822447337215159, -0.015549353770628237, 0.015586873416977017, -0.015671536917404666, -0.012474747511902348, 0.0043858064876299147, -0.0092819592047587024, -0.010290743625816723, -0.001256892091049816, 0.068217198260855136, -0.017432706572935469, -0.024243517965935761, 0.0039752650715810939, -0.014611932477354771, 0.00011620059856594367, -0.0041068101495903495, 0.0014392014663845987, -0.011648888581239795, -0.029617507859637869, 0.037476324084784435, 0.074856818458532468, -0.058865365877303996, 0.0092266743923783284, -0.019186542342735844, 0.012854467845255492, -0.0040962736923179505, -0.0021451701233248383, -0.025163913046689371, 0.0073118075660446868, -0.047982399107319121, 0.10112432994637886, -0.00078689756885536033, -0.023803056523995295, -0.0025295498949770151, -0.003599124702128649, -0.012242641669877485, -0.012806450602014331, -0.0073367664629393065, -0.011226835596211307, -0.017128788011874146, 0.025561627271612944, 0.06721253319995367, -0.025702251142690632, -0.045469096888075544, 0.0062058657435806047, -0.0030839650788029305, 0.017411841471221483, -0.0049690859399446757, -0.011133450888721377, 0.0013436552467389756, -0.018184646731601348, 0.036803304229386227, 0.034188930844091067, -0.027499199732008303, -0.0091184545544438084, -0.00029207207303544314, 0.002078881510992267, -0.0093724087166338205, -0.011018950491865936, -0.018022972082797586, -0.0073343508574653521, 0.041987239404380053, 0.067457341651992728, -0.020217106436160939, -0.074588831199405736, 0.0177007845192549, -0.026552479517523857, -0.0064122662649254425, -0.0087722659239810041, -0.013129504566428377 ],
      [ -0.029839552296931526, 0.012813667962992251, -0.020428960899726283, -0.0077980817130650464, -0.010726954290031338, 0.0075430065446274166, 0.048953374688528312, -0.0084684585667029293, -0.008219245514860675, -0.0048047372060986138, -0.0029013063127803912, 0.011397169799416507, -0.025609145551953774, -0.002768630983548204, -0.0049180093771618305, -0.0096766471448661712, 0.015326030481233986, 0.0079458114467114288, 0.0091577606979155492, -0.037844789457207352, 0.030927772738214718, -0.019007926265944844, -0.012395158297311045, 0.015833845930616052, -0.018314422816061, -0.010131607849176282, -8.8218743337609173e-05, 0.010728459607896477, 0.02086898508089035, -0.021040515464407133, 0.012752252469033235, -0.011624476186510913, -0.019083089660898077, -0.0050864876616968438, -0.019325096873427879, 0.022057279681910513, 0.0018739894084535691, -0.018460244578567306, 0.0075643377372965198, 0.035764690403126236, -0.047724966545526312, 0.011196146239215818, -0.0033239772607479984, -0.00029728411360151197, 0.0028651590919269733, -0.0032779489587018542, -0.017473712628686001, -0.014853576996003197, -0.017250074544247762, 0.037005222964411277, -0.004542779401897637, -0.031344813778618266, -0.0033988305647387543, 0.010165320925708696, -0.0025319095742619632, -0.014447330480579116, -0.0036243301545756113, 0.016013669154064387, -0.01954079593397175, -0.0062596626304598085, 0.043071896041651674, 0.0082154347812635337, -0.0066964742749289659, 0.029797096630471222, -0.0048733028739940051, -0.017338456264695504, 0.0043283934132066527, -0.013318686756658255, -0.0038506343078888398, -0.030124219577862467, -0.00074616861631922327, 0.053957019588439702, -0.035854475943105674, 0.035576190281307547, 0.0010579637490562843, 0.0012128545750999878, -0.0039319046996418167, -0.00089558042258181588, -0.013216630261507097, 0.011027110665238499, -0.0507919451293656, 0.050362074563779419, 0.023260390426680433, -0.005585967857953747, -0.0087227798263089656, 0.011003609325291621, -0.0051442342788624099, -0.001715428474361208, -0.0076731417316432161, -0.0033355547827897463, -0.0075578928419739299, -0.026968857697811963, 0.054491776391399807, 0.024988029559393971, -0.044342725719226581, 0.012502803895390435, -0.019253953268819617, 0.0045925603919804922, -0.011849917872847712, -0.0013503973535265805, -0.0045122917901643089, -0.021284771572310054, -0.014663098694163712, 0.055127903968321984, 0.028583557995519038, -0.051294956771071425, 0.017863126053247396, -0.032667459844460164, 0.017527216493064407, -0.0084901319669071253, -0.04418834335925368, -0.0041585555661437972, -0.021755940501869624, 0.033193079119510714, 0.097361092232561675, -0.047629440228229465, -0.062518361494191266, -0.0089944914676300808, -0.020014471182208393, 0.0038336610811653092, -0.051084025125985075 ],
      [ -0.01331167244537592, 0.019006707515990734, -0.035573549377661336, -0.020668332681833518, 0.058213850707723815, 0.053628967338907714, -0.037117138254926553, -0.004893281944312558, 0.0037668194546224623, -0.0048430176998915941, -0.021002066484815722, -0.019888820304329737, -0.0079613580471166803, 0.014116860715145528, -0.026613905962140777, 0.033559946859820181, -0.0046644246833365127, 0.010536294434060425, -0.011489239708914363, -0.013942587517865892, 0.0062914167418340501, 0.019891077401489633, -0.011704411782137103, 0.017871241343959995, -0.016559425336230879, -0.029376074662561754, 0.041914374424419962, 0.022570538875935284, -0.024031575050815122, -0.002902745026567996, 0.028902127407692421, -0.023574520438434318, -0.0088933750434864837, -0.0012416082484755868, -0.013057981217329657, -0.002255766712061763, -0.017234598680490501, 0.024230309183943366, 0.025422569296680644, -0.018834446316141853, 0.007368146853547794, 0.0011398380905253899, -0.0060791647890971745, -0.007348358717991969, -0.016680434881336813, 0.0106855156446987, -0.0035240587778490526, -0.026711900601737157, 0.021242356448056152, 0.019793049971845521, -0.0096332665729576342, 0.00046166151895188356, -0.015281042282579871, 0.036361973701238795, 0.0020374921777378263, -0.020246275697163862, 0.014606272846545719, -0.0072945179867906634, -0.022552975376288982, 0.016115462860782002, 0.035846032986017309, -0.019413013573236704, -0.024875512220946493, -0.018394781849041517, 0.013214921883137554, -0.015094247692641968, -0.012672843503932125, -0.016488337484672287, 0.017415596768579369, -0.016510831484749931, 0.011070078823163198, 0.023167391908274708, -0.02164655492874273, -0.010918892266831948, 0.030611773800825692, -0.01090402034003172, -0.0050104147614489815, 0.0053890264047355141, 0.0093831659808722642, -0.003301638933596994, -0.024758238785050787, 0.0047209413910736589, 0.050224172973029474, -0.036010037029272107, 0.018190042036856986, 0.0056273309905122589, -0.01067584829635111, -0.0088578171029256962, -0.01594078024908465, -0.0046144884509572038, -0.010845861294652998, 0.0025469054975290895, 0.013562509449582427, 0.0050862491668011642, -0.010512630180439103, -0.01079486190642796, -0.0098265811993103296, 0.021837170670895439, -0.010938891299404523, 0.0027223572230012857, -0.0081466466246061034, 0.0069180343899105864, -0.014900898426245273, 0.004278591623244149, 0.027732061253069512, -0.0038150660278922395, 0.0090138377842294316, 0.0074408035345463301, -0.010620620782243512, 0.00092784768814405637, -0.052941539855672293, 0.0030537025765233136, -0.02812075415072892, 0.012561624078316048, 0.026359869681379596, 0.027061277632938398, -0.043939051001033652, 0.016909719637858461, -0.011565888277551338, -0.0053497798391035512, -0.0098642078547949014 ],
      [ -0.013596436775338935, -0.00033320159850133008, -0.029136049771635864, -0.014119408923036689, 0.09504886529782583, 0.013113962663826861, -0.033823363268247697, -0.023005730583053767, -0.033365671544550043, -0.00081826941674360137, -0.0034771983899730685, -0.0034797196135854802, 0.0084203785885873517, -0.0035428810315996651, -0.025112313620593386, 0.029912694066203241, 0.047083187794438403, -0.052755327939863816, -0.0044789233758339778, 0.0088441697770765063, -0.0092889351903315473, 0.0029362302344950325, 0.011669818264828824, -0.0071153087378873631, -0.0057812593409251045, -0.012797357662891709, 0.046348835320793896, 0.016694349614988321, -0.017362532538933842, 0.0062444205194194941, -0.017148512609032784, 0.0046943557570085018, -0.017315741708899414, -0.034244500812402906, 0.020421784260331782, 0.012086765768051816, -0.05310068193098931, 0.027762748064075839, 0.055302509243393722, -0.037375972737249942, -0.0084512871735329294, 0.003457353634608841, -0.018119030319699587, 0.0063419929805364622, 0.017896877684260293, -0.036797291041462836, 0.0079238771720528713, -0.016716005990399008, 0.0038522616440510929, 0.068288653016859546, -0.044213795873341497, -0.010630414795434175, -0.008437373198463903, 0.0068784440210652512, 0.017133450917229419, -0.0092400907762182696, 0.019017937631515887, -0.0074676536234719489, -0.043775298196578917, 0.053907383858020033, 0.037760504097848382, -0.0025437227025629228, -0.036613012501033396, 0.043721669891258919, -0.0089814443684486586, -0.018356599646642553, 0.0092617103141782453, -0.018117513332648459, 0.015761127011807735, -0.031926771677048958, -0.013317721276462191, 0.085768772529114343, -0.033014078134345051, -0.00079183490613091503, -0.013073679313318643, -0.0033612051053846966, 0.011708601268580546, -0.0046162370075540499, 0.002578854254116459, -0.0026083256426626678, -0.024629700622163225, 0.0017181360679826979, 0.053876038049083648, 0.016051907986220887, -0.019637343490268386, 0.0013829644560876507, 0.0078126678210950276, -0.013018030666208137, 0.0055533474928268992, -0.014508015378709889, -0.007516068369283117, 0.00045405190187524855, -0.041836992666122022, 0.086850077089265967, -0.015392041217046059, -0.025700053060357497, 0.0099786055184701364, -0.011519001434144582, -0.0057826846916219921, -0.020724779789556523, -0.0010086311490088195, -0.0044460939185688789, -0.0087759138020825078, -0.0059181976511485587, 0.039819978845520659, 0.017333821728065912, -0.017558777927817123, 0.011157738047415065, 0.0052043742121802572, -0.0028303797568803163, -0.012180576171706932, -0.019651124615674687, -0.024624114685361319, -0.039940987113453244, -0.054762355619931438, 0.085404907347649259, 0.051869714834344681, -0.0083709571858496881, -0.017419040949243337, 0.0015532037598567708, -0.020575258251827596 ],
      [ -0.024802530483015166, 0.0098403502477240334, -0.018769850565957095, -0.018877816017777445, -0.015753096751291853, -0.0030246706490903857, 0.0083396416034954152, 0.0081428510082927341, 0.010865975226678232, -0.01389895495568215, 0.00084593721735924665, 0.010367298810546516, -0.012769329858043296, 0.02109873916774857, -0.0097947752896907353, -0.0094311193740128363, -0.00644255245913751, 0.00074924448458874027, 0.0059622909206368015, 0.0072296226957336909, -0.0057294203150445901, -0.0027585415662770146, 0.00053134562153298037, 0.015165112062155109, -0.0089333149317821353, 0.033419640400380791, -0.0073349299971584708, -0.033803900650987748, -0.0060146017125484313, 0.013453368544822882, 0.0042727019161735783, 0.0088510510727515118, 0.0088955988762457645, 0.044960098768005927, -0.0092271976923493787, 0.010309524028756671, -0.020425060914695883, 0.067114018378307591, -0.0063641899044163536, -0.022589692128077373, -0.0062471576753686531, -0.014046811857940995, -0.010657598910926583, 0.0062655098916165886, -0.0040686097147072525, 0.030871368315369685, 0.012920580531160603, 0.0022947572446942316, -0.045711486942782188, 0.057997592618647745, -0.021185695497547254, 0.0050912860452211779, -0.0093385918364381135, 0.011698867537387761, 0.0014194655918803104, -0.013647839003086505, 0.013007687816388544, 0.013974824784859882, 0.046808038938349936, 0.0046119563529737617, -0.051081489847955699, 0.013192877658771619, -0.0022672029908689766, -0.0042463819864679946, -0.0063937029833770614, 0.00027186892943074914, -0.0331175136131234, -0.050315022373573118, -0.010400405731992662, 0.00035138392566876411, 0.060820750773262613, 0.038410681030497267, -0.015238955406127928, -0.017534331384586627, 0.00018095616343674972, -0.0053574141898795544, 0.0079722966472890247, 0.021156432341714063, -0.0045960435210460858, -0.047269547777369463, -0.047844022449908041, -0.034841990475838761, 0.017442242071619284, 0.0098839909828889565, 0.0028637629900972877, -0.0020148828183902331, 0.0067648490075815915, -0.010459087668850037, 0.0087270834903078673, 0.013041222422251322, 0.021981479118894261, -0.0080195474643047493, -0.018619015725030441, -0.018090067800164592, -0.0014992397513758499, -0.0040470961901501179, 0.0068729310503738011, 0.0067119476748491169, -0.0042267380799266008, 0.013982844032095515, 0.011011344119491902, -0.0055655522141382294, 0.014713731393618541, -0.0061689089876761222, -0.0074346923404974841, -0.0025356470958443691, 0.0090206634319733858, -0.01045816365798196, 0.0079473176527261463, 0.0092456888389551989, 0.028810534271018148, 0.0069843873606671297, 0.036606177845718769, -0.0041709851378398353, -0.015792876831288556, -0.023355201591145808, -0.0018223132485733137, 0.00022303624524136825, 0.00045637958593562622, -0.0080738554594965289, 0.0014501394363980735 ],
      [ -0.054369756342466075, -0.021914065487847405, -0.0043382753348177247, -0.031680252101274432, -0.0095095265651980766, 0.016525717500635244, -0.021065498399210833, -0.0028895643383660833, 0.0073708653646808991, 0.00095405825094943553, 0.00699042198339659, -0.028555823504547578, 0.00032731765684045067, -0.027015133074222965, 0.0048496775345815823, -0.0086363089606507348, -0.023501080862612565, 0.0025362639671271323, -0.023550691133781474, 0.0023797097075868266, -0.012271047577843162, 0.0098501344726940818, -0.035615078521605489, -0.014409938605804388, -0.0092979378788883831, -0.031250155984825223, -0.018092236352290941, 0.0081270123812487369, -0.026682807797962376, -0.010737266422216854, -0.013929240238593543, 0.013388700600269005, -0.0061387996966430491, 0.033549273173351386, 0.029985582611136031, 0.031546598014869205, 0.035474439297026115, 0.030798039559428829, -0.0089180592819258775, 0.00066547214043664177, -0.00042747231881524322, -0.024460858821598919, -0.014681777864417919, -0.016302012875485869, 0.074744027045969802, 0.032372560973591355, 0.035453368624779498, 0.033567335358419485, 0.054101482265339999, 0.094445995008967165, 0.054467588859916739, -0.01257511563354996, 0.022951654682034833, -0.026976975081983084, -0.025121858400891421, -0.0013427475228601389, -0.034409729465514668, -0.025489622082547448, -0.069645106182311747, -0.10704910261287051, -0.107300770440791, -0.00010934455033707186, 0.063210942251925362, 0.026661323518166614, 0.054226005474942662, -0.015598976580320304, -0.01560459114740205, -0.0060983698620219323, 0.030445064087419232, 0.037011856101294524, 0.056504434281828692, 0.058903547564907482, -0.07734884090828123, -0.060539459219844508, -0.020298802981706353, -0.033493210275849131, 0.04303088972145129, 0.016492810486574583, 0.040875369947909475, 0.0070862030063574138, 0.00098482142884477597, 0.020047173088638681, 0.018964240612726585, 0.10852454110764828, 0.018230455568091608, -0.0036853828303505948, 0.0026258250462351043, -0.041869253147853142, 0.013628964091541521, -0.030384914286387614, 0.005984208835489141, -0.016620345046606283, -0.027975742183607929, -0.010636216745551888, -0.043943910977888904, 0.021750748967114909, 0.0049237129081501282, 0.014261048898906482, 0.012366917123361812, -0.02555767953556725, -0.0076942552200449394, -0.027834447518064069, -0.0059606158148697921, -0.0067374770220739941, -0.029515663306116553, 0.013796038130520293, 0.0011728786184865003, 0.014015219061440473, -0.011980416427324128, -0.023486302557693742, 0.023499195260794803, 0.01623818717773343, 0.039830204392687939, 0.012327004400060002, 0.019656915147136841, 0.019593645347774209, -0.01560172637324881, 0.0014426741935802193, -0.028363174896005927, 0.0008033725848771156, -0.0010929077628621595 ],
      [ -0.025867048073385149, -0.0099862542864031581, -0.0023086437744770736, -0.036122123497870043, -0.010435114001889579, -0.0060321727453609992, -0.024150026644808364, -0.014244341316490652, -0.024837567574539143, -9.017868382724635e-05, -0.053990306176830441, -0.026082829585458607, -0.013981872326607943, -0.0052547992619361699, 0.006484798643351765, -0.019692403673727685, -0.028427752090507696, 0.0084317376842516483, -0.038848032734501596, -0.010922924985768344, -0.018184717699968898, -0.00075902994747162333, -0.019151379344993676, 0.00047266045171277631, -0.03062241938017557, -0.059693878662144789, -0.052561406609942157, -0.047618463740000214, -0.091104618375157445, -0.0015207647962890009, -0.035287165363713451, -0.00054266617637067915, 0.0066757533268687053, -0.024238686646024524, -0.034354509849567998, -0.047505066239976586, -0.0079083475761067556, 0.040104197138059371, 0.070437378756064511, 0.10497487453370496, 0.10264907322894351, 0.10320199616989541, 0.070529577890906775, 0.028421856184964414, -0.067615765993890631, 0.012092898513099555, 0.090931122083449584, 0.14127602104246592, 0.15088446234918118, 0.18004532382791757, 0.10447896195021515, 0.05920155415699381, -0.0010711270774631937, -0.036627632743781287, -0.0077487012122686022, 0.08631719532189884, 0.11326834298380495, 0.10130074416768983, 0.045579252399540172, -0.053039975721573276, -0.1744927837392122, -0.19099920783504301, -0.13383644343289022, -0.08131688246519618, -0.023569086763698573, -0.030752305238295766, 0.08458073209662699, -0.022928742367507533, -0.080157396724513608, -0.15930740407651053, -0.10067459514591494, -5.6651800810658681e-05, 0.073143066881284677, 0.061813260249127047, 0.069811777039308867, 0.038163078815322202, 0.05240910020053656, -0.043386308442963366, -0.05772287286203881, -0.0018457369696399523, 0.067407827649876614, 0.072118618775739884, 0.046743187959532265, 0.023624175120294175, 0.027501555045535628, -0.011809918125182103, 0.0066803830492995486, -0.02334532948667882, 0.011736774993293689, 0.022063692555505443, 0.016419958415558447, 0.0085999909157441455, -0.00057697720478364772, -0.025028118257067571, -0.019123330761841098, -0.034168478397225588, -0.034369541608184166, -0.0071113056277647829, 0.00025653824288547622, -0.026921334161137872, -0.016926077149988041, -0.036515305514641945, -0.032057155551482391, -0.038366556438418957, -0.014690796511599852, 0.01296364826261899, -0.01091159107825064, 0.017447883672318171, -0.012171482503003234, -0.017726938602585104, -0.027741511846215858, -0.036947857731855049, 0.019816518018605053, -0.00068620851619120848, 0.034260043629532902, 0.0098297017482329441, -0.007832799685281569, 0.014334376436452703, 0.018221513079952054, 0.017682316649832774, 0.024291233397825032 ],
      [ -0.012114380318778956, -0.0031220620083063783, 0.011786165126464, -0.016612404309463251, -0.010525090642787518, -0.011071645517879605, -0.022254320047372558, -0.009369420363466649, -0.037978119418322784, -0.054564823797908057, -0.080189568376338588, 0.015802394192847152, -0.027624406387742176, -0.006921619477473849, -9.6460228533296055e-05, 0.012841875544936356, -0.014386195429548852, -0.029426932122243135, -0.057968103696170711, -0.046595940037294836, -0.027065968553868863, 0.047273605945788208, -0.039267312124576667, 0.01560577781150263, -0.015890717338910634, -0.017382904487162065, -0.039173859175396356, -0.028111985441643561, -0.056356369995281291, 0.026203120683762925, 0.060744400089151648, 0.10898699122043345, 0.14050464967533158, 0.0028999402946455512, -0.017327685981138381, -0.019171584747886369, 0.0087400286228982646, -0.027013858470924648, 0.001397111369495406, 0.080315091826531765, 0.12861960467813022, 0.11996408312858903, 0.053068821082816839, -0.05915235859830599, -0.021930907761227587, -0.022813960777183201, -0.0077417570979196396, -0.017661441271499156, 0.013040894569801217, 0.093794707398621363, 0.10485009226593303, 0.011657164043543361, -0.077685316293229778, -0.082847358069481042, -0.036855398904732141, -0.021827482471636975, -0.0077669224511490095, 0.01723807966021396, -0.009577897411566838, 0.076274623303436762, 0.02774193040015515, -0.040121059865713259, -0.080801977555960247, -0.02176969323403153, 0.00078182298697209579, 0.017074092079965034, -0.023655231139187376, -0.0022031522032404799, -0.016974084145555499, 0.038441446256073375, -0.0051807886660797872, -0.00060912645620748301, -0.043349932750181938, 0.007927767473243863, 0.03165370650944465, 0.025719370205862329, 0.021124094491302682, -0.024619603644443412, 0.028686473670830784, -0.0060216305437657269, 0.0019769064791681085, 0.014515647521562855, -0.04589747050764377, -0.014425767058759482, 0.024686116153244762, -0.026335052046247184, -0.02877634625666449, -0.049227073467464244, -0.0094757049591630074, -0.0032753493987773066, 0.02089754405903882, 0.024909331614575016, -0.04863114289554317, -0.0038943008497257375, 0.010720725305102055, -0.049406360251473755, -0.021772706627033928, 0.00056329408552924926, 0.023528017948920815, 0.012735530572842053, 0.010024784549107976, 0.025038854062390287, -0.014033619981165424, -0.0059420640730209681, -0.01516822975618734, -0.0093932808456042155, 0.032231234827358644, 0.010191009609459688, -0.0062152601688727493, 0.00085141897471925632, -0.014069143702622279, 0.032588507817256342, 0.00092600539145551442, 0.010016453049062637, -0.0076115882538442571, -0.020667969407973698, 0.011506684418185413, -0.013032320674314202, -5.0271417493676085e-05, 0.011761825777029659, 0.029384198665877097 ],
      [ -0.0046641186317706012, -0.0038228832226534764, -0.0094361495379491206, 0.014151603630266385, 0.016064276889604392, 0.0013146984961901692, -0.027960478211588098, -0.01068342765594241, -0.014639174015500219, -0.012708493958637729, -0.017176638519199837, -0.0019707509102201803, 0.0055403777757948303, 0.0057797600183077738, 0.0089741285595515627, -0.004568919553482962, -0.012221624021640263, -0.0057638785014041075, 0.0060051559977755522, 0.0083986012231818379, 0.0079183231809278332, 0.00093895590641653178, 0.0073848529761688679, -0.020683249386093176, 0.020036397650367552, -0.0016177784363579917, 0.005555229728905777, -0.028289517262926344, 0.0011352516740309928, -0.0062493127078988428, 0.0064497713903319143, -0.0085311720599920947, 0.031553113167062496, 0.0038681042963438121, 0.0096249450686869582, -0.00089273882380868762, -0.0070046137692114704, -0.02638510148146549, -0.016572263341661828, 0.045728244700984445, 0.010538273035276231, 0.021906908551554166, 0.0069375828123642664, 0.022259135317815908, -0.0025925969470771025, -0.010939950212464985, -0.0065269758920070073, -0.01205935352248251, -0.0077902950204414992, 0.069676302174311686, -0.021481288303076149, -0.027686900868416821, -0.0063064584978270288, 0.0098791199400424124, 0.0045280904571964875, 0.0072574595536756183, 0.0045032272624369804, -0.0073475379319836668, -0.0091620313288094581, 0.026408215716171749, -0.049895540378604525, -0.044286126824654978, 0.072869149769622471, 0.022408705691149864, 0.023003067866065426, -0.01106419741374657, -0.0025131946455759112, 0.0011936914586905484, 0.0070595574246262571, 0.00084930786288505518, -0.013676331655696972, 0.0017595601144182096, 0.081207039147847923, 0.013315760959613227, -0.021919395703669908, -0.03219924744686644, -0.04867001905400465, 0.00046174691156902585, 0.00056691633917101397, -0.015004465139271403, -0.0037556192752898525, -0.00066089270182273421, 0.027449309138705, -0.024668981544089402, -0.051648357974032361, -0.038091050531485524, -0.022661404971457268, 0.014297375058020151, 0.017438162477276947, -0.017191604142673355, 0.016824237051516033, -0.00421291499454655, 0.014837758039331461, -0.0099426175455300612, -0.033097321844447795, -0.015877616517534502, 0.0098111418347914901, 0.0050967552628019197, 0.024585564157301124, 0.0072445744700611048, 0.00045687734844839238, -0.0099924221935529314, 0.0084109833682064379, -0.012823716752311087, -0.0033156987425181318, -0.0088406540162289226, 0.015229651021645356, 0.009454707210348693, 0.016954004359139119, 0.011870253674119117, -0.0021317065345331019, 0.015999058958469391, -0.0040794026532817865, -0.015099083667854896, 0.010790246899661992, -0.012556864640161751, -0.032177987899687094, -0.0056185061745030809, 0.017185467129828505, 0.017092846482282101, 0.024405579907164254 ],
      [ 0.0040287632931344866, -0.0022204511395915796, -0.018230917892082466, 0.019718458876735321, -0.02237972776159209, -0.0050644969279347377, 0.0072355505528374359, -0.028967720739022255, -0.009395843108551051, -0.019035738256515368, -0.062799600419406729, 0.0070581456626856998, -0.0098725004585495865, 0.015227028255946712, -0.017911546082916584, -0.0031139423263522314, -0.0089561177425075619, -0.015283188878267465, -0.00086585509640467462, -0.030796298870678335, -0.0092171072371853915, -0.031459076181536184, -0.018571556507794306, 0.00089467849422516371, 0.0058093726311412019, -0.0087769530850202865, -0.002986528283158138, -0.020531537792874543, -0.005568156342639366, -0.038288009247503856, -0.016571269946315692, -0.0003024296686419542, -0.024743435068294926, 0.0038555746755251918, -0.0012178835140380234, -0.018461820570912578, -0.025707806236269583, -0.038805597207007173, 0.0045761383269365824, 0.020678183600100077, 0.049851411196754063, 0.046763173235359182, 0.022374560365506113, 0.034711520209831176, -0.01396059354937404, -0.020104043015317798, -0.027367951617684932, 0.0064243326440719811, 0.062787541803589517, 0.099251690365964471, 0.062357590303968827, 0.041410269581956483, 0.039497895194304897, 0.0339461066573611, 0.085492893774696418, -0.031885479879557574, 0.0078597982180353063, 0.05109271321615122, 0.066823457352468849, 0.010973381167016752, -0.097376095182146294, -0.13855729707754003, -0.055888777576445427, -0.065725877802360153, -0.031371091867008469, -0.0063608678769199595, 0.0092701900570584389, 0.038491779166297556, -0.037991047499995712, -0.065441935330148943, -0.064536560847835017, 0.013833536488701614, 0.084563766224429723, 0.02734978272558336, 0.04599491893299501, 0.0090563034445447568, -0.042851175823147666, -0.0056978036380118738, -0.025282299641428627, 0.0062477083620136042, 0.0096269069767510596, 0.068040954152959007, 0.072606289617355033, 0.012836490494785691, 0.020986890687958254, 0.0053459512262443165, 0.023946392536451769, 0.050614866057274964, -0.011833112218485986, -0.0025245217522123845, 0.0099130439313407925, 0.013047582343811238, -0.0028555528352066442, -0.041259070566774927, -0.03107573745378673, -0.031602731721109764, 0.01165460283213185, -0.015571351838600228, -0.010102371988255039, 0.0062526556312979126, -0.00019938263990276761, 0.0061688814877699505, 0.0018535612789190026, 0.00090125184414852066, 0.0057713974430231851, -0.016477271855133084, -0.003094343812543518, -0.046294459272131119, -0.011678759142790485, -0.010944259982078854, -0.02779897401652541, 0.0036074738411960294, 0.00067221647096660231, -0.013943333588500278, -0.0022729112888745379, -0.0055781367687689903, 0.013954536064369791, 0.022672246652625391, 0.035549492979315769, 0.024657994888743456, 0.018315613421078833 ],
      [ -0.038116876576609574, -0.032538902284553188, 0.0030672355326764808, -0.018208004031277675, -0.0014405029582448704, -0.024621805161575534, 0.0035369966740299418, -0.028114598966356638, -0.010196248186799692, 0.0025228781897438865, -0.020289625631338626, -0.010966860609838262, -1.0585607355343557e-05, -0.045907158972447154, -0.027554318160140964, -0.040492209780616115, -0.021454510395106367, -0.016081300013142376, -0.0036822290115155207, -0.0095265610918054133, -0.024836232849887334, -0.01501622677315342, 0.036475182290725487, 0.0068285722844635723, 0.007983278295223958, -0.032660303374174901, -0.03929704668717255, -0.087092750158875687, -0.06084692656049339, -0.052573252098853905, -0.020503217560922118, -0.0092731661969197576, -0.040945430038125244, 0.029380867267573808, 0.039472043972026909, 0.070932872569324346, 0.12211257713659431, 0.10928361971498782, 0.1028110729758917, 0.022475863844078584, -0.013546210075158773, -0.040535512253900285, -0.049751815110656447, -0.023594799241363679, -0.03891062326044565, -0.04068295357019322, 0.017611412467100143, 0.029256391075250257, 0.097498632520128511, 0.13767213373676612, 0.19776174946898326, 0.16729553969466687, 0.092271872767934984, 0.077160311892647354, -0.051634245851586234, 0.0025032217621050908, -0.026746243497018887, -0.08044817972999263, -0.15950324867244134, -0.16443264363784865, -0.15829178127021154, -0.097886873902369484, 0.041934044407181896, 0.097215719952461185, 0.093828165141491671, 0.11918114634758732, 0.020164167017262841, 0.056112538950378751, 0.068569294806956602, 0.09702834698342501, 0.040113389422093741, 0.021479810097924844, -0.065903421419293853, -0.17275909733008377, -0.13304602207913604, -0.029010722121509503, 0.03507303027602407, -0.0019229978221032224, -0.0078092221917279376, 0.031445603951066957, -0.0084646064391893719, 0.068878853042251248, 0.046332806451823784, 0.061846329565662488, 0.083400056887423468, 0.0049865566518630892, -0.043844201126291657, -0.02519587540909704, -0.010589527153718567, -0.025107869765590117, -0.04493393870804091, -0.01871352206651207, -0.039609111851857726, -0.041504846142436679, 0.0074647315313886384, -0.0020637448955991167, 0.020305639461336671, 0.018439443198115059, 0.0042889014239393449, -0.017451526550393101, 0.010967573358448796, -0.008162709701000909, -0.006903311312594031, 0.00094602206976041221, -0.01630101722248585, -0.03091159894753822, -0.031531299536970425, -0.014019276008420798, -0.028798766025794072, -0.020663207095405901, 0.019592579105119325, 0.017451258223879083, 0.031752222107315077, 0.014035221393657742, 0.022839182419936536, 0.014117514732409193, 0.006865895451380959, 0.028716261795956446, -0.019601152075307767, 0.0058233710329486793, -0.041143030928040475 ],
      [ -0.082016431986394717, -0.036424979242841292, -0.055630401568017178, -0.01663441391933225, -0.018926745568845924, -0.028410806132474976, 0.0055325574015297266, -0.01146673065258692, -0.005490478582895756, 0.0047362301591513598, -0.017803166924124522, 0.047475452540649735, -0.018417890077443828, -0.031154116599518014, -0.0485559455197387, -0.036142831206792944, 0.018235461329710254, -0.033061415637485367, 0.0074050101347571794, -0.0053284607546019037, 0.0096185308513839895, -0.011054364531956776, 0.12989341679666574, 0.080739194665275196, 0.072238005020841156, 0.01798042250834947, -0.025775762649767393, -0.062244341549813918, -0.014899897746333414, -0.014424762561612306, -0.0073388343432365666, -0.016926585653195145, -0.023403761639530674, -0.057348824736564372, 0.055439303928745493, 0.10162269318024117, 0.13623090508966121, 0.075253796984817434, 0.036847545156399243, -0.043978571395446794, -0.015863513318877621, -0.018821998914602851, -0.018013891104946118, 0.0018173653707847168, -0.01878584118613336, -0.10053777837864651, -0.072199478678708531, -0.0041149064786235624, 0.095083512952481089, 0.084000688458084311, 0.078079843033409119, -0.0047713978430127067, -0.0095610544429934434, -0.018627321701266054, -0.038324358972638105, 0.0026893820285359311, 0.029808661227726109, -0.016928276456890164, -0.070622315597874075, -0.080473697506525041, 0.014867441545470678, 0.039773017916208686, 0.032851777339139465, -8.57423006824648e-06, 0.001212339777554125, -0.023629645664040431, 0.038269194493521529, -0.0078274645802879801, 0.026921489188499514, 0.017655251955391301, -0.00029014374122149356, -0.020067460197689284, 0.015091090774817267, 0.0023061595918459979, 0.0061174267183694304, 0.0083103839661394126, -0.0092877092974782069, -0.046132969537305786, -0.01773893229976093, -0.0036053744978638298, -0.015846286769481084, 0.0046396562467680164, -0.024401983113742861, -0.031328573499844664, 0.0263861142846505, 0.012796967591160512, -0.00099283276808398782, -0.018536804386816118, 0.016848780136565048, -0.0063053232629633653, -0.0072043517646378629, -0.027467000456782756, -0.016239815377918951, -0.012728580594768387, -0.027318493228423724, -0.010335933650235204, 0.028816594427470837, 0.011813835072959602, 0.005071304191080598, 0.0090512993879321331, -0.0061951822675039535, -0.016644347524861686, 0.015822033792816569, -0.015618112521361537, 0.00087179829876186596, -0.0088082798107119616, -0.0099133811440649863, 0.0017249632855122279, 0.017187336792553218, 0.0043113732870208449, 0.028074029688449621, 0.011411067683263856, 0.016158075920132371, -0.0033985576066528113, 0.013911564685560844, -0.0077388722515099144, -0.010661337150159491, -0.011487489771828445, 0.0095891984483485911, 0.020456379620046754, -0.0090937768917477672 ],
      [ 0.011704320870058734, 0.0028444927652345933, 0.016552222820032405, 0.0076445937436252151, -4.0961965946755691e-05, -0.028670208643655354, -0.016282138065542774, 0.016763989052349156, -0.013813002239661374, -0.022076341343506542, -0.04353508508042947, -0.0068595310396226614, 0.013281067831231785, -0.0084200896734987086, -0.027344801012077917, -0.030697277171480686, 0.02530465477801893, 0.012014037761948614, -0.028280814012351337, 0.0062280592799190257, -0.0086247828310284623, 0.04406952055170027, -0.017085553908566409, -0.021543419829851661, -0.026622687492278353, -0.0098496657886509038, 0.022513406185522, -0.013972794319296825, -0.042804293453662809, 0.027626867306609661, 0.030132142647828142, 0.086327676268879439, 0.075148961946333914, -0.010946845794011631, 0.0085959112955153027, 0.0066180171836289457, -0.032474339454526921, -0.011299910241547058, 0.026003352237063702, 0.10123335437903531, 0.031591243924413911, 0.004361338463640535, -0.058035388984086375, -0.011234747236757003, -0.0053757750141458878, -0.022883884539462506, -0.025821899740703019, 0.017807069565499711, 0.078394582387476333, 0.030903295000891007, -0.1190101388416715, -0.060140960356771855, -0.028247716626984023, 0.0043246003240450248, -0.053948855315672242, -0.015988514674444447, 0.011044059347307754, 0.0077435275791925204, 0.029080962209339881, -0.032258052101472777, -0.090743985109794381, 0.054443913046753362, 0.075257191412085297, 0.022306769271320172, -0.0046537871453542247, -0.06451121209985218, -0.012314600165778261, -0.016726764857719248, -0.013573951836130721, -0.0084520299700903689, 0.053327901646830281, 0.12080944414096498, 0.046986176677230942, -0.034942678927536372, 0.0055657033263073891, 0.044015871662808202, 0.095284705669284375, -0.00013371552190837022, -0.018225617935927245, 0.011727058349468952, 0.021367567093818762, 0.010764012171179012, -0.01779934998754918, -0.020296352820057324, -0.0010974382321854714, 0.011965089113497376, 0.0032934685548457222, 0.101030991005334, -0.0059147115727285361, 0.0061545788504409234, -0.005990427994648103, -0.0094718920147195389, -0.014539919062869042, -0.010565160569759813, 0.00082981122525378759, -0.0092089942941937716, -0.024921146395377, 0.012433692249283881, -0.050767990718236504, -0.0074367785940864569, -0.00064261365082426622, -0.011472818203684305, -0.00061789380419640175, -0.0020850113448336559, -0.0048535519447688649, -0.01144549427624077, 0.011262611526201345, -0.013982039583964094, -0.014584209492451317, -0.040170785926876895, -0.006928968731040909, -0.0062455750314230063, -0.0030309906753676948, -0.013190685134652602, -0.020919495518949002, -0.023781010498344867, 0.0047302515171992795, -0.015365322305015524, 0.012504421051555307, -0.01399770029952125, -0.022881289286770544 ],
      [ 0.011005707765768882, -0.0028322694936931611, 0.019267068782424117, 0.029165903945286023, 0.026838857209476805, 0.022737756371667944, 0.023472599664688051, 0.011939748256987369, 0.0016383679979015686, 0.0093930334085714218, -0.0017086698702797499, -0.00057435396105703224, -0.0099541963187388741, -0.010326482107522669, -0.040089623085225977, -0.002175119549482088, -0.011715564844634478, -0.0069529718182569922, 0.010434461025640454, 0.028066437653463561, 0.01715964400205619, 0.020189231353184803, -0.033352136918767455, -0.028159124410018194, -0.0019320067345538969, 0.0015722126670388442, -0.023650687162752083, -0.0036471122935192134, -0.008642750495032778, -0.009164490686348184, -0.032534366782490484, -0.0070371517958831512, -0.012461826267188478, -0.0060569618537408346, 0.022380843309472688, -0.0038999056300739743, -0.022553641985567988, -0.035798943439895099, -0.043842550815696796, -0.060238280089828289, -0.031469364659399701, -0.0021426784015136924, 0.0015823706973258772, -0.0057478498332829212, -0.012729536013762865, -0.028044188944394199, -0.023307511168344855, 0.026156437818600164, 0.036610999746034725, 0.062440259613110768, 0.077050233171917976, 0.010721364452278365, -0.041193323843216931, -0.049203366501376682, -0.031287828883669017, -0.012976190006997807, 0.043126622763398834, 0.058716673157486104, 0.077959991844508802, 0.081123880948532345, 0.081056241863045858, 0.073471540115246925, 0.054131818838709184, 0.065059500323168901, 0.030786405364741753, -0.044844268841774212, 0.060506053139917054, -0.021524044118739309, -0.00028298263841523494, -0.05745243393361954, -0.057550700625228643, -0.087934428572802828, -0.078361021177246096, -0.04116376879104805, -0.014473410820890931, -0.00041937674272642111, 0.035929506343485781, -0.073225363791251413, 0.029708188339671635, -0.0099438529006455889, 0.007407206661597332, -0.021851325136735517, -3.7093027165674419e-05, -0.029669152793283526, 0.011209492518309466, 0.02439953610184048, 0.041399779574183296, -0.026386212426386675, 0.045955510234216054, 0.04274106001558392, 0.0078665929516727462, 0.0012313158506627314, 0.0051512492400067889, -0.022189990646036294, -0.018659942406413277, 0.016176752264779687, 0.013099988149074676, -0.013352794022390611, 0.023486072650601854, 0.036940929238113991, -0.025081529165813979, -0.0049058039095020711, 0.015416925908698718, 0.020902227471262982, 0.024747445821388055, 0.051491350176542564, 0.03590338680783968, 0.014880266176519136, 0.019073031225351408, 0.0089333688927532157, -0.043032790448426207, 0.0004215403722995642, -0.011728968584036548, -0.003557369245548201, 0.014349717143505055, 0.019107239316815863, 0.0059555979518452762, -0.011814893246338019, -0.015320986436336108, -0.040795323243770748, -0.052577832207146888 ],
      [ -0.046403213589856905, -0.020316452273420646, -0.018923231464847673, -0.00030897202707633881, -0.0022670155230768048, -0.0035846414993791972, 0.0048333525678527223, -0.011224903028131537, 0.0028031342971292991, 0.0073684101351906214, -0.0032539257094290341, 0.067744932274400926, -0.0030375596668863053, -0.014665003941782953, -0.046471378482851392, 0.010747765444459129, -0.001193067730274458, -0.035360225085984534, 0.012926714194672978, 0.0075289445504868706, 0.0054193441084290292, 0.0061785522442858107, 0.046234840792858042, 0.046181469254324176, 0.034848603953292645, 0.015369256213274604, -0.061162674821628349, -0.0005822839456872328, 0.013755003382965203, -0.051425257153534978, -0.00064031998571311907, 0.01849821419374189, 0.013705002672397893, 0.017627397701811008, -0.033795255031185259, 0.0075587724654433905, 0.019770002708263498, 0.070616526474743313, -0.035946951809649463, -0.038668857896591941, 0.040265523920853023, -0.033506407979572023, -0.0098301217699357651, 0.025819417441139136, -0.085688443421194527, 0.003406027159616333, 0.028107330357365255, 0.02067817181691764, -0.090005332928111748, 0.055613457903883751, 0.028110964347971487, -0.021896972001230426, 0.018551881066171831, -0.0043321524195736316, -0.00016162068708540367, -0.047404101783685614, 0.026087626544787516, 0.0048512641271011014, -0.0013365575055751464, 0.057098731956741137, -0.070590585203829007, 0.046558068879160149, 0.0094716237890288615, -0.023612314716955466, 0.0015838560559104271, -0.0012366629405305002, 0.12484301180752329, 0.045219701374314594, 0.034793324896809162, -0.023788641965849538, 0.024672592998408953, 0.13993800585481306, 0.0074698215400020654, -0.058930554928632875, -0.0028548275218718278, -0.00094853731853050682, -0.023830603100169767, 0.067779713036465641, 0.02236633605087017, -0.010381416077168158, -0.00025064439987318617, -0.045358277778265052, -0.074210329985344742, -0.004527234419338692, 0.016749337368218278, -0.0077233935070125728, -0.02641164008201255, 0.034614378414086294, -0.051726082661193336, -0.028086977492347703, -0.020795855802619445, -0.013392636950388871, -0.010878664416852313, -0.022718463223663173, 0.0086110226237204983, -0.013003958854056964, 0.010181293595033877, 0.012805009791578975, -0.019526584557137128, -0.029871626560846409, -0.013810193523645606, -0.018591695671427579, 0.001624148093956411, -0.00039401212069774955, 0.018138046593738799, 0.0070929898775364264, 0.016271136494105751, -0.0048003495254636212, -0.001128771846996203, -0.0053204915646027709, -0.029873963405139939, -0.0078537168340179209, 0.0015940377713774823, -0.0130927336278026, 0.008910683382712406, 0.0005577717529080331, 0.00037203557440095014, -0.011430565253737181, -0.011760206720291353, -0.012244539736666567, -0.027121087129416049 ],
      [ -0.02591486911024872, 0.0058128678848144363, 0.0081734319964986701, 0.020996638225482221, 0.035801725071226038, 0.035180048663901183, 0.031355620537000514, 0.022700711884898299, -0.011330708510112277, -0.012831673073505287, -0.048427558927540054, 0.005781773952282937, 0.029411569023495236, 0.024831071976085899, 0.001276227532515127, 0.0025563364380838949, 0.023328220380287625, -0.0007205858643209162, 0.0028155680128857594, 0.011944696005116787, 0.007694126440649339, -0.016772899606542421, 0.004190178896428351, -0.025603948046774558, -0.01765461422435341, -0.028891806777746547, -0.0090357127734949846, -0.02594373122881001, -0.035290213452644728, -0.014486383157519364, 0.028223494409195402, -0.015448505189293679, 0.0056886472016210235, -0.010028504117953863, 0.020624737866150489, 0.0065562965564439106, 0.0056238892007746677, -0.037831405997937752, -0.071271515025944407, -0.066648783683501689, -0.02140722967321889, 0.054432267522874486, 0.0077621028073159709, -0.0019752668272992602, 0.042518575980308199, -0.0091430339336744312, 0.013821359097157393, 0.027099998393712327, 0.016425191935078458, -0.0038988923060029046, 0.029956474364845817, 0.061486732901451582, 0.031925453150634303, -0.021706121896601309, 0.059344502287814592, 0.026437237410517976, -0.014461712829517248, -0.010179553745596509, 0.011066724619709617, 0.051173522684623218, 0.098713244776635442, 0.092241064650341251, 0.059501088808488506, -0.0045628934942938126, -0.00048542652034037903, -0.017840978607815271, -0.013554585934516417, 0.018941977593903009, 0.018439510605494216, 0.0011316698533872377, 0.029776352252974234, 0.003699257891991839, 0.0014821664457281385, -0.032167019862041984, -0.022649726456491791, -0.019978542102477626, -0.038335513928765393, -0.01357934662377025, -0.0080916640535133345, -0.010249219522645604, -0.005026588373540912, -0.02281123053038956, -0.014387038116442076, -0.037319881106225333, -0.029735092947856187, -0.014657307022103876, -0.030003807940443245, 0.0057239846647210921, 0.0086989299024338336, -0.0077023653626730609, -0.0090989988491673481, 0.0030789948573956144, -0.032628624147371638, -0.023764606501857258, -0.0083810482459911184, -0.0088351065298761938, 0.011109508794183015, 0.020796085330559592, -0.0039833909960006533, -0.010875293409589828, 0.0098288894422661408, 0.010710430245542468, -0.010898361534650833, 0.01183632307502136, 0.014359687181574446, 0.0052459997727534805, 0.00073593449193676969, 0.0026985099087594236, 0.0036099374633697841, -0.0035305132468864547, -0.049436882477500305, -0.0040593499405076755, -0.018593553313352079, -0.012641849201683042, -0.0061020701145394485, -0.020134993385883773, -0.021136064046971395, 0.0016354809978306392, -0.023455782701268593, -0.0057466859872395901, -0.016218056414706847 ],
      [ -0.012287732062096086, -0.024102522234370094, -0.012198395230532698, -0.0078258277476874021, -0.018745495037231687, -0.0070580316320379777, 0.0046740214403990146, -0.0049213035491215626, 0.014083532364979117, -0.0086066282564846094, 0.016516858056766465, -0.011676494499314438, 0.02371394606276133, -0.014633200967069561, -0.01111087152537585, -0.014522119289523752, -0.023107221348403637, -0.03715338677651879, -0.023044914528503338, -0.027756732626921979, 0.0052259548496835576, -0.021201338040325542, -0.020789512954469944, -0.033874544739103188, 0.0091671052172864337, 0.026429152636967952, 0.030410675353659586, 0.06153837859070134, 0.05146323915604617, 0.013722695499920022, -0.030142831701420843, -0.040374318705784569, -0.0088844362324394903, -0.012821183189137858, 0.062404868205994918, 0.059874765677809333, 0.059201149140915614, 0.055901861732550046, 0.043199528320317954, 0.061600293375620438, 0.051847886573131982, 0.036577912196143036, 0.0089596058182648403, -0.041300246221533346, 0.053904737963245311, 0.025060850496682829, -0.06378331677018495, -0.047287827676824032, 0.0035156065176373038, -0.049423923374940643, -0.035840032620174544, -0.028117565139906139, -0.020907667479387375, 0.0060446301149544371, 0.028585636571148723, -0.02903984444036567, -0.033371375443434534, 0.0099683539032729973, -0.0099590077473959149, -0.097088790753434656, -0.028106384868488266, -0.073088515832391843, -0.036543179094290917, 0.084349632298921381, 0.017837538950485524, -0.029806576208688929, 0.013754076056841535, 0.023118829056862043, 0.057692288407493103, 0.042140705742005902, -0.020071836738025095, -0.042325818697551157, -0.047594114306434808, 0.054706968603794454, 0.069002730982032384, -0.050718608962672926, 0.045557037495537279, 0.060887275075537539, -0.0018984500913183881, -0.052571783464122626, 0.040436614540931427, 0.069147470849585654, 0.045575818239880134, 0.09790002921840335, 0.068624079607637778, 0.0020539044532347315, -0.021626385958225209, 0.051155829565163666, -0.030754291381324909, 0.0082095688163754052, -0.013125744675784874, -0.019391179141472363, 0.043766629675876051, 0.085318167606285772, 0.051438431453229211, -0.022972818039934083, -0.042007966170156001, -0.00076246275756984387, -0.056529435265995048, -0.00141240721122458, -0.027774219142297857, 0.014833086189173467, -0.0028860268966521517, -0.012537967395708186, -0.046133201553114934, -0.042262801392278351, -0.011560718673080492, -0.015383934897899635, -0.021757163883947481, -0.021941739880876301, -0.015442571108963417, 0.015094614742950105, -0.029304905504883266, -0.0094495075226819561, -0.023376149325761635, -0.023456219041335193, -0.02519170569970787, -0.0086501459848246053, -0.011572335700529898, 0.0045367544638267171, 0.0025043042669368049 ],
      [ -0.047730360945893162, -0.021720966970204134, -0.0082059334105066967, -0.0082375645898695588, -0.0019189685102946816, -0.025144738623060794, -0.022640396240602812, -0.0090932565557491213, 0.031043991422995271, 0.019701336303333108, -0.013896010253809127, 0.024489030269058062, 0.024709522242067572, -0.022449080525495331, -0.013587402923759748, -0.0084988995157031788, 0.012079992941545104, 0.016015046249327432, -0.03441467756619418, -0.036425032953999639, 0.013845047974875617, -0.004909673022598475, 0.097415937014997386, 0.040380017944881982, 0.079366651202165767, 0.03401877108779669, -0.0026873324339238766, -0.028900206928712695, -0.00097973668650659651, -0.0016439359777737084, -0.021734209983810919, -0.0085120267750751905, -0.0032444226614634225, -0.012073211851228657, -0.0038237967588901633, -0.030458156692126384, 0.01110136713368004, 0.058845296180258355, 0.076987610147112542, 0.0089101863446986868, -0.0090651407605421216, -0.010966540825476236, -0.010322705818299804, -0.025093386056806083, -0.070885130667014323, -0.017919843117830299, -0.015314505783784627, -0.025193560107038812, -0.092586785201998562, -0.022921780000635116, 0.049800377719175851, 0.024799192124300727, 0.0014072666951077499, -0.0081428638703346934, -0.014149248861323599, -0.042252966210698149, -0.025775225928135501, 0.010329196090346257, 0.043542574311169521, 0.071892640403520752, -0.055233619210383555, -0.038873347503234075, -0.0010769150775249529, 0.0080533185983091386, -0.0041889341213603992, -0.0022838131143545146, 0.065852095693153312, 0.050851904347466725, 0.028429792995186359, -0.023482623662123628, 0.013879802224569693, 0.1084822157046408, 0.074890510974895741, 0.013786999926079624, -0.0060581682592956952, -0.028050388208682452, -0.01039364706276592, 0.10940193190618056, 0.009880821290192271, 0.0058796383811656472, 0.0074426587984246714, -0.014968663993217363, -0.041674594330017994, 0.0098200095060308121, 0.0073983187813910986, 0.021637622490254388, 0.012785215905517303, -0.0088066510929586221, -0.047043664699310275, -0.0039422205375847508, 0.0029655605105582128, -0.018974275172729052, -0.012298190426511438, 0.013385688507451813, -0.041063053343332261, 0.013881910877618139, -0.019037464705600617, -0.017183028255978366, 0.011378735161416863, -0.026118637738311502, -0.019408822760568822, -0.017850658735111199, 0.0044528375552978644, 0.0070882648985625685, -0.004065330252521265, 0.010364825045465532, -0.014236481287160867, 0.0040960198188440683, -0.0088561509277874789, 0.001372809372630443, -0.029869111103276141, 0.0010629787125410184, -0.007718637091949726, -0.012384272442028735, -0.0024011234707921811, -0.010807075892834602, -0.024149391552747933, -0.02175989001159756, -0.010754466681049634, -0.0015422558140655226, -0.011907145932929662 ],
      [ 0.0015687169313116868, -0.0080573947484954105, 0.0043919376741898553, 0.02161819239998623, 0.023070041604090104, 0.02149005850701384, 0.029992414721462107, 0.017627481399006946, 0.024972633794707041, 0.010255633704941793, -0.011749868032882476, 0.01678101806789678, 0.030115178557468272, 0.0058600633488919279, 0.021314347423947666, -0.0054210335179572938, -0.021376852504658393, -0.0028266312925716436, -0.013466506786759112, -0.029110804039620956, -0.01436692133287476, 0.0090114242332649634, -0.00020114272438805786, -0.00889391263272977, 0.0088358887249946269, -0.042431905480795888, 0.016148520321840314, -0.014063761266323492, -0.0013836354873514242, -0.041688964304293093, 0.0029151656789063868, -0.027599852743264465, -0.041829879730732301, -0.011471751429213955, -0.0021485979632586728, -0.028618890961696255, -0.0015628249530740476, -0.0692877667437303, -0.03782026181373728, -0.047207629512165152, 0.0043163576022249616, -0.0076308934728361337, 0.027065047035808483, 0.0021292758787530633, -0.037238321402178857, -0.023233341287016894, -0.036835684549454087, -0.0064807075989711527, 0.056299532055118305, 0.047050887056080598, 0.053148955639829604, 0.0029771650544046374, 0.0034607000615918641, -0.031345350815180591, -0.030539768624097147, -0.03517455838274075, 0.0028894851314677644, 0.032874071449492469, 0.068697564418711457, 0.080670990073765936, 0.083409290376877845, 0.08922602351094111, 0.10448084492690191, 0.052728432735804985, 0.06338396643735611, 0.023938077421846615, 0.0062851576716101143, 0.027477452444855693, 0.0072082927579163389, -0.051689667398230235, -0.078545016647591559, -0.071877277896487124, -0.079202923775803152, -0.066318503406437856, -0.012529675632698502, -0.026263254405236393, 0.029679969520424343, -0.018482181565836045, 0.0077343544840706574, 0.016150422291048641, 0.033480317994001696, -0.021173827897982674, -0.0082184223901411099, -0.010888097130604971, -0.012544794035833869, -0.012066519383619509, 0.040136601940333048, -0.052790046130305142, 0.026552107857136534, 0.0011108117872377227, 0.043295732832343697, -0.0012819007305164137, -0.011686769621965035, -0.024020085357522734, -0.0083436567324437598, 0.0030952955265622327, 0.027879691741700487, 0.013815723139309644, 0.047638747401987647, 0.023353421974023292, -0.004864966287137007, -0.011866549018914752, 0.030955413605489222, 0.057838506557520125, 0.03727567795861092, 0.02580115342455053, 0.035277607673697635, -0.017411984280818655, -0.0035342597838808705, 0.018008601017684485, -0.047439544593312864, -0.024942506444153446, -0.020995893680720943, -0.0078254339019702794, -0.00019650727109077749, 0.021417559880757862, 0.010167973278134249, -0.0023610168140703971, -0.0062768041378803412, -0.019056476155924776, -0.028011171812370856 ],
      [ -0.022195637446618344, 0.010004228183236985, 0.0088803797169561133, -0.00099898951630375543, 0.012098038802639998, -0.0058794308487817495, -0.0052271078256948267, 0.0017771875554172221, -0.0045432018819160647, -0.021953707060495216, -0.052503480171452878, 0.011288277637644353, 0.0087163165190534964, 0.0094485186389284548, 0.006137741437342999, -0.026022184197174128, -0.013613750314911936, 0.0043238725725713023, -0.0048854797898634159, -0.036499121202855665, -0.0076195061438784628, 0.071900492740733943, 0.0036340696611648071, 0.0047300148433528574, 0.0097798337269768623, -0.032625008734663903, -0.030828624094290789, 0.018576197956263522, -0.042043711422466358, -0.025408155029004939, 0.055033472343790329, 0.039395507293845625, 0.058993000793614622, 0.035257641510385254, -0.0037371025197490818, -0.015226358090021191, 0.0074437504003653839, 0.0022233487110590311, -0.073678537229384958, 0.061901495490821128, 0.041756531418133035, -0.0026046365943173584, -0.037136809974271226, -0.0026253389597745147, 0.015346304149183549, -0.01303501647117376, 0.012626743777543734, 0.0091342285940760222, -0.030440110295858244, 0.11167325144890697, -0.092441443061181225, -0.017891382843251698, 0.039602968471832943, 0.016144863194754468, -0.08404770622831613, -0.017745854284595134, -0.0091548174242229163, 0.0074382505886061157, -0.031026320844173887, 0.083306667861321848, -0.06401660338642079, 0.016857312124863914, 0.039698891620786922, -0.024109349091076086, 0.053439335471829441, -0.025059697362210115, 0.0042498658449184826, -0.019561088253234216, 0.0046281646451818035, -0.050380008284098672, -0.033071397428716683, 0.12683342917395735, 0.070791313199726452, -0.033781112599017962, 0.030230138791208221, 0.026420265205485349, 0.11648215072515422, 0.0068558739892897371, 0.00683113028411691, -0.020521874803349868, -0.004701130526216582, 0.021349189874587837, -0.053548296893396644, -0.054567903199756206, 0.0012446683399047441, -0.018741434994786671, 0.011117452162678024, 0.065642346138794189, 0.0071188000595310162, -0.0026721299926170342, 0.0046363269322641952, 0.019583147260259552, -0.040351971215469316, -0.010110343854289223, -0.004602636696324422, -0.01800809948600135, -0.025242324496289138, -0.016549922613474245, -0.059386523706598811, -0.018280701485499692, 0.016792234410092914, -0.010047378579135929, 0.01808963571159352, 0.016868946069201678, -0.0070762312159352468, 0.021745708580273505, -0.022497856900403426, 0.0089981684024310477, -0.042138090766247895, -0.019380873074955306, -0.022195337910103675, -0.017920372552724672, -0.018567708171883315, -0.021917514778922523, 0.013620556616944073, 0.0043480545332243506, -0.0067521738391659852, 0.005266997111879548, -0.013038842859068461, 0.0049432985403115885, -0.025395071904966607 ],
