var pModel = {
  "scoring": {
    "size": [20, 22], 
    "bias": -1.3970965781063711, 
    "coef": [-0.019443206312618266, -0.0084626551369373984, -0.0056439963412376806, -0.0030632716896851417, 0.0050581938798613096, 0.0038671999692946632, 0.0073781421893252819, 0.008408844556368901, 0.0021079916674897471, 0.0088021517989660455, 0.0084634202851292546, 0.0091341881048755593, 0.0021677708519095705, 0.0057905826022958259, 0.010027042924308791, 0.010018015835686447, 0.011074574130386098, -0.00061695783617744283, -0.0060840083569450205, -0.0094487678808903661, -0.012441209862965338, -0.0038650406223106025, -0.00031049888008515014, 0.003187872856386012, 0.0078183021180926356, 0.010960251877128001, 0.012100913210202307, 0.012289318801648701, 0.012872315936395949, 0.0134197639066574, 0.012863004278393353, 0.012570470005854794, 0.0144288424245574, 0.013339430524005279, 0.013248442014867023, 0.012998181709015256, 0.0080561986303109411, 0.0014670228332206666, -0.011928206846124195, -0.0097909276659884133, -0.019951337591485003, -0.014601516863452837, -0.013174779761633797, -0.0060514903696567476, -0.0010407140556988824, 0.0054650997555345483, 0.010448591237341475, 0.014061216421035866, 0.015918382919452134, 0.016360925963435087, 0.02175676516818845, 0.017301016139781272, 0.014195207612699818, 0.012452400847919372, 0.010454129710215853, 0.0040883019269826832, -0.0014194361456059026, -0.0038498599142176948, -0.010769873280441659, -0.011758097810167857, -0.0046927302624985654, -0.0022134112349382041, -0.0039804434067522172, -0.012186682535867691, -0.011886732829841436, -0.008198434083715244, 0.0028353930104073055, 0.0070820189528775831, 0.012238372017639833, 0.016348014515026394, 0.020980251210150468, 0.01731275318263429, 0.01186526524722499, 0.007237133559106634, 0.0028787582373227981, -0.007467321804467685, -0.012293394385884527, -0.014833951237083715, -0.0083886394867411403, -0.001277206299448029, -0.0043237762267366413, -0.00079995554890789644, -0.0090446939377834615, -0.015715154398522533, -0.016374353020164909, -0.018048467332774626, -0.012034275948581882, -0.0072430439975880896, 0.00051252407841081971, 0.013091943912572559, 0.018570409085074381, 0.013098815816852492, 0.0008591564011330168, -0.0064555113363009954, -0.014574145037132261, -0.018221531408352937, -0.01805986873321162, -0.016665959992610131, -0.016742981997331947, -0.012862200876738698, -0.037408776782215991, -0.026830315322269691, -0.036692867895355551, -0.034788073944897399, -0.021885031967903899, -0.024484660949111742, -0.028068870569776663, -0.018631752402912666, 0.00033862502266578511, 0.01559117928255003, 0.021178968053305464, 0.015184030917486158, 0.002942909802540911, -0.014374637994945122, -0.025568052116952664, -0.025717989966112242, -0.023218559873459776, -0.043064179414035626, -0.042244667490572319, -0.040560989397592062, -0.029282249261991376, -0.037097180414959283, -0.050209371445049687, -0.043175446636272506, -0.038799263945784764, -0.037913350312177137, -0.024596940746816367, -0.013391546719824746, 0.0026176056292311106, 0.0161600431397954, 0.021950494557360537, 0.018824694902420232, 0.006927363884398058, -0.0067099747768306958, -0.018258612142465137, -0.031150030943545643, -0.030987027023796063, -0.033628054995754796, -0.043437053800875543, -0.034534827602693656, -0.0027688241949539527, -0.0045492751804971556, -0.0029637241504820444, -0.0034067004234806259, -0.0058158675916083176, -0.0050003474884839725, -0.0052189027673953392, -0.0035094302696121191, 0.0048075866050476977, 0.015230282965296896, 0.017877023790346995, 0.015060123226282708, 0.0068301148455019063, -0.00074735425779775112, -0.0047129224250249081, -0.0020172475601060438, -0.0028733715759857248, -3.2165259563759688e-05, 0.0052576318460990619, 0.0043528918718454875, 0.016945619656148794, 0.015930900625567117, 0.013751773645422991, 0.010130474427749569, 0.0080480898297084717, 0.0066539674397816983, 0.0068324700348844428, 0.0069577044114707276, 0.0040399129489101342, 0.011715241103133139, 0.017439724961211336, 0.014273924944517397, 0.0061485975492234337, 0.0064501329867605404, 0.0064154824267410098, 0.0087972617488658849, 0.0085371084737999835, 0.0087282112830335563, 0.011782866421798245, 0.016746943082334282, 0.022118218282678175, 0.020835875059091086, 0.018311801034637344, 0.01589801188949137, 0.017833422960512931, 0.01556573659143182, 0.014048773907766661, 0.0092415766206588174, 0.008151842723012729, 0.011230814598071655, 0.01256801671117759, 0.012111623945116202, 0.0098381741274288295, 0.0073611628026903006, 0.0095541157333664112, 0.011727533965135649, 0.018125902932239795, 0.019469248207063541, 0.017398513191690286, 0.021144199041044975, 0.021132145666912093, 0.019499184169656004, 0.019592876054570843, 0.02028149781228069, 0.017450605090846959, 0.01415914728419608, 0.0062290511445100638, 0.0038367364618697264, 0.0070206311493656928, 0.0096561161467108754, 0.011406409148288063, 0.0073273774756050288, 0.0046725824974188255, 0.0052535602992445293, 0.00018758422847375771, 0.0081523629612461953, 0.012760089024104778, 0.021600004613459223, 0.02330330354276354, 0.023745752734397885, 0.018230549428489853, 0.020013388637927079, 0.019842171101705101, 0.018799688221643948, 0.010638029835974899, 0.00047497591850582786, -0.0071779359181283857, -0.0013492660142831474, 0.0015382005340972228, 0.0026091901041104195, 0.00054046824549715592, -0.00049664221846118756, -0.0004620349686195485, -0.0052440228766081143, -0.0052152354482096451, -0.010002649985436339, 0.0014386382744505852, 0.012845063185194877, 0.020827676960957435, 0.02373841052172394, 0.015716685713465389, 0.01638066669873605, 0.014902611437895159, 0.0073730357797861029, 0.0019356373041797752, -0.0061999712321189927, -0.0091165414771389678, -0.008810991502401562, -0.014849548271736901, -0.002088752298238026, 0.0052140970488441726, 0.0010527273675475608, -0.010321625138183299, -0.016207678046552692, -0.012439252596672909, -0.013087206027715756, -0.0027969969285832111, 0.0023632017053047227, 0.011157492323637063, 0.018368837091378775, 0.009522424063657664, 0.010552085697652452, 0.0065611074700353111, -0.0015314856230301123, -0.0032492038209889869, -0.0031329857351426339, -0.0009277374824954263, -0.0020968871213430215, -0.002752601764726735, 0.00094388371290420677, 5.9164336949845309e-05, -0.0017254679888374039, -0.0034420772687673035, -0.0045773609585904318, -0.0025304599008137956, -0.00038215561598060812, 0.00057078584536244593, 0.0031325966195568239, 0.0060237831417333659, 0.01158476991744758, 0.0016262584963572593, 0.0032288122743198387, 0.0012532877511827127, 0.00062747794288786391, 0.0023766730707680218, 0.0028182202873619686, 0.0023771129569157626, -0.0033402786707182365, -0.0048954226369167918, 0.0030746977489523515, 0.0062648590670420657, 0.0050231159304044643, 0.00044657525636142406, -0.0048270904988737106, -0.0040237200076292511, 0.0024988183457590458, 0.0054580394659512529, 0.0072880311920233637, 0.0036009634090189563, 0.010569246292394684, -0.0045836905885612515, 0.00057936439982262571, 0.00102991877614139, 0.0030014799750564766, 0.0036675159287522449, 0.0044718005821969111, 0.0068927421100514214, 0.0039124352937196984, 0.007139428500837236, 0.010304447674314087, 0.012609007891982103, 0.008958913992549505, 0.0086037912511740151, 0.0055408494888294774, 0.0046721790312300258, 0.0047921200350865495, 0.0058818201004558757, 0.0056047225724042979, 0.0054112450019911731, 0.0073264985149536482, -0.0027341865318231302, -0.0027247005346668829, -0.0034900498414649531, -0.0079957154687285564, -0.0040761105067111218, -0.0020778048501128819, -0.0028478822594267903, -0.0039662744056797195, -0.0026161203530461301, 0.00092611267411275692, 0.0017426886986748021, 0.00055187058776232881, -0.0013723391980049371, -0.0045995868862228262, -0.004201475995629732, -0.0054721778518871953, -0.002341678055566526, -0.0025440841811939178, -0.0078777546807155367, 5.340267621167532e-05, 0.0046873465713941241, 0.0021887942815206605, 0.0013036188253628853, -0.001369820467079858, -0.015804998363084376, -0.016267691007421516, -0.018900936626522147, -0.017659450320792951, -0.011812605534381678, -0.0034436129735933847, -0.0023483321715621502, -0.0050111463464252073, -0.0050922386240516513, -0.015030789874247219, -0.020198024497642013, -0.021620507739756673, -0.018586140603325793, -0.018723839025246693, -0.0055722698499209482, 0.0064480458300502788, 0.0026822651632485931, 0.0060010017569890623, 0.0039986244661379938, 0.0050813259426419084, -0.0059114072323689293, -0.027745788024718613, -0.029251292823436387, -0.023066523347947315, -0.017210413752997977, -0.015963112589643183, -0.021075188283476324, -0.023666705491108494, -0.020005598090990763, -0.019062969033403668, -0.017792117192348619, -0.025322677372927888, -0.020971240352056199, -0.003436645553932082, 0.0043350896839554273, 0.0084557183627534376, -0.0063213373221792614, -0.0012841346959162978, -0.0012350140140767124, 0.004020967306281667, 0.0092274867614143326, 0.0045264965008091395, 0.0041315898134410677, 0.00077108445452623935, 0.0017580819918377949, -0.0011577021001876594, -0.0036195352433658614, -0.0037319908665914719, -0.001666179302724247, 0.0031110879435167255, 0.0014906582671670387, 0.0048443015054418677, 0.0059990829294203933, 0.0084750979219295353, 0.0055827168912293912, 0.0025145315352065756, -0.0046319230006191276, -0.0076182514283882324, -0.0046593775053102001, -0.0031253513278243637, 0.0074653367528114828, 0.010125926733440484, 0.0094747053616804754, 0.0035657571954442512, 0.0057833695060832482, 0.003888133034710705, 0.0019960148005530504, 0.0015056031401225207, 0.0011132050024144288, 0.0054876547928768482, 0.0047365733649033419, 0.0072106350627162141, 0.010077746417547511, 0.0038570243972044947, -0.003118757327733293, 8.694979275512165e-05, -0.021441387266543339, -0.0072102976069877674, -0.0078359058223554552, -0.00594066743311885, -0.0016100298225058601, 0.0053450064816458259, 0.0071049496578081076, 0.010196875445129471, 0.0057577873293374569, 0.0074570800047582559, 0.0062731053175082022, 0.0076242083673520502, 0.0068436930933054993, 0.0070021422399430639, 0.0087250840640590785, 0.0089995789681808595, 0.0034314447644411355, -0.001989159567628072, -0.007896602411841893, -0.010924672368545567]
  }, 
  "path": {
    "normal": [
      [0, 1, 2, 3, 4, 5, 6, 7, 8, 9, 10, 11, 12, 13, 14], 
      [15, 16, 17, 18], 
      [19, 20, 21, 22], 
      [23, 63, 24, 64, 25, 65, 26, 66, 23], 
      [28, 67, 29, 68, 30, 69, 31, 70, 28],  
      [34, 35, 36, 42, 37, 43, 38, 39, 40],  
      [33, 41, 62],  
      [44, 45, 46, 47, 48, 49, 50, 51, 52, 53, 54, 55, 44, 56, 57, 58, 50, 59, 60, 61, 44], 
      27, 32
    ],
    "vertices": [
      // jawline
      [0,1,23,0],
      [1,23,66,1],
      [1,2,66,1],
      [2,66,26,2],
      [2,26,35,2],
      [2,35,36,2],
      [2,36,3,2],
      [36,44,45,36],
      [3,4,44,3],
      [3,44,36,3],
      [4,44,55,4],
      [4,5,55,4],
      [5,55,54,5],
      [5,6,54,5],
      [6,53,54,6],
      [6,7,53,6],
      [7,8,53,7],
      [8,52,53,8],
      [8,9,52,8],
      [9,51,52,9],
      [9,10,51,9],
      [10,50,51,10],
      [10,11,50,10],
      [11,38,50,11],
      [11,12,38,11],
      [12,38,39,12],
      [12,31,39,12],
      [12,31,70,12],
      [12,13,70,12],
      [13,28,70,13],
      [13,14,28,13],
      // right eyebrow
      [14,15,28,14],
      [15,28,67,15],
      [15,16,67,15],
      [16,67,29,16],
      [16,17,29,16],
      [17,68,29,17],
      [17,18,68,17],
      [18,68,30,18],
      [18,30,33,18],
      // below eyes
      [30,40,69,30],
      [39,40,69,39],
      [39,31,69,39],
      [26,65,35,26],
      [34,35,65,34],
      [25,34,65,25],
      // left eyebrow
      [22,25,33,22],
      [22,25,64,22],
      [21,22,64,21],
      [21,24,64,21],
      [20,21,24,20],
      [20,24,63,20],
      [19,20,63,19],
      [19,23,63,19],
      [19,23,0,19],
      // below nose
      [36,45,46,36],
      [36,42,46,36],
      [42,37,46,42],
      [37,46,47,37],
      [46,37,47,46],
      [37,47,48,37],
      [38,48,49,38],
      [37,43,48,37],
      [43,38,48,43],
      [38,49,50,38],
      // nose region
      [22,18,33,22],
      [40,41,30,40],
      [25,33,41,25],
      [33,41,30,33],
      [25,34,41,25],
      [41,40,62,41],
      [34,41,62,34],
      [34,35,62,34],
      [35,36,62,35],
      [36,42,62,36],
      [42,37,62,42],
      [37,43,62,37],
      [43,38,62,43],
      [38,39,62,38],
      [39,40,62,39],
      // mouth
      [44,45,61,44],
      [45,46,61,45],
      [46,47,61,46],
      [47,61,60,47],
      [47,59,60,47],
      [47,48,59,47],
      [48,49,59,48],
      [49,50,59,49],
      [50,51,58,50],
      [51,52,58,51],
      [52,57,58,52],
      [52,53,57,52],
      [53,54,57,53],
      [54,56,57,54],
      [54,55,56,54],
      [44,55,56,44],
      // left eye
      [23,63,27,23],
      [63,24,27,63],
      [24,64,27,24],
      [64,25,27,64],
      [25,65,27,25],
      [65,26,27,65],
      [26,66,27,26],
      [66,23,27,66],
      // right eye
      [28,67,32,28],
      [67,29,32,67],
      [29,68,32,29],
      [68,30,32,68],
      [30,69,32,30],
      [69,31,32,69],
      [31,70,32,31],
      [28,32,70,28]
    ]
  }, 
  "patchModel": {
    "patchType": "MOSSE", 
    "weights": [
      [
        [ -0.46394610031581446, -0.096070003696924214, -0.1208305189860705, -0.17540177374241131, -0.26216558834683101, -0.27167791913772882, -0.36437090667761218, -0.55319592078252666, -0.78728060926688859, -0.55319592078252833, -0.36437090667761263, -0.27167791913772843, -0.26216558834683101, -0.17540177374241148, -0.12083051898607067, -0.096070003696924228, -0.11913314137124409, 0.0035910484914590053, 0.010786577404530201, -0.072094422756858526, -0.14392313140385393, -0.26383927557318115, -0.42012015185237644, -0.45549205453482905, -0.43445618644150696, -0.31196675479906188, -0.22276845385844143, -0.14708225436866393, -0.17840741471851307, -0.13655343862963432, -0.1937386326386544, -0.22272990692282094, -0.15249646623610688, -0.078053495433965517, 0.068157696005151591, 0.050519945786257792, 0.022380781310753866, -0.24997327145270209, -0.15216413103753204, 0.10528819382322722, -0.11900594392902761, -0.15169320471900358, -0.11305087787789199, 0.011060644197993772, -0.018974393098293036, 0.0029886906522368266, -0.061790369438299624, 0.16029519527756136, 0.040858876607634514, -0.23399916490672962, -0.11655437171666003, 0.016537958012334698, 0.17015469447110704, -0.10168562380705747, 0.24097475392313944, -0.072973185060112702, -0.23648922812516038, -0.26515615925900438, -0.40965132636962004, -0.087716075415546907, -0.049861659431375521, 0.0076698733500573085, -0.07869457499512586, 0.30259777812279237, -0.28288190487722087, 0.079998124517918906, -0.1484827303219465, -0.13320714865051406, 0.075210392324844555, 0.015904728961520048, 0.086303008373693826, -0.18703215344730201, -0.4271717376622412, -0.42714350961099634, -0.17328537949122891, 0.067085388076626451, 0.15574024593579763, -0.15931244592700836, -0.15606451970221608, -0.51741291652652266, -0.047234544037772323, 0.63309833494637535, -0.074351260907941766, -0.1489251791635996, -0.076796356973989718, -0.10230128301114336, -0.24821196210773519, -0.51934639546294614, -0.2655080703085147, 0.059710201834378689, -0.10239610199425195, -0.073840785160030786, -0.081525759230662243, -0.064652934239665699, -0.047126626276037836, -0.53305824099597787, 0.40685936763483149, 0.23107034674625471, 0.19850984758080853, 0.24841437712133307, -0.07252190873664463, -0.0086066684674989558, 0.01847721684165916, -0.21101505295833514, -0.05052606859397149, 0.23713866714367579, -0.29055372306245825, -0.25059100983274502, 0.14950132233657706, 0.3495273184828433, 0.32037301910148402, 0.47930942374456198, -0.027226431187632183, -0.15230567837400749, 0.24839658213608604, 0.17878256490281477, -0.46277420706446004, -0.27017730513669352, -0.020807933272295045, -0.10697661941605137, -0.3803261455666791, 0.08660932733797605, -0.04969259849955672, 0.18106390958991961, 0.35947057082813716, 0.21173144360478266, 0.41169652062909318, 0.31583362118699654, -0.19202367845424989, -0.37044228560519432, -0.058148697451331124, 0.031476056417509987, -0.68965568458282156, 0.060433911675149242, -0.2778611331622412, 0.18998531712925773, -0.36530181191380673, 0.18998531712925731, -0.27786113316224148, 0.060433911675148923, -0.68965568458282156, 0.031476056417509855, -0.058148697451331124, -0.37044228560519332, -0.027226431187633144, 0.31583362118699443, 0.41169652062909134, 0.21173144360478199, 0.35947057082813644, 0.18106390958991844, -0.049692598499556991, 0.086609327337975522, -0.38032614556667987, -0.10697661941605198, -0.020807933272294712, -0.27017730513669297, -0.46277420706445838, 0.17878256490281638, 0.24839658213608737, -0.15230567837400533, 0.4068593676348326, 0.47930942374456009, 0.32037301910148247, 0.34952731848284269, 0.14950132233657698, -0.25059100983274574, -0.29055372306245864, 0.23713866714367607, -0.050526068593971601, -0.21101505295833511, 0.01847721684165889, -0.0086066684674989714, -0.072521908736644797, 0.24841437712133352, 0.19850984758080803, 0.23107034674625648, -0.047234544037773385, -0.53305824099597476, -0.047126626276036171, -0.064652934239665505, -0.081525759230661701, -0.073840785160030023, -0.10239610199425177, 0.059710201834377058, -0.26550807030851575, -0.51934639546294648, -0.24821196210773508, -0.10230128301114326, -0.076796356973989982, -0.14892517916359957, -0.074351260907940614, 0.63309833494637391, -0.28288190487722087, -0.51741291652652266, -0.1560645197022163, -0.15931244592700833, 0.15574024593579763, 0.067085388076626992, -0.17328537949122899, -0.42714350961099545, -0.4271717376622412, -0.18703215344730215, 0.086303008373693105, 0.01590472896152028, 0.075210392324844555, -0.13320714865051392, -0.14848273032194675, 0.079998124517918406, 0.040858876607632898, 0.30259777812279182, -0.078694574995126845, 0.0076698733500568548, -0.049861659431376118, -0.087716075415546726, -0.40965132636962065, -0.26515615925900499, -0.23648922812516054, -0.07297318506011323, 0.24097475392313891, -0.10168562380705887, 0.17015469447110698, 0.016537958012335315, -0.11655437171665972, -0.23399916490672992, -0.15249646623610694, 0.16029519527756139, -0.061790369438299624, 0.0029886906522370474, -0.018974393098292904, 0.011060644197993557, -0.1130508778778921, -0.15169320471900427, -0.11900594392902786, 0.10528819382322713, -0.15216413103753201, -0.24997327145270229, 0.022380781310753928, 0.050519945786258055, 0.068157696005151674, -0.078053495433965739, -0.11913314137124409, -0.22272990692282107, -0.19373863263865435, -0.13655343862963412, -0.17840741471851301, -0.14708225436866376, -0.22276845385844121, -0.31196675479906111, -0.43445618644150702, -0.45549205453482944, -0.420120151852377, -0.2638392755731816, -0.14392313140385396, -0.072094422756858539, 0.010786577404530019, 0.0035910484914589255], 
        [ 0.0, 0.22238312700264667, 0.35222614536455737, 0.50215025783909706, 0.58946290890108899, 0.52146195255624572, 0.40629099268574154, 0.055738070696386706, 0.0, -0.055738070696388545, -0.40629099268574187, -0.52146195255624583, -0.58946290890108899, -0.50215025783909695, -0.35222614536455749, -0.22238312700264659, 0.40120487455858189, 0.33430040035288361, 0.46539620468463261, 0.59928973119653561, 0.70671460438457767, 0.55643078801549462, 0.44807656503246535, 0.3364530182275064, 0.12636273455103697, 0.12987402278340462, -0.069481529717846227, -0.24810219631454455, -0.3134780955645553, -0.35567290967949122, -0.30713892446070601, -0.059492621952334936, 0.39913205254384715, -0.22099537579444026, -0.15703921726949899, 0.080053767270056392, 0.29668615741132259, 0.28907561340599414, 0.45464672957497398, 0.020796530208505342, -0.08796979719466877, 0.09850716263012764, 0.22220829414538673, 0.028642407706062082, 0.0047527566166036123, -0.020409424559074775, -0.019810954448459751, 0.20772402791327821, 0.44224656542830004, -0.0088301050908516903, -0.22257963177493065, -0.25353767211651806, 0.041074114354315731, 0.17820171332301524, -0.024626725907526018, -0.24000370934562454, -0.36702695158506071, -0.076353912076954522, -0.017702905065640682, 0.0090350685677840735, -0.068916801302389627, -0.096026887729497482, 0.075823256020268903, 0.15246705943092789, 0.048672447548642424, 0.6054803687977327, 0.10329987989118625, 0.063164848101326526, 0.32341834578317102, 0.29470643131041707, -0.12398496669463786, -0.20078569436534435, -0.2408985241080224, 0.28984718365982948, 0.471943603674646, -0.15581218169826896, -0.18694073112026224, -0.18584557777184257, -0.092707412331584985, -0.092776608067317481, 0.32677392668897381, 0.23448147211633594, 0.032550864908403893, -0.28458543911758094, -0.23262629176098948, 0.15892525168963881, -0.051286251891180842, 0.15413097426518832, 0.2209429584591881, 0.12541619003548021, 0.0091954403474717207, 0.06020648699192601, -0.051120476491338371, 0.17701647993342151, 0.0021659099658150774, 0.28863430043506494, 0.30855578481070006, -0.38221019973967418, 0.15972777767123164, -0.068793718580925978, -0.31943810502210296, -0.014130701262575434, -0.22417669548839583, 0.32272011955904922, 0.076611059398053377, -0.47117050732044774, -0.22329939006276711, 0.66168895529202976, 0.32502846285805553, 0.31808675081275944, 0.087620086778833692, 0.59463565743113189, 0.026956251830031124, -0.34283338418531384, 0.041106089572925254, -0.42802360838431869, -0.18836176947720631, 0.01781210352931497, 0.053442061526272643, -0.079711212130985656, 0.38478705389893259, 0.26223404471124295, 0.23087080756882122, 0.3985868716976923, 0.036158960748289566, 0.19935945918321776, 0.16353708455514179, 0.12600787537087707, 0.0, 0.015608564307680005, 0.14764019304906292, -0.21114579289154831, 0.13844437049973637, 0.1742915148467562, -0.029619389227243376, -0.14795874445072763, 0.0, 0.14795874445072749, 0.029619389227243404, -0.17429151484675687, -0.13844437049973637, 0.21114579289154869, -0.14764019304906442, -0.015608564307680723, -0.026956251830036297, -0.12600787537087696, -0.16353708455514054, -0.19935945918321643, -0.036158960748289053, -0.39858687169769214, -0.23087080756882136, -0.26223404471124356, -0.38478705389893286, 0.079711212130985781, -0.053442061526271546, -0.017812103529315171, 0.18836176947720668, 0.42802360838431952, -0.041106089572924942, 0.34283338418531251, -0.30855578481070089, -0.59463565743112901, -0.087620086778833109, -0.3180867508127605, -0.32502846285805503, -0.66168895529202998, 0.22329939006276825, 0.47117050732044841, -0.076611059398053488, -0.32272011955904911, 0.22417669548839633, 0.014130701262574475, 0.31943810502210235, 0.068793718580925353, -0.15972777767123261, 0.38221019973967185, -0.32677392668897365, -0.28863430043506816, -0.002165909965814707, -0.1770164799334219, 0.051120476491337274, -0.060206486991926766, -0.009195440347472824, -0.12541619003548016, -0.22094295845918796, -0.15413097426518904, 0.051286251891180336, -0.15892525168963989, 0.23262629176098928, 0.28458543911758244, -0.032550864908402519, -0.23448147211633441, -0.048672447548642424, 0.092776608067317828, 0.092707412331585401, 0.18584557777184335, 0.18694073112026224, 0.15581218169826871, -0.47194360367464522, -0.28984718365982892, 0.2408985241080224, 0.2007856943653438, 0.12398496669463799, -0.29470643131041685, -0.32341834578317102, -0.063164848101326304, -0.10329987989118634, -0.60548036879773393, -0.44224656542829999, -0.15246705943092759, -0.075823256020267404, 0.096026887729498675, 0.068916801302390737, -0.0090350685677838445, 0.017702905065640144, 0.076353912076954938, 0.36702695158506077, 0.24000370934562509, 0.024626725907525519, -0.17820171332301507, -0.041074114354316051, 0.25353767211651751, 0.2225796317749299, 0.008830105090851215, -0.39913205254384732, -0.20772402791327835, 0.019810954448460052, 0.020409424559074754, -0.0047527566166034796, -0.028642407706062595, -0.22220829414538704, -0.09850716263012689, 0.087969797194668728, -0.020796530208505328, -0.45464672957497398, -0.28907561340599353, -0.29668615741132293, -0.080053767270056642, 0.15703921726949871, 0.22099537579444023, -0.40120487455858195, 0.059492621952335102, 0.30713892446070606, 0.35567290967949122, 0.31347809556455553, 0.24810219631454417, 0.069481529717846435, -0.12987402278340424, -0.126362734551037, -0.33645301822750717, -0.44807656503246535, -0.55643078801549417, -0.706714604384578, -0.59928973119653584, -0.46539620468463266, -0.33430040035288372 ]
      ], 
      [ 
        [ -0.31351634857351934, -0.1074365341745388, -0.22680283482318378, -0.32796967769001256, -0.39467166935603554, -0.42569728612037555, -0.32198136424434165, -0.35481494685908027, -0.55375368712988671, -0.35481494685908077, -0.32198136424434182, -0.42569728612037477, -0.39467166935603554, -0.32796967769001262, -0.22680283482318397, -0.10743653417453884, 0.13526279974818414, 0.09418858872586891, 0.058385058098884446, 0.039629997623370654, 6.4974470721121456e-05, -0.086658019138379214, -0.058360655118551125, -0.36839794464658537, -0.31692371426500199, -0.4085020067928381, -0.42353114246756141, -0.44353395213765262, -0.40701496066017723, -0.31485291372102858, -0.25272270733209085, -0.18036199761170502, 0.087531095022917213, 0.13304860848578948, 0.078092463538618734, 0.078241889583433394, 0.0779521946740587, 0.0974778035761973, -0.081328819395928897, -0.19375441551660635, -0.080607252583769801, -0.2245599813245174, -0.15864759598129746, -0.035378257612878265, -0.012989955773726957, 0.018145341339236003, 0.20689077360281838, 0.16060882953792474, 0.41788884971520185, 0.12391609835258596, 0.17228749957464046, 0.046252232064177466, -0.11359203078217063, -0.14705993342541024, 0.025422636859510326, -0.039560902084493262, -0.075765736600248657, -0.17659145249109193, -0.090384778187749176, 0.01678950541143431, 0.072906043347946745, 0.1610845090670141, -0.041082135732082692, 0.25050342033977124, -0.2816191735609937, 0.006818584198135795, -0.069911364064016934, -0.0091713623643680069, 0.057536119001596907, -0.028050157711343809, -0.076396281641154057, -0.074657787862471695, -0.11293975695890378, 0.22013965755196876, -0.14663274295181791, -0.0051752565171633829, 0.15743178682636585, 0.21980510372797973, 0.22018711596255375, -0.031700052798339547, 0.15115903611485162, 0.21212988318002848, -0.20332593214013184, 0.42095895363821612, 0.273004667878255, 0.067197422740550586, 0.011008697112311937, 0.096287700153270817, -0.043001008935385353, -0.35167885945403377, -0.2519841178473386, -0.14890060816170034, 0.10065880463440983, 0.018736956279636258, -0.072541440328076995, -0.19332500673424394, 0.40467343212901197, 0.094396751250522007, 0.55354126951857308, 0.37296595332132998, 0.19706585903467666, -0.036217098821622516, -0.11766643033715041, -0.43400918676794503, -0.012170575298243362, -0.1519625338345077, -0.21613361072774345, 0.039345922623257583, 0.12576827127007342, -0.040294523684008245, 0.055435751515092946, 0.28684285344401067, -0.22496202369984963, -0.08977885393884788, 0.25103941467914337, 0.43536401192149227, 0.25921879529700381, 0.19922068480300864, -0.19766445308321795, -0.17707732202864776, 0.04436346786820259, -0.12205580117562363, -0.27209432110914594, -0.64841786711048965, -0.1631842607969424, 0.012483617781567617, -0.016000190118628889, 0.075522626276187887, -0.70880367802776734, -0.36096292516088219, 0.26148104411416151, -0.032945182470077695, -0.34728237160891262, -0.23654195412856932, -0.38632484096496367, -0.32772321158879231, 0.15026091438451608, -0.32772321158879286, -0.38632484096496289, -0.23654195412856904, -0.34728237160891262, -0.032945182470077577, 0.2614810441141624, -0.36096292516088269, -0.22496202369985002, 0.07552262627618464, -0.016000190118632615, 0.012483617781567008, -0.16318426079694376, -0.64841786711048921, -0.272094321109146, -0.12205580117562544, 0.044363467868202534, -0.17707732202864779, -0.19766445308321781, 0.19922068480300992, 0.25921879529700353, 0.4353640119214931, 0.25103941467914426, -0.089778853938845979, 0.40467343212901369, 0.28684285344400851, 0.055435751515092384, -0.040294523684008238, 0.12576827127007284, 0.03934592262325888, -0.21613361072774326, -0.15196253383450983, -0.012170575298244014, -0.43400918676794614, -0.11766643033714987, -0.036217098821621573, 0.19706585903467674, 0.37296595332132998, 0.5535412695185733, 0.09439675125052456, 0.15115903611485301, -0.19332500673424111, -0.072541440328075801, 0.018736956279636237, 0.10065880463440997, -0.1489006081617007, -0.25198411784733987, -0.35167885945403543, -0.043001008935385228, 0.096287700153271455, 0.011008697112313165, 0.067197422740552265, 0.273004667878255, 0.42095895363821706, -0.20332593214013273, 0.21212988318002751, -0.2816191735609937, -0.031700052798339727, 0.22018711596255383, 0.21980510372797959, 0.15743178682636585, -0.0051752565171633508, -0.14663274295181797, 0.22013965755196804, -0.11293975695890378, -0.074657787862470543, -0.076396281641153779, -0.028050157711343456, 0.057536119001596907, -0.0091713623643682463, -0.069911364064017212, 0.0068185841981357733, 0.41788884971520229, 0.25050342033977174, -0.041082135732082851, 0.16108450906701416, 0.072906043347946842, 0.016789505411434216, -0.090384778187748857, -0.17659145249109165, -0.075765736600248948, -0.039560902084493539, 0.025422636859510076, -0.14705993342541113, -0.11359203078217041, 0.046252232064177362, 0.17228749957464032, 0.12391609835258674, 0.087531095022917074, 0.1606088295379248, 0.20689077360281835, 0.018145341339236044, -0.012989955773726988, -0.035378257612878598, -0.15864759598129757, -0.22455998132451802, -0.080607252583770328, -0.19375441551660658, -0.081328819395929175, 0.097477803576197522, 0.077952194674058506, 0.078241889583433546, 0.078092463538618678, 0.13304860848578945, 0.1352627997481842, -0.18036199761170493, -0.25272270733209079, -0.31485291372102847, -0.40701496066017712, -0.44353395213765329, -0.42353114246756146, -0.40850200679283782, -0.31692371426500215, -0.3683979446465856, -0.058360655118551319, -0.086658019138379408, 6.4974470721101751e-05, 0.03962999762337039, 0.058385058098884335, 0.094188588725868827], 
        [ 0.0, 0.18230456553467092, 0.19565628219340259, 0.25587395215894493, 0.21753917464137323, 0.21813761080688346, 0.21438511798971635, 0.0061994492019098683, 0.0, -0.0061994492019113731, -0.21438511798971682, -0.21813761080688382, -0.21753917464137323, -0.25587395215894471, -0.19565628219340259, -0.18230456553467095, 0.2105449992755169, 0.34951710439354988, 0.33920806539940423, 0.39967847405767803, 0.36448569327811059, 0.38403638353113168, 0.26503284801987764, 0.10408717594348288, 0.16760205143635484, 0.034633176330989814, 0.014087415473643637, -0.055251199215487191, -0.014696879616117237, 0.01142036508396992, -0.017952783909728355, -0.071163593169747311, -0.13560126859124788, -0.18561030658135738, -0.26068542545083978, -0.10368170507099619, -0.0023300702253022383, -0.020061689327028981, -0.087480124189050476, 0.13343369513518241, -0.0046606986401759492, -0.026572348919937254, 0.045775614760273135, -0.041812172653256319, -0.060714735527698925, 0.049659661855825515, -0.033812752085629609, 0.0036885659454935038, -0.024660936225862757, -0.5163692306054869, -0.25217541328687232, -0.41077052728920527, -0.28722294803883636, -0.20064835260450731, -0.25708420899417722, -0.26281689795586527, -0.14457152142525173, -0.064414594627831445, 0.023989119534992994, 0.10872323115698321, 0.030787213727994867, -0.019850112459576956, 0.078161007585997672, 0.23854699363512324, -0.15011655316179112, 0.21486862886651253, -0.095075271602481526, -0.19723431703265165, 0.032114823917894712, -0.14326652038288681, -0.2168624022864514, -0.32693128157216433, 0.053499776569691258, -0.044867334198889455, -0.067182987150988083, 0.12660288609119355, 0.097799645221171558, 0.090347337390498633, -0.19441176910774016, -0.24797226820446036, -0.443543588375513, -0.40695369272656984, 0.1070253317576052, 0.1429761337178615, -0.043757087039094436, -0.0083640874818297056, 0.10719936330245645, -0.041372653338528256, -0.45814120283976117, -0.28409145354623522, 0.063711834528409061, 0.18523001939833939, 0.19086230546621011, -0.21563980445563838, -0.20270612578332917, -0.24126604532775264, -0.013173394076250912, -0.1654604418517468, -0.33303598652737082, -0.59164216113773538, -0.5727126160804914, -0.31514282531281057, -0.59397105410971462, -0.33886552847673829, 0.44671013784136704, -0.10095612329441674, 0.010345973655216148, 0.10991241061403829, 0.097559840009068935, -0.056986271385377721, 0.11019309150938364, -0.0067934055471751686, 0.15480085497459045, 0.31332902351579062, 0.30333181898445921, 0.053625227035501002, -0.22931358095632809, -0.15728549278910525, -0.29664547011600079, -0.17737301341116335, 0.20696029114135478, -0.013550752027316629, -0.38861587698767647, -0.14398844709924927, 0.028308332737719957, -0.012025976202671828, -0.099425370204631117, -0.24858773247070171, 0.0, 0.46915692217725152, 0.43084115300276404, -0.047454043519736429, 0.048814105307067542, 0.039023758648338722, -0.28423686591180575, 0.19680511521063329, 0.0, -0.1968051152106334, 0.28423686591180597, -0.03902375864833911, -0.048814105307067542, 0.047454043519735881, -0.43084115300276371, -0.4691569221772508, -0.15480085497459101, 0.24858773247070276, 0.099425370204632088, 0.012025976202673604, -0.028308332737719336, 0.14398844709925002, 0.38861587698767575, 0.013550752027316261, -0.20696029114135386, 0.1773730134111641, 0.29664547011600106, 0.15728549278910492, 0.22931358095632767, -0.053625227035499858, -0.30333181898446177, -0.31332902351579417, 0.013173394076250206, 0.0067934055471742033, -0.11019309150938454, 0.056986271385377596, -0.097559840009069018, -0.10991241061403791, -0.010345973655217163, 0.10095612329441576, -0.44671013784136693, 0.33886552847673979, 0.59397105410971507, 0.31514282531281096, 0.57271261608049195, 0.59164216113773627, 0.33303598652737076, 0.16546044185174624, 0.44354358837551378, 0.24126604532775195, 0.20270612578332806, 0.21563980445563802, -0.19086230546621069, -0.18523001939834102, -0.063711834528410338, 0.28409145354623416, 0.45814120283976167, 0.041372653338529103, -0.10719936330245677, 0.0083640874818285207, 0.043757087039093756, -0.14297613371786308, -0.10702533175760386, 0.40695369272657456, 0.15011655316179112, 0.24797226820446047, 0.19441176910774013, -0.090347337390498716, -0.097799645221171558, -0.12660288609119372, 0.067182987150987902, 0.044867334198889483, -0.053499776569691258, 0.3269312815721645, 0.21686240228645173, 0.14326652038288709, -0.032114823917894712, 0.19723431703265162, 0.095075271602481498, -0.21486862886651245, 0.02466093622586335, -0.23854699363512449, -0.078161007585997214, 0.01985011245957731, -0.030787213727994773, -0.10872323115698314, -0.023989119534992939, 0.064414594627831515, 0.14457152142525126, 0.26281689795586466, 0.25708420899417661, 0.20064835260450734, 0.28722294803883641, 0.4107705272892051, 0.25217541328687193, 0.51636923060548767, 0.13560126859124785, -0.0036885659454933494, 0.033812752085629706, -0.049659661855825474, 0.060714735527698835, 0.041812172653256326, -0.045775614760272906, 0.026572348919937316, 0.004660698640175806, -0.13343369513518172, 0.087480124189050476, 0.020061689327029102, 0.0023300702253024148, 0.10368170507099629, 0.26068542545083995, 0.18561030658135722, -0.21054499927551698, 0.071163593169747408, 0.01795278390972847, -0.01142036508396975, 0.014696879616117301, 0.055251199215487157, -0.014087415473643327, -0.034633176330989841, -0.16760205143635487, -0.10408717594348409, -0.26503284801987803, -0.38403638353113206, -0.36448569327811076, -0.3996784740576782, -0.33920806539940435, -0.34951710439355022 ]
      ], 
      [ 
        [ -0.31595128267911038, -0.087927119448501581, -0.20530215826808121, -0.2581629389723617, -0.32892013886290933, -0.3448535266593068, -0.15741797673479546, -0.22038517481739817, -0.4063480092610266, -0.22038517481740041, -0.15741797673479621, -0.3448535266593073, -0.32892013886290933, -0.2581629389723622, -0.20530215826808118, -0.087927119448501623, -0.016563448422652369, -0.12742929222247978, -0.23878536383152166, -0.25144765123125579, -0.19121070117807612, -0.26978383686380264, -0.21450028233540669, -0.12582031425376808, -0.097319276625672482, -0.11754311350605898, -0.20697275872412099, -0.18864486398035377, -0.18959609471707772, -0.13278763604837351, -0.095897461685501853, -0.030153739088890213, 0.2299144930729797, -0.020206252727813463, -0.13806462771528522, -0.084928681883431736, -0.012284931796563989, -0.11480750389709479, -0.1877056173125877, -0.0086040851336654615, 0.080546713352892318, 0.13492892016031366, 0.16139728563491842, 0.11702760016997499, 0.094617613917693549, 0.20962041754252683, 0.23979392383788783, 0.26207403425224107, 0.29683980806331633, 0.1977460931086546, 0.098294702343032489, -0.055515320109507126, -0.051907584965154067, 0.12347881559059225, -0.037137604323276674, 0.042001578761056244, 0.051471207651872838, 0.28584993890736682, 0.1220952665933136, -0.14599188261560808, -0.15719414120642625, 0.061460824214902572, 0.12811076092539359, 0.25797051906422713, 0.18337523715062434, 0.31560452780025711, 0.22484531897291288, 0.019264727766510167, -0.12773006915144591, -0.31605423318781417, -0.22437706041893388, -0.23602995000733731, -0.052528676827916773, -0.26734293184019908, -0.056734979474633983, 0.21167966454484144, 0.14305972662765876, 0.12624497163590725, 0.045379120407484944, -0.12575004773056697, 0.037136523177710642, 0.10457587436496227, 0.12541898242248528, 0.082506324136197393, -0.28490249804001666, -0.23510137460376465, -0.14284261437789636, -0.11590306626883883, -0.34085993820129162, -0.18708068709290554, -0.12161093286168831, 0.043198751185504196, -0.10870150971159538, -0.020983695847035591, 0.034156263450372523, -0.045559979735032591, -0.3818593165308416, 0.03063129996395356, 0.25354002014501736, 0.10069956840212956, -0.19303353809153012, -0.046670422754140621, -0.061672906679032254, -0.13038402491202553, -0.3733297066489718, -0.1346720588524187, -0.099575408328904838, 0.18477279510027309, -0.023264648513478745, 0.021931840929601761, 0.33028128719741245, 0.19262846269255493, -0.16553823432626158, 0.012433817963303204, -0.089787309917863059, 0.13074905139160009, 0.15912532039349223, 0.027640835246366572, -0.06979708695537637, 0.019216781203004865, 0.31658824268524433, 0.095624621755735398, -0.056351340447963458, -0.035241168764514767, 0.067068044138040336, -0.16545684258199769, 0.071396273142124267, -0.022158428460970533, 0.044860784473210423, -0.095550805151053755, -0.27963832548360318, -0.36073888405562143, -0.025547197924794072, -0.25287084975759416, -0.11596950693713959, 0.084901618617594835, 0.15210510683936698, 0.084901618617595279, -0.11596950693713999, -0.25287084975759416, -0.025547197924794072, -0.36073888405562127, -0.27963832548360251, -0.095550805151053256, -0.16553823432625966, -0.022158428460970877, 0.071396273142124073, -0.16545684258199703, 0.067068044138041114, -0.035241168764513678, -0.056351340447963118, 0.095624621755735523, 0.31658824268524455, 0.019216781203005188, -0.069797086955375107, 0.027640835246369094, 0.15912532039349378, 0.13074905139160226, -0.089787309917859839, 0.012433817963306178, -0.38185931653084154, 0.19262846269255432, 0.33028128719741212, 0.021931840929602146, -0.023264648513478335, 0.18477279510027353, -0.099575408328904505, -0.13467205885241829, -0.37332970664897103, -0.13038402491202514, -0.061672906679031914, -0.046670422754139448, -0.19303353809153018, 0.10069956840212925, 0.25354002014501825, 0.03063129996395459, 0.037136523177711066, -0.04555997973503171, 0.034156263450372697, -0.020983695847035997, -0.1087015097115956, 0.043198751185503599, -0.12161093286168917, -0.18708068709290632, -0.34085993820129218, -0.11590306626883944, -0.14284261437789669, -0.2351013746037634, -0.28490249804001538, 0.082506324136197545, 0.12541898242248528, 0.10457587436496203, 0.18337523715062434, -0.12575004773056678, 0.045379120407484944, 0.12624497163590695, 0.14305972662765876, 0.21167966454484155, -0.056734979474633726, -0.26734293184019914, -0.052528676827916773, -0.23602995000733731, -0.22437706041893363, -0.31605423318781312, -0.12773006915144591, 0.019264727766510219, 0.2248453189729126, 0.31560452780025711, 0.2968398080633165, 0.25797051906422763, 0.12811076092539311, 0.061460824214902385, -0.15719414120642664, -0.14599188261560819, 0.1220952665933141, 0.28584993890736693, 0.051471207651872616, 0.042001578761055751, -0.037137604323276528, 0.12347881559059293, -0.051907584965154255, -0.055515320109506987, 0.098294702343032364, 0.19774609310865537, 0.22991449307297956, 0.26207403425224102, 0.23979392383788783, 0.20962041754252694, 0.094617613917693508, 0.11702760016997506, 0.1613972856349184, 0.13492892016031324, 0.080546713352892166, -0.0086040851336658987, -0.18770561731258767, -0.11480750389709429, -0.012284931796563514, -0.084928681883431806, -0.13806462771528516, -0.020206252727813505, -0.016563448422652342, -0.030153739088890193, -0.095897461685501784, -0.13278763604837346, -0.18959609471707767, -0.18864486398035343, -0.20697275872412116, -0.11754311350605881, -0.097319276625672788, -0.1258203142537693, -0.21450028233540805, -0.26978383686380319, -0.19121070117807626, -0.25144765123125595, -0.23878536383152141, -0.12742929222247984], 
        [ 0.0, 0.16271396366356944, 0.14955977326391956, 0.18074975238889945, 0.027548965153586989, 0.092674785728547759, 0.03642359433180916, -0.11388445426038482, 0.0, 0.11388445426038273, -0.03642359433180975, -0.092674785728548634, -0.027548965153586989, -0.18074975238889926, -0.1495597732639195, -0.16271396366356952, -0.29164375324056063, -0.054149514907883431, -0.00091047082504403247, -0.010070518893502769, -0.072262805955670362, -0.097945491832289192, -0.033272863702294188, 0.044926386488257114, -0.024775836924413701, -0.12131227378539652, -0.098143785597258601, -0.15497218284715136, -0.20010868910774027, -0.20189997098924356, -0.14019299001707736, -0.15039073747339388, -0.27098180584492337, -0.2713669925689835, -0.27126122201121194, -0.18285008005422509, -0.20235434163116947, -0.39873430711464719, -0.3010680152124327, -0.20182496389022431, -0.23607722901384565, -0.16756794592233012, -0.28724878289369099, -0.35511783112679979, -0.29789570850370739, -0.099325635682813204, -0.020369780182632229, 0.045337799596471252, -0.0025581017601541377, -0.38432695041969273, -0.36653413061822399, -0.40379485439006152, -0.1197532543249922, -0.15768788339501358, -0.10092298112259569, -0.074183458618874112, -0.13202504116100258, -0.28406578113079872, -0.42422174052293521, -0.27644306950471581, 0.19350534765585867, 0.22301625957944818, 0.11243059568681101, 0.16743758971884862, 0.25476997090587694, 0.081552958968567776, -0.056344174654899375, -0.16516296801457242, -0.18152195900514717, -0.037104479226324857, -0.020062926975435144, -0.087587761090995087, -0.27231324661513212, -0.28755623167714223, 0.05867334874503382, 0.023764163617993921, 0.1492900381375174, 0.10338958939054156, 0.088859344577480126, 0.11125986965529414, -0.030962335575397973, 0.0637226999192127, -0.00095807933403726272, -0.052840239920270794, -0.20878184041426764, -0.058108786271115563, 0.13419961867702143, -0.029853473033980261, -0.10274768109862091, -0.033858400294167999, 0.15564687743763259, 0.033714834688422034, 0.047545579336480272, 0.056195329894533116, -0.1109966619965044, -0.17029837368452114, -0.21942097591336301, 0.020040577986285949, 0.1288868971370955, -0.065454704590985027, -0.10736518721400119, 0.13830777860898455, -0.12813563772904157, -0.051441267977771141, -0.15039025188697394, 0.13078065679483622, -0.15516363916195744, -0.3560276495547437, -0.23215914158255999, 0.039717799697143313, -0.057304092794503547, -0.3402733020380993, 0.41910354538246641, 0.24688863144449075, 0.21115389744149965, 0.27242922847219475, -0.24054872014687734, -0.60428747795674598, -0.41704166772643836, -0.27147470938650814, 0.0076026908702895458, -0.31192627954212143, -0.17170731633321351, 0.0045279554496652028, 0.01340026538771626, 0.09088825733939325, 0.21008580168957927, 0.24450095822737627, 0.0, 0.072396696801998964, 0.070770118552756306, 0.28472098233870247, -0.018690469954070504, -0.26718699080590358, 0.045775993237638576, -0.038820306607635587, 0.0, 0.038820306607635899, -0.045775993237638667, 0.26718699080590347, 0.018690469954070504, -0.28472098233870197, -0.070770118552756167, -0.072396696801999533, -0.41910354538246575, -0.24450095822737636, -0.21008580168957974, -0.090888257339393194, -0.013400265387716296, -0.0045279554496658828, 0.17170731633321332, 0.31192627954212127, -0.0076026908702903203, 0.27147470938650664, 0.41704166772643853, 0.6042874779567452, 0.24054872014687537, -0.27242922847219603, -0.2111538974415002, -0.246888631444491, 0.21942097591336249, 0.34027330203809975, 0.057304092794502867, -0.039717799697143369, 0.23215914158255985, 0.35602764955474292, 0.15516363916195711, -0.1307806567948365, 0.15039025188697375, 0.051441267977771342, 0.12813563772904155, -0.13830777860898466, 0.10736518721400068, 0.065454704590985208, -0.12888689713709514, -0.020040577986288222, 0.030962335575398296, 0.17029837368451997, 0.1109966619965039, -0.056195329894532929, -0.047545579336480633, -0.033714834688422526, -0.15564687743763264, 0.033858400294167937, 0.10274768109862135, 0.029853473033980928, -0.13419961867702057, 0.058108786271115841, 0.20878184041426706, 0.052840239920269746, 0.00095807933403771516, -0.063722699919210493, -0.25476997090587694, -0.11125986965529411, -0.088859344577479932, -0.10338958939054166, -0.1492900381375174, -0.023764163617993665, -0.05867334874503316, 0.28755623167714289, 0.27231324661513212, 0.087587761090995059, 0.020062926975434953, 0.037104479226324732, 0.18152195900514717, 0.16516296801457231, 0.056344174654899243, -0.08155295896856786, 0.0025581017601536082, -0.16743758971884906, -0.1124305956868113, -0.22301625957944851, -0.19350534765585853, 0.27644306950471642, 0.42422174052293465, 0.28406578113079844, 0.13202504116100253, 0.074183458618873738, 0.10092298112259636, 0.15768788339501311, 0.11975325432499166, 0.40379485439006024, 0.3665341306182236, 0.38432695041969278, 0.27098180584492332, -0.045337799596471315, 0.020369780182632049, 0.099325635682812843, 0.29789570850370739, 0.35511783112680018, 0.28724878289369105, 0.16756794592233026, 0.23607722901384551, 0.2018249638902245, 0.30106801521243237, 0.39873430711464874, 0.20235434163116964, 0.18285008005422529, 0.27126122201121206, 0.27136699256898372, 0.29164375324056069, 0.15039073747339388, 0.14019299001707741, 0.20189997098924362, 0.20010868910774041, 0.15497218284715131, 0.098143785597258129, 0.12131227378539537, 0.024775836924413912, -0.04492638648825794, 0.033272863702294549, 0.097945491832289455, 0.072262805955670265, 0.010070518893503326, 0.00091047082504414143, 0.0541495149078835 ]
      ], 
      [ 
        [ -0.34483282248638125, -0.042984734082227471, -0.090345894687460515, -0.050059329613822146, -0.02320498289906163, 0.12965755376711599, 0.095331637907013073, 0.034972508050103296, -0.43255448116857187, 0.03497250805010222, 0.095331637907013336, 0.12965755376711496, -0.02320498289906163, -0.050059329613822527, -0.090345894687460584, -0.04298473408222752, -0.14114370618331556, 0.14997289978174469, 0.14108422521372402, 0.11111509945701468, -0.01791556856310823, 0.057777052865640048, 0.032480802744893206, 0.045602879724259228, 0.057607742133880459, 0.059144855174671232, -0.027784140817083053, -0.07279325228906712, -0.17555715837546523, -0.20700510710507125, -0.18207951287118165, -0.15207000451135638, 0.13427579527978672, -0.0474054901040913, -0.022298926937799845, 0.048178083256480965, 0.11582397796918047, 0.10502236483937846, 0.28739322980017179, 0.027796735746649422, 0.045465779908901001, -0.18685580786321837, -0.27059504232502907, -0.34806991900923795, -0.40215578481478587, -0.3032184351917882, -0.18250809210751007, 0.17096736448851124, -0.074492456704574717, 0.067793697021723179, 0.12012220287543163, -0.17297997179151614, 0.1118241578387618, -0.0040489131837844351, -0.11646564971651378, -0.13744672540781147, -0.20347920227239502, -0.27655540496689046, -0.3125580210444267, -0.32285108045421312, -0.11335174539664712, 0.035736074334578698, 0.0080152089234144866, 0.10206978923849652, 0.26102355132337629, 0.13001880047402289, -0.017171512454039257, -0.26264847572390443, -0.3072769047660785, -0.06245961582114605, 0.099679770388360178, -0.061376883336895609, -0.11034140734701681, -0.22352235255522718, -0.027711808343487392, -0.031632575195040202, 0.28084496099320494, -0.12571060525544284, -0.31768298423967972, 0.074817545265816909, 0.27507361066622321, -0.12497534902121163, -0.29016257089481973, -0.47175014494753476, 0.0010605617831593364, 0.1370589256979545, 0.28901617528679463, -0.16668535915903596, -0.33005726742083291, -0.18241524802091394, -0.13628434819548507, 0.45396151325463802, -0.30502623002658835, -0.28799898159300324, 0.027336228539846786, 0.088594020705660512, -0.41729559900741858, -0.12721701574671151, -0.38046200048586359, 0.19613333660497029, 0.41915165263027426, 0.18096512661649478, -0.23084043559256268, -0.2594512659894237, -0.3078773396405825, 0.17044975943687321, 0.13922871682814844, 0.27199954048701558, -0.081098234633103866, -0.12692473747201524, -0.059846244028854995, -0.20832251845523786, -0.21047070044720315, -0.7071094576900494, -0.34252586910850152, 0.03335117949439264, 0.059867655250987688, -0.24076493572996302, 0.10211697435629039, -0.050135061800099724, 0.20666135954350101, 0.043170600952150084, -0.12371069354452519, 0.025276702815280667, -0.0049156161198711601, -0.42807092421217635, 0.021451736032093875, 0.10164789555123788, 0.0028663630246618496, 0.079080583863003054, 0.14451098714450469, -0.093498988971421795, -0.13895210460731763, -0.044588882196434775, -0.11181581099442062, -0.43204028800097172, 0.13343122462420634, -0.43204028800097133, -0.11181581099442102, -0.044588882196434573, -0.13895210460731763, -0.09349898897142124, 0.14451098714450458, 0.079080583863003262, -0.21047070044720212, 0.10164789555123974, 0.021451736032095426, -0.42807092421217663, -0.0049156161198714143, 0.025276702815281254, -0.12371069354452466, 0.043170600952149758, 0.20666135954350012, -0.050135061800100515, 0.10211697435628972, -0.24076493572996374, 0.059867655250988194, 0.033351179494393472, -0.3425258691084998, -0.70710945769005007, -0.41729559900741936, -0.20832251845524094, -0.059846244028853066, -0.12692473747201355, -0.081098234633104796, 0.27199954048701575, 0.13922871682814686, 0.17044975943687288, -0.30787733964058278, -0.25945126598942392, -0.23084043559256329, 0.18096512661649408, 0.41915165263027476, 0.19613333660497176, -0.38046200048586132, -0.12721701574671188, 0.27507361066622205, 0.088594020705661761, 0.027336228539844791, -0.28799898159300524, -0.30502623002658791, 0.45396151325463791, -0.13628434819548504, -0.18241524802091388, -0.33005726742083269, -0.16668535915903601, 0.28901617528679396, 0.13705892569795411, 0.001060561783159369, -0.4717501449475352, -0.29016257089481956, -0.12497534902121206, 0.26102355132337629, 0.074817545265817326, -0.31768298423967939, -0.12571060525544295, 0.28084496099320494, -0.031632575195040778, -0.027711808343487562, -0.22352235255522646, -0.11034140734701681, -0.061376883336895789, 0.099679770388359401, -0.062459615821145821, -0.3072769047660785, -0.26264847572390443, -0.017171512454039202, 0.13001880047402281, -0.074492456704575327, 0.10206978923849645, 0.0080152089234145005, 0.035736074334578885, -0.11335174539664725, -0.32285108045421329, -0.31255802104442698, -0.27655540496689041, -0.20347920227239552, -0.13744672540781147, -0.11646564971651341, -0.0040489131837844828, 0.11182415783876176, -0.17297997179151575, 0.12012220287543172, 0.067793697021723789, 0.13427579527978664, 0.17096736448851113, -0.18250809210751026, -0.30321843519178809, -0.40215578481478598, -0.34806991900923806, -0.27059504232502885, -0.18685580786321823, 0.045465779908901043, 0.027796735746649939, 0.28739322980017162, 0.10502236483937791, 0.11582397796918055, 0.048178083256480861, -0.022298926937799821, -0.047405490104091313, -0.14114370618331559, -0.1520700045113563, -0.18207951287118165, -0.20700510710507111, -0.17555715837546515, -0.07279325228906694, -0.027784140817082633, 0.059144855174671822, 0.057607742133880292, 0.045602879724258215, 0.032480802744893018, 0.057777052865639958, -0.017915568563108285, 0.11111509945701452, 0.14108422521372382, 0.14997289978174461], 
        [ 0.0, 0.16962901453866652, 0.21269770297140217, 0.1727191238701527, 0.046267911955572089, 0.02953125036511501, 0.058287561229818444, -0.095779951300880586, 0.0, 0.095779951300880045, -0.058287561229818388, -0.029531250365116411, -0.046267911955572089, -0.1727191238701527, -0.2126977029714022, -0.16962901453866655, -0.22302957168436741, 0.16965811207568204, 0.18336889778988974, -0.088663682872318725, 0.067597625132220437, 0.06385600219666647, -0.017695323602707164, -0.009604034512905717, 0.037074962265104448, -0.15799049788479633, -0.073319837189856629, -0.14972720477542192, -0.20990283324593068, -0.21749851576291898, -0.20625240915627471, -0.20334415392221647, 0.07513269912101142, -0.054678022228785636, -0.024060788183210346, -0.047185444971659045, 0.03391172100670304, -3.0268723099862445e-06, -0.25024994736266315, -0.038103066771708376, -0.11651006031722641, -0.23866584765631299, -0.18207316929963618, -0.2111649940276013, -0.24648586125146155, -0.2092189091945309, -0.38707548520959933, 0.02255351819831684, 0.080684500710098916, -0.26393167464273931, -0.12325356235833469, -0.094547494463104301, -0.0089706264485344116, -0.036133736675697359, -0.079415210361762897, -0.19088755200041341, -0.27828542851968496, -0.23282159352202242, -0.16308309358158843, -0.070839044458485059, -0.038543971613991986, 0.017089626578170116, 0.04319352757479919, 0.14207166296868473, 0.027055975157083828, 0.077663530269285797, -0.19214599788761236, 0.076989093312928886, -0.12787412246390262, -0.3265860156259332, -0.19910835627040066, -0.38331638218801478, -0.35997230578119754, -0.12052175014746827, -0.01015069737316778, 0.12525468429924788, -0.067877573488139595, -0.25746191636848098, 0.12083801397950332, -0.063136796565635506, 0.094078746437176688, 0.10058182827147114, -0.1909049690347773, -0.12378861028496049, -0.015264703046858922, -0.17445291136323118, -0.20904837282930369, -0.31845281708130974, -0.04292846414621846, 0.067232030842067664, 0.011274026102273365, -0.038055493527703113, -0.61800711370715333, -0.071913082088442062, -0.040341919329114954, -0.31852928248976609, -0.021304067362057325, -0.24466209901000732, -0.35913870873274062, 0.064543637606054236, 0.20967883647830643, -0.013714645761932499, 0.14617782927609474, -0.020857699222551283, 0.27404420352966974, -0.1478557844128921, 0.41903068521612724, 0.10342057440604367, 0.017208293576747778, -0.16366832975749462, -0.058049248048017345, -0.1492983709514524, -0.16857892937009419, 0.088012542390196874, 0.40957453439607916, 0.15549808520266384, 0.24184368829775707, 0.39539936933470676, 0.3647881020793714, 0.14148369572789557, 0.10739245508188698, -0.41001132014759267, 0.24730621368942587, 0.19327870113146847, -0.31674926028865641, -0.003022039995959193, 0.18023922466856981, -0.18448795021122044, 0.0, 0.153864009554988, -0.01817109483868647, -0.14555675463259543, -0.037444093733182165, 0.030424224133618224, -0.27518876852464846, 0.052643839820104045, 0.0, -0.052643839820104274, 0.27518876852464874, -0.030424224133619036, 0.037444093733182165, 0.14555675463259596, 0.018171094838686286, -0.15386400955498786, 0.16857892937009572, 0.18448795021122072, -0.18023922466857176, 0.0030220399959582272, 0.31674926028865658, -0.19327870113146789, -0.2473062136894261, 0.41001132014759162, -0.10739245508188718, -0.14148369572789615, -0.36478810207937123, -0.3953993693347051, -0.24184368829775646, -0.15549808520266484, -0.4095745343960831, -0.088012542390198525, 0.021304067362057297, 0.14929837095145401, 0.058049248048017608, 0.16366832975749607, -0.017208293576747625, -0.1034205744060441, -0.41903068521612724, 0.14785578441289152, -0.27404420352966935, 0.020857699222552071, -0.14617782927609382, 0.013714645761932966, -0.20967883647830687, -0.064543637606055373, 0.35913870873274012, 0.24466209901000782, -0.094078746437175953, 0.31852928248976781, 0.040341919329118771, 0.071913082088443672, 0.61800711370715444, 0.038055493527702697, -0.011274026102272915, -0.067232030842067608, 0.042928464146219432, 0.31845281708130951, 0.20904837282930411, 0.17445291136323146, 0.015264703046858836, 0.1237886102849603, 0.1909049690347763, -0.10058182827147105, -0.027055975157083828, 0.06313679656563545, -0.12083801397950346, 0.2574619163684802, 0.067877573488139595, -0.12525468429924783, 0.010150697373167782, 0.12052175014746852, 0.35997230578119754, 0.38331638218801428, 0.19910835627040077, 0.32658601562593337, 0.12787412246390262, -0.076989093312928789, 0.19214599788761258, -0.077663530269285741, -0.080684500710100318, -0.14207166296868445, -0.043193527574798239, -0.017089626578169773, 0.038543971613991999, 0.070839044458485156, 0.16308309358158862, 0.23282159352202278, 0.27828542851968496, 0.19088755200041368, 0.079415210361763175, 0.036133736675697484, 0.0089706264485342382, 0.094547494463102968, 0.12325356235833271, 0.26393167464273809, -0.075132699121011365, -0.022553518198316747, 0.38707548520959961, 0.20921890919453104, 0.24648586125146169, 0.21116499402760158, 0.18207316929963638, 0.23866584765631282, 0.11651006031722641, 0.038103066771707841, 0.25024994736266276, 3.0268723095211455e-06, -0.033911721006703172, 0.047185444971658809, 0.024060788183210377, 0.05467802222878556, 0.22302957168436743, 0.20334415392221658, 0.2062524091562748, 0.21749851576291901, 0.20990283324593073, 0.14972720477542112, 0.073319837189855505, 0.15799049788479488, -0.037074962265104518, 0.0096040345129051428, 0.017695323602707261, -0.063856002196666012, -0.067597625132220604, 0.088663682872318836, -0.18336889778988966, -0.16965811207568204 ]
      ], 
      [ 
        [ -0.26455443960572983, -0.012862085419144593, 0.024664214811442261, 0.035128479228019163, -0.0020062805227355099, -0.020330910517938859, 0.3161870500348079, 0.054900342253254367, -0.1276061422597404, 0.054900342253253943, 0.31618705003480824, -0.020330910517938883, -0.0020062805227355099, 0.035128479228018622, 0.024664214811442153, -0.012862085419144614, -0.20363140244204991, 0.18075656630682849, 0.033560938573614946, 0.079163738158961411, 0.18450440388323605, -0.022885965169404603, -0.15589828843244458, -0.056775010470665355, -0.096021860586284202, 0.0086471718043216791, 0.09021853492597047, -0.047273169510090918, -0.0017201533257739164, -0.11752890767371037, -0.16416996751526927, -0.19196040317685931, -0.21122271871274972, -0.027154041509900168, -0.099929970026742573, -0.17949272531312449, 0.0057054044920042558, 0.14759294628596736, -0.12107578456718354, 0.16501984993499205, 0.11315995348184579, 0.049578594917528918, 0.041332076755720967, -0.09315256630422393, -0.21429798411075102, -0.32661273597529766, -0.47012407976036624, -0.39744532861045856, -0.040741935591902152, -0.3454295471157835, -0.085066435241094182, 0.10994963906329699, 0.077204282878499855, 0.21808343506769917, 0.073598226885335058, 0.075199966709686136, 0.25945300111150726, 0.15622216677799672, -0.090978231053644068, -0.26439882782707014, -0.44425905725122811, -0.59003242807803602, -0.55729991239758336, 0.07714376304891328, 0.3440328783856047, 0.037609199601186284, 0.060389532357103461, 0.26657038433810337, 0.042478856625865126, 0.24989555496398655, 0.26448202767171169, 0.15369742233676845, 0.15653062852714661, -0.054847476996242775, -0.16791583350803641, -0.26786346062068617, -0.50917247718007486, -0.73193211164180783, -0.16708061429651458, 0.22891433064034461, 0.12291953277168402, 0.13176707114209013, 0.10026775752263235, 0.32192244772204553, 0.24729325354343079, 0.10688301542854385, 0.1120087512637177, 0.13444839416568508, 0.11815376071704263, -0.13629332472936137, -0.25481637556532993, -0.55689020514882415, -0.36516229410243212, -0.15140879552586486, -0.19058421940670234, -0.073880994273002501, -0.65490049612276224, 0.044218861351990199, 0.016041088078323881, 0.17261368034269617, 0.038621086093659662, -0.0016015002680603912, -0.010037822220829464, -0.07915083625868985, 0.038558418833813418, 0.12857944488180012, -0.26012063734796698, -0.47166892703048363, -0.23777156624905749, 0.18040337134245246, 0.11469051807397225, 0.13158759381507032, 0.096976468928559573, -0.13285131548451826, 0.034047702720356371, 0.061370577803823101, 0.16463626861993816, -0.040327485219983687, -0.29075705476137198, -0.32678597297714823, 0.085418369207290276, -0.10434729232292737, -0.14243417932119293, -0.12890108853502302, -0.12057144009855889, -0.39550403661904548, 0.15259234103687042, 0.2005934563304046, 1.029808687834457, 0.6451864217819987, 0.13069553782615187, 0.094122954020529892, -0.11466372576538135, 0.1006342393011556, -0.43751386419401739, -0.18129966927100793, 0.0076681406792006666, -0.18129966927100766, -0.43751386419401772, 0.1006342393011555, -0.11466372576538135, 0.094122954020530294, 0.13069553782615187, 0.64518642178199803, 0.09697646892856561, 0.20059345633040515, 0.15259234103687244, -0.39550403661904565, -0.12057144009855933, -0.12890108853502313, -0.14243417932119334, -0.10434729232292798, 0.085418369207290151, -0.32678597297714906, -0.29075705476137231, -0.040327485219983625, 0.16463626861993819, 0.061370577803826112, 0.034047702720362609, -0.13285131548450954, -0.65490049612276113, 0.13158759381506929, 0.11469051807397093, 0.18040337134245193, -0.23777156624905815, -0.47166892703048385, -0.26012063734796781, 0.12857944488179973, 0.038558418833813619, -0.079150836258690765, -0.010037822220829041, -0.0016015002680596837, 0.038621086093659558, 0.17261368034269753, 0.01604108807832378, 0.044218861351993127, 0.12291953277168469, -0.073880994273007358, -0.19058421940670719, -0.15140879552586672, -0.36516229410243267, -0.55689020514882537, -0.25481637556533027, -0.13629332472936076, 0.11815376071704252, 0.13444839416568463, 0.11200875126371906, 0.10688301542854448, 0.24729325354343112, 0.3219224477220462, 0.10026775752263169, 0.13176707114208724, 0.3440328783856047, 0.22891433064034419, -0.16708061429651452, -0.73193211164180794, -0.50917247718007486, -0.2678634606206855, -0.16791583350803629, -0.054847476996242213, 0.15653062852714661, 0.15369742233676847, 0.26448202767171197, 0.24989555496398666, 0.042478856625865126, 0.26657038433810309, 0.060389532357103218, 0.037609199601186027, -0.040741935591902166, 0.077143763048912975, -0.55729991239758392, -0.59003242807803546, -0.44425905725122805, -0.26439882782706997, -0.090978231053643915, 0.15622216677799647, 0.25945300111150726, 0.075199966709686178, 0.0735982268853351, 0.21808343506769956, 0.077204282878500161, 0.10994963906329724, -0.085066435241094293, -0.34542954711578611, -0.21122271871274953, -0.39744532861045856, -0.47012407976036596, -0.32661273597529766, -0.21429798411075099, -0.093152566304223791, 0.041332076755721148, 0.049578594917529049, 0.11315995348184582, 0.16501984993499175, -0.12107578456718396, 0.14759294628596784, 0.0057054044920044379, -0.17949272531312488, -0.099929970026743073, -0.027154041509900549, -0.20363140244204994, -0.19196040317685928, -0.16416996751526916, -0.11752890767371005, -0.0017201533257737943, -0.047273169510090196, 0.090218534925970331, 0.0086471718043221804, -0.096021860586284341, -0.056775010470666479, -0.15589828843244535, -0.02288596516940461, 0.18450440388323611, 0.079163738158960106, 0.033560938573614786, 0.18075656630682838], 
        [ 0.0, 0.16572992196087971, 0.11118258218955218, 0.066740481953598968, -0.055284333389732584, -0.015178815003441764, -0.02853559683565458, 0.072840552856542493, 0.0, -0.072840552856543186, 0.028535596835655246, 0.015178815003441194, 0.055284333389732584, -0.066740481953598885, -0.11118258218955211, -0.16572992196087977, -0.22589591569972267, 0.039031968679999265, 0.049668944402596164, 0.081462429707562969, 0.17514308870369191, -0.044011821034532717, 0.0029571123830957713, 0.11559352196926086, 0.20330116420447447, 0.11091506008800128, -0.19174503711834609, -0.083671292637315917, -0.15018025692123885, -0.19782505504980485, -0.12826458303253424, -0.1285000725286117, -0.1079617366899909, -0.00093313757781722279, -0.03981724957866685, 0.11203938287312794, 0.018011871155627735, -0.036596038111844122, 0.018222351690912561, -0.16224857627675074, -0.23174331506978596, -0.13789283245346329, -0.25172129560109069, -0.20233891214528835, -0.20117814621972055, -0.1195806202224613, -0.043764630252754906, -0.038537471281396701, -0.083464822675103315, -0.23105354269762332, 0.19190285735282223, 0.048894242063183151, -0.13809385196044965, 0.090662640938283842, -0.084819322616691964, 0.17951786127579392, 0.02294280417064538, -0.29251299699597394, -0.24181861062477386, -0.19102055618303196, -0.078562255975151873, 0.063339979064458304, -0.055032096308080751, 0.17683957593217423, -0.040640919337725213, 0.13610733643763798, 0.32464110924409134, -0.0095503629135186823, -0.11119885746787991, 0.22429190185916967, -0.086799109907790092, 0.10363363575359509, 0.05740076427683824, -0.087968143616150726, -0.089193759368519088, -0.0410249868773849, 0.14886088847345663, 0.082391346679844213, 0.063775146995436779, -0.073739620363189401, 0.16215445017145827, 0.30537695082274341, 0.15132503983059634, -0.089909114610791235, 0.084944573849018795, 0.10820406235265113, -0.26510644911423387, 0.20898305453745955, 0.18059342611198601, -0.085139297020727728, -0.029545858276841842, 0.13572425525258069, 0.0015438441162549524, -0.13918808777346064, 0.048412225472919436, 0.097361777125935356, 0.10958344440284108, 0.15513662708064094, -0.30950938862003841, -0.20612504739856985, -0.079993688939131377, 0.32128751501805081, -0.038652745500969865, 0.09519925577640842, -5.9849702724109916e-05, -0.0026401250719399528, 0.1210266724952095, -0.04239799281442385, 0.17647558590207696, 0.24027715351611706, -0.052255736118560742, 0.04246538194884622, -0.41710584421905794, -0.18024705431455559, -0.34884550363992761, -0.098248420563947919, -0.12989117628493127, 0.35253498047364967, 0.22210930259112416, 0.15896701062473734, 0.20483702603919948, 0.26150548812237545, -0.16468383491261943, 0.011851454568964873, 0.10677840485964595, 0.14562506120386393, -0.11141080107854949, -0.18144823097618307, 0.0, 0.13562344287249412, -0.11180999864341168, 0.11988498844017786, 0.091771742173667792, 0.32051876896800546, 0.070278525004571046, 0.1013349626221796, 0.0, -0.10133496262217925, -0.070278525004570838, -0.32051876896800546, -0.091771742173667792, -0.11988498844017845, 0.11180999864341092, -0.135623442872495, 0.41710584421905628, 0.18144823097618318, 0.11141080107855018, -0.14562506120386454, -0.10677840485964596, -0.011851454568965074, 0.16468383491261945, -0.26150548812237612, -0.20483702603920026, -0.1589670106247372, -0.22210930259112471, -0.35253498047364928, 0.12989117628493221, 0.098248420563947558, 0.34884550363992567, 0.18024705431455185, -0.10958344440284049, -0.042465381948844222, 0.052255736118561068, -0.24027715351611884, -0.17647558590207743, 0.042397992814424468, -0.1210266724952091, 0.0026401250719399203, 5.9849702723755456e-05, -0.095199255776408295, 0.038652745500969969, -0.32128751501805097, 0.079993688939131308, 0.20612504739856893, 0.30950938862003768, -0.15513662708063947, -0.16215445017146121, -0.097361777125939089, -0.04841222547291904, 0.13918808777346189, -0.0015438441162543067, -0.1357242552525797, 0.029545858276842019, 0.085139297020727492, -0.18059342611198584, -0.20898305453746002, 0.26510644911423398, -0.10820406235265148, -0.084944573849019225, 0.089909114610790306, -0.15132503983059584, -0.30537695082274263, 0.040640919337725213, 0.073739620363189443, -0.063775146995436627, -0.082391346679843894, -0.14886088847345663, 0.041024986877384852, 0.089193759368519004, 0.087968143616150449, -0.05740076427683824, -0.10363363575359542, 0.086799109907790398, -0.22429190185916995, 0.11119885746787991, 0.0095503629135187829, -0.32464110924409106, -0.13610733643763812, 0.083464822675100969, -0.176839575932174, 0.055032096308081112, -0.063339979064458124, 0.078562255975151776, 0.19102055618303157, 0.24181861062477378, 0.29251299699597344, -0.022942804170645051, -0.17951786127579322, 0.084819322616692644, -0.090662640938283551, 0.13809385196044943, -0.048894242063184323, -0.19190285735282311, 0.23105354269762188, 0.10796173668999078, 0.038537471281396757, 0.043764630252755031, 0.11958062022246144, 0.20117814621972055, 0.20233891214528799, 0.2517212956010903, 0.13789283245346262, 0.2317433150697861, 0.16224857627675052, -0.01822235169091297, 0.036596038111843879, -0.018011871155627978, -0.11203938287312813, 0.039817249578666315, 0.000933137577817035, 0.22589591569972278, 0.1285000725286117, 0.12826458303253438, 0.19782505504980483, 0.15018025692123899, 0.083671292637315042, 0.19174503711834598, -0.110915060088002, -0.20330116420447392, -0.11559352196926448, -0.0029571123830962357, 0.044011821034532307, -0.17514308870369188, -0.081462429707563247, -0.049668944402596192, -0.039031968679999259 ]
      ], 
      [ 
        [ -0.33438236129428195, -0.0193089444204348, 0.0081197254219561085, 0.035679338373346733, -0.095761122905900262, -0.095566975051056796, 0.26167364875149551, 0.13066015050328644, -0.34033978055546349, 0.13066015050328525, 0.26167364875149646, -0.095566975051056588, -0.095761122905900262, 0.035679338373346317, 0.0081197254219560529, -0.019308944420434813, -0.24466247664569055, 0.079847965684385749, -0.063203421153237835, 0.17693546781348779, -0.020858479713360419, -0.061459809985012923, 0.082027322805366176, 0.26842755189381351, -0.2585627255493993, -0.044880056432477312, 0.0037815133845385614, -0.0093548174892424622, 0.070395865776167493, 0.024322453118654989, -0.038978260811835953, -0.21477428012188243, -0.44927844911699044, -0.16255062485089725, -0.073346949947149673, -0.075332266150876181, -0.31893870454975937, 0.14741405008754169, 0.087376751724028465, 0.11964924878094678, -0.01577422557866576, 0.055446954410215334, -0.064474358213340049, -0.031089743678085625, -0.040675249234536998, -0.12228486770448202, -0.33479549788076729, -0.4701509295600817, -0.32106552195520505, -0.22251098906155764, 0.05188341212286772, -0.046270872193860751, -0.33035059668622996, -0.10337133519221368, -0.089964367019616173, -0.089070863148642043, -0.062471268648407713, 0.058134975706234618, -0.029493750189747939, -0.027922455966830208, -0.16204047362929414, -0.41258295912165033, -0.60526781637315241, -0.5761562002609053, 0.1521018430491885, 0.19669771039218803, -0.099713281495765749, -0.18717647760574646, -0.089356288426490474, -0.15732302224855185, -0.29675618302864087, 0.14971834199648537, 0.0023081922781848264, -0.11187619799657886, -0.025478836082326265, -0.1343154705757286, -0.30049060503069752, -0.52503594718348989, -0.72074203787885227, -0.23474720197670834, -0.13812928496189744, 0.1048744227097063, 0.14589677946905438, -0.21637159944437492, 0.12625804121075626, 0.027514122482215395, -0.15223469762540781, -0.36691299667028515, -0.4172200307717488, 0.053997671479468698, -0.075265772066340692, -0.30011863425444824, -0.4789156031199811, -0.59590096542207527, -0.50244239987784223, -0.39354592910089758, -0.33711320895377073, -0.27618364329031087, -0.27844069380782399, -0.28248837885261668, -0.33864552063496622, 0.26759620197451667, 0.2322691281837658, -0.38815166219174557, -0.02387994378979072, 0.048707961341269618, -0.19240751282870533, -0.31904848817568149, -0.43316941739127818, -0.22454931910028711, -0.32419411872617115, -0.27038119842782882, 0.13262677931340561, -0.33292464704980751, -0.20738804058192326, 0.23039241898809507, 0.17185932999112685, 0.26133978612824804, -0.10614295337298445, -0.28825945974241807, -0.072084660142152548, -0.22367077601806529, -0.263566669452927, -0.38348468738384367, -0.30621852378263964, -0.097227018113143299, -0.19232036412111353, 0.25747563350175573, 0.045019836635834122, 0.014854828782040591, 0.22652852996317902, 0.019591114913364949, 0.087197770816883999, -0.22275942829228187, -0.14409325833168385, -0.094398544577821972, -0.5319424549123325, -0.094398544577822208, -0.14409325833168371, -0.2227594282922816, 0.087197770816883999, 0.019591114913364821, 0.22652852996317907, 0.014854828782040579, 0.13262677931340389, 0.25747563350175379, -0.19232036412111328, -0.097227018113144131, -0.30621852378263953, -0.38348468738384389, -0.26356666945292695, -0.22367077601806543, -0.072084660142153048, -0.28825945974241873, -0.106142953372984, 0.26133978612824865, 0.1718593299911271, 0.23039241898809343, -0.2073880405819227, -0.33292464704980629, -0.33711320895377023, -0.27038119842782898, -0.32419411872617354, -0.22454931910028722, -0.43316941739127773, -0.31904848817568165, -0.192407512828705, 0.048707961341269534, -0.023879943789791171, -0.38815166219174557, 0.23226912818376588, 0.26759620197451706, -0.33864552063496672, -0.28248837885261879, -0.27844069380782405, -0.27618364329030953, -0.13812928496189988, -0.39354592910089975, -0.50244239987784245, -0.59590096542207505, -0.47891560311998121, -0.30011863425444785, -0.075265772066340705, 0.053997671479468844, -0.41722003077174907, -0.36691299667028499, -0.15223469762540751, 0.027514122482215013, 0.1262580412107559, -0.21637159944437528, 0.14589677946905327, 0.10487442270970483, 0.1521018430491885, -0.23474720197670798, -0.72074203787885249, -0.52503594718348989, -0.30049060503069752, -0.13431547057572846, -0.025478836082325824, -0.11187619799657836, 0.0023081922781848264, 0.14971834199648568, -0.29675618302864115, -0.15732302224855166, -0.089356288426490474, -0.18717647760574702, -0.09971328149576647, 0.1966977103921882, -0.3210655219552066, -0.57615620026090553, -0.60526781637315263, -0.41258295912165072, -0.16204047362929405, -0.02792245596682999, -0.029493750189747762, 0.058134975706234181, -0.062471268648407567, -0.089070863148642557, -0.089964367019615743, -0.10337133519221349, -0.33035059668623051, -0.046270872193860973, 0.051883412122867623, -0.22251098906155906, -0.44927844911699061, -0.4701509295600817, -0.33479549788076707, -0.12228486770448223, -0.040675249234536963, -0.031089743678084449, -0.06447435821334109, 0.055446954410213786, -0.015774225578665708, 0.11964924878094595, 0.087376751724028062, 0.14741405008754149, -0.31893870454975937, -0.075332266150877028, -0.073346949947150034, -0.16255062485089769, -0.24466247664569049, -0.21477428012188252, -0.038978260811835891, 0.024322453118655021, 0.070395865776167466, -0.0093548174892423251, 0.0037815133845366892, -0.044880056432476716, -0.25856272554939908, 0.26842755189381384, 0.082027322805364636, -0.061459809985013873, -0.020858479713360443, 0.17693546781348615, -0.063203421153237835, 0.079847965684385708], 
        [ 0.0, 0.15354080686929267, -0.044503973585924908, 0.052189243870660526, -0.12499041263215559, 0.057493674159316943, 0.0066964981164774565, -0.026372556435418821, 0.0, 0.026372556435417704, -0.0066964981164769491, -0.057493674159316659, 0.12499041263215559, -0.052189243870660373, 0.044503973585924887, -0.1535408068692927, -0.15096773694113574, -0.053518826101076042, 0.0044979349542424857, 0.040556304783492092, 0.01428088790402118, 0.046669256702545354, -0.072178523566722885, -0.15829646103079364, 0.17438615276105177, 0.45154690986547014, -0.16746957683738475, -0.11877351464864247, 0.10349824117448128, -0.066124976794974963, -0.060151016873599437, -0.091050374501648587, -0.10964239740090775, -0.1592896053905401, -0.018646565789244871, 0.088405829293843094, 0.15243139151934584, 0.19694287712432373, 0.076868994452268691, 0.12639958075130589, 0.16609107371435189, 0.037939993923488513, 0.12112032877418855, 0.10826226596619309, -0.042884039312303522, -0.16963322888513482, -0.061421331851478009, -0.0061260980656533239, -0.080878470221052073, -0.26033080120710511, 0.017049516049312041, -0.0045251114317967425, 0.023945685286318644, -0.086399710441919769, 0.087398041581471325, 0.33739107628953036, 0.074290297537903838, -0.084624076054804695, -0.0054398109630627118, -0.014474339631305655, -0.1734131086420245, -0.032739418898066031, 0.11816238216525918, 0.062640220056940671, -0.057747005699899177, 0.050803802392085845, -0.081203251735555329, -0.15844301672371275, 0.18702471634471626, 0.010638078506193475, 0.26140861988963082, 0.49501099579082364, 0.046184775365396703, 0.067741898839661904, -0.083758827934469676, -0.10478175264598534, 0.022362026589903643, 0.21425185164246729, 0.1382895610756931, -0.15994160257623224, 0.055003901307851842, -0.057727322864170955, -0.030344769328453831, 0.23197701900039577, 0.35620684518932977, 0.41122222848330681, 0.27473580230081424, 0.088017914128687341, 0.42949547217973577, 0.049727065808839441, -0.18198571661841617, 0.12225279671797973, 0.22027985125114735, 0.18550528963138729, 0.11113486643542966, 0.24819749150188344, -0.060131700609567858, -0.53987466928092021, -0.039744352043416038, 0.077108258909848806, 0.11491672171010608, 0.30962518484472473, 0.16208400596209732, 0.17110118874597724, 0.092980481838521561, -0.16727088410743846, 0.20906035608302623, 0.29274043604546551, 0.23195735533440215, 0.041321600064385955, -0.12108771354627956, -0.041786476317754943, -0.17427959342146501, -0.17339402516076272, 0.11431184114251268, -0.23433857418945328, -0.30127937682126421, 0.042900601845125785, 0.0022133949815070809, -0.14049465158565014, -0.15344785447128431, 0.1619454947781894, 0.10846597122173694, 0.23587196038806504, 0.19970468533131058, -0.10488442244164163, -0.28797823161920305, -0.14459915059187892, 0.0, 0.37166993391229536, -0.30209621246682117, -0.32037377254876914, -0.45284504439174456, -0.40060603529724187, -0.039160198555810377, -0.063319570337462841, 0.0, 0.063319570337462605, 0.03916019855581028, 0.40060603529724259, 0.45284504439174456, 0.32037377254876837, 0.30209621246682067, -0.37166993391229597, 0.17427959342146204, 0.14459915059187681, 0.28797823161920133, 0.10488442244164087, -0.19970468533131028, -0.23587196038806407, -0.108465971221737, -0.16194549477818895, 0.15344785447128476, 0.1404946515856505, -0.0022133949815068277, -0.042900601845126674, 0.30127937682126482, 0.23433857418945298, -0.1143118411425157, 0.17339402516075578, 0.060131700609568059, 0.041786476317755075, 0.12108771354627809, -0.04132160006438626, -0.2319573553344022, -0.29274043604546501, -0.20906035608302584, 0.16727088410743893, -0.092980481838521714, -0.1711011887459766, -0.16208400596209765, -0.30962518484472473, -0.11491672171010597, -0.07710825890984975, 0.039744352043414893, 0.53987466928091787, -0.055003901307854507, -0.24819749150188636, -0.11113486643542989, -0.1855052896313869, -0.22027985125114732, -0.12225279671797951, 0.1819857166184162, -0.049727065808839871, -0.42949547217973655, -0.088017914128687216, -0.27473580230081451, -0.41122222848330781, -0.35620684518933016, -0.231977019000396, 0.030344769328453619, 0.057727322864169546, 0.057747005699899177, 0.15994160257623199, -0.13828956107569285, -0.21425185164246693, -0.022362026589903643, 0.10478175264598545, 0.083758827934469343, -0.067741898839662584, -0.046184775365396703, -0.49501099579082297, -0.26140861988963088, -0.010638078506193509, -0.18702471634471626, 0.15844301672371278, 0.081203251735555051, -0.050803802392086511, 0.080878470221050741, -0.062640220056940171, -0.11816238216525891, 0.032739418898066301, 0.17341310864202428, 0.014474339631305247, 0.00543981096306207, 0.084624076054804723, -0.074290297537903907, -0.3373910762895313, -0.087398041581472422, 0.086399710441919839, -0.023945685286319258, 0.0045251114317966237, -0.017049516049312388, 0.26033080120710378, 0.10964239740090782, 0.0061260980656534514, 0.061421331851478071, 0.16963322888513499, 0.042884039312303564, -0.10826226596619382, -0.12112032877418953, -0.03793999392348868, -0.16609107371435214, -0.12639958075130914, -0.076868994452269676, -0.19694287712432443, -0.15243139151934593, -0.088405829293843913, 0.018646565789244181, 0.15928960539054024, 0.15096773694113569, 0.091050374501648601, 0.060151016873599479, 0.06612497679497506, -0.10349824117448114, 0.11877351464864098, 0.1674695768373842, -0.45154690986546875, -0.17438615276105204, 0.15829646103078901, 0.072178523566723135, -0.046669256702545979, -0.014280887904021258, -0.040556304783493174, -0.004497934954242621, 0.053518826101076139 ]
      ], 
      [ 
        [ -0.45016784635476859, -0.057041256765445317, 0.042222056747415436, 0.055071860108161015, 0.034750124130727277, -0.18295850048381071, 0.18708550826443127, 0.038573408751731521, -0.59731428655048258, 0.038573408751729085, 0.1870855082644306, -0.18295850048380985, 0.034750124130727277, 0.055071860108160418, 0.042222056747415311, -0.057041256765445338, -0.24530191012641103, 0.160942423807486, 0.051731554715459774, 0.30773689624451428, -0.28172823059994695, -0.22610813920395978, 0.28835571853408021, -0.51971086910579889, 0.023162188152033188, 0.37375416802727784, -0.4698889911094013, -0.037633550449608387, 0.17440727701427561, 0.046288612140863633, -0.078906666858283819, -0.2605031889845269, -0.46633751238700877, -0.19108002929212062, 0.12054082270846077, 0.066202570911383166, -0.19928143925798242, 0.10658549962633072, -0.52243691821043425, -0.27221204094642676, 0.033535011461392775, 0.12035327805356091, -0.018657405623335253, 0.19913300533466027, 0.0016606079491448028, -0.21969405804556649, -0.29547386340928861, -0.36190168607765022, -0.56857165908257257, 0.0028797145205721468, -0.017064309626575992, 0.030947025660316624, 0.19547669012357921, 0.049736385704837009, 0.16502559988203336, -0.33556325770554013, -0.21045073422290753, -0.22439802439213097, -0.0014525233741646292, 0.035101135637626853, -0.045690123233389481, -0.18840612822890707, -0.2800160928295673, -0.54662408256089268, -0.36023995749993104, 0.09234496230478749, -0.12269865926016335, 0.058919878985881816, 0.21333002939230766, 0.20205214803258875, 0.2256489211885295, 0.27980460390803269, 0.014109933221776266, -0.20039449529462816, 0.07674908336481287, -0.12768043242337954, -0.15258634671859603, -0.12591851254842024, -0.35440685310414932, -0.72254488704345265, -0.60612036457379159, 0.20085777459490034, -0.084533164129816735, 0.17983405418579632, 0.13479055191829165, 0.42064162753402129, 0.13321060650568028, 0.48991498099041003, 0.034922545938490167, 0.0099356961262984239, -0.10330547927104354, -0.13455525037754415, -0.064806689660057482, -0.12193501809762793, -0.48228047590375578, -1.0111183103347485, -0.46760859276804251, -0.055389380792650142, 0.1651193157664228, -0.14100700248518883, 0.1248876611483139, 0.42590166124807338, 0.083744253259198403, -0.16086888909708175, 0.30215553836309683, 0.14829842230597051, -0.17481256772513307, -0.14074913510719228, 0.12240162042310741, -0.039422337020437001, -0.6105523100910718, -0.84722064973024813, 0.13931070236395895, 0.13822323259032257, -0.49768660337273674, -0.19115529171115017, 0.1328988419590478, 0.19254381522292766, 0.059036870439093697, -0.15475535346274105, -0.098496630128974139, -0.20939267258658487, -0.1378085472851778, 0.13369327998107636, 0.17823422272153636, 0.026915774307157646, -0.74431279102340653, -0.54412155958361785, 0.14204489474428778, -0.31013413131049722, -0.77057263123834974, -0.28236689596000536, 0.1396777312140681, 0.1851043525683381, 0.056047368381078898, -0.39699276880603462, -0.2939155120480057, -0.39699276880603401, 0.056047368381079099, 0.18510435256833815, 0.1396777312140681, -0.28236689596000547, -0.77057263123834874, -0.31013413131049761, 0.13931070236395757, -0.54412155958361841, -0.74431279102340675, 0.02691577430715748, 0.17823422272153597, 0.13369327998107666, -0.13780854728517783, -0.20939267258658495, -0.098496630128974083, -0.15475535346274172, 0.059036870439094613, 0.19254381522292846, 0.13289884195904764, -0.19115529171115059, -0.49768660337273912, 0.13822323259031943, -0.46760859276804245, -0.84722064973024835, -0.61055231009107125, -0.039422337020437369, 0.12240162042310729, -0.14074913510719292, -0.17481256772513321, 0.1482984223059714, 0.30215553836309689, -0.16086888909708169, 0.083744253259197821, 0.4259016612480726, 0.12488766114831308, -0.14100700248519019, 0.16511931576642119, -0.055389380792650614, -0.60612036457379226, -1.0111183103347479, -0.48228047590375595, -0.1219350180976279, -0.064806689660057926, -0.13455525037754348, -0.10330547927104229, 0.0099356961262994804, 0.034922545938490507, 0.48991498099041003, 0.13321060650568012, 0.42064162753401935, 0.13479055191829178, 0.17983405418579529, -0.084533164129817803, 0.20085777459489892, -0.36023995749993104, -0.72254488704345221, -0.35440685310414932, -0.12591851254842035, -0.15258634671859603, -0.12768043242337912, 0.076749083364813869, -0.20039449529462711, 0.014109933221776266, 0.27980460390803308, 0.22564892118852978, 0.20205214803258847, 0.21333002939230766, 0.058919878985881032, -0.12269865926016364, 0.092344962304787503, -0.5685716590825729, -0.54662408256089312, -0.28001609282956741, -0.18840612822890704, -0.045690123233389363, 0.035101135637627644, -0.0014525233741642482, -0.22439802439213069, -0.21045073422290808, -0.33556325770553824, 0.16502559988203319, 0.049736385704838182, 0.19547669012357929, 0.0309470256603172, -0.017064309626575357, 0.0028797145205705812, -0.46633751238700899, -0.3619016860776505, -0.29547386340928861, -0.21969405804556627, 0.0016606079491449327, 0.19913300533466349, -0.018657405623335056, 0.12035327805355991, 0.03353501146139283, -0.27221204094642354, -0.52243691821043325, 0.10658549962633138, -0.19928143925798222, 0.066202570911382583, 0.12054082270846042, -0.19108002929212106, -0.24530191012641109, -0.26050318898452701, -0.078906666858283667, 0.046288612140863168, 0.17440727701427583, -0.037633550449606264, -0.46988899110940113, 0.37375416802727712, 0.023162188152032939, -0.519710869105802, 0.28835571853407782, -0.22610813920395803, -0.28172823059994706, 0.30773689624451328, 0.051731554715459691, 0.16094242380748605], 
        [ 0.0, 0.19042256147139863, 0.15803689992544684, -0.12252485422839027, -0.26215038667558488, -0.071929229565003139, 0.13759533975623678, 0.057391251745072071, 0.0, -0.057391251745075929, -0.13759533975623575, 0.07192922956500411, 0.26215038667558488, 0.12252485422839113, -0.15803689992544689, -0.19042256147139869, -0.10588086423783298, -0.26216384306006957, 0.16969795590972545, -0.11477016598140261, 0.23196436476081411, 0.44217835306878478, -0.36555589738072047, 0.21473412450686818, 0.56510520715712775, 0.0040226902731876788, -0.14745938671758468, 0.12462554723960739, 0.085109474233517737, 0.08345172317058927, -0.097912921635799066, -0.044679437641027879, -0.012475488109116313, -0.42897706120182044, 0.086568955116554838, -0.16457945201381222, 0.30580772573814807, 0.0061516150740967409, 0.053569304036462297, 0.26007215394102984, 0.24966542340383729, 0.28828018447547765, 0.066611725335459823, -0.046892820670306312, -0.20331967014504992, -0.042877513864885218, 0.15202024184810997, 0.19593464674775915, -0.16527936453070699, -0.39105991753356589, 0.12853782582417775, 0.1282892876991546, 0.26073521647531239, -0.24819095125232674, -0.14869850070680654, 0.080244111438472418, 0.22960851184704012, 0.13911930073185819, -0.025322303094318047, -0.095417289129432925, -0.14198092726675282, 0.18265748441891891, 0.39050891208096328, 0.40091540387761093, -0.52319134739852768, -0.11539142369233396, -0.032393010326387937, 0.14085638124753821, 0.48135584392681147, -0.065487517211871349, 0.15551511170840618, 0.12812472123209903, 0.28722617694915609, 0.22177906064222982, 0.1828408371726653, -0.04547783968243406, 0.017259855775808724, 0.28023101426943742, 0.59168694573988478, 0.28853063661118916, -0.63446352793935057, -0.16478382078097489, -0.060637739545562834, 0.026013681351446886, -0.10363943505365975, -0.050418488915810696, 0.3837289237274078, -0.25617667185525567, 0.1298650460476021, 0.029501387064474527, -0.11742644633971729, 0.1367819566166624, 0.16272820329504786, 0.49860213743791532, 0.5907600078396843, 0.0086512704976621571, -0.44615393415995025, -0.0607177238126737, 0.38752015422121999, -0.17118578358426922, -0.328271743423664, -0.3485897022791597, -0.089629419047723757, 0.15818985999514606, -0.07888414572481238, -0.017372965396834177, 0.10803429518633484, 0.32580929699590011, 0.20952130560734344, 0.5874475149653966, 0.57294218223140647, 0.0095838785689752841, -0.37327034571525453, 0.41619512937368591, 0.15740598239047912, 0.1458828745155932, -0.19294502446693287, -0.22990706621815549, -0.16184974385536538, 0.1191818878486031, 0.065308687859831849, 0.17881223331949453, 0.23101180326087406, 0.19897907324466435, 0.30913935526798147, 0.60693334337771565, 0.45075089361495718, -0.26687119176983909, 0.0, 0.39071676120829796, -0.083572027872960905, -0.31433130430949663, -0.2907549493410439, 0.19043022835653184, 0.064639403182231936, 0.021029720826078648, 0.0, -0.021029720826078367, -0.064639403182231825, -0.19043022835653137, 0.2907549493410439, 0.31433130430949557, 0.083572027872960891, -0.39071676120829824, 0.37327034571525269, 0.26687119176983864, -0.45075089361495713, -0.60693334337771565, -0.30913935526798142, -0.19897907324466418, -0.23101180326087348, -0.17881223331949336, -0.065308687859831516, -0.11918188784860279, 0.16184974385536563, 0.22990706621815565, 0.19294502446693293, -0.14588287451559401, -0.1574059823904804, -0.41619512937369174, 0.44615393415995058, -0.0095838785689767066, -0.57294218223140736, -0.58744751496539704, -0.20952130560734333, -0.32580929699589944, -0.10803429518633413, 0.017372965396834486, 0.078884145724812268, -0.15818985999514593, 0.089629419047722564, 0.34858970227916014, 0.32827174342366422, 0.17118578358426825, -0.38752015422121955, 0.060717723812673471, 0.63446352793934624, -0.0086512704976643845, -0.59076000783968485, -0.49860213743791526, -0.16272820329504781, -0.13678195661666212, 0.11742644633971787, -0.029501387064475141, -0.12986504604760213, 0.25617667185525506, -0.38372892372740725, 0.050418488915810841, 0.10363943505365983, -0.026013681351447635, 0.060637739545560815, 0.16478382078097512, 0.52319134739852768, -0.28853063661118916, -0.59168694573988456, -0.28023101426943686, -0.017259855775808724, 0.045477839682434441, -0.18284083717266558, -0.22177906064223021, -0.28722617694915609, -0.12812472123209934, -0.15551511170840543, 0.065487517211871626, -0.48135584392681147, -0.14085638124753921, 0.032393010326387507, 0.11539142369233341, 0.16527936453070638, -0.40091540387761093, -0.39050891208096322, -0.18265748441891885, 0.14198092726675277, 0.095417289129433092, 0.025322303094318519, -0.13911930073185821, -0.22960851184703951, -0.080244111438473861, 0.14869850070680593, 0.24819095125232613, -0.26073521647531228, -0.12828928769915671, -0.12853782582417889, 0.39105991753356484, 0.012475488109116299, -0.19593464674775901, -0.15202024184810961, 0.042877513864885322, 0.20331967014504984, 0.046892820670307193, -0.066611725335460698, -0.28828018447547693, -0.24966542340383749, -0.26007215394103345, -0.053569304036463088, -0.006151615074097192, -0.3058077257381478, 0.16457945201380952, -0.086568955116555435, 0.42897706120182033, 0.10588086423783306, 0.044679437641027921, 0.097912921635799191, -0.083451723170589298, -0.085109474233517987, -0.12462554723960584, 0.14745938671758194, -0.0040226902731865131, -0.56510520715712986, -0.21473412450687829, 0.3655558973807202, -0.44217835306878428, -0.23196436476081392, 0.11477016598140137, -0.16969795590972528, 0.26216384306006946 ]
      ], 
      [ 
        [ -0.46007047990402145, -0.067630170222418504, -0.06598530534147759, -0.069245613079155222, -0.13847676858988092, -0.01933230414502975, 0.20692085339858957, -0.13342893218827701, 0.19416095029514721, -0.13342893218827462, 0.20692085339858926, -0.019332304145029171, -0.13847676858988092, -0.069245613079155319, -0.065985305341477549, -0.067630170222418545, -0.22522704640471061, -0.31933588654843909, 0.21456514622360467, 0.2149433940301898, 0.025639392105280594, -0.43434753549104571, 0.11717588163206799, 0.38770748910064912, 0.13229837671973799, 0.11679173807681209, 0.3143709298458145, 0.071389161570726667, -0.3027340206202514, 0.075588331022999208, 0.11689430870173044, -0.25452110187638588, -0.34742319266949284, -0.46130501457203171, 0.085031870065883558, 0.10953562719427662, 0.1048471240178101, 0.068983942852602398, -0.12347022733570868, -0.013358481013998806, -0.33989114409636684, 0.23921163136566717, -0.2033075735852474, -0.17392209969054997, 0.037193252839580984, 0.015893904249389267, 0.26856582813927721, -0.4441252021904481, -0.40175188016469254, -0.55957930278619572, -0.055044632628452168, 0.27681684974851462, 0.039079195146151456, 0.095241874397697934, -0.28638003658912092, -0.2040270035075967, -0.29080779273285123, 0.12392475992261437, -0.4181125028516065, -0.21072384564405675, -0.067560421555214273, 0.046921838374052505, 0.12089043032232287, -0.53675579889950964, -0.35363454351121365, -0.53347124332370266, -0.26918705350631483, 0.17663106379680399, -0.23407541869164661, -0.03702488366380597, 0.064966690142433517, -0.45905822155355164, -0.53985189282629364, 0.092447398231588998, -0.33431902121320284, -0.23643305662613981, -0.14590977568160421, 0.040532484505439101, -0.063395597777835017, -0.56117155087954096, -0.31237719127410535, -0.43248814985695161, -0.28278320327355888, 0.38105628231134592, -0.24583651478087268, -0.24154161877634966, 0.14661689331857419, -0.22679014019145141, -0.20247043069623713, -0.11131035391583952, -0.057894426705533263, 0.1848285592924663, -0.041887104367241808, 0.24205541947654827, -0.17313333280540691, -0.48294740974445854, -0.41926175144777994, -0.56573858917391529, -0.4122190722340493, 0.12104054010666297, 0.15104157877283522, 0.11757550189751421, -0.093848107983796322, 0.093974524221027561, -0.18732189997764423, 0.12165749452610587, 0.14317449492303874, 0.28695605131811569, 0.014006809606986236, 0.080923562402334975, -0.33889132352660856, -0.52030739640405621, -0.077340084928809838, -0.31244075495018375, -0.39666275320413352, -0.15311716653578744, -0.10803152879895216, -0.13320270759217484, 0.27379822322231123, 0.097497772584982573, -0.11572935902601897, 0.2190096153473079, 0.19862646407718623, 0.095780836849629583, -0.40432676773377946, -0.081237821070898067, -0.33018465944404574, -0.33749575112363817, -0.12789489785495745, -0.36206402307999491, -0.4048125198190532, -0.27047421557086826, 0.024657813262097868, 0.43486498992395423, 0.17833416096956903, -0.16360272041801524, -0.43386580777242278, -0.16360272041801513, 0.17833416096956803, 0.43486498992395317, 0.024657813262097868, -0.27047421557086843, -0.40481251981905336, -0.36206402307999463, -0.077340084928810685, -0.33749575112363828, -0.33018465944404501, -0.081237821070897762, -0.40432676773377929, 0.095780836849630208, 0.19862646407718659, 0.21900961534730845, -0.1157293590260194, 0.097497772584981129, 0.27379822322231256, -0.13320270759217509, -0.10803152879895231, -0.153117166535788, -0.39666275320413263, -0.31244075495018436, -0.41926175144778033, -0.52030739640405688, -0.33889132352660778, 0.080923562402335503, 0.01400680960698642, 0.28695605131811486, 0.14317449492303866, 0.12165749452610602, -0.18732189997764415, 0.093974524221027367, -0.093848107983796641, 0.11757550189751384, 0.15104157877283553, 0.12104054010666356, -0.41221907223404869, -0.5657385891739164, -0.3123771912741059, -0.48294740974445854, -0.17313333280540635, 0.24205541947654802, -0.041887104367242564, 0.18482855929246647, -0.057894426705532763, -0.111310353915839, -0.20247043069623721, -0.2267901401914523, 0.1466168933185738, -0.24154161877635044, -0.24583651478087307, 0.38105628231134631, -0.2827832032735591, -0.43248814985695211, -0.35363454351121365, -0.56117155087954118, -0.063395597777834864, 0.040532484505439705, -0.14590977568160421, -0.23643305662613978, -0.33431902121320228, 0.092447398231589331, -0.53985189282629364, -0.45905822155355253, 0.064966690142433781, -0.037024883663805998, -0.23407541869164661, 0.17663106379680402, -0.26918705350631555, -0.53347124332370299, -0.40175188016469215, -0.53675579889950986, 0.12089043032232316, 0.0469218383740534, -0.067560421555214301, -0.21072384564405752, -0.41811250285160528, 0.12392475992261544, -0.29080779273285101, -0.20402700350759792, -0.28638003658911931, 0.095241874397698323, 0.03907919514615113, 0.27681684974851389, -0.055044632628452016, -0.55957930278619694, -0.34742319266949268, -0.44412520219044788, 0.26856582813927715, 0.015893904249391154, 0.037193252839581088, -0.17392209969055047, -0.20330757358524598, 0.23921163136566581, -0.33989114409636734, -0.013358481014000627, -0.12347022733570805, 0.068983942852602745, 0.10484712401781009, 0.1095356271942758, 0.08503187006588335, -0.4613050145720316, -0.22522704640471061, -0.25452110187638577, 0.11689430870173068, 0.075588331022999541, -0.30273402062025173, 0.071389161570724849, 0.31437092984581533, 0.11679173807680771, 0.13229837671973782, 0.3877074891006479, 0.11717588163206606, -0.4343475354910446, 0.025639392105281239, 0.21494339403018881, 0.21456514622360465, -0.31933588654843914], 
