var pModel = {
  "scoring": {
    "size": [20, 22], 
    "bias": -1.3970965781063711, 
    "coef": [-0.019443206312618266, -0.0084626551369373984, -0.0056439963412376806, -0.0030632716896851417, 0.0050581938798613096, 0.0038671999692946632, 0.0073781421893252819, 0.008408844556368901, 0.0021079916674897471, 0.0088021517989660455, 0.0084634202851292546, 0.0091341881048755593, 0.0021677708519095705, 0.0057905826022958259, 0.010027042924308791, 0.010018015835686447, 0.011074574130386098, -0.00061695783617744283, -0.0060840083569450205, -0.0094487678808903661, -0.012441209862965338, -0.0038650406223106025, -0.00031049888008515014, 0.003187872856386012, 0.0078183021180926356, 0.010960251877128001, 0.012100913210202307, 0.012289318801648701, 0.012872315936395949, 0.0134197639066574, 0.012863004278393353, 0.012570470005854794, 0.0144288424245574, 0.013339430524005279, 0.013248442014867023, 0.012998181709015256, 0.0080561986303109411, 0.0014670228332206666, -0.011928206846124195, -0.0097909276659884133, -0.019951337591485003, -0.014601516863452837, -0.013174779761633797, -0.0060514903696567476, -0.0010407140556988824, 0.0054650997555345483, 0.010448591237341475, 0.014061216421035866, 0.015918382919452134, 0.016360925963435087, 0.02175676516818845, 0.017301016139781272, 0.014195207612699818, 0.012452400847919372, 0.010454129710215853, 0.0040883019269826832, -0.0014194361456059026, -0.0038498599142176948, -0.010769873280441659, -0.011758097810167857, -0.0046927302624985654, -0.0022134112349382041, -0.0039804434067522172, -0.012186682535867691, -0.011886732829841436, -0.008198434083715244, 0.0028353930104073055, 0.0070820189528775831, 0.012238372017639833, 0.016348014515026394, 0.020980251210150468, 0.01731275318263429, 0.01186526524722499, 0.007237133559106634, 0.0028787582373227981, -0.007467321804467685, -0.012293394385884527, -0.014833951237083715, -0.0083886394867411403, -0.001277206299448029, -0.0043237762267366413, -0.00079995554890789644, -0.0090446939377834615, -0.015715154398522533, -0.016374353020164909, -0.018048467332774626, -0.012034275948581882, -0.0072430439975880896, 0.00051252407841081971, 0.013091943912572559, 0.018570409085074381, 0.013098815816852492, 0.0008591564011330168, -0.0064555113363009954, -0.014574145037132261, -0.018221531408352937, -0.01805986873321162, -0.016665959992610131, -0.016742981997331947, -0.012862200876738698, -0.037408776782215991, -0.026830315322269691, -0.036692867895355551, -0.034788073944897399, -0.021885031967903899, -0.024484660949111742, -0.028068870569776663, -0.018631752402912666, 0.00033862502266578511, 0.01559117928255003, 0.021178968053305464, 0.015184030917486158, 0.002942909802540911, -0.014374637994945122, -0.025568052116952664, -0.025717989966112242, -0.023218559873459776, -0.043064179414035626, -0.042244667490572319, -0.040560989397592062, -0.029282249261991376, -0.037097180414959283, -0.050209371445049687, -0.043175446636272506, -0.038799263945784764, -0.037913350312177137, -0.024596940746816367, -0.013391546719824746, 0.0026176056292311106, 0.0161600431397954, 0.021950494557360537, 0.018824694902420232, 0.006927363884398058, -0.0067099747768306958, -0.018258612142465137, -0.031150030943545643, -0.030987027023796063, -0.033628054995754796, -0.043437053800875543, -0.034534827602693656, -0.0027688241949539527, -0.0045492751804971556, -0.0029637241504820444, -0.0034067004234806259, -0.0058158675916083176, -0.0050003474884839725, -0.0052189027673953392, -0.0035094302696121191, 0.0048075866050476977, 0.015230282965296896, 0.017877023790346995, 0.015060123226282708, 0.0068301148455019063, -0.00074735425779775112, -0.0047129224250249081, -0.0020172475601060438, -0.0028733715759857248, -3.2165259563759688e-05, 0.0052576318460990619, 0.0043528918718454875, 0.016945619656148794, 0.015930900625567117, 0.013751773645422991, 0.010130474427749569, 0.0080480898297084717, 0.0066539674397816983, 0.0068324700348844428, 0.0069577044114707276, 0.0040399129489101342, 0.011715241103133139, 0.017439724961211336, 0.014273924944517397, 0.0061485975492234337, 0.0064501329867605404, 0.0064154824267410098, 0.0087972617488658849, 0.0085371084737999835, 0.0087282112830335563, 0.011782866421798245, 0.016746943082334282, 0.022118218282678175, 0.020835875059091086, 0.018311801034637344, 0.01589801188949137, 0.017833422960512931, 0.01556573659143182, 0.014048773907766661, 0.0092415766206588174, 0.008151842723012729, 0.011230814598071655, 0.01256801671117759, 0.012111623945116202, 0.0098381741274288295, 0.0073611628026903006, 0.0095541157333664112, 0.011727533965135649, 0.018125902932239795, 0.019469248207063541, 0.017398513191690286, 0.021144199041044975, 0.021132145666912093, 0.019499184169656004, 0.019592876054570843, 0.02028149781228069, 0.017450605090846959, 0.01415914728419608, 0.0062290511445100638, 0.0038367364618697264, 0.0070206311493656928, 0.0096561161467108754, 0.011406409148288063, 0.0073273774756050288, 0.0046725824974188255, 0.0052535602992445293, 0.00018758422847375771, 0.0081523629612461953, 0.012760089024104778, 0.021600004613459223, 0.02330330354276354, 0.023745752734397885, 0.018230549428489853, 0.020013388637927079, 0.019842171101705101, 0.018799688221643948, 0.010638029835974899, 0.00047497591850582786, -0.0071779359181283857, -0.0013492660142831474, 0.0015382005340972228, 0.0026091901041104195, 0.00054046824549715592, -0.00049664221846118756, -0.0004620349686195485, -0.0052440228766081143, -0.0052152354482096451, -0.010002649985436339, 0.0014386382744505852, 0.012845063185194877, 0.020827676960957435, 0.02373841052172394, 0.015716685713465389, 0.01638066669873605, 0.014902611437895159, 0.0073730357797861029, 0.0019356373041797752, -0.0061999712321189927, -0.0091165414771389678, -0.008810991502401562, -0.014849548271736901, -0.002088752298238026, 0.0052140970488441726, 0.0010527273675475608, -0.010321625138183299, -0.016207678046552692, -0.012439252596672909, -0.013087206027715756, -0.0027969969285832111, 0.0023632017053047227, 0.011157492323637063, 0.018368837091378775, 0.009522424063657664, 0.010552085697652452, 0.0065611074700353111, -0.0015314856230301123, -0.0032492038209889869, -0.0031329857351426339, -0.0009277374824954263, -0.0020968871213430215, -0.002752601764726735, 0.00094388371290420677, 5.9164336949845309e-05, -0.0017254679888374039, -0.0034420772687673035, -0.0045773609585904318, -0.0025304599008137956, -0.00038215561598060812, 0.00057078584536244593, 0.0031325966195568239, 0.0060237831417333659, 0.01158476991744758, 0.0016262584963572593, 0.0032288122743198387, 0.0012532877511827127, 0.00062747794288786391, 0.0023766730707680218, 0.0028182202873619686, 0.0023771129569157626, -0.0033402786707182365, -0.0048954226369167918, 0.0030746977489523515, 0.0062648590670420657, 0.0050231159304044643, 0.00044657525636142406, -0.0048270904988737106, -0.0040237200076292511, 0.0024988183457590458, 0.0054580394659512529, 0.0072880311920233637, 0.0036009634090189563, 0.010569246292394684, -0.0045836905885612515, 0.00057936439982262571, 0.00102991877614139, 0.0030014799750564766, 0.0036675159287522449, 0.0044718005821969111, 0.0068927421100514214, 0.0039124352937196984, 0.007139428500837236, 0.010304447674314087, 0.012609007891982103, 0.008958913992549505, 0.0086037912511740151, 0.0055408494888294774, 0.0046721790312300258, 0.0047921200350865495, 0.0058818201004558757, 0.0056047225724042979, 0.0054112450019911731, 0.0073264985149536482, -0.0027341865318231302, -0.0027247005346668829, -0.0034900498414649531, -0.0079957154687285564, -0.0040761105067111218, -0.0020778048501128819, -0.0028478822594267903, -0.0039662744056797195, -0.0026161203530461301, 0.00092611267411275692, 0.0017426886986748021, 0.00055187058776232881, -0.0013723391980049371, -0.0045995868862228262, -0.004201475995629732, -0.0054721778518871953, -0.002341678055566526, -0.0025440841811939178, -0.0078777546807155367, 5.340267621167532e-05, 0.0046873465713941241, 0.0021887942815206605, 0.0013036188253628853, -0.001369820467079858, -0.015804998363084376, -0.016267691007421516, -0.018900936626522147, -0.017659450320792951, -0.011812605534381678, -0.0034436129735933847, -0.0023483321715621502, -0.0050111463464252073, -0.0050922386240516513, -0.015030789874247219, -0.020198024497642013, -0.021620507739756673, -0.018586140603325793, -0.018723839025246693, -0.0055722698499209482, 0.0064480458300502788, 0.0026822651632485931, 0.0060010017569890623, 0.0039986244661379938, 0.0050813259426419084, -0.0059114072323689293, -0.027745788024718613, -0.029251292823436387, -0.023066523347947315, -0.017210413752997977, -0.015963112589643183, -0.021075188283476324, -0.023666705491108494, -0.020005598090990763, -0.019062969033403668, -0.017792117192348619, -0.025322677372927888, -0.020971240352056199, -0.003436645553932082, 0.0043350896839554273, 0.0084557183627534376, -0.0063213373221792614, -0.0012841346959162978, -0.0012350140140767124, 0.004020967306281667, 0.0092274867614143326, 0.0045264965008091395, 0.0041315898134410677, 0.00077108445452623935, 0.0017580819918377949, -0.0011577021001876594, -0.0036195352433658614, -0.0037319908665914719, -0.001666179302724247, 0.0031110879435167255, 0.0014906582671670387, 0.0048443015054418677, 0.0059990829294203933, 0.0084750979219295353, 0.0055827168912293912, 0.0025145315352065756, -0.0046319230006191276, -0.0076182514283882324, -0.0046593775053102001, -0.0031253513278243637, 0.0074653367528114828, 0.010125926733440484, 0.0094747053616804754, 0.0035657571954442512, 0.0057833695060832482, 0.003888133034710705, 0.0019960148005530504, 0.0015056031401225207, 0.0011132050024144288, 0.0054876547928768482, 0.0047365733649033419, 0.0072106350627162141, 0.010077746417547511, 0.0038570243972044947, -0.003118757327733293, 8.694979275512165e-05, -0.021441387266543339, -0.0072102976069877674, -0.0078359058223554552, -0.00594066743311885, -0.0016100298225058601, 0.0053450064816458259, 0.0071049496578081076, 0.010196875445129471, 0.0057577873293374569, 0.0074570800047582559, 0.0062731053175082022, 0.0076242083673520502, 0.0068436930933054993, 0.0070021422399430639, 0.0087250840640590785, 0.0089995789681808595, 0.0034314447644411355, -0.001989159567628072, -0.007896602411841893, -0.010924672368545567]
  }, 
  "path": {
    "normal": [
      [0, 1, 2, 3, 4, 5, 6, 7, 8, 9, 10, 11, 12, 13, 14], 
      [15, 16, 17, 18], 
      [19, 20, 21, 22], 
      [23, 63, 24, 64, 25, 65, 26, 66, 23], 
      [28, 67, 29, 68, 30, 69, 31, 70, 28], 
      [34, 35, 36, 42, 37, 43, 38, 39, 40], 
      [33, 41, 62], 
      [44, 45, 46, 47, 48, 49, 50, 51, 52, 53, 54, 55, 44, 56, 57, 58, 50, 59, 60, 61, 44], 
      27, 32
    ],
    "vertices": [
      // jawline
      [0,1,23,0],
      [1,23,66,1],
      [1,2,66,1],
      [2,66,26,2],
      [2,26,35,2],
      [2,35,36,2],
      [2,36,3,2],
      [36,44,45,36],
      [3,4,44,3],
      [3,44,36,3],
      [4,44,55,4],
      [4,5,55,4],
      [5,55,54,5],
      [5,6,54,5],
      [6,53,54,6],
      [6,7,53,6],
      [7,8,53,7],
      [8,52,53,8],
      [8,9,52,8],
      [9,51,52,9],
      [9,10,51,9],
      [10,50,51,10],
      [10,11,50,10],
      [11,38,50,11],
      [11,12,38,11],
      [12,38,39,12],
      [12,31,39,12],
      [12,31,70,12],
      [12,13,70,12],
      [13,28,70,13],
      [13,14,28,13],
      // right eyebrow
      [14,15,28,14],
      [15,28,67,15],
      [15,16,67,15],
      [16,67,29,16],
      [16,17,29,16],
      [17,68,29,17],
      [17,18,68,17],
      [18,68,30,18],
      [18,30,33,18],
      // below eyes
      [30,40,69,30],
      [39,40,69,39],
      [39,31,69,39],
      [26,65,35,26],
      [34,35,65,34],
      [25,34,65,25],
      // left eyebrow
      [22,25,33,22],
      [22,25,64,22],
      [21,22,64,21],
      [21,24,64,21],
      [20,21,24,20],
      [20,24,63,20],
      [19,20,63,19],
      [19,23,63,19],
      [19,23,0,19],
      // below nose
      [36,45,46,36],
      [36,42,46,36],
      [42,37,46,42],
      [37,46,47,37],
      [46,37,47,46],
      [37,47,48,37],
      [38,48,49,38],
      [37,43,48,37],
      [43,38,48,43],
      [38,49,50,38],
      // nose region
      //[21,17,22,21],
      //[17,18,22,17],
      [22,18,33,22],
      [40,41,30,40],
      [25,33,41,25],
      [33,41,30,33],
      [25,34,41,25],
      [41,40,62,41],
      [34,41,62,34],
      [34,35,62,34],
      [35,36,62,35],
      [36,42,62,36],
      [42,37,62,42],
      [37,43,62,37],
      [43,38,62,43],
      [38,39,62,38],
      [39,40,62,39],
      // mouth
      [44,45,61,44],
      [45,46,61,45],
      [46,47,61,46],
      [47,61,60,47],
      [47,59,60,47],
      [47,48,59,47],
      [48,49,59,48],
      [49,50,59,49],
      [50,51,58,50],
      [51,52,58,51],
      [52,57,58,52],
      [52,53,57,52],
      [53,54,57,53],
      [54,56,57,54],
      [54,55,56,54],
      [44,55,56,44],
      // left eye
      [23,63,27,23],
      [63,24,27,63],
      [24,64,27,24],
      [64,25,27,64],
      [25,65,27,25],
      [65,26,27,65],
      [26,66,27,26],
      [66,23,27,66],
      // right eye
      [28,67,32,28],
      [67,29,32,67],
      [29,68,32,29],
      [68,30,32,68],
      [30,69,32,30],
      [69,31,32,69],
      [31,70,32,31],
      [28,32,70,28]
    ]
  }, 
  "patchModel": {
    "numPatches": 71, 
    "bias": {
      "raw": [-0.964306520867, -1.03566919244, -0.874989992149, -0.916328634351, -0.84503678968, -0.844297101434, -0.738523173234, -0.808714131663, -0.726541145855, -0.843675312327, -0.869822246614, -0.917260263832, -0.873711733476, -1.02671396751, -0.98146088848, -0.873014174242, -1.02044597636, -1.05803547484, -1.22124828051, -0.881683950651, -1.03317042471, -1.05134750237, -1.24054665894, -1.16383797435, -1.06699587696, -1.23916761432, -1.18767751229, -1.12345203915, -1.13546600331, -1.08024044629, -1.24021266444, -1.16700091429, -1.11195019559, -0.729540672833, -1.12391599663, -1.3005410545, -1.31472443469, -1.08705339489, -1.33623226644, -1.32469845456, -1.11491083141, -0.762875763426, -1.12163285295, -1.09863140074, -1.29945157973, -1.27843894877, -1.00589316549, -0.912330645934, -0.962922353705, -1.25265133142, -1.29458347282, -1.15225762288, -1.00045652806, -0.887710450269, -1.01416634829, -1.19650803217, -1.03872671577, -0.86719070075, -1.008904644, -1.12379151191, -0.950687461141, -1.12241433736, -0.889224862634, -1.11762094609, -1.22489133968, -1.24702333407, -1.24517637612, -1.09819559472, -1.2104134101, -1.2217112657, -1.17731763127], 
      "sobel": [-0.83934766225, -0.62721260575, -0.558840580329, -0.699564404116, -0.711116468654, -0.800405507582, -0.800598028802, -1.11367567263, -0.800716892269, -0.800194374505, -0.719852733547, -0.699662339749, -0.583473094463, -0.656586463686, -0.82585939445, -0.777588904797, -0.772328358153, -0.858083769483, -0.819377339675, -0.764279660704, -0.799960100345, -0.867018791717, -0.823023270097, -0.742640730114, -1.00863469391, -0.717177931342, -0.795282566734, -0.882814402127, -0.781504747967, -0.996713581871, -0.712255820555, -0.811275119279, -0.961002025204, -1.20550193802, -0.862430611162, -0.755762286162, -0.788966054175, -0.962730404866, -0.785589168563, -0.783168017095, -0.891439881469, -1.08053052724, -0.818953010952, -0.823990582718, -0.610975113014, -0.706369334087, -0.83607795072, -0.86536700094, -0.861887789379, -0.706860677903, -0.604669076545, -0.638959509959, -0.600205200156, -0.601208908689, -0.600265306283, -0.666594192176, -0.706937637112, -0.806432197551, -0.701267093778, -0.697408794637, -0.851407473703, -0.696453841977, -1.00957402773, -0.888081735997, -0.883778307995, -0.801014108655, -0.802707601144, -0.902478661063, -0.867497240701, -0.826525935114, -0.828361611411], 
      "lbp": [-1.2775026474, -0.801223028353, -0.800091623644, -0.800009851969, -0.706840077597, -0.771744181593, -0.764756730848, -0.668987349384, -0.722732252285, -0.669412768606, -0.599571546235, -0.799859783453, -0.800085025062, -0.800151690407, -0.800453693963, -0.770896454141, -0.657297455691, -0.599810309052, -0.583090394926, -0.952970571559, -0.7654582373, -0.799938792024, -0.727414989246, -1.31723075305, -1.14076054405, -1.33781061842, -1.40029321489, -1.29006497698, -1.28367040173, -1.15693629435, -1.21680694398, -1.40041878805, -1.29047691479, -0.928378863331, -0.926795080454, -0.921170431637, -0.911039053934, -0.843072087859, -0.863356945439, -0.975893430292, -0.891645275689, -1.19772729821, -0.994481526443, -0.974741126221, -0.796142704788, -0.771301703397, -0.911422811844, -0.920856682866, -0.865902542856, -0.849751055127, -0.806605497263, -1.05057278424, -1.21923288747, -1.3182935345, -1.30915908452, -0.608079191461, -0.939755202343, -1.10582615252, -1.02794612196, -0.913831959238, -0.874524304042, -0.818753505759, -1.06509012802, -1.18557061801, -1.18891869024, -1.3461331468, -1.39693404573, -1.19088607628, -1.13830203374, -1.37361790282, -1.39128680085]
    }, 
    "weights": {
      "raw": [
        [-0.00641929350098569, 0.029808749809618604, -0.026783847528159686, -0.022626445601288438, -0.067696544783929641, -0.33308017010587532, 0.028196651717386736, 0.18244853629138108, 0.015034328565348129, 0.067852736181546511, 0.066707601028042948, 0.043757744772933718, -0.049432046935464227, 0.028764976579739795, -0.023780221712776294, -0.019043996534914023, -0.14597609954565341, 0.076748129651230637, 0.10031267415956342, 0.022404267686006132, 0.039489304810642681, -0.069172555941927991, 0.064453930612007271, -0.03568078024136126, 0.029477578218046946, 0.013670321310075631, -0.040086746434879458, -0.16483725729324836, 0.060739714509717116, 0.1342127393151894, 0.02422269183439342, -0.023179439720271901, -0.023938362360883966, 0.00080564472822024918, -0.020188203981491876, 0.035394353296754666, 0.0205064246422616, 0.028993448164401289, -0.15875938903288647, 0.086380176300005287, 0.069612353949308661, -0.0051496283178931873, -0.086212516632916264, -0.11615256372599751, -0.10171915312404266, 0.05044362294149464, -0.010944856179506302, -0.0019939577905011829, -0.082496323737375032, -0.19805282268418445, 0.14503065839704138, 0.10472965706111854, -0.054504100655757171, 0.058558989674775644, 0.02150968078817124, 0.01730546008925736, 0.05479743583896092, 0.081449861658568032, -0.015926761159011912, -0.026645825852455899, -0.29395789604640399, 0.26045433455042083, -0.014750981039322313, 0.013565969503019568, -0.052043696631421672, -0.068507656016080665, 0.026714598423665525, 0.015030040573038209, -0.0036695544345779346, 0.0038325864743167098, -0.029296334816602605, -0.2168604461047042, 0.23218142341105868, -0.00327038976446066, 0.0010937576464049442, 0.022865074396730092, -0.0024710599676689565, 0.027138580199090406, -0.016798852895205371, 0.052896545591113953, 0.0068773632280050567, -0.11534615443720748, -0.20002833023471947, 0.26776687274414374, -0.012990564848598472, 0.014507044952519324, -0.028376794482919257, 0.0061821648519400502, 0.088921914606219496, -0.029268623822226371, 0.023549402065920405, 0.0050119768662514469, -0.10302390187256479, -0.11265110616376864, 0.2362166399750627, -0.023189771813893006, 0.0035722520614683423, -0.034182137066625137, 0.050630393094575593, 0.010945258403000244, -0.0026518946618147438, -0.025155322122281942, 0.028530077090590744, -0.13115618895267522, -0.093256001395012889, 0.16420560614466395, -0.010547265652414012, 0.035550139332521893, -0.020259214475918323, 0.022466567725035011, 0.034170311222605998, 0.11907609035635143, -0.0015743444390024786, -0.064020366156778002, -0.22057027736788293, -0.072309973907480174, 0.30204671935473221, 0.023274069917025395, 0.063584377222264996, 0.042978528220157006, 0.1184620505912367], 
        [0.16667514507181941, -0.061056496077366282, 0.0069211233964510538, 0.017084537322497012, -0.2260817686595176, -0.3734473319351409, 0.079940868263823905, 0.16478474110226196, 0.022649460741459224, 0.05289358066562716, 0.029321578215087005, -0.065686830769126472, -0.017175099236391184, 0.05342642508666981, 0.13196524692583625, -0.038915970355677662, -0.22142105635118151, 0.17018889180755431, 0.037968714516855254, 0.032433038579621432, 0.013114263754535838, -0.0047139766817905979, 0.01449378481921762, 0.016836144088159047, -0.035382521979389493, 0.06459440929029997, -0.16864194241367311, -0.18183649747692435, 0.22011199704153209, 0.017097680726078424, 0.044439120834852616, -0.065744647597146183, 0.1020917702829201, 0.012977428388828996, 0.019775964936306969, -0.020715077614501087, 0.037536099617302823, 0.073188143789734553, -0.2573933108232303, 0.17910460975300116, -0.012201308491933793, -0.012488637353357972, -0.027937934041822002, 0.090839519859215512, 0.056061692281274847, -0.029592134951326149, 0.083797375549624048, 0.026909019608009989, 0.028447256194293238, -0.26724295246437862, 0.17601512398468455, 0.05747403764496381, -0.021754451570897559, -0.016094120395692652, 0.034960605520111765, -0.066136093799398984, -0.086822275816825112, 0.021267627399376515, 0.024913839061514578, 0.083351248045442958, -0.21233918154488879, 0.14528347788592133, 0.052103220110131521, 0.0060526935312730304, 0.0041057956922075783, 0.073742527231735508, -0.063150982285070517, 0.071706513280739251, 0.050276967845660783, 0.059473860357975208, 0.041092776845037343, -0.23158549693983016, 0.039824353302363641, 0.035168096441852537, -0.03932662577032886, -0.046713411712221917, -0.029438846368243326, 0.03037322262500354, 0.010642421674176408, 0.035443098233173931, -0.064897369310492531, -0.032863903246691833, -0.15394029962311223, 0.011777952930909712, 0.17418487412288675, -0.05475758571404693, 0.047924066013688642, 0.054346490005779069, -0.0033548564463232317, 0.023589666170022047, -0.024599944457705122, 0.06065500572988429, 0.13656620662733865, -0.09366338113990888, -0.047444407722275428, 0.062872719444471176, -0.022728230791896249, -0.027266120729298168, 0.12949378554678781, -0.016064969466370635, -0.029023009596784263, -0.055703343306378029, -0.084010725120186397, 0.067582673095362464, -0.021201313484205356, -0.12021659219227125, 0.094859360168578946, -0.023785622470961085, -0.031181057005649077, -0.0045461011994782641, -0.00096878041950868021, 0.075435938022599638, 0.010017282477206416, 0.06897995798959812, 0.077147960801012536, 0.01605850787004124, -0.19045442262141093, -0.010877182945437318, 0.12221413195895285, -0.035115541235648702, 0.061957485103634649], 
        [0.0011017024675275405, -0.10082831174460544, 8.594795150784762e-05, -0.0044220494782738484, -0.096739526280002486, -0.13240523784777558, 0.13984373949584222, -0.0031378754168676498, 0.068399621371189656, 0.041644858137291046, 0.12466035423467051, 0.057468796042489417, 0.073611208985683574, -0.010863604812754085, 0.0048406348200145249, 0.016396206458863971, -0.021671035744779854, 0.044733205419186794, 0.067921565834977882, -0.01587229208239721, -0.055943430884781355, 0.01970238776563854, 0.01861633041967882, -0.0056589566846889511, 0.034037512362465189, 0.034411475082115867, -0.10871009154186473, -0.08095953984145883, 0.067427623282556901, -0.019879897471494754, -0.01366520816807866, 0.035789793103949114, 0.066231396371961834, -0.045917999777744078, -0.00420191665726459, 0.021126802087625032, 0.040187642280355346, -0.036664394872269489, -0.030092902147062638, 0.0088117404767308755, 0.0024160167750989087, -0.038592533464695079, -0.031144322454676222, 0.03504205275969649, -0.018244427580942767, 0.018916000565823501, 0.00082420366538178691, 0.092474565072900916, 0.073297169128542394, -0.024311595897201867, -0.0027452015976400512, 0.067920732187453939, 0.0011865809331642052, -0.02829414542225548, 0.042812086020618187, -0.022452858987935732, 0.02261009594352785, -0.028250777066103218, 0.043262591064003333, 0.092532390695239303, -0.15324339008135635, 0.050211260469539359, 0.013929622339187875, -0.00089781384686685173, -0.063661201005958332, 0.0048485523557203342, 0.078580094123552602, 0.02575794561866239, -0.032352350433290294, 0.028485056134963452, 0.023621395691399441, -0.2117470445371154, 0.10461485137190293, 0.047597936964786855, -0.013272615927845698, -0.060311993172769994, 0.021931281439721451, -0.05466583518135374, 0.024589654496216209, -0.053142641146117948, 0.04992839103128853, -0.024452908798012384, -0.13669941087219498, 0.013882012829174228, 0.1070905994912941, -0.030277288574973339, 0.045488870557272854, 0.021158864845617006, 0.0045504704709340218, 0.05214959922096879, -0.031124914087522559, -0.025892240716889583, 0.051505846702740755, -0.15850714978032798, -0.077434100579077431, 0.14442197585402719, 0.025520694414871425, -0.013359740227537047, -0.032691479720369884, -0.050760755770619531, 0.0067267124662175881, 0.053582968166709294, -0.066091329071098104, 0.028319458261919814, -0.023395468585636847, -0.12189855936069849, 0.1264108145125255, 0.041070402257636952, -0.038345327797452616, -0.0051037835899539882, 0.01115753611454251, -0.025558001982792473, -0.015803280214702852, -0.014570255682172791, 0.058581784915518444, 0.048613151833675504, -0.29657491636724309, -0.067645659352775264, 0.13108882918808282, 0.054569929796482737, 0.062523971903905642], 
        [-0.025232963701757677, 0.022348786079614824, -0.072258840316720419, -0.18573054835716424, 0.061153715684906157, 0.16052559660045873, 0.035735222876137188, 0.032645819538200907, 0.049972870544935558, -0.017744962590501873, 0.12327939069776968, -0.0020676327098313324, 0.01746290767019347, 0.062789463078491509, -0.11704698186369022, -0.065254587170476969, 0.094525133189958851, 0.044950125896693824, -0.028763679134251888, -0.0075590072060936625, -0.018042703509056443, -0.042766926478698966, 0.0064726653302440013, -0.024498528948216539, 0.015095977860562756, 0.011479770091646538, -0.22511989496614118, 0.13749975960271679, 0.042174383146931602, -0.00097973927564777574, 0.0053458653222245162, 0.0066958708608460676, 0.052938783244498341, 0.028662885704672569, 0.0083788264626524778, 0.00039142479042951484, 0.058935919636454462, -0.20560278009245425, 0.079502781298950373, 0.10223896059315847, -0.041137991907932381, 0.027330073389672568, -0.010752121223537789, -0.0022306851331074934, -0.0079242014779485268, -0.0082794956479350576, -0.032085062337155419, 0.086122599207560518, -0.12113263279497796, -0.12790727680874353, 0.13902963426409898, 0.0088539666043742082, -0.035846424270882665, 0.004579108178465921, -0.043586755702451435, -0.026440306229895939, 0.012179387770686292, 0.074041872436307762, 0.01288390088442623, 0.063137802503704196, -0.30013379565775622, 0.19884603307627666, 0.063815797070558927, 0.049734977180621504, -0.059941845556548135, 0.066082316837520416, 0.018259553212376337, 0.017779633684347013, -0.030632372504305949, -0.05294008910372007, 0.12680914791412304, -0.23860332882902754, -0.072937437856311613, 0.12736775458078498, 0.063565918341235095, -0.051172875061062162, 0.0097790501145352954, -0.0043407042674837651, -0.016155615544080057, -0.0091923923303261629, 0.050665742508667524, 0.0060984721656736629, 0.017307742609543222, -0.20367784360158347, 0.12046177714866035, 0.012913438963355811, -0.0092051845719411662, 0.035362756301432471, 0.030747952698754938, -0.0068483304259888619, 0.060769663776634064, -0.024830671275067155, 0.032204825588141653, 0.088512986534959648, -0.20132344254131007, 0.0025484138158970229, 0.140122587765108, 0.019618593851209051, 0.030770253761956967, -0.044844034190508676, 0.010829012004067717, -0.018604574580413091, 0.0048701187231226031, -0.053835622525193277, 0.065655732448266627, -0.087834494458251325, -0.10019900548070505, 0.019098697970462999, 0.032625675487211764, 0.013786208177970036, 0.01459298085632256, -0.02245319975032244, 0.023627062323695644, 0.044567875847249791, 0.051820387537472895, 0.058960832030794469, 0.011808887606369993, -0.24302913455395336, -0.10331035325930389, 0.043122221975443853, 0.044784114116775492], 
        [-0.11131891807709643, -0.14268474406555598, -0.11319512819486531, 0.16616863430344642, 0.21669051126658584, 0.14580497808064175, 0.015659490036423723, 0.081299765772630261, -0.024809345136602795, 0.040210442226760873, 0.1147788050575636, 0.018929993321792474, -0.080897366155457673, -0.05933670525564233, -0.10482248256522532, 0.10573530196882865, 0.063140871798500697, 0.059506144939088096, -0.10685781396759031, 0.034082096511914323, -0.044928786246672847, -0.023391401657096106, -0.021033602025377948, 0.011729129297605986, -0.12518841502550898, -0.24524516894120252, 0.07503634089773896, 0.16915003534917084, -0.01104335485702547, 0.018698016558333488, 0.0089193810606012641, -0.0095742068835864974, 0.074951376080238705, 0.052515621176523086, 0.00076255674614852942, 0.14447253116659836, -0.16116755572117158, -0.29435350805617738, 0.21097730948472182, 0.15322391116769629, -0.031396770107823796, -0.073199499622068412, -0.00058138919552927493, 0.038373648087908357, 0.071661242983008577, -0.02522805699198942, 0.094355619055900272, -0.0055066260275108136, -0.31676942832713584, -0.17017797276453395, 0.20181171910078166, 0.038951035449355131, 0.020699071667054786, 0.0073524959093896058, 0.01925107008541585, 0.027713365493689732, 0.022207504221021385, 0.017801567429584678, 0.1612676210022263, -0.0097926541627393199, -0.39692367057618455, -0.016344797834207933, 0.084334965049200059, 0.12332269298102864, 0.04685154450642956, 0.0026367553827924689, -0.01561848475266879, -0.0094365420154359086, -0.02615768632490699, 0.093091816231290578, 0.015836673962272785, -0.036104175954425388, -0.25194637763515748, 0.066518889227065711, 0.088768723733041136, -0.054177349140414666, 0.11363104423136496, -0.074336096915664576, 0.026411919672457762, -0.0069934713872144005, -0.011837151565905812, 0.20495766925622727, 0.040652574469842911, -0.1095170141673022, -0.19525613842871348, -0.026690291071139877, 0.025635090198280266, 0.084142487180791703, 0.081560517413446651, 0.033899581274340673, -0.04177793659445489, -0.009501675246059646, 0.014146738677450046, -0.0083456640397739645, 0.066156053917280688, -0.13607639700339172, -0.075200076822236159, -0.099487351506951205, 0.097954762781141, -0.068031338341652869, -0.028816943621433999, 0.062116569439491787, -0.056509543958784436, -0.01645775253059964, 0.078178705767746479, -0.011547980097176877, 0.054587296091729326, -0.017563000385479949, -0.072691438517766077, -0.034856075950508381, 0.058573711770738279, -0.060289020490556899, -0.012302959633281041, 0.052155478089966123, 0.075227692092241769, 0.053726915546722931, 0.0021832390619121317, -0.0023449235386490269, 0.069001946478247533, -0.05514982572329348, -0.18138153837504351], 
        [-0.23224131638764922, 0.079034696624463316, 0.20679180641094769, 0.17116975450055194, 0.060393255799023757, 0.070072109804855828, -0.061904660241219982, 0.10747334033766655, 0.014331963987671489, -0.032561864821210422, 0.096136650220496528, -0.11702112011574746, -0.1864804302468564, -0.072635832330671626, 0.12519462388086205, 0.070887202616322975, -0.032713296482814992, -0.014132673438533166, 0.0038161968326955314, 0.065966068281342619, 0.020457399865123169, 0.05133413578390264, -0.001116824372617925, -0.086503852575327167, -0.17856252353561719, -0.024882107163551152, 0.17291742960211148, 0.076636137948616748, 0.095776267371189924, -0.076644083681563224, -0.054109190285893664, -0.037610346895478264, 0.10646735039870757, 0.0051060331651450463, 0.056304468483811307, -0.028154521230155018, -0.31728669213013388, -0.058091370831929535, 0.11556013989779028, 0.065723490886578348, 0.030550971916660702, 0.041747103093391622, -0.069587858250691484, 0.092461263966589977, 0.052299010395004661, -0.010485795012401211, 0.011062345730906517, -0.04525324732355647, -0.23598087205664336, -0.070892557463706443, 0.10680685304416297, 0.11990972610746585, -0.020183291742381704, 0.00057273018272969989, 0.096563026611294442, 0.084394132743400782, 0.0061097222161349135, 0.052438465571678999, 0.012127916344441741, -0.025706403873987399, -0.37425731880779622, -0.12768740978352261, 0.057044219322174475, 0.11342314858398521, 0.089909015291416469, 0.088758601800430922, -0.017367003795174522, 0.058573936936146223, 0.0024241782448618243, 0.081099658324097532, 0.071614519911280788, -0.015636202687439121, -0.21764039015095288, -0.20280985898846876, -0.10017064401745751, 0.076481246330856831, 0.072072476074846584, 0.074831950513515946, -0.071669127112894582, 0.0033343139896645224, -0.020106231127842517, 0.12484552374687989, 0.088741504624313003, 0.01253935252290507, -0.080371651389196677, -0.20667576524399633, -0.042824689058188217, -0.041960654306219244, -0.011319310972225209, 0.0087351053188495856, -0.0073465804795511402, -0.014035434722362766, 0.060980934347515808, 0.0044957219640220231, 0.060136042340486653, 0.12862638541641686, -0.043407117384264018, -0.17199184431209702, -0.12411968467220214, -0.067878366625261699, -0.01454311580267198, 0.01330421418710441, 0.086616156710090195, -0.050869444187172472, 0.05903651637207552, -0.030082478432639181, -0.039150691833121767, -0.013410175971461852, 0.082024132616958054, -0.18429763963038856, 0.043819988293125167, 0.031005210064727645, 0.010111390046324928, -0.0064173858317888854, 0.024542598321298154, 0.0033265330575526358, 0.040210215896558238, 0.10549988851835322, 0.066466013297427518, 0.049201722388277136, -0.093932153614813801], 
        [-0.12203267064152819, -0.036980237066742305, 0.12682937376396922, 0.10063288694137082, 0.082154198268033315, 0.031376504219097656, 0.0761930646076317, 0.029643540312019309, 0.067195157731181732, 0.014606114158926237, 0.21693479369516466, -0.091990999910650448, -0.11495742760629782, -0.057854374414651549, 0.026983308635638359, 0.053703744190506393, -0.0273941556868533, 0.062050781886751671, -0.014064800119151746, -0.030464390345027792, 0.050223229862306498, 0.069522169458366395, -0.047915080066377513, -0.076312738072256109, -0.10542836060878844, -0.069963062747160215, 0.063887809768190862, 0.047703502973526726, 0.049625632114663767, 7.9371105783654361e-07, 0.066938020168000531, 0.022331267930076198, -0.013204459193458515, -0.051208345754393744, 0.017251686675046174, -0.16855866147278023, -0.081718362687205809, -0.051493312235764005, 0.044258122147233556, 0.079860750571469824, 0.040256904905908247, 0.061167900966640459, -0.04445412975620007, 0.076058551537300789, 0.024484533213087259, 0.0237388901616193, 0.022211385002816955, -0.03909556756500325, -0.26993986747191345, -0.13809797457481326, 0.10638240754104332, 0.074164534665666665, 0.1361114507013107, 0.08862011177027157, 0.023942633928693842, 0.05945503505976131, 0.018810531601996444, 0.13332855116668979, 0.019080517712641562, 0.040953668701707469, -0.19369280785037196, -0.33096708018422843, -0.31537163999459777, -0.051011822183710684, 0.10153083596477822, 0.10646364340542763, 0.014630901225096263, -0.0037911814153038514, -0.031174186442994762, 0.12574438878630761, 0.082746608550893844, 0.13910378358879222, 0.015618015934354273, -0.097010031619152184, -0.25736850771835984, -0.23890047875932624, -0.39201416081419432, 0.014631649728319138, -0.0049576516790900346, 0.03224914217266181, 0.01990648283333149, 0.0090030712698045481, 0.026111426002791746, 0.062897867831994483, 0.14638901620146211, 0.10175160175705127, -0.008366542972654184, -0.22694639696488025, 0.016644643336980125, 0.010640427487024477, -0.033902595425888096, -0.058870306001172809, 0.022391466116807472, 0.010861548153134476, 0.028661031141596176, -0.0089732366008385203, 0.052004121536959068, 0.030892998140363448, -0.066298768516542983, -0.045462972141964375, -0.036534075016049508, 0.058255109985203259, -0.090300770932724164, 0.087529180603695578, -0.048367137056150394, -0.021869920641280391, -0.061934612997809474, 0.02284265461094593, 0.087099015316751405, -0.038225524845750966, 0.042582590594014876, 0.046403954163031218, 0.038044057338396199, 0.013279662526628024, -0.024475870996729501, 0.042648427075458788, 0.021205045270171127, 0.02354074407698388, -0.0073299199474954058, 0.0090776722049553393, 0.072704385543697653], 
        [0.076135322944236056, 0.075928742328769658, 0.10248245044059716, 0.12142390869553117, 0.061858857352832766, 0.025464191080837695, 0.048676474818140573, 0.030285797856824295, 0.11128631305542007, 0.19455327377882989, 0.11002956054185524, 0.074606814265492927, 0.013898060531860643, -0.012868505144617515, 0.038119746657903283, 0.0071484624304063438, -0.037389694906732461, 0.027891841345889026, -0.0040180772778207266, 0.051191664743506379, -0.051415059933379359, -0.065947905104447993, -0.077216280637459084, 0.078792274560627332, -0.014940451970767085, -0.042428171172985307, -0.022773622035877988, 0.0095521053133781186, 0.089224973018742798, 0.0026288446459537393, 0.027795289276907741, -0.011245376233293055, 0.0027789702559120602, -0.084646263411087108, 0.1085122984586782, 0.064787488385146461, 0.071774533015530245, 0.101565447736036, 0.13538683839366522, 0.022702180797543253, 0.081382504391220065, 0.10182220145207069, 0.13414599015766171, -0.067254735812403973, -0.25199554524555356, -0.131377327178401, -0.16365674311148973, -0.018740825554245097, -0.062882807469171645, -0.022204060979254633, -0.072308264704348132, -0.060021508605704321, -0.15902262422755242, -0.23762263561888841, -0.27876101597724223, -0.040263587475045666, -0.08015604055016233, -0.054338910081926026, -0.19775317420562621, -0.28232046584273385, -0.23353688528539848, -0.28871468579830523, -0.14101654202670044, -0.1025403206842016, -0.091079191318669123, -7.6021920519903069e-05, 0.084333775651217177, 0.025776875645890322, 0.027110928294315155, 0.12586947033203832, 0.1709457201826477, 0.12107947589739056, 0.23253719852668123, 0.022508442929942168, 0.10869072456768857, 0.1033561446413986, -0.0044697029388135806, -0.019043623385769329, -0.038539230833867344, 0.059623205301912882, -0.028372504860633661, -0.029359754569747713, 0.00087516511679762042, -0.065918072203459618, -0.069356242665201281, 0.023580387356890727, 0.021727207917053997, 0.039570606452870798, -0.029876932333496215, 0.038706340217221941, 0.054322914583595866, -0.04361035086891106, -0.014678116576553712, -0.039396900573428928, 0.028347288864635375, 0.13841137622066219, -0.090660897476471158, 0.036895873473620874, -0.037229162146948817, -0.009894930351075984, -0.0452390438366378, -0.027744940547884053, 0.041940095444971182, 0.010553985420084559, -0.12123151432640322, -0.0087493439495505976, -0.022343273408815235, -0.036722825249752025, -0.074235049496179872, 0.13502817700337175, 0.046152107059304906, -0.00089713083287275286, 0.055904759652944447, 0.072800550242982834, -0.014134363015890009, 0.047445934632441455, 0.085859047433199678, 0.055070485986852061, 0.022278702781022022, 0.064172293392803822, -0.070765699060726217], 
        [0.11799509004720471, 0.078210409621760235, 0.1281616951498617, -0.020597034003169923, 0.014336534229225872, 0.11621450358247642, 0.089056433936686774, 0.054438463796402992, 0.040501447910613234, 0.077088744908712675, -0.1658906017777812, 0.098327915917565289, -0.028103337633236192, -0.02658838870983915, 0.024054753355259639, 0.072814336465874374, -0.012893740245567331, 0.081294224250996139, -0.019638851124383461, -0.059461355471660093, -0.070719091722531727, -0.12759442479018229, 0.02999311492449748, 0.0019697445298409999, 0.026356695570939392, 0.077456177036917817, -0.0065799057399700267, 0.034984205817837566, -0.011141116727752032, 0.037205943512359313, -0.07804833218835576, -0.042937280919520593, -0.12753528913147499, 0.02845913050306173, -0.02514121956008758, 0.032110847590650193, 0.042951761529577637, 0.11294381552310545, 0.02004775184404517, 0.051515900309122342, -0.235725744910211, -0.072308382261543402, -0.019056219840507427, 0.0030321142503065279, 0.096971125196596036, 0.075809718303164492, 0.1171582304881571, 0.10956914475118423, -0.0024781197540262312, -0.06415838742812259, -0.26848100360863303, -0.059754498941204257, 0.061910526180559394, -0.021664296531182625, 0.086110025927143202, 0.053233513020111881, 0.17175441242058409, 0.028047054519386466, -0.085902980821043862, -0.33611410752827631, -0.28144114222203132, -0.0080330325783590784, 0.10513880861366756, -0.016382627034826625, 0.06894681074416012, 0.032997961272869761, -0.25750942110661729, -0.14536580095096197, -0.35542177348703685, -0.31543540234741724, -0.015389034147835323, 0.25815532917511536, 0.089607429737832672, 0.024873996600298487, 0.068810039618355481, 0.034890175702158258, 0.0094402391459942059, -0.33170429456025141, -0.084021507130023668, 0.050999687890954576, 0.11407450625706317, 0.12380980581221895, 0.061541685739852497, 0.024537508065533231, -0.051412691100538532, -0.037969145008949989, -0.083159219869618037, 0.060974023868713867, -0.069682639993999873, 0.013136896914555662, 0.054335436144424709, 0.086375749604332752, 0.025768018275164228, -0.03028474620608318, 0.0046745647931875633, 0.014048250096520054, 0.0039043180440717223, -0.013243528792716869, -0.010234982174629259, -0.034348718626758923, 0.089306699417503188, 0.023672596441143168, -0.074063880914324018, -0.039416266912232933, -0.051467563793051355, 0.0066514091767777561, -0.0056021073234813201, 0.037530284479276185, 0.022917723699947115, -0.028514057580272867, 0.047001295013920974, 0.011663892903344658, 0.031577429128105267, 0.03674321708145567, 0.00016789538350847621, -0.032412649376776737, 0.061176715259990133, -0.014965782274795558, 0.027963582472569012, 0.049596015432228538, 0.017493695904998829], 
        [0.095111827476955541, -0.061598206035035019, -0.027848508902761582, 0.16285091177508479, 0.011485186070697095, 0.088227631418343583, 0.033476841560767329, 0.21311907036597436, 0.12562992528833603, 0.0056585342726571952, -0.19669291509156339, 0.12201627871631479, 0.065003875747784906, -0.064637578476232027, 0.0076011270434201972, -0.014992832356838792, -0.01371412582796748, 0.065189835192035667, 0.060501772887085942, -0.007320488021864191, -0.15837390579360289, -0.11374672007199678, -0.011219765388015224, -0.037241451866588046, -0.003534620740694161, 0.01418414744662963, -0.018804529282363244, 0.0022002993190636394, 0.086304123895880422, 0.050730302973426275, -0.19347784099407583, -0.024336852899701306, -0.022104084039211852, 0.11856239536141804, -0.0040746848315117296, -0.02163636804096198, 0.032834767679033816, 0.080034473148409696, 0.18177097586869298, 0.04019529190670533, -0.27026796515043489, -0.046764731646186594, 0.008852085437052834, -0.0095398107877663063, 0.073838224250254575, 0.0022341455913789526, 0.080946842014086626, 0.064911153319107226, 0.06885287564917604, 0.052927148605433058, -0.41010712091394702, -0.0033883005740702465, -0.076620464606964478, 0.028026719104762239, 0.076992030561192998, 0.13499559219777985, 0.0010835539682531592, -0.0094521558900973468, 0.1189809113716918, -0.10886395857171732, -0.31839062100092569, -0.079536575816365779, 0.088035400227267108, -0.01994821470243107, 0.055031181510797132, 0.017355891747403651, 0.11548823748390151, 0.047318802613544472, 0.0035588736908875526, -0.19090242902977161, -0.16923224535916537, -0.10343904409632039, 0.11611444215342794, 0.030139907826970232, 0.092037927739449271, -0.00052811116545577533, -0.0198996720404131, 0.11041139740159193, -0.11354626622456132, -0.13266289678027732, -0.16827719486229559, -0.036676195585965438, 0.078177366758504091, 0.065049146958536752, 0.061265895750100163, -0.045421314698528795, 0.038673845042327876, 0.026641279640920345, -0.10482185618696178, -0.10700981328292422, -0.065258746439048387, 0.10279723823243007, 0.025140628570866255, 0.078995252659308457, 0.055586249229617551, -0.028236723374775799, -0.0025877363105662674, 0.033127455377752982, -0.028093023704546808, -0.19114920828266518, -0.084372445040405197, 0.032752181200734989, 0.044573421483901268, 0.078569580177818454, -0.076167973158059274, -0.011917584687660975, 0.03886281331675661, -0.044585012472417355, -0.041774790744191534, 0.06654393572162462, -0.20856381862218065, 0.16839377975033309, 0.028096195344995425, 0.02974664466893967, -0.028107306876337092, 0.040206628818593826, -0.0050223327946646058, 0.061683180967305642, 0.11123093181504413, 0.0025290457228258033, -0.02120297614281566], 
        [0.090435635035851059, -0.042297079072951133, 0.079436400340748309, 0.03842552427230031, 0.018479439174666504, 0.15188772712119619, 0.24325152032590197, 0.11801556793669821, -0.080156795814110504, -0.21178228375212024, -0.13218981199435309, 0.01847519834858842, 0.092018443323332436, -0.050722043815425485, -0.068374560672083723, -0.01537540593449041, 0.031479819423878536, 0.087358407307766756, -0.06835423776229127, -0.14664172724239749, -0.00015826019866193447, 0.015682235993107141, 0.051709128927825823, 0.0087470901747511848, -0.082975597424275058, 0.061059290685490167, 0.055712846563533064, 0.11256404620171304, 0.12009580657518015, -0.2412015915622755, -0.014823455006292133, -0.021320510868446968, -0.0064826789690396042, 0.011517249723710349, -0.0029378978150773061, -0.036511890813033382, 0.040278214553535516, 0.0514440140450457, 0.17560605653482164, -0.16559846575808021, -0.17723807338794942, 0.06664090603454581, 0.025443982377752639, 0.01188465218452904, 0.0289513499031155, -0.062269615752451546, 0.0081510081877681634, 0.074139239966066889, 0.15951734948521942, -0.023426085135995006, -0.39782174976422469, -0.10908536196954385, 0.19810719075019201, -0.03969354994135716, 0.074717236518908187, 0.067657462341092572, 0.0023721387419759488, 0.050106233821570277, 0.11669499140233328, 0.10445484529679147, -0.18066291770941748, -0.13732855962266888, 0.12305831238941373, 0.037248666546407946, 0.04039521027170892, -0.013511371889906032, -0.012463530395042041, -0.011253154667815578, 0.057263714594404463, 0.064123734742731392, -0.18290915356692017, -0.28693729905644189, 0.16662290255364237, 0.052133698720201724, -0.034519972646288311, -0.0020692840094172008, 0.067412513930324325, 0.069378551503912617, 0.017341484161215288, 0.11249597819545545, -0.12114447333731211, -0.16394194327719122, 0.042618534271810712, 0.0082442390404487698, 0.032211543301204119, 0.0013431370481797045, 0.059793575679882971, -0.04185352167064698, 0.16141583247142297, 0.025290287768054538, -0.092771950162634342, -0.22159811768357779, -0.017539993864623925, 0.044684688362074843, 0.076526300295055832, 0.056281907644482626, -0.038322569525682852, -0.024136451744282625, -0.063727184521766261, 0.1019524390722753, -0.11143716683774609, -0.13769182869235727, 0.05085564633400147, 0.0118757042451966, 0.075788152179100177, -0.076290068823641047, -0.081411313673654603, 0.072941798976396161, 0.068768484681585834, -0.033997564379039544, -0.16790192551365551, -0.13094257760158287, 0.030092743795544198, -0.020741964391416696, 0.00030251423268644675, 0.088642737579611705, 0.052492146460725884, 0.087007777517176865, 0.024692689071073824, -0.11263451468661019, 0.075663957633193252], 
        [0.10661930608242243, -0.024041018022432886, 0.023732105856747315, 0.012547179712792927, 0.066200152687718561, 0.072880838736859632, 0.14195980975544101, -0.1884630302757157, -0.10001494467301893, -0.030399364707448071, 0.0065084325390564329, 0.035395980550384912, -0.016756476798346576, 0.039963413543780302, -0.032920761282429711, -0.005227900049309453, 0.1455513515779632, -0.045218123785947764, -0.15712918904629083, 0.019388410485656385, 0.069073426062715243, -0.0298852890481313, -0.013668142441217765, 0.03550729334105425, -0.033905353229976301, -0.066398064416859415, 0.069367258226956524, 0.099068467801844279, -0.16176946602990219, -0.049743685317054989, 0.049417327248947623, 0.11584329961758463, -0.0099765335337247824, -0.0058946153093775433, 0.024852267791530103, -0.022953834411929233, 0.03536477637026525, 0.07091098453159729, 0.16506591436250806, -0.20260600332750361, 0.0040822600350435972, -0.020994635237100143, -0.01738045300747007, -0.068169477874611903, -0.016583306399167802, 0.016335356838440979, 0.017414685172079863, -0.065509544776204645, 0.17533271724699692, -0.077797629050437453, -0.16426179882147435, 0.067990824370129876, 0.015164258343913037, 0.0078509177957392234, 0.023952622885856464, -0.022724061899056167, 0.0064689725623074124, -0.0046862624418039511, 0.023956271557396727, 0.17796984486026562, -0.14583559757339518, -0.064279230905094187, 0.0072858891690116556, 0.10176352460866914, -0.053758388167071028, 0.031829796138471395, -0.0069310877889054157, 0.011744209650540821, -0.022880287482633932, 0.061704359435578809, 0.073774321721628233, -0.20953311948246117, 0.022856913389839799, 0.054729377378656588, -0.019111901041743054, -0.030210238863132122, 0.0030313274697504888, 0.015874354673913807, -0.0064522920827583541, -0.029379891777454897, 0.17844565039391092, -0.071104527084354163, -0.12962834428996683, 0.074504436810004751, 0.028226182768918535, 0.028593401178049288, -0.019591476910773509, 0.026274691487893291, 0.049329376791844029, -0.002525771203732069, 0.015184190784585549, 0.079377622440195347, -0.19505648192438618, -0.03458185384929216, 0.03928442530245542, -0.060961853070715478, 0.032104621984227109, 0.0010087208719327459, -0.0029091919090189974, 0.001344468156507149, 0.0050237130033507146, 0.10378546719878355, 0.022547607122337512, -0.11488746863511244, -0.022120532171003134, 0.043655327718427159, 0.0067756961208252711, 0.025228229845891133, -0.019273769704258592, 0.021906840282590274, 0.076111022214773325, 0.017667767612816868, -0.015508848470761019, -0.23798198014252242, -0.10029292828221784, 0.068962427478186386, -0.00958082155355134, 0.071808069871878891, 0.0096924544958174944, 0.0089571169770431072, -0.0082774624735039715], 
        [0.1471154036752462, 0.048703759783120179, 0.038281571450254931, 0.073332082613442248, 0.092603314662736677, -0.069406279440535595, -0.18039118017356837, 0.030461887926973671, -0.076527801539272758, -0.028459829410684742, 0.0039885048607745666, 0.091531066997998373, -0.097047418603899732, -0.021416261913473872, 0.022880799394652915, 0.11630110494121575, -0.11091349044337311, 0.0052601237488336672, -0.0013446292981080382, 0.019772833215237998, -0.010680526542495961, 0.087901717718307917, -0.0062327763337505782, -0.022953022264458001, -0.011871195380737234, 0.0057627067153195322, 0.090589963902581616, -0.032591156196510603, -0.028720174599054245, 0.018764947431906404, 0.034198398065046542, 0.092483125928658885, -0.039035757837943871, 0.046060971646470147, -0.031919717673297834, 0.035975657614667797, -0.021429646453529204, 0.087312129030033464, -0.10752464144662353, 0.00152080949832821, 0.010463878802001378, 0.017720821018342062, -0.05437049272297912, -0.041948832895335277, 0.025352619756942793, -0.033214062148915535, -0.021243138027047942, -0.00088239905902148807, 0.12798500264531565, -0.14587827997097436, 0.0049154556879893313, 0.1154467113814605, 0.02439416473282259, 0.02683709160566132, -0.0070260419087720058, -0.020081222854955234, 0.023704875110253917, 0.022950424614096271, -0.05338528177481898, 0.083134108349852701, -0.19190518676745988, 0.028255792687062964, 0.051622701485504116, 0.026882922200025916, 0.0083776169731257372, -0.0056709911085335123, -0.015187911842930016, -0.052821700067161415, 0.0039064424714551904, 0.0052811518294068188, 0.10527786608533028, -0.15535307659177727, 0.012627301510895916, 0.033272060865199279, -0.016015509511655836, 0.04732339385165741, 0.029676033680461018, 0.06267237670914183, 0.020359709219910163, -0.056328413014882728, 0.062032262935028198, 0.13944415500977614, -0.1628837619018858, -0.062736195828590677, 0.0089073506518793991, -0.0034474543722587785, -0.016188172373634228, -0.058357780371563008, -0.038566049097796054, -0.0077422478015098661, -0.045254853975222942, 0.13886799518652831, 0.084801544603633774, -0.19493114682149953, 0.067962054023332316, -0.039669253652282341, -0.042999032230963616, 0.056922793567282359, 0.021310369562604587, 0.023652100423593919, 0.0053850398495440266, -0.031872155789865561, 0.12124236413591115, -0.096718330401961303, -0.094640869713099041, 0.050053309978650297, -0.04109568378358891, 0.06766934251303211, -0.013020222193800675, -0.017936312558531065, 0.030884587986413262, 0.017940556925031451, 0.12318151667620229, 0.08261243140085138, -0.19694230673329102, -0.084587141943991251, -0.0036587752660823189, 0.046190769885896037, -0.015214414660308498, -0.037796750375678645, -0.037660099586230414], 
        [0.028789729303638767, 0.024918790237205758, 0.046183744885366841, 0.11406524547975325, 0.12089401164677463, -0.33167640134016596, -0.30199214061986152, 0.075505027729564439, 0.015980848677207844, -0.03024616910429527, 0.070777799814993519, 0.021705154508264698, -0.014784416452853898, -0.092797386946284491, 0.073387121329044847, 0.21513353226194643, -0.13135516496728, -0.041009990688083156, 0.0027232866435380892, 0.10443594986053156, 0.019234702313893629, 0.026668393094573431, 0.077454342178145008, 0.037704653988272871, 0.028345891762078392, -0.0099781631348617068, 0.1639247590037968, -0.12998366709084602, -0.16954434602341487, 0.044201694038575996, 0.022535303634435802, -0.080570085581980172, 0.02832273196113292, 0.030852307058754604, -0.057281262906963837, -0.03064229252466788, 0.027439907981706396, 0.19418932496000404, -0.21394127367168303, -0.10822827097568048, 0.078776286858231487, -0.054726484054016263, -0.0018935512700742757, 0.027554055035958841, 0.12724208320232813, -0.05340181008736572, 0.032579369535054831, -0.0053668763896144028, 0.14925943338428535, -0.15555203727220704, 0.0070014801681935442, 0.047596654249176279, 0.15762506351670039, -0.0017752319114590492, -0.078479537238969374, 0.047380596780860498, -0.054017353379027869, -0.010809602185791731, 0.031689669706736825, 0.23862777088364684, -0.17967729863408127, -0.0025414623844454364, -0.0044922745473988529, -0.033450167802196534, 0.07325147963052886, -0.0025312860424687696, 0.047270334273701482, -0.018763729160332636, -0.085707081658790152, 0.037456334474121222, 0.24243173611028618, -0.25408665358619748, 0.043294141064992922, 0.040148143400007677, 0.013087435326473265, -0.019853324596188479, -0.023225826183980121, 0.030177002977477579, 0.030922203127136713, -0.040952858219118968, -0.0059330615062766906, 0.059823934711038376, -0.22840162828405616, 0.053835864895732992, 0.039215482051845246, -0.019168216146914205, 0.036601452638986925, 0.0071216981552001818, 0.0055194916843240016, 0.017118320543367746, -0.010329430802956993, 0.022891605120926584, 0.10730721508339976, -0.081071689415751644, -0.052731168737865868, 0.020938629685354523, 0.027472939746776587, 0.008732138872189002, -0.0119734318888386, 0.029541130454324258, 0.025437531916789852, -0.0032417425087455515, 0.092169001321697072, -0.063484712261834525, -0.084864201819236137, -0.0055455400012650313, 0.047829727088973206, -0.038728523143896021, 0.02165612388923753, -0.048404026188333428, 0.081106144087281604, -0.050252564268459365, 0.062538501508640792, 0.050008949642628864, -0.066834069762764486, -0.22862797363149073, 0.13880779851328123, 0.081956893470613898, -0.036534284594068323, -0.019723956545588499, 0.074252965588473677], 
        [0.080974544767873219, 0.056529870095499507, 0.032547574600199997, 0.10152684966806072, 0.0464353057497012, -0.21467483931903908, -0.20894615765238955, -0.014892577371206056, 0.020894015871834565, -0.0067217043883879002, 0.035252062080693092, -0.0060354856627079095, -0.027461302429899262, 0.010095861403046108, 0.054592365636949441, 0.16828861382181534, -0.17463234553413226, 0.021867928311703422, -0.041396141212343973, 0.019379712333095322, 0.012675043495296218, -0.02769514972624032, -0.041243567743035461, 0.016051533116298963, -0.0010186840048578699, 0.14437795805818579, 0.078407639716172844, -0.21215391984114734, -0.057680895739320961, 0.12664817413140378, -0.12395328524150205, 0.071773066877171471, 0.0075741150072376473, -0.051866325466372237, 0.038444728263650779, -0.11281826148125848, -0.013662478929553454, 0.21924860974778201, -0.14332413200544142, -0.054997300283757516, 0.0029602719156689994, 0.047502977291317666, -0.028485684862829264, 0.020466736113513295, -0.10612328436560343, 0.011155779036764471, 0.013002308851003064, 0.023295819752587626, 0.26377227907343925, -0.25931147876901078, -0.081091456814604682, -0.00039674384915672212, 0.042663298620291695, -0.0029478976003412261, -0.02670641642999412, -0.089310251851631675, -0.0050439093556460951, -0.0055020483002672232, -0.045366799032015917, 0.23013430030607201, -0.090115553552161928, -0.21358662268181244, 0.06901078184379858, 0.01987760740252234, 0.0044608961159714605, 0.029591032895087147, -0.035016870610203282, -0.016930134483468168, -0.028665218589185693, -0.014126514695311079, 0.23223335474778181, 0.020022276028697689, -0.25100707629932978, 0.089307267281698258, -0.0077044707387584482, 0.033183418337549606, 0.0097764251174143058, 0.034273315295213935, 0.020164835552348936, -0.01004293041366619, 0.0084137731647092734, 0.23502650629556968, -0.024429730500986124, -0.16831605537549821, 0.0005290142948826404, -0.023487633169125, 0.096815945866332007, -0.036177879497560572, 0.002670053453748697, 0.0060485344731694285, -0.03294986612777788, -0.029843164527927693, 0.14655979582549006, 0.0353911847412616, -0.20847127037801366, -0.057891906038571958, -0.01027014008034767, 0.076537736942186227, 0.082781522415119449, 0.11258631635960367, -0.016599499535918771, -0.093947583003786694, -0.02515826814708777, 0.13710963679628882, 0.13285152491933369, -0.22309506076529734, -0.12553570046740603, 0.025110108883222501, -0.03021547801359524, -0.011748686689746581, 0.14400425060338853, 0.043163516328968393, 0.08594108251756169, 0.035184741390128088, 0.17622159819914116, 0.19444104428116626, -0.23633459893577083, -0.077389181598155027, 0.014638957467814989, 0.022800332745270047, 0.083545736652882466], 
        [0.12261253014406985, 0.16705127800103603, 0.19069455483447878, 0.064200785381356679, -0.00016272403782892353, -0.065942849362023062, -0.0079351060474115581, -0.057893265858712836, -0.05400622028081925, -0.10458693453007292, -0.054179967940119297, 0.066989678608242287, -0.099219853272594943, 0.062446370884785274, 0.09094500180354774, 0.028277578410574628, -0.047069391853415257, -0.0071510316033549098, -0.050252538655332246, -0.01470682832330765, 0.095479720545435506, -0.11061849427089886, -0.14255959604920565, 0.026858767731697888, -0.1946544063779132, 0.18484819329409546, 0.17890314023634024, 0.15499366437705026, -0.028241535246141571, 0.04479597904441586, -0.058444080996440717, 0.013625007131520706, -0.079692834360266224, -0.11450496688056046, -0.12377645767247314, -0.065906435468448987, -0.15742481688127266, 0.12985425042057541, 0.20266035853202718, 0.038497383031025165, -0.025653639466894002, 0.075725823765211642, -0.022083431516520723, -0.085486667503959793, 0.032080522906880071, -0.16479464568215729, -0.22037943812265476, -0.2229737334363267, -0.38061125130213119, 0.12775872709984104, 0.31739568607954666, -0.015834239969060679, 0.055459428402900815, 0.011929160033288685, 0.024193127246187052, 0.090970615276012703, 0.16123203632279148, 0.0089117801154802584, -0.017294928512088706, -0.35854082366702061, -0.48144436153782677, 0.033786213483589664, 0.1209940431097762, -0.022527387589338276, 0.049459009623695566, -0.029490765269415273, 0.25612944261482823, 0.11469128278773146, 0.12808084965382249, 0.11403331019353928, 0.30506897046132081, -0.19904848217033866, -0.20053793259626246, 0.039641205203277907, -0.04376670404571352, 0.033609985206833295, 0.0098996640661796406, 0.11272141584817373, 0.18547440193507447, 0.1524434424661974, 0.06114521088463705, 0.11826241926353079, 0.12074606754768391, -0.019667238146597897, -0.00048386258516668057, -0.12175688660479972, 0.036172066069231526, -0.11868521523662726, -0.1250203703417119, 0.035904919227186707, 0.017839906841583555, 0.060859449561677506, 0.09635166317000958, -0.049212492625574339, -0.045372607382002661, -0.055897345716822311, -0.0023764214791030455, -0.038382865278286389, 0.0064116033781553214, -0.17558791205718122, 0.0023250224817987636, -0.051727259802616457, -0.057790529308374375, 0.013791061402471952, 0.13644846669520244, -0.010155313334871414, -0.017625717203356758, 0.073652902143451521, 0.00069328545240087552, -0.050008478647772345, -0.31927888126001952, -0.18353351499079812, -0.085538235823548719, -0.073096290012328813, 0.090190178210760405, 0.10660823241153998, 0.090351417639498541, 0.132917195679079, -0.011857357267916729, 0.052935295307996386, 0.043012618340511746], 
        [0.063687026559832702, -0.027474493344771159, 0.04079252412326359, 0.033944293702633618, 0.067493996598322739, -0.084202990537866812, -0.024906649626728283, 0.0091583686944553405, -0.068820170460425684, 0.0031107283830948407, -0.097108585049124174, 0.11878373624948577, 0.03710017079293685, -0.089402710046412398, 0.021829275829537725, 0.05069263318004659, 0.012340313923680318, -0.023685785769386569, -0.026839662252448132, 0.034846261621930025, -0.016166129228329065, -0.027864958300899939, 0.12115538210609175, 0.0037368644565901332, 0.13531841970369599, 0.021592046315438054, 0.018171005730945711, 0.015072771881264005, 0.070400883694442765, 0.0022893852554199817, -0.038531873505113653, 0.073412597254778611, -0.029637114380846583, 0.14796659731395348, 0.12294211400056784, 0.068355321789079659, 0.16846933987145341, 0.09208858358733514, 0.124710416844108, 0.069410300558010035, 0.0028282096799201462, 0.028941147392732833, -0.082405863861783321, -0.099340106662704333, -0.0023105045076858566, -0.044477583601388274, 0.0008809594027263945, -0.085099107788483452, -0.0064586485698500881, -0.044295114180264411, 0.10095939402980549, 0.14859114322412731, 0.14469873810179945, 0.078675636968335211, 0.04110277787821804, -0.185748731574369, -0.17064830498300138, -0.17155221512879462, -0.25171330168462724, -0.27337273571997955, -0.21265235556569007, -0.17172557194975863, 0.027527124955349591, 0.05618012242699108, 0.12158172746105769, 0.079338486628700106, -0.12195189294100098, -0.13969446903752442, -0.026572222761012301, -0.0741704803065521, -0.145127075010832, -0.11500093509170173, -0.18278877520622416, -0.24714583432028586, -0.13747760229803679, -0.068392610369592363, 0.098671592870279712, -0.16740306756901749, 0.075274076124663886, -0.0044961465547186386, 0.13260037497576577, 0.31234055497812679, 0.15517911386484973, 0.066459928203915386, -0.015467888667656748, -0.030267329366836557, -0.056259518407299938, -0.038215914691253711, 0.067128719543084317, 0.12318688834042112, 0.18468566964642463, 0.086525001219784597, 0.095783539484994351, 0.15930761904527679, 0.07562987308980218, 0.11756704875720572, -0.0760161520649867, -0.011817169363246532, -0.051957377094306409, 0.17488796559917713, 0.14148464642191833, 0.086956838317260601, 0.081058475663970134, 0.046958772348784622, 0.04918174254075236, 0.0034109923824553051, 0.015580943744111141, 0.026515084298382431, -0.062878886731464731, -0.056347428448159036, -0.093781274466081921, -0.23964397537244131, -0.13258713878159228, -0.084365859336627824, -0.12790680365138707, -0.070083706938090157, -0.044961907635326953, 0.049251298465303128, 0.072446618696754353, -0.016196819754861112, 0.10029423625804029], 
        [0.022794829328282723, 0.031855402221378282, 0.024367172994907871, -0.088290566246083876, 0.07232262276136471, -0.06292516861381596, -0.0040861461107614544, -7.972988029088246e-05, 0.01396609724411256, -0.025131035729871201, 0.017075722683559433, 0.043144050114759525, -0.077791172190580238, 0.048533511736318036, 0.007217025612539632, -0.035475136878956898, 0.035691767227550089, -0.0053752350421711753, 0.043053703162239151, 0.036425942921316332, 0.026331797944731436, 0.018922402485978082, 0.034424572379380902, -0.043306530520506897, -0.023769315918517941, 0.080993967723216903, 0.0014022744912380036, 0.06800816187289091, 0.095104587086617953, 0.10798396936955548, 0.024411086728309606, 0.043708025161000461, 0.056510394828046859, 0.038012989404389352, -0.016918964127942582, 0.13076340620049531, 0.11446285199173112, 0.21239109093247169, 0.28795590334995447, 0.092687450807731803, 0.096764008832141674, 0.07011596892193131, 0.046944677248436581, -0.028109521724954359, 0.18643956244021581, 0.077870719895705293, 0.11792219460655051, -0.035608267559333939, -0.036648812158749919, -0.13441333664206742, -0.1209205303400708, -0.15624385122841139, -0.17025727483799705, -0.12517931808717464, -0.14934420137275992, 0.15932332483022202, 0.04839021776339017, -0.10847969953324497, -0.12255999835004713, -0.19725754430522846, -0.15715530383375914, -0.21752678931536223, -0.20062628687872636, -0.092267339908223348, -0.020573472312880911, -0.071636670998092289, 0.063397599343820776, -0.10020592169765151, -0.15580361490286621, -0.14943697528943115, -0.11920849551682298, -0.081202276537251969, -0.11695355604037566, -0.0067283708261298564, -0.046837938954313707, -0.0077863170130979195, 0.019980965641957497, -0.121667094665772, -0.11522589823910821, -0.057471776109635317, -0.052229100647856727, -0.046891079021213228, 0.061574055807871869, 0.11811240080682403, 0.17401725345189034, 0.1337150650275799, 0.19272562298101481, 0.13837697707498475, -0.043682489526108231, -0.035940773077983296, 0.011031099888345858, 0.066035108027198322, 0.16273538350576014, 0.1001587158991207, 0.15018677215060725, 0.051560799730643869, 0.058405889573942382, 0.020232732914280432, 0.080342157059325445, -0.066884304721525012, 0.043091772020143498, 0.061075670741261745, 0.043764943962592874, 0.031379229244833627, -0.0054635333665592478, 0.039411450527978564, -0.017169301013184327, -0.027826140912018828, -0.0047148996567287563, 0.0361035243729722, 0.054667230314029543, 0.046239563591323717, -0.045456067930868489, 0.049402252710789213, -0.04766846057913162, -0.014224514341087915, -0.059509471495879943, -0.13173838602104682, -0.010384251552911242, -0.087812211124107614, -0.077603311445163858], 
        [-0.032355994688810757, 0.018326722847476676, 0.017295570021311088, -0.027670634962396815, -0.0076809391049930537, -0.041376685856530981, -0.015061630610395491, -0.043781136658973818, 0.036477149712398793, 0.044228566218286886, 0.18106239449231315, 0.042891343822209826, -0.020853245724294339, -0.024082163468429868, 0.041552139122004575, -0.014678545508214125, -0.040841976375840028, 0.017432021695089089, 0.0070216535002669556, 0.12929994168147696, 0.15511189221305455, 0.24789881463360725, 0.01524433890020907, -0.016082932861742782, -0.051589389728025764, -0.092487374266571665, 0.045744016738876361, 0.057516818919086221, 0.16869815200400168, 0.26354710842333462, 0.13879401206280972, 0.1425191292736655, -0.078455509137512092, 0.0045617718808213525, -0.04996569794639541, 0.080368671629425376, 0.050146780922382769, 0.06747673498101589, 0.13151901964758053, 0.16708907133321474, 0.014140597465528995, -0.095378223856770333, -0.20288372470514504, -0.39934020254115926, 0.018782728033396659, 0.055848444235998176, -0.0052730281141155078, 0.094883628210799084, 0.092662084190120605, 0.026342391088602909, -0.086838950610960156, -0.21345767462167456, -0.282107822115785, -0.14895903217754436, -0.15887716612865338, 0.014524384805330928, 0.064105061659619905, 0.015209021241474052, 0.094836346474780439, 0.056562751972782294, -0.16636322513631874, -0.24132070876596301, -0.25962368835745592, -0.1398205940714011, -0.15531689505376495, 0.011694908155279474, 0.032010611040571693, -0.037560894238744175, 0.066607787477416219, -0.0076642057689953885, -0.04070977708688811, -0.04226030127644731, -0.090011860309571437, 0.069266838681682319, 0.15114898488461287, 0.15845318802936526, 0.15653535363742821, 0.057963227558536959, -0.031603242011597907, -0.0055733045265627945, -0.063345205711261135, 0.014274572871990451, 0.031680599603069681, 0.039820176716201153, 0.093415859365416617, 0.11919257043750534, 0.03989717150118903, 0.1715005214515096, 0.0032916843093048626, 0.0044846669425230717, -0.021098541490893137, 0.025809720767491551, -0.13673281369087914, -1.2468117886521579e-05, 0.045303630981452153, -0.0526550700395952, 0.020909495487494364, 0.084789679870713369, -0.063339110924672634, 0.091376945056866526, 0.07252165751693404, -0.079209926148198551, -0.067293987453879475, -0.043909917127449488, 0.029396455943145994, 0.023947405883684936, 0.017167025821694201, 0.030553476010320116, -0.058621689983054601, -0.0098426856925661194, 0.20196311694537442, -0.023668678155415387, -0.014001946149787309, -0.03728327654318217, -0.023078128502029227, 0.015589706964187003, -0.013168968136987605, -0.031499036112030365, -0.039786236033770211, 0.054516325604152802, -0.040512968956863807], 
        [-0.11874501434881572, -0.082292851061515113, -0.095608167868605196, -0.020577868342219752, -0.051846289507618271, -0.010859373167837721, -0.022716678939708967, 0.12820642967693277, 0.20208152628630544, 0.10326830535107219, 0.19572108975580454, 0.018529266875907807, -0.062343764039584887, 0.036176725353944533, 0.041069933083660609, 0.0079762012687746575, -0.10314299674810966, 0.0064955171797952682, 0.12398900983956046, 0.024168115641601748, 0.030884610087337075, -0.074999137996260248, -0.040399947069967329, -0.026348341528788261, -0.0040063358136547406, -0.098214201253041297, -0.033435982999113351, 0.11941221649994889, 0.25555588605475288, 0.038960204213761458, -0.072604474132352964, -0.080306295039947226, -0.10380646122757918, -0.057320493242450338, 0.015515746045367804, 0.06255592200477092, -0.07382948751156268, 0.092347107622607685, 0.19891060046749282, 0.16973365981683389, -0.044617838703860296, -0.17458925689074178, -0.16855591416735904, -0.12959176095156721, 0.0028653211948725388, 0.039281815318144675, 0.051811040864348151, 0.054229861553504496, 0.13870864137978747, 0.27288253125832607, -0.31438783480893878, -0.43930197285264261, -0.1406383436455399, -0.11423051269906785, 0.04779660456302437, -0.065061505106159614, -0.0042604236376508481, 0.02946332359287078, 0.025104961380266577, 0.14743399932390186, -0.34597564760602995, -0.42017229785052612, 0.035072831557282497, 0.07959646999214702, 0.13322835735966732, 0.13339746737800906, -0.061957613945008899, 0.068920425307499353, -0.038536206573474313, 0.047215262988980017, -0.14334497896799611, -0.21161459673878405, 0.14176441081563174, 0.17098183292990443, 0.14174756095000518, 0.037859045933541086, 0.31085728227189657, -0.02922935514410599, 0.015150100201128183, 0.034324197511492696, -0.011781519634235918, -0.077397115828606117, 0.00082481393952203719, 0.042534961830221429, 0.04985424198595359, 0.13020790077736055, 0.20732411001715473, 0.070041942881345881, -0.037026860217250213, -0.031791667690004716, -0.064806164590905407, -0.08258662171950007, -0.074375301162423885, 0.01385894189294383, 0.15057409353019663, 0.13055028224014828, 0.023193912685637932, -0.079370911864438495, -0.076747220775197508, -0.056515387156161861, 0.070663010357839617, -0.082980693850575146, 0.03859091949287638, 0.03688503261834894, 0.10304253122200434, 0.02858154892479417, -0.11389454646540841, -0.023276097872029958, -0.02020813146390732, -0.14669512203229218, 0.023730566407701478, -0.018262941034164024, 0.11113049123798203, 0.017809780077411436, 0.20203876814616534, 0.050784801616453046, 0.061469567589563318, -0.0075507512091273071, 0.00039041405665547757, -0.14721537985673849, -0.36919673052117485], 
        [-0.11817248565975272, 0.050807995924907354, 0.027086462019090568, -0.058324085983108412, -0.069751886972065691, -0.021026807770255104, -0.0010775384566174273, 0.074350384938426592, -0.0083996536342961781, 0.024897232303854835, 0.087435612841062521, -0.019098985323464851, -0.046097891900699461, -0.039781451834335679, 0.0088894731980628458, 0.0075569224053487344, -0.019310705820979837, 0.055367812483190761, 0.044255697213517686, 0.003269187287821218, -0.010373408718694646, 0.072601121525306539, -0.0081003549893320786, -0.024375359119167946, -0.0051757404707577122, -0.007608303655937336, -0.038607745687823228, 0.092478375023070991, 0.00029773934680776826, 0.041278394763053186, 0.081715888790276012, 0.024739987393328, 0.18485522219427483, -0.025644712781172099, -0.025676231567332224, -0.069747146376060248, 0.054381153884765894, 0.049824898758326436, 0.13026732540299155, 0.17109724133509682, 0.059607917528576915, 0.0898551064946915, 0.095437277162761069, 0.15876422270859231, -0.059133757610202321, 0.090976556591518709, 0.095108813979450674, 0.11556486887071599, 0.17970536904884052, 0.033055045328156785, -0.035525492509829046, -0.10877929753051407, -0.05079396460228644, -0.076391322443933374, -0.056757989672368857, 0.13477312348229739, 0.12869357538617032, 0.13013531388087007, 0.0063887122121179842, -0.08972948672558663, -0.31295031978607873, -0.28325157301095855, -0.22477218093756324, -0.2145675780259611, -0.13307930518541367, -0.26981212419965894, 0.0050165855664531731, -0.080398088607170237, -0.085216248619270157, -0.18399362322745855, -0.23965470437008415, -0.12035412983362095, -0.076983583068044717, -0.018020432830199287, -0.023775391914850265, -0.10766179954942284, -0.16700211823558328, 0.015040770227884616, 0.042510381440078737, -0.1295843290841098, 0.029351080812140877, -0.019785888214935599, 0.12163685368807528, 0.19449321821046042, 0.18157312421218158, 0.13917958348474402, 0.036259259826054727, -0.059330356189887357, -0.053816217365371406, -0.058012192775396779, -0.024991060464911681, -0.039656092354391499, 0.16051410507047068, 0.14621181331244598, 0.076529241884836105, 0.20617689470457351, 0.086129886089688273, 0.23683312856300526, 0.17799588816524972, -0.031568685911075867, -0.011339033584039513, 0.0075929000196447577, 0.036795050434868116, 0.033074275171315504, 0.02413735006868855, 0.025795926857207403, 0.01249666081014379, -0.019552843326395453, 0.052849908133605947, 0.090518035422685661, -0.012948046871117346, 0.077671915299142413, 0.03560950915943991, 0.077328247554565535, -0.037094066672885492, -0.0047151073853557868, -0.059216558245230588, -0.13706040241569367, -0.084997996513450039, -0.2036404817250472, -0.1023980466551825], 
        [0.0032466543865972697, -0.0050619149620753506, -0.021817810555513489, 0.020873615011084853, -0.023531149044787023, 0.03236851492334604, 0.023279668597308872, -0.069079320177640346, 0.028858662573673435, -0.022912200910692751, 0.03504956758463669, 0.021373318115011183, 0.043177163021661899, 0.031000576507821495, -0.022727992508285319, -0.041130337906935252, -0.011956655086753407, -0.0073657698466143146, 0.019513062456004551, 0.05648936597537918, -0.018006917494647098, 0.023594044549755097, -0.060974710958634132, 0.13275136748820646, -0.02028861314235185, 0.093323469753408897, 0.18375935802888299, 0.093307762526131197, 0.017002171822373846, 0.029001128392942721, -0.032620309649792054, -0.077144466336661721, -0.026312985524931123, -0.03637619977745446, 0.030016539993203389, 0.081068448718876446, 0.17134303640361637, 0.1454521161962567, 0.14411586594973091, 0.25089534021606852, 0.1895315775753576, 0.10961959096303461, 0.11868995411865033, 0.097649074161421504, 0.017539178062786528, -0.16076583519696661, -0.08944189051045412, -0.1662700174191715, -0.19945945515698124, -0.12053950329957802, -0.099974797166572635, -0.0030787654511070864, 0.17592486845741467, 0.0094047611238743667, 0.24137587097504254, -0.10616945372175415, -0.041295263909978092, -0.18662857060598367, -0.10128658810243146, -0.15612237408478322, -0.19263459821003462, -0.26517496264532614, -0.21075478738597611, -0.15240183455933287, -0.016383869315923158, 0.10147080642825733, 0.0087661143103210659, 0.033117317571517424, 0.022841544673590577, -0.12277060576748028, -0.10456605790706747, -0.046810877427083952, -0.051309908127680354, -0.12955150951531408, -0.085883187288628787, -0.21065306139257753, 0.067423551686227948, 0.074090258222003588, 0.082147407869472167, 0.095756878907326509, 0.12800788880163314, 0.19242466407747882, -0.010488011809805561, 0.0024629531735309296, -0.014172878937930886, -0.069938838753530824, -0.071937788454647211, -0.07364200527100781, 0.031404273448011791, 0.1105219490341731, 0.082629216504521888, 0.072224220830742203, 0.081941428822504034, 0.14730626716129064, 0.1368836421937018, 0.093927882429139575, 0.026163487559181867, -0.034217252732886977, -0.096253676626479767, 0.052568923694275654, 0.058021118675766356, -0.069486623440566414, 0.10387349833640262, 0.016885436566802817, 0.005752374710489408, -0.033857627300573193, 0.099199719978274481, 0.0027587586225816252, 0.028883082517926831, 0.0077987727191536071, -0.026129748383045506, -0.10092939633783646, -0.059725181550862289, -0.16032203807483622, -0.026295964226010465, -0.081817026646661545, 0.019856334497422835, 0.011592637104098677, 0.033535731395388457, -0.037190296797926556, 0.039208766263747495], 
        [0.15105659815179459, 0.0077705624895111625, 0.040428021684616372, -0.0017942995443031018, -0.041653694509876826, -0.068590774376822525, 0.0062987842177157083, 0.026863472745659034, -0.032303950577093066, -0.019033355915254568, 0.0079979595266923831, 0.27835546979835657, 0.068631274711118018, 0.1003446445291738, 0.096879765477730584, -0.0033597601637389563, 0.054326134689200528, -0.055941674871638272, -0.0054187285410067509, -0.0077552385763832027, 0.0045759439983336231, -0.00017646288706738011, -0.0094759828186700423, 0.20486066918593301, 0.23125707799370063, 0.16313521549416574, 0.098539105674318173, -0.0099257073687919195, 0.053672343529954342, -0.088888704815857006, 0.023933003966042796, 0.012746466899076839, 0.013847645420023147, -0.39203581787528585, -0.21351183585569017, -0.17917201633539981, 0.010686831818043349, 0.16695352916474759, 0.20160459511575174, 0.16448815854770155, 0.011414537180906403, -0.026561248426133832, 0.0072564580788328503, -0.0063508243919336849, -0.16007115781686321, -0.15188987832197204, -0.22445870647203575, -0.21974868512281032, -0.14907696976575383, -0.011673426129634679, 0.10655889056027106, 0.1667289488285415, 0.027289163008064776, -0.0080445463310044318, 0.075809327117707645, 0.02383788693419224, -0.060318784128438871, -0.15808704038753496, -0.15079581692449417, -0.21784799920378062, -0.18411391886373429, -0.034761650797478574, -0.003078110011040372, 0.1443522382170338, 0.098191594014337011, 0.018899511324318399, 0.14330730009269013, 0.13334147887544215, 0.10003033854405316, -0.011990871182064697, -0.081183725373317125, -0.091853226128579088, -0.059061176343404506, -0.03070241061676092, 0.0091317924222779762, 0.030031451106893217, -0.029165609653882929, 0.11124860010301604, 0.10478624646896353, 0.060405900026046816, 0.13088294144967497, 0.094446823325321699, 0.046888440627548239, -0.099894170503190327, 0.00043866828312585926, -0.079159018990778859, -0.03095799592580474, 0.051180956797886826, 0.036532200341151982, -0.026313715866520357, 0.048771540558330301, -0.019626512408325483, 0.041811742473138486, 0.020274853199404738, -0.035311251861491172, -0.035700435347725573, 0.037776391130845591, -0.015390360725990176, 0.10246466374888295, -0.0044949551663046594, 0.0051588081839975541, 0.03834429330297548, 0.052952011747411765, -0.020141415030883712, 0.038911185997862419, -0.025809969050729711, -0.054106671252965456, -0.059080808671793307, -0.019798138018163675, 0.05184924826995934, -0.073763175158423316, -0.038340916613003422, -0.066879624217449418, -0.018985614490330482, 0.048710428169965542, -0.019808728907500892, 0.010561838400676829, -0.024562749419368719, -0.01514121795616151, -0.047958337256937988, 0.21088916658617063], 
        [-0.12519121067655439, -0.11688358418954034, -0.058961154017472692, 0.042235378754734682, 0.027384636957009777, 0.073378477292935396, 0.19970246516712672, 0.18078323729328397, 0.17754089590649072, -0.12635528181833747, 0.083209749590412954, 0.029824111195079443, -0.0015424767491013895, -0.016459376017527724, 0.077533561237047313, 0.00013267738458831377, 0.093750279161917041, -0.044726997300741589, -0.19635306229962388, -0.22782377363617864, 0.1158824654511761, 0.28944469131076977, -0.068772338411748027, 0.010802089827676834, -0.007867632781378895, 0.079851071307127916, 0.21292640866678078, -0.0089784453788348019, -0.068417876998138935, 0.022956354752557615, -0.026211043907313703, 0.057828305945572214, -0.079483020254072362, -0.016171715594615801, 0.062689315224603068, -0.021796237786981598, 0.12691374422028867, -0.04752547764539633, -0.049301283041039312, 0.048206477749446197, -0.2171608705725426, 0.02813017983255572, 0.12406052692394327, -0.086131120950002402, 0.07689460503666104, 0.03813505264063799, 0.011628762315091006, 0.070698493776356452, 0.0084135336178128677, -0.11267273154459259, -0.39754842405378749, 0.07304069354916054, 0.16994373683501546, -0.11001260539983146, -0.24501206201543754, -0.016540271332897986, 0.037588646441523585, 0.12220568704299391, 0.04683975277378849, -0.19361692505980962, -0.50340607287084882, -0.46224605745397018, 0.30127286167836509, 0.3851257612605975, -0.19298521871344812, -0.50882871676217767, 0.057766291481131202, 0.085915688210784893, 0.0025825469644762365, -0.15401989963515647, -0.081066644575465197, 0.13998594331352224, 0.17360289429870265, -0.0082113317756247854, 0.034164433476710707, 0.033688177254881144, -0.15383945741404872, -0.0035717910256200143, 0.011347483637652627, -0.017873166525061147, 0.039146796587724922, 0.1063684799467139, 0.076247636399764285, 0.13995849083497702, -0.12176042704433512, -0.064375482208107571, 0.022871601462242333, 0.20473954746266876, 0.014948129510764279, -0.039363453803276216, 0.024752228243803808, 0.062530143477564123, 0.0078273499345180124, 0.087539876894555071, -0.034542935964575638, 0.058746443283951399, -0.075126285975756629, 0.076597485120775147, 0.19454209279112086, 0.021682122234847927, -0.073488695501302631, -0.058082679101971291, 0.012328447567534092, 0.076038878132540511, -0.036913472724451113, -0.018862970847490845, -0.079316521304031273, 0.016093982880941032, -0.18419160468838913, 0.049226683231961221, -0.061457314990918277, 0.0282830319555805, 0.10422016934925292, 0.018036735639772688, 0.062905112558747867, 0.07205279732777245, 0.012387870117812391, 0.090730029290315317, 0.11439343988109769, 0.10142758766032614, 0.19506458179923916], 
        [-0.037471547940615017, 0.079003059168883338, -0.118094514839233, -0.011575517807246187, -0.047354837158948428, -0.043819905087823359, -0.02204068674980534, -0.015582330906619458, -0.060450140546324756, 0.0056710709178786414, 0.087342199767917988, -0.047484586855564871, 0.055578468629173532, 0.014640579783893624, 0.10885390788005234, 0.072560750440575611, 0.053636006213721381, -0.017555923047039936, 0.042133507853188069, -0.02906136252712694, -0.12501847301134028, -0.017196570903083498, -0.01339795071661689, 0.011501218082141058, 0.027702359090996088, 0.02741155292168642, 0.029974564956617343, 0.073364263125587581, 0.010914273919724583, 0.075409891966110643, 0.13043893685947877, 0.023410994104295653, -0.0048253685633425289, 0.074978432218179375, 0.054355304633943134, 0.04204747510162269, -0.0154640673353326, 0.022630801443203577, -0.063888237541103121, -0.040446308747273431, -0.11272446316765139, -0.077311881416412265, 0.01898064857748586, 0.079484126473140709, 0.042423015302388865, -0.00069403510352408077, -0.069229088452786164, 0.077430303792640126, 0.20473753110391857, 0.28719237966682659, 0.30503589992248753, 0.32550043922428146, 0.14073163480952872, -0.015200746246803488, -0.041860347134460144, 0.17135640555161447, 0.1527355824602927, 0.15944325028772327, -0.046360679758357518, -0.22276635585078641, -0.34374202605941701, -0.38756252285531489, -0.37352669157727963, -0.17546418763106925, 0.024941844858314459, 0.038533485282303062, 0.12621571033694096, -0.29897191326894157, -0.47416602764115157, -0.40533769987763618, -0.044666674782561915, 0.12588265080168398, 0.1850321413968945, 0.074481724923722986, -0.10021514102767744, -0.34731763668724608, -0.099282213883217618, -0.29837506102690192, -0.18662023586706711, 0.035652126252033491, 0.4013035269477947, 0.06080080045364062, -0.020916204012535085, -0.017432090909172804, 0.0064526884627329265, 0.31447123310066399, 0.27814266592693648, -0.042857339346656316, -0.10711074543649843, 0.12304888506893627, 0.34204207221679617, 0.11781479381803128, -0.098207505292465483, -0.22534157766971744, -0.17336955460421499, 0.025185350745410999, -0.11167805937105306, 0.2142012132418766, -0.043950058435965438, -0.023906769270708315, -0.065584638845817445, 0.092040652752376897, -0.035310034547302485, -0.13396895532331693, -0.03899490443982933, -0.12154265439434478, -0.13006356630340574, -0.17041731619250497, 0.11042010979150567, 0.092651247387164362, 0.13111238457685057, 0.058001891637747924, -0.002652110312396515, 0.15722347821642979, 0.066071308703285564, 0.039488088992435756, 0.039274482749949047, 0.19071883885744992, 0.10773181848300134, -0.02812558988695802, 0.05797883312162265], 
        [0.14781185661120058, -0.039386331432373266, -0.022921264342725164, 0.05388189603876585, 0.12598813182555718, 0.028202774466358597, 0.0346074867144123, -0.042381312562632507, 0.03884963956920999, 0.036410085655850757, 0.16289756506012004, 0.089845238615583675, -0.046052810070111194, -0.082095780414563016, -0.22396972511791116, -0.11679212172424258, 0.10053680749504602, -0.0082322488230325598, -0.010907332253094121, -0.029537833982867273, 0.004945131369650824, 0.10219160122974023, 0.18663745104851179, 0.21337195182960642, 0.096928017302127814, 0.082225401499670267, -0.042534134329079154, -0.052259406449906821, -0.020309120595503272, -0.10672463441898887, -0.088221307987328218, -0.15579389025604545, 0.23092722621811365, -0.079955537176635005, -0.13801119251604682, -0.056966288552968501, -0.28523441407005473, -0.0068234259848855387, 0.2637658797263801, 0.035256610529995847, -0.00096948078976237528, -0.13354739530762744, -0.095292234694563882, 0.10809316225785848, -0.22622473692942502, 0.13750964405633209, 0.30588685236073848, 0.47089738278075627, -0.26225597341681434, -0.24291657949567241, 0.22231836629884105, 0.090543741709712147, 0.043301288770093399, -0.055195333115474088, 0.012450074560341884, -0.48338662295767298, -0.41101568836876001, 0.015182853563479719, 0.26867003611558071, -0.18587591997040018, -0.65746047656761675, -0.37080281699249629, 0.26181673556057816, 0.20685619441423742, -0.062913466536091131, -0.0046315163613586535, -0.3460271088384187, -0.057875831473219591, -0.080073663390408306, -0.060732968283770707, -0.063131722240472088, 0.33222972618047136, 0.16004023907285109, 0.084047102099867474, -0.02976989350386039, 0.045421274875539708, 0.034504304163254118, 0.37536242338238812, 0.088935618162099092, 0.18255926007618903, 0.079936172529676358, 0.2352440711079648, 0.11129319261560268, 0.10974139035902221, -0.04722071086520177, -0.11616310797947724, -0.067309805824712979, 0.034599132623224643, 0.23285705965606096, 0.13190349282962149, -0.041749284399034449, -0.18971912136060662, -0.070314124515462983, -0.044339814683120031, -0.052799114165529494, -0.12425748565008495, 0.045487854774525521, -0.13703396222511421, 0.059172195354677021, -0.056679024139974353, -0.074184736695846645, -0.096952474536131261, -0.021836418526120411, -0.065731207012367593, 0.021349416929545006, -0.083419025939874075, 0.052566367769086797, -0.0026602316535740966, 0.03873498024493624, 0.068175817228078084, 0.22646127086716095, 0.082890232397643551, 0.035399054654756332, 0.067320652970741954, 0.14239677197520148, 0.085138769088166116, 0.050369804354669645, 0.0010887532169456537, -0.018280111009442837, -0.017225924618171629, 0.08422037289529935], 
        [0.11800749409978381, 0.048641544731680905, -0.10678911358350332, 0.0052911179909213013, 0.23136181762806476, 0.17221088012028055, 0.17682279225882522, 0.20044631087373868, 0.052122439652192432, -0.1402595079578749, 0.02243868573975058, -0.019828048061208629, -0.1373081753593374, 0.092577186980583981, 0.20995915555570394, -0.16372378150074623, -0.15700734079198975, -0.1736927596916677, -0.058053772103850598, -0.0157237265316914, 0.019398599613700079, -0.049310374137502805, -0.11375225205060403, -0.014247453019732223, 0.070739494942123643, -0.088327713510229194, -0.13682329114661984, -0.078888479596802466, 0.053144758392313945, -0.19437922851131084, -0.0001706889902193115, 0.13424778030432938, 0.0093320725261308857, -0.18143139441084224, 0.12020647648261903, 0.2963908916390815, -0.0090974650834537152, 0.039855885453729201, -0.08463057056034079, 0.036931552840693979, -0.14788894891447979, 0.19686627422843606, 0.40663533420008574, -0.14336283673708961, -0.18437286091816663, -0.0387524786508332, 0.29570661700880807, 0.053688982795111487, -0.19564754353990196, -0.34486385728508229, -0.50121307000769089, -0.40626297518108834, 0.13382493808540968, -0.00028761919063780006, -0.20091903070867112, 0.11021116432324056, -0.18695906308384752, -0.23952005130108939, -0.18820014759183346, -0.020408212645899093, -0.10626227681963624, 0.10776229335456736, 0.19941878614236833, -0.058276572887897449, 0.027521741134965361, 0.18134851852604528, 0.068694879008434961, 0.014109730230775254, 0.019795706580671063, -0.069519445032426547, 0.085998705252793864, 0.25121683554261642, 0.24991886206451533, 0.20675478705920156, 0.093802467043084675, -0.071505683581074439, 0.083956608622508533, 0.042664222469544988, -0.044897975149803877, 0.075633229451364206, 0.18470969085810693, 0.092312097921409986, 0.16477123155033629, 0.067407467708452601, -0.035391492159634129, -0.10051173548067931, -0.14948457456306743, -0.0859115996358253, 0.11899616835413444, 0.022232039948935078, -0.059604180367185379, -0.083714134795981943, -0.12267228192899818, -0.071817553655208671, -0.061364854031334182, -0.037122355027120003, -0.024043277802218023, -0.0077183350586837451, -0.027902500393156213, -0.070228976844589688, 0.067283048218790914, -0.022096929111434786, 0.030068653546629937, 0.016508794156056245, 0.0079910228125650851, 0.053657963888500304, -0.01697467785547141, 0.037888483605591022, -0.10340431444912367, 0.093947011691645294, 0.17568681512805212, 0.053193274463334841, 0.08332828325168111, -0.012241690018234677, 0.11152581385082602, 8.8777513975901723e-05, -0.005979464667969045, 0.079576229035330182, -0.011219166299368227, 0.13062677267175682, 0.13093666750650848], 
        [0.14423093057173975, -0.01008076678423761, 0.0073771044594135079, 0.06526902731825053, 0.055848605823902463, 0.052363879757229073, -0.022518577948855645, -0.0099854054434987405, 0.0074881193579894086, -0.0076370273996572077, 0.095115364997393592, 0.007486862308122141, 0.015230162163870492, 0.040217891425159108, -0.085367149632064321, -0.17282741030837942, 0.011588285357802999, -0.058982003588632453, -0.091214201593042485, -0.05548553721852835, -0.085056179953925282, -0.012889357099271234, 0.082191503484511957, -0.088215541467796518, -0.17609926241410598, 0.020767875260274078, 0.2973162999706101, 0.3447305749860291, 0.35075038554356563, 0.1675765045908931, -0.084317445336159924, -0.087650324477682576, -0.0293005697765467, 0.0082197597979237341, -0.14178517944724803, 0.20163787497778121, 0.30622658040655926, -0.089834272556955141, -0.32991154377532589, -0.23770186950896088, 0.14059485558234217, 0.22935018848257269, -0.06954897481239436, 0.13056609682447454, -0.031497286218108517, 0.0079273791460638954, 0.084811544151839932, -0.29146270301832411, -0.12913123455806388, 0.070966051055694937, -0.089486674726494908, -0.076857196283176318, -0.031866717999322773, -0.094905571386768056, -0.076821230076016489, -0.28837628451753605, 0.087799542000800465, 0.20019432782413554, -0.17096915847133118, 0.015333878953658897, -0.28908252284426406, -0.029526689505982969, -0.31385369627251253, 0.043040218080409316, 0.45576781944785838, -0.1807055900807637, -0.13846940283256665, 0.042622648402573862, 0.27231737835653241, -0.1914801913205901, -0.11016274974475865, -0.1176991482916686, -0.20542229438804735, -0.34623488704400734, 0.23754568531606332, 0.28599972207005381, -0.077962987774282691, 0.034879273993081605, -0.026162450274433972, 0.12712327036253446, 0.14403182667963604, -0.034148887052881882, -0.088550823688096886, -0.027745606072896507, 0.12772199691917124, 0.10001931959841266, -0.18643104606782843, 0.041460676340255576, 0.057714352211809129, -0.083881954200237321, -0.08331277637087868, 0.026147419256119429, 0.057512048083849625, 0.098776858052545713, 0.20838336844764122, 0.081416267386434524, -0.031359090867443505, 0.010864074615252003, 0.054167724377707081, 0.036335766553862711, -0.037734056827963769, -0.058460234722864275, -0.050705505416570866, 0.072100006992938254, 0.077237371527939302, 0.032034189952567169, 0.083688285950466373, -0.018740931617032101, -0.068236920761726133, -0.067252452363989135, 0.12643108826975322, 0.092411361850814722, -0.032832183242141391, 0.10360749350388331, -0.020641674722677181, 0.050396061289050213, 0.014052376131391174, -0.024231363336231871, -0.050093755663369793, 0.02935370249151292, 0.10979499165058046], 
        [0.06063756206193438, 0.01163357669854459, 0.114137229829593, 0.11754589579378544, 0.020855057347248462, 0.10974930449157309, -0.044990292936782972, -0.011032547892272426, -0.053612766250269506, -0.044758197602911942, -0.10039035625686599, 0.13435448459204191, -0.024159164234305225, -0.084524427779703759, -0.091960375514529014, 0.10788802496504861, 0.045998078232354078, 0.055275005037989197, 0.064358819860857688, 0.015789766512200487, 0.020929919215574633, 0.040826832309231398, 0.13163339908596128, 0.059409419123521795, -0.026657113464773563, -0.14316517070653423, -0.105418542401858, 0.073237495897091331, 0.082433610114087633, 0.062596323749943172, -0.0031044464340264921, -0.085840139114289393, -0.052855154813073679, -0.058037038079642167, 0.029721950798359945, 0.092669209363733129, -0.14987389757269964, -0.13353796595923728, 0.050257684298183003, 0.014996004118443262, 0.11313878950895426, 0.052153057368792013, 0.010577754712894294, 0.013768087181216748, -0.23145094612919812, -0.067586869609837341, 0.14187556860642475, 0.21502139869877795, -0.23699602207891432, -0.28070386994651997, 0.02443305911955751, 0.017265628634335395, 0.017657686358856672, 0.026414327638663804, 0.088077975768645664, -0.19378616438963833, -0.33747330456037095, 0.10010384808690605, 0.36813409114715889, -0.03425924318529136, -0.51529004919317145, -0.21455976987161104, -0.029064252143607, 0.029684271548058694, 0.11428024956830421, 0.035997243237144733, -0.31780545305858621, -0.038939002809603523, 0.17082631104569121, -0.01983209806788927, -0.015434962482212933, 0.2106729777023667, -0.062119854775684574, -0.026936094188691473, -0.055531104083698879, -0.025879857930813016, -0.056537020588972059, 0.082251513253328801, 0.13249378757784364, -0.050895123398873254, -0.023068884844874127, -0.0065804143547715382, -0.029028619952673668, 0.16670678797071425, 0.037287239549273613, 0.032006611053345235, 0.022985541868513731, 0.033097970061269799, 0.25106958648152244, 0.055247679841358477, -0.078427286178819333, -0.065179530102563055, 0.001902992764642758, 0.015118472262848806, 0.031629329933778927, 0.074470568205687399, 0.032407934317240886, 0.033762676771467104, -0.055109213717668359, 0.029518107237236926, -0.0055725182709008697, -0.022571921481206444, 0.0049782603577565171, -0.034892861951486748, 0.030152277838361469, -0.046317536194844577, 0.017217424448456212, -0.090595438047663929, 0.010986708242086585, 0.01475361802999256, 0.11880942290428557, -0.018853830715500133, 0.054570000910600755, 0.052880256948674695, 0.083387882797340704, 0.068291238632331608, 0.06359772129360039, 0.051886923283943703, 0.083087116244159473, 0.021602565983420394, -0.059861424749677705], 
        [0.090807144739521728, 0.044777130492487688, -0.006004236596012319, -0.050363433256047141, -0.038872008341752945, -0.12117244583538275, 0.022973279126560026, -0.031712447829596702, 0.038054148427954987, 0.0045987409431256232, -0.035659664256043694, -0.035674765832077376, -0.092990150201568755, -0.039162611712276169, -0.0069043930890978211, 0.0138362499846926, 0.030660708367506589, 0.070549138758469826, 0.029410046912296789, -0.012521892141359542, 0.051323314480405155, -0.0037634551331882926, -0.070013831056655887, 0.010860732256468469, 0.032726783187564529, 0.13748613225137779, 0.058183973556349577, 0.13750969320900669, 0.078720320702839214, 0.10378646515411444, -0.028949114370941081, 0.062081587953289247, -0.036944529962483555, 0.11289672176654392, 0.034425804553726264, 0.044915048986542611, -0.057007183048689347, -0.15438271229617534, -0.082871023728730175, -0.12982282763653841, -0.043611665688003953, 0.065964351753196288, 0.036324136181226305, 0.063713986037557943, 0.021735179394400311, -0.078258563769408679, -0.036956657136625479, 0.13355366389737111, 0.28201274882919508, 0.32487155668793438, 0.33827072272042519, 0.18538129082837551, 0.073223331977013348, 0.019788327920499546, 0.13765137512483783, 0.078068271126673666, 0.085180243301805444, -0.069125794874328461, -0.090878572811101455, -0.22904348013123638, -0.33513853608255195, -0.34107144821645707, -0.35147873150944769, -0.1429837248305727, 0.07534805803134563, 0.14776217747988318, -0.045855701305787699, -0.24152324430590322, -0.21753420627734718, -0.13093602087760289, 0.020511261336832037, 0.097671657751413093, 0.14601331736207362, -0.12506767652167178, -0.37252357673151071, -0.40823904893654289, -0.045905807544792537, -0.1600759086755924, 0.07937818266133348, 0.3143974221346838, 0.19157945898080572, 0.029030655452761761, -0.114833479865943, 0.076726138229785495, 0.30135114571366528, 0.27545746842581786, -0.0068620750320619456, -0.36522476092942752, -0.06701923494448854, 0.20620489038853418, 0.052499913955829466, -0.13265239911713711, -0.078950246082188896, -0.20641980579765501, -0.24381499902372766, -0.086797680638089778, 0.23653031161361043, 0.22019310254213031, -0.036973082188424586, -0.049162482847655051, 0.14625921591989249, 0.14505339243853665, -0.22743035761938601, -0.082066104556589428, -0.12119372823467633, -0.043181682543043637, -0.098016045425190226, 0.029470016170797184, 0.13747267623604109, 0.0062917025392471571, 0.16322306590540175, -0.091363535583626032, 0.073287696619824344, 0.11422898762272718, 0.085210422866565244, 0.15331572095963925, -0.072660538227662871, 0.20466593159451976, 0.026700931142256593, 0.036011074297831958, 0.078827707903718985], 
