// trained with C = 0.1 and epsilon = 0.1
// approximate bias = -1.0
var pModel = {
  "scoring": {
    "size": [
      20, 
      22
    ], 
    "bias": 0.1542351064632935, 
    "coef": [
      0.060463339016788742, 
      0.027872972652843279, 
      0.058370237934820074, 
      -0.027737045276487279, 
      -0.014488162032590856, 
      0.0016642189577889318, 
      0.027373767715423221, 
      0.04611588472046297, 
      -0.035854032986957343, 
      -0.095456898335343612, 
      -0.098275292956205518, 
      -0.072385272595457614, 
      -0.060222546858991088, 
      0.022083993550356645, 
      0.078934361378363432, 
      0.017607761866472494, 
      0.021550661728471608, 
      -0.03028314987868987, 
      0.015914266541125748, 
      0.030320378175101532, 
      -0.016989549079434799, 
      0.020640067189458839, 
      0.020053486662662968, 
      -0.016387295617941836, 
      0.00020338853267669234, 
      -0.01543682460650189, 
      -0.0012777325988021565, 
      0.064458806097070317, 
      -0.015376761855001544, 
      -0.042369205695188893, 
      -0.080675656422762712, 
      -0.069411942250529143, 
      -0.082812025202187653, 
      0.020053396331259365, 
      0.029671806193977808, 
      -0.0047096386215581152, 
      0.02097440068246214, 
      -0.014512112279639233, 
      -0.0070039394880661377, 
      0.035627877085516256, 
      0.020260387079723715, 
      0.011002385523794603, 
      -0.020942497152201513, 
      -0.0032959361791339301, 
      -0.024874722279376291, 
      -0.010333030902608403, 
      0.042714174456231983, 
      0.044925132956495528, 
      0.033821714934941564, 
      -0.026131431273822382, 
      -0.089146663717970628, 
      -0.073223265893302802, 
      -0.011560108457196974, 
      0.029294333369874519, 
      0.036828363419412986, 
      -0.014629830929217219, 
      -0.026294035513641241, 
      -0.054262144630865226, 
      0.01288909375779723, 
      0.015103641107916385, 
      0.028387657300753835, 
      -0.0095574118512191837, 
      -0.012600804998413827, 
      -0.028642163966856503, 
      0.072723579401151539, 
      0.061212797675370953, 
      0.12788161639083606, 
      0.063214713591253302, 
      0.10702669328538711, 
      0.0062149861645103277, 
      -0.07385323727918966, 
      -0.03430220935630568, 
      0.057565991336135332, 
      0.066843920137324805, 
      0.085598284010822687, 
      0.080571401839982668, 
      0.076166302885676371, 
      0.064488941931022975, 
      -0.017693453545759744, 
      -0.052696809061429595, 
      -0.02659092073746314, 
      -0.025158080578193666, 
      -0.028042353148608146, 
      0.01235917361655197, 
      0.03738430126728149, 
      0.041626167451331526, 
      0.083262048944758277, 
      0.089978857490424835, 
      0.064495744527461818, 
      -0.030960569557380836, 
      -0.062881660879421861, 
      -0.062489697020678567, 
      0.016047787322540884, 
      0.086835964465467555, 
      0.10289611956201102, 
      0.018080029849607465, 
      0.018281442014496434, 
      0.041076734547593682, 
      -0.0057055305383865579, 
      -0.049362479270768207, 
      -0.0096044653388413746, 
      -0.023112258040598532, 
      0.014701101290887218, 
      0.010458718112364049, 
      -0.058986680654948415, 
      -0.036246924939669092, 
      -0.030247177903282015, 
      0.014520444688173239, 
      0.016386969334779684, 
      -0.0079494172922780961, 
      -0.041459065129395484, 
      -0.025919712334483036, 
      -0.028866386405723858, 
      0.015320267483352148, 
      -0.014344698759507111, 
      -0.025763511379971047, 
      -0.032130077939975278, 
      -0.060315745441759126, 
      0.004606768827554876, 
      0.0046922072897797318, 
      0.0012726669396711798, 
      -0.001254869583321193, 
      -0.0020985396275752322, 
      0.02554236848610018, 
      -0.014583723115114928, 
      -0.016493272226269673, 
      -0.031859762582732085, 
      -0.0386409444309809, 
      -0.029022159545883414, 
      -0.038755374057475339, 
      -0.0084391521594463885, 
      0.030518900226293322, 
      -0.045074898449378203, 
      -0.039569127309159798, 
      -0.024785875557363661, 
      0.0088405765898249642, 
      -0.022178328071105761, 
      -0.017353731378824011, 
      0.017838091679496151, 
      -0.017067714492550068, 
      -0.0028930103033374729, 
      0.03529398657351767, 
      -0.010008300993279991, 
      -0.0068369512491861318, 
      -0.0026539480635263618, 
      -0.00052402587842201569, 
      -0.044717858130666206, 
      -0.039879901187563051, 
      -0.038351878080419691, 
      0.024387656445185993, 
      0.053541940981787349, 
      0.060450530281532681, 
      -0.023589297978438194, 
      -0.060550528997464825, 
      -0.032686981329167607, 
      -0.031714617085941262, 
      -0.02318030939896713, 
      0.022350174928325611, 
      0.014219881546213689, 
      -0.031851949283787442, 
      -0.0044498985439610306, 
      0.017990933102071234, 
      0.039564306462364751, 
      0.030271063917900749, 
      0.0078693760873118444, 
      -0.028794048523361201, 
      -0.053284469912605284, 
      -0.065229754123411351, 
      0.013386391875608014, 
      0.042440064774002056, 
      0.04543536035774063, 
      0.052988049901707975, 
      0.0058412321832287863, 
      0.016601582566363612, 
      -0.067432535475126482, 
      -0.06065594203905593, 
      -0.034936363919833159, 
      0.0057834508469321068, 
      0.030964214078590853, 
      0.050638395572734654, 
      -0.012211054565251936, 
      0.013364808708306482, 
      -0.0039436421855768636, 
      0.026154426154946054, 
      -0.01384486174621821, 
      -0.058710116597293797, 
      -0.039748015364346426, 
      -0.034105018446907207, 
      0.012258233362182257, 
      0.081038856475147483, 
      -0.044027878375801875, 
      -0.023704111175841366, 
      0.04983892360432856, 
      0.027466092324236736, 
      -0.010109719184554115, 
      -0.038119805826828661, 
      -0.033478642137343757, 
      0.0023504581509338606, 
      0.021535977558812144, 
      0.014702360686950846, 
      0.059288509511763954, 
      0.0017050101489060167, 
      -0.044921700303194353, 
      0.0082015556805880244, 
      0.029401823858714919, 
      -0.0075795150696521376, 
      0.013970836634537999, 
      -0.023855940120662056, 
      -0.03168696662291734, 
      0.0011897442598714624, 
      -0.00032063474518993166, 
      0.015303361148633048, 
      -0.0071825153009054841, 
      0.0046906953909538864, 
      -0.021036259958598598, 
      0.013588886846443517, 
      -0.031043821976723722, 
      0.021371665654379205, 
      0.019645287365361579, 
      -0.016337955343945488, 
      0.011748088644037438, 
      -0.039007560611434823, 
      -0.0407408306375142, 
      -0.00041096601804046368, 
      -0.0001095880117354146, 
      -0.035299093106341717, 
      0.021490381959205069, 
      -0.025602580993843067, 
      0.047657503637758114, 
      0.024688513540486352, 
      0.0057848231716965083, 
      -0.0023505736113676396, 
      0.050034104716575545, 
      0.037765350636563742, 
      0.0050604898043290292, 
      0.024457443847078479, 
      -0.024129924586373325, 
      0.0032544263521847301, 
      -0.0022711508006634188, 
      -0.0098240414752598267, 
      0.0067627792544358353, 
      0.0086177062302477143, 
      -0.0046524790886648525, 
      0.014527128559709848, 
      -0.0024390591132038434, 
      -0.024471643612016133, 
      0.0090502608321803551, 
      -0.02125996642145089, 
      -0.026455455757120952, 
      0.017657785556825751, 
      -0.01361742431860417, 
      -0.025133865901059149, 
      -0.0085692514872094481, 
      -0.038513787424492511, 
      0.010079252761892457, 
      0.031771355034096838, 
      -0.017262617154246027, 
      -0.019992727631317833, 
      0.0048328905795381009, 
      0.034327176089293268, 
      -0.013892324973735107, 
      0.0074871284789525842, 
      -0.012882860756521964, 
      0.029027616112916634, 
      -0.015402374898533269, 
      0.012774936617479379, 
      0.064880077475484368, 
      0.0075780780621515159, 
      -0.032136733695398365, 
      0.0085141964067090743, 
      0.017921565607404006, 
      -0.0023969456104698675, 
      0.010071554716519795, 
      -0.028966929740502145, 
      0.017397557546565783, 
      0.048413555909239389, 
      0.00029544907980664278, 
      -0.058711437671391045, 
      -0.00064620722658354467, 
      0.0074913771203153371, 
      -0.0098678405837776643, 
      -0.012076023271668549, 
      0.019801507081751431, 
      0.040581789384406021, 
      -0.047620409831056719, 
      -0.025598492732910594, 
      -0.021919358269422717, 
      0.025592028392484291, 
      0.053911199682499154, 
      0.01345462093078679, 
      -0.00020160898364842902, 
      0.016186283325449472, 
      0.028864137904248535, 
      0.03726365183288427, 
      0.038681018414007909, 
      -0.014218922223395233, 
      -0.020640657561097724, 
      -0.025184354014614836, 
      0.0043534950318522437, 
      0.0079605784601916984, 
      -0.0071316510581946567, 
      0.0046726681996486141, 
      -0.0063511788540095131, 
      -0.0052493307756754188, 
      -0.017559927923903609, 
      -0.04191379307067223, 
      -0.024647516439575547, 
      0.055315755855043627, 
      0.08951738547304447, 
      0.028049182628178879, 
      0.038388237339667168, 
      -0.0038639317586989111, 
      0.023817850094039871, 
      0.088300124764979601, 
      0.015664601729153734, 
      -0.050671105940527213, 
      -0.066085997224301168, 
      -0.0086744200755789775, 
      -0.019496978575763158, 
      -0.0055127434489816969, 
      0.0059127708963421198, 
      -0.03914011154021859, 
      0.016259245977413864, 
      0.021155651666668281, 
      0.015860136961076288, 
      -0.032000876578825589, 
      -0.018124270889019037, 
      -0.046584120370769526, 
      -0.028319943002326195, 
      -0.028336466329978625, 
      -0.0031694575145254193, 
      -0.034548866318732191, 
      -0.045564537461829806, 
      -0.039732889620850718, 
      -0.035221172227362249, 
      -0.01216707127319136, 
      -0.013705862663725726, 
      0.041179305116850237, 
      -0.0021925494344021221, 
      -0.0026652856927856221, 
      -0.0078039624889017032, 
      -0.017893131515651649, 
      0.01899624885340611, 
      0.0045986681103534184, 
      0.015210278220836515, 
      -0.0079944461512656915, 
      0.025636800417978615, 
      -0.019968012596879348, 
      -0.022094497286283311, 
      -0.013810154784415659, 
      -0.031413178246520297, 
      -0.02995901957222321, 
      0.010012089714665405, 
      -0.015007403087412878, 
      7.6837026861557856e-05, 
      0.0034310855448159636, 
      -0.0084186414892192946, 
      0.014823363612632902, 
      0.012689784499327164, 
      -0.010284612156023073, 
      0.0092150829640075226, 
      -0.018683895003491498, 
      -0.020306898411100283, 
      -0.01593416370775938, 
      0.0019059143353363358, 
      0.021133998364206867, 
      0.023080293003488715, 
      -0.017111875695259932, 
      -0.0031134344000626228, 
      0.047305268398815471, 
      0.045042130332836612, 
      0.02435956455926316, 
      0.012315305851131022, 
      -0.015141046105411237, 
      0.0027868697908760929, 
      0.009981565011667335, 
      0.0027298480934861563, 
      0.02246703413203973, 
      0.020804085041510059, 
      0.0011023686642507536, 
      0.043863471690806059, 
      -0.019092991331375923, 
      0.010370252132767158, 
      0.025146922663150603, 
      0.028808422937516433, 
      -0.0037317470061180441, 
      -0.037118723380199337, 
      -0.023649848143584111, 
      -0.050188909915472778, 
      0.0030003644551528114, 
      -0.0050731495343300636, 
      0.017976975882527536, 
      0.020538995692563441, 
      -0.029062414512126562, 
      -0.0076093998437335251, 
      -0.011749464278808613, 
      0.020526226118243771, 
      0.0042998337237810623, 
      0.0036551470705289031, 
      -0.026097939424538252, 
      -0.026788180930685086, 
      0.015632881793302071, 
      -0.0033743998905599766, 
      0.017656844750347005, 
      0.022219537235672361, 
      0.018804883932462046, 
      -0.028300596356874916, 
      -0.0070062493186609561, 
      -0.030677572691488107, 
      -0.02529904954486685, 
      -0.014237776448933349, 
      -0.016951765941927949, 
      -0.021323570621070015, 
      -0.031136286049800697, 
      0.010145821634655447, 
      -0.008854904100456383, 
      0.016029223812079274, 
      0.011672778225373291, 
      0.025113062711104726, 
      -0.02371157370174581, 
      0.0097504255818783511, 
      -0.017281342504348381, 
      0.011717422553440722, 
      0.0070820761340003782, 
      -0.02365847189061715, 
      0.03761922065572295, 
      0.057943250448519057, 
      0.05421303141530262, 
      0.035289903979082597, 
      -0.030960623048792511, 
      -0.015035301275157715, 
      -0.00015101829249392421, 
      0.00061010076312592067, 
      0.020438836622955564, 
      0.038247299238808041, 
      0.035273419414485051, 
      0.023023917233012853, 
      0.0050126711530079273, 
      0.018239878747448961, 
      0.0085563095306497722
    ]
  }, 
  "path": {
    "normal": [
      [
        0, 
        1, 
        2, 
        3, 
        4, 
        5, 
        6, 
        7, 
        8, 
        9, 
        10, 
        11, 
        12, 
        13, 
        14
      ], 
      [
        15, 
        16, 
        17, 
        18
      ], 
      [
        19, 
        20, 
        21, 
        22
      ], 
      [
        23, 
        63, 
        24, 
        64, 
        25, 
        65, 
        26, 
        66, 
        23
      ], 
      [
        28, 
        67, 
        29, 
        68, 
        30, 
        69, 
        31, 
        70, 
        28
      ], 
      [
        34, 
        35, 
        36, 
        42, 
        37, 
        43, 
        38, 
        39, 
        40
      ], 
      [
        33, 
        41, 
        62
      ], 
      [
        44, 
        45, 
        46, 
        47, 
        48, 
        49, 
        50, 
        51, 
        52, 
        53, 
        54, 
        55, 
        44, 
        56, 
        57, 
        58, 
        50, 
        59, 
        60, 
        61, 
        44
      ], 
      27, 
      32
    ]
  }, 
  "patchModel": {
    "numPatches": 71, 
    "weights": [
      [
        -0.023697980476962019, 
        0.00031746800208495851, 
        -0.017461587209840965, 
        -0.017497113475022613, 
        -0.042782094359399059, 
        -0.0048978641334833234, 
        0.083453908212182362, 
        0.01272562759203625, 
        -0.028277179757986277, 
        -0.018850124402680336, 
        -0.0037860962698882464, 
        0.010495361699831694, 
        -0.023452191326789648, 
        -0.0045550695227134369, 
        -0.015043632941639296, 
        -0.016666378900946743, 
        0.026944310810739294, 
        0.02952780681361545, 
        -0.013905249209462553, 
        0.00023209921599271627, 
        0.0011484771533611157, 
        0.0027769782043178511, 
        -0.010882835970695587, 
        0.013842514043481826, 
        -0.002374844125975756, 
        -0.001580005283819675, 
        -0.039049690457574809, 
        0.0020309728211680284, 
        0.059060370885965635, 
        -0.019064359599638467, 
        -0.0065581833986399773, 
        0.0010024196018057485, 
        -0.0022714241045680289, 
        -0.023746203292874135, 
        0.0080260578648687284, 
        0.0043422897875826511, 
        -0.0029872251992081114, 
        -0.037356747709358359, 
        0.021117308337551446, 
        0.055305760967772795, 
        -0.018502058895241834, 
        -0.0070712156093983708, 
        0.010875101028187659, 
        -0.02058792455750838, 
        0.011395971292793447, 
        0.00077779899606104236, 
        0.0048037756115366509, 
        0.0023337806746566575, 
        -0.070381999433894504, 
        0.053050323343364444, 
        0.034666202272382068, 
        -0.021500670066476588, 
        0.0013873386183221488, 
        -0.024640366523556931, 
        -0.0029257502562965998, 
        -0.0084949740461967155, 
        0.0085023900699081681, 
        -0.0055228016131596974, 
        0.0092271482739806968, 
        -0.030575078883863141, 
        0.044822928342448887, 
        0.046406656806058766, 
        -0.040694441568950843, 
        0.0056773213146171439, 
        8.5195586011346802e-05, 
        0.0080328326637682662, 
        -0.02020112307765988, 
        0.0039785172653768403, 
        0.0042794237097679069, 
        -0.010750957767655216, 
        -0.020688556011476036, 
        0.041989168231472154, 
        0.034732413206550468, 
        -0.040401919412830153, 
        -0.00065199993040473969, 
        0.0074146692890977375, 
        -0.0053073909324612353, 
        0.00061087185916230968, 
        0.0052412082570920254, 
        -0.00066943934423800699, 
        0.0031789212160457199, 
        -0.04378001945165149, 
        0.077777422158710072, 
        0.018824920589534146, 
        -0.036376780947779047, 
        0.0084341747329759187, 
        -0.01185889622651895, 
        0.0045912753708232112, 
        -0.0051142348455459133, 
        -0.0034507317303528046, 
        0.0078793780165056365, 
        -0.0080280878703331213, 
        -0.018605493919095242, 
        0.054137511471248741, 
        0.015574779263181741, 
        -0.035939393287825777, 
        -0.010741670213155988, 
        -0.012286343924258133, 
        -0.0021802952972315021, 
        -0.020413930958086177, 
        0.018896277466256411, 
        0.0048683784331824825, 
        -0.022151971878811211, 
        -0.0030781229955226183, 
        0.044928719664621829, 
        0.0032919525579717069, 
        -0.012941318132215336, 
        0.008273681988150268, 
        -0.0056371305922494203, 
        -0.022430232521507103, 
        0.0053639011762798977, 
        -0.015585016676334877, 
        -0.010678781362049007, 
        0.0025430419966588624, 
        -0.014870300221902756, 
        0.11919614037885842, 
        -0.039533501232754745, 
        -0.019330591614190706, 
        -0.035046567979130569, 
        -0.016076219416929383, 
        -0.02420612008864613
      ], 
      [
        -0.031122271102407881, 
        0.0060060357257998194, 
        -0.012155520539560498, 
        0.020313399075023813, 
        -0.024912804287486275, 
        0.014228849766959876, 
        0.074295531633600864, 
        -0.015231139932782453, 
        -0.03065845883758719, 
        0.0021652081281457345, 
        -0.010816457780032243, 
        0.0058404942347302716, 
        -0.0043555805027321731, 
        0.027644319988512873, 
        -0.045670626075991358, 
        0.0074782683589726916, 
        0.0064912688493435275, 
        0.026559139253758191, 
        0.001345999665264358, 
        -0.012851983546192922, 
        0.013272544089881318, 
        -0.010934921981178987, 
        -0.0061706469114096996, 
        -0.0061542440157841063, 
        0.0077422171604839135, 
        -0.0037956476127306328, 
        0.0015214831175467611, 
        -0.008283729694245956, 
        0.036520981148161408, 
        -0.0078885485929508989, 
        -0.024339062820454546, 
        0.024237873607392584, 
        -0.024456985025908238, 
        0.005220761219457401, 
        -0.0026840701347747367, 
        0.003760872901300661, 
        0.0082026064209358152, 
        -0.021701431169192389, 
        0.012228423025141558, 
        0.045005509559870413, 
        -0.019715119157341053, 
        -0.0017820423015705161, 
        -0.020932652876069789, 
        -0.0041481935457052498, 
        -0.017863580589741614, 
        0.025480008931811488, 
        -0.021801841201332411, 
        0.012886426707771736, 
        -0.023578988864812515, 
        0.020416682757048776, 
        0.0076000097818914036, 
        -0.01234619736801351, 
        -0.010772869653854766, 
        0.0064292683170164427, 
        -0.0097289391288695355, 
        -0.0029710035749222138, 
        -0.011104447484775654, 
        0.035598193613911956, 
        -0.021509623028193071, 
        -0.024374538364480239, 
        0.0026212457968989439, 
        0.05399091944882816, 
        -0.029041253034798445, 
        -0.0115621654727107, 
        0.011704860180807866, 
        -0.013923250652645266, 
        -0.022144698578189917, 
        0.012764240659339919, 
        -0.022981478815900638, 
        0.018129204817037892, 
        -0.025126994340060216, 
        0.026827061996557856, 
        -0.0033665490594424891, 
        -0.00178668805742703, 
        -0.0050012971587297221, 
        -0.016901701334757532, 
        -0.010847677159084218, 
        0.0079865010944642073, 
        -0.0075746598451253977, 
        0.0065205491085915113, 
        0.010563263684526009, 
        -0.015014519371506052, 
        0.00145242371034629, 
        0.042272667208584525, 
        -0.01931433764731668, 
        -0.0041646956866201769, 
        0.0008491500053790374, 
        0.0032920653560062768, 
        -0.018246863577893194, 
        -0.0003264360706869765, 
        0.0096243228888290983, 
        -0.00091503379470437782, 
        0.0039979012836564992, 
        -0.012618837164064568, 
        0.013845028397934958, 
        0.0043957014651973825, 
        -0.019813893204537317, 
        0.015688538957376055, 
        -0.025654443576089946, 
        0.011722154243649488, 
        0.01329348625807724, 
        -0.0092685626846671157, 
        0.00064749685611269203, 
        -0.0021210181558754815, 
        -0.0083224002057697595, 
        0.027344764926656745, 
        -0.0041304288763740621, 
        -0.0066819550691317453, 
        -0.0026703196991774997, 
        -0.012940240832741161, 
        -0.023280736816483273, 
        -0.013249155958317133, 
        -0.003623569656763817, 
        -0.0026564667037326448, 
        -0.01224955926952781, 
        -0.0050758446988863337, 
        0.037377419628793276, 
        0.021351284495174816, 
        -0.033765765499297593, 
        -0.0015835514793887881, 
        -0.024520816344567355
      ], 
      [
        -0.015386550500274244, 
        0.010311188686519701, 
        -0.012686513790700703, 
        -0.022408114441861932, 
        0.071152228095965053, 
        0.0038517892545989404, 
        -0.0039349177151517672, 
        -0.019800435597269364, 
        -0.015831915051435941, 
        -0.004077069676693898, 
        -0.02160321279621974, 
        -0.019484245520021586, 
        0.0055385397707674242, 
        0.014466496971120596, 
        -0.033004323989374307, 
        0.0043641058676215892, 
        0.039035987686396365, 
        -0.022228454021081548, 
        0.021736760855261716, 
        -0.013046884807617044, 
        0.0089779358360071865, 
        -0.015517727114747873, 
        -0.013367892854678792, 
        -0.0016545349772127405, 
        -0.00010082886100932359, 
        -0.023057562364700166, 
        0.0085475510582263443, 
        0.0076639158624656339, 
        -0.0010396848380849338, 
        -0.024326689549530559, 
        -0.01248367810486771, 
        0.012182515267054148, 
        0.0078892554101566009, 
        -0.0019673289588465759, 
        0.00082126142798141788, 
        0.0022209834291309766, 
        -0.026092688556141139, 
        0.0075962824635628645, 
        0.016804138653367509, 
        -0.0015932929992692607, 
        -0.018952905104614309, 
        0.01511607336358857, 
        -0.026073067400873465, 
        -0.0065879213108636092, 
        -0.012824993695550749, 
        -0.0082296782779155246, 
        0.017910139199287071, 
        -0.011041051970341623, 
        -0.025202058426535646, 
        0.055106364918161801, 
        -0.028876010475408859, 
        -0.0031528992989191817, 
        -0.0062852585222435142, 
        0.014718125442377938, 
        -0.005369230902109709, 
        -0.00057348464390635789, 
        0.0011992896691634322, 
        0.00027284431660341835, 
        0.019103502669781149, 
        -0.025317478468203203, 
        0.053484493652272619, 
        -0.010474402122033155, 
        -0.017148839967705345, 
        -0.0065595584435325233, 
        -0.011499906977166185, 
        0.0030063058488208338, 
        -0.0042352861688011306, 
        0.0028237582659895594, 
        0.0039712545811979305, 
        0.01555844884534642, 
        -0.0025400731069334798, 
        0.030466281823000221, 
        0.036013697945522699, 
        -0.035084560608475993, 
        -0.017113180562410138, 
        0.00039812636397740242, 
        -0.0085902825967000759, 
        0.003884182388757304, 
        -0.0076662511938491162, 
        -0.0065593445071513677, 
        0.020571711565058867, 
        -0.033146316540658541, 
        0.027666815580393869, 
        0.036232274451315355, 
        -0.017752370314607427, 
        -0.0096240705837696838, 
        -0.0095003266450847251, 
        -0.022097241958484837, 
        -0.015804208567914202, 
        0.0071499365549691496, 
        -0.002377982125046342, 
        0.0042014168261507064, 
        -0.025818215187717271, 
        -0.017510384829489273, 
        0.097582542045689558, 
        -0.024411588367755921, 
        -0.023733083446868378, 
        0.0044723985137423219, 
        -0.00038800939852178667, 
        0.0024911571895021994, 
        0.0070093902631042648, 
        -0.019601272957598961, 
        -0.001657073094033755, 
        -0.020833707881892441, 
        -0.035408662122395233, 
        0.042572695469269589, 
        0.025126643090065091, 
        -0.028436264893201751, 
        0.0011471082192006446, 
        -0.0091206119304607647, 
        -0.041303349078086957, 
        -0.018410447400675142, 
        -0.0099358686394633161, 
        -0.017637124235656193, 
        -0.027688346094644906, 
        -0.080031802755607659, 
        0.053686666919661299, 
        0.088612507876727045, 
        -0.0067491743263831394, 
        -0.025651131472114327, 
        -0.022425898248666629
      ], 
      [
        -0.010625238708820581, 
        0.0023094061128939442, 
        -0.053823626698789401, 
        0.071118451587974751, 
        0.085007094283367987, 
        -0.04381362313673838, 
        -0.02999049912432656, 
        -0.015658341823243896, 
        -0.026927503814393766, 
        -0.0090646675322902867, 
        -0.011971526845854889, 
        -0.0037985061749075122, 
        0.0086270228185833381, 
        -0.025181013766160616, 
        -0.041752294430325229, 
        0.084772661453878073, 
        0.0052700586739354571, 
        -0.020920384780456477, 
        -0.01086892883346971, 
        0.0076959285862029866, 
        -3.7032941993843382e-05, 
        -0.0050036483063991694, 
        -0.029733104889760074, 
        0.008927596821271977, 
        0.025897718608248951, 
        -0.055742963954526367, 
        0.066523279705948526, 
        0.043589396426099866, 
        -0.060171971018087696, 
        0.0065677558605192268, 
        -0.010126741948578981, 
        -0.0044875340272405445, 
        -0.02350132544143501, 
        -0.0012761255100448426, 
        -0.0071511930250754488, 
        -0.0020556434825937664, 
        -0.037366381300123215, 
        0.00017069228571897632, 
        0.099226592451320317, 
        -0.045917997847050369, 
        -0.020380844054534247, 
        0.0037855701686542453, 
        -0.026123417858089193, 
        0.019217321183125399, 
        -0.0065972694001961985, 
        -0.0014008662481656622, 
        -0.01341648492303165, 
        -0.012572429713586158, 
        -0.012016276651297328, 
        0.072427012732066309, 
        -0.0057217905406712621, 
        -0.023372848662472426, 
        -0.0047304632925573506, 
        0.01853326791379914, 
        -0.035017285527674927, 
        -0.019194863186957262, 
        -0.0073064719925539298, 
        0.0091683739224856162, 
        0.0016182780797037374, 
        -0.049481194914385004, 
        0.054229562250016024, 
        0.059449694585459623, 
        -0.047939607697686543, 
        -0.016323286784065201, 
        -0.0095225374447329009, 
        0.00065651205627301895, 
        0.0070371525912713145, 
        0.011180656850048015, 
        -0.0268444294175232, 
        -0.0019484726533324781, 
        -0.06144799067881989, 
        0.032761156408531993, 
        0.079684429182322436, 
        -0.035576419225619361, 
        0.014082199570542964, 
        -0.013103072062380913, 
        -3.3775153284593129e-07, 
        -0.015691052618291956, 
        -0.009584302124225029, 
        0.0012550086307745456, 
        0.01248624280399549, 
        -0.030185890319781403, 
        -0.021090602899250341, 
        0.073112965142177022, 
        0.037575818405838429, 
        -0.036810004332720636, 
        0.0022480747866055958, 
        -0.018758601207960128, 
        0.0059431056434877637, 
        -0.019290546373185197, 
        0.0020297210828812418, 
        -0.010764514414284165, 
        0.01661496039658017, 
        -0.061028322574006449, 
        0.039603697720756753, 
        0.042239443753118971, 
        -0.018321598960750168, 
        0.00034561772908482669, 
        -0.011122239431363153, 
        -0.014071466742913645, 
        0.0080731058365062502, 
        0.010485170356413553, 
        -0.027431142433707617, 
        -0.00034589822525768477, 
        -0.034050463338788084, 
        -0.0061995915028289078, 
        0.063564961625786703, 
        0.018535004435376604, 
        -0.027044503894411459, 
        0.00036231310559745045, 
        -0.0029639878121295628, 
        -0.022967386203197972, 
        -0.013457820977868261, 
        0.0089351311293399127, 
        -0.030838348582264086, 
        -0.013622100175816602, 
        -0.056359526885533112, 
        0.032100060201488451, 
        0.032304081719722016, 
        0.035195038380576554, 
        -0.027619517442591904
      ], 
      [
        -0.038038784208022369, 
        0.016349428366631131, 
        0.060744016281608845, 
        0.041246549884521783, 
        -0.021625593245913982, 
        -0.05006153091030438, 
        -0.032020970660569491, 
        -0.016479439051831003, 
        0.0072425070818585707, 
        -0.0078739712861940619, 
        0.0088914376396738021, 
        0.0093280789083808879, 
        -0.041805016020630567, 
        -0.0075216543723568424, 
        0.043094759181125306, 
        0.026224807569151663, 
        -0.0049475261546638094, 
        -0.015567912213045525, 
        -0.015901006102180995, 
        6.443158792625997e-05, 
        -0.0020063681921685173, 
        -0.0078000537300630408, 
        -0.0065143362998887362, 
        0.0055660945044961659, 
        -0.05105796530722681, 
        0.036041463252864919, 
        0.059094335955080145, 
        -0.016257945742281229, 
        -0.01053536156017662, 
        -0.014310932733006321, 
        -0.0097493039292277234, 
        0.0047751757815924327, 
        -0.010521749929753898, 
        -0.0082193986349852095, 
        0.012121992042567361, 
        -0.013903809082177969, 
        -0.056498300905678381, 
        0.059213899467209979, 
        0.02952041652248151, 
        -0.020178398842589495, 
        -0.022838119169728732, 
        0.0021421919833307032, 
        0.010801700249338443, 
        -0.00039576547135138779, 
        0.011751220520972577, 
        0.00067090218392484857, 
        0.020387386687898898, 
        -0.059658540533618236, 
        0.0072947218463170899, 
        0.067480744553207794, 
        0.0056872960113344834, 
        -0.0045810634317582331, 
        -0.011498650771085465, 
        -0.028880671723021289, 
        -0.014285614143169685, 
        -0.02282076601254171, 
        -0.0091324180971968788, 
        0.0054684133357377502, 
        0.0063615139815273109, 
        -0.062949768591551145, 
        0.040623007444183547, 
        0.028974694730888956, 
        0.0092446720016156753, 
        -0.026580300584859787, 
        -0.0067387855505094485, 
        -0.008424386641916401, 
        0.012314797369705394, 
        -0.016709714833233885, 
        0.0015778109565286122, 
        -0.012894871973344737, 
        0.00086903678176971505, 
        -0.016693047729645576, 
        0.047965892652296616, 
        -0.010125651935747937, 
        0.010745829699039262, 
        0.019294715092544167, 
        -0.033795966988890279, 
        -0.015934855947074063, 
        0.0049805986736123492, 
        -0.0080258239056100189, 
        0.0011395010626117953, 
        -0.018241064395545889, 
        -0.023446335789138153, 
        0.043390830547216284, 
        0.029361690115733974, 
        -0.013816099640001286, 
        -0.0048827968734902888, 
        0.0059183527131859148, 
        0.0029154504630754252, 
        -0.00040849307443771576, 
        -0.0047072474327443138, 
        0.0062636816522850056, 
        -0.0025896813614385769, 
        -0.025180501211135381, 
        -0.013604718214746354, 
        0.042208617162137273, 
        -0.00204357660535473, 
        -0.0073376167496776445, 
        0.0081219378545466375, 
        -0.0058067909369182401, 
        -0.0037822688361333727, 
        0.0048771939475471988, 
        -0.021908701899271715, 
        0.0035127372449261056, 
        -0.0057015955279289283, 
        -0.038630055160411195, 
        0.022445061113456261, 
        0.052717951356349046, 
        -0.015891401151242386, 
        0.00025847734848648274, 
        -0.011751434016180125, 
        0.010389030061272397, 
        -0.0031226198901619026, 
        0.0087825621791629976, 
        -0.017139379398536186, 
        0.010607067920080815, 
        -0.035216138179529823, 
        -0.039305518181192392, 
        -0.0092179073892335178, 
        0.042457073059502456, 
        -0.0019965228997989026
      ], 
      [
        0.00018418860913593685, 
        0.00025635847397727912, 
        2.0736191437370147e-05, 
        -0.00029641444003782866, 
        -0.00017859182483582846, 
        -0.00026870478763576811, 
        0.00010291011314861038, 
        -0.00026215742573340974, 
        0.00023341721173516795, 
        -2.740347689626958e-05, 
        -2.4050024139264482e-05, 
        -0.00021247392993608582, 
        0.00016681869087036691, 
        0.00039251584872652642, 
        0.0002430034069444944, 
        -0.00032637373871156211, 
        6.7699267009881765e-05, 
        -0.00015840185561145789, 
        0.00015359191451162752, 
        -0.00051951654986157341, 
        3.4192552823251275e-05, 
        -9.4211262015511511e-05, 
        -0.00023985742317547812, 
        -4.0352100425453119e-05, 
        0.00011991509118949012, 
        0.0001650994685569647, 
        0.00045264539281156843, 
        -0.00034572928313570734, 
        5.1871363733237803e-05, 
        -0.00011844327400743074, 
        0.00013606690369562908, 
        7.7097504719562609e-05, 
        9.8907806504536244e-05, 
        0.00014768428678887821, 
        -0.0003933164208415747, 
        -2.7006486315537935e-06, 
        0.00029681847713284632, 
        -3.9416562381765062e-06, 
        0.00031707177624179484, 
        -6.1822547127112257e-06, 
        -0.00020225783620385351, 
        5.3690351665558296e-05, 
        -5.5164680043630189e-05, 
        -7.5129149956886649e-05, 
        -0.00043243911446323377, 
        0.00060960898229319772, 
        -0.00084936048758224234, 
        -0.00023442408530571936, 
        0.00047240222588775888, 
        -0.00012219693941413858, 
        0.00038479273315464145, 
        -8.3941841947751672e-05, 
        9.119062794407506e-05, 
        8.8337208696642898e-05, 
        2.0711036279372869e-06, 
        0.00019351513547159245, 
        -0.00054289991018302032, 
        0.00056883436073620235, 
        -0.00019224523374439722, 
        -0.00042886853941083089, 
        0.000703054545457221, 
        -0.00056826062404249044, 
        0.00029884964808282727, 
        0.00011392442916295146, 
        -8.8741874031166625e-06, 
        0.00012412890612804054, 
        -1.3055116249508286e-05, 
        0.00019243053213560056, 
        -0.00012790457878036597, 
        -0.00021692988990578907, 
        0.0001370135356477202, 
        -0.00044623418909967027, 
        0.00073251336877522158, 
        -0.00038418313880760069, 
        -0.00016948787225425907, 
        0.00017254798803823537, 
        0.00012846794730487699, 
        -7.5942476613227467e-06, 
        -8.3658733855017516e-05, 
        -0.00014889813744261085, 
        0.00028012315398937378, 
        -0.00037856760340525118, 
        0.00019103933927088406, 
        -0.00042140282083717761, 
        0.00061253013911609204, 
        -0.00010044105422552657, 
        -0.00027740046667172738, 
        0.00019004597742187926, 
        0.00015559000634694778, 
        -4.3185793632470249e-05, 
        9.3641744160341333e-05, 
        -0.00010061755129142061, 
        0.00025070729703201858, 
        -0.00025361856525797806, 
        0.00020236535026381885, 
        -0.00019868779974339284, 
        0.00029584626849257398, 
        0.00017157104711386958, 
        -0.00030811574635134756, 
        -0.00021958932898092512, 
        -5.5344381902983688e-06, 
        0.00013482431172811296, 
        -5.6438970564684344e-05, 
        -9.8527683556353e-05, 
        2.5796357900667743e-05, 
        -0.00012833932904764616, 
        0.00013630067370954383, 
        -6.6456073717345747e-05, 
        0.00012553923005707119, 
        7.7372151659293282e-05, 
        -0.00012177596265934374, 
        1.4965612203632139e-05, 
        -0.00017225449707977805, 
        0.00016497848770944415, 
        -0.00018927773566240064, 
        4.4421195317563555e-05, 
        -0.00045684614608564739, 
        -0.00013927847444303467, 
        4.541184911869955e-05, 
        3.2753324974470947e-06, 
        6.1677050162798963e-05
      ], 
      [
        6.5475104912351978e-05, 
        0.0010049420873718753, 
        -0.00032923320990047716, 
        0.00060173920918112772, 
        -0.00059074200591011788, 
        0.00057528811835780638, 
        -0.00093499588577163062, 
        -0.00034722810713776892, 
        -0.0003635987815030807, 
        -0.00010095675594087167, 
        -0.00078826410571928782, 
        0.0004832090157440537, 
        -0.00034309308917609277, 
        0.0011037942200537165, 
        0.00045385592504487704, 
        0.00014616445390858157, 
        -0.00016943764224000221, 
        0.00064400603145426533, 
        0.00018171693319777443, 
        -0.00010501795658623275, 
        -0.00021908725989595867, 
        0.00016621973656368721, 
        0.00023772845137019771, 
        -0.00059212754740482071, 
        0.00036841144053030919, 
        0.0006853143484430585, 
        0.0016178964881082003, 
        -0.00057640902128204552, 
        0.00016638240614003791, 
        -8.1170808415853557e-06, 
        -0.00029221109619336286, 
        0.00078763557799473027, 
        -0.00026897219547144385, 
        -0.0016788236998236394, 
        0.00060498765124012907, 
        -0.00021223244073412945, 
        0.0007184549041269403, 
        -0.00043137167886104361, 
        0.0014692215172621217, 
        0.00025111109931915884, 
        -0.00040012553116536287, 
        0.0003704734049328022, 
        -0.00030823526709559956, 
        0.00066321844887420531, 
        -0.00035603822170597252, 
        -0.00072512672730189881, 
        9.6852339539696408e-06, 
        -0.00095461199072505512, 
        0.00066552517532380423, 
        5.1029491018178552e-08, 
        0.0016646222978153706, 
        0.0010807557567298273, 
        0.00015976116310323016, 
        0.00041476571118732181, 
        0.0005943139465030868, 
        -0.00026368577840432672, 
        0.00034929413720951458, 
        -0.00038811749318521174, 
        -0.00053524780296263647, 
        -0.00032849593514272524, 
        -0.00025439464381992946, 
        -0.0010490110998895297, 
        -0.00044097227340281556, 
        0.0016302337636339009, 
        0.0011236003490234202, 
        0.0019152327583915815, 
        6.1388064027952105e-05, 
        -0.0011538825322002406, 
        0.00052306196740525487, 
        -0.00033245331066997924, 
        2.3729117399926697e-05, 
        -9.2742149962240367e-05, 
        0.00091479770189685158, 
        0.00076036319572304542, 
        -0.0013317855136015556, 
        -0.00058892642450346366, 
        -1.8170220253653502e-05, 
        0.00016317016955242139, 
        -3.3699914356234706e-05, 
        -0.0001767212151171163, 
        -0.00012493593858864394, 
        -0.00093617340843621735, 
        -0.00066363439238599498, 
        -0.00061839656964083126, 
        0.00079850252129334831, 
        0.0013737335796114025, 
        0.00043730725055744768, 
        -0.0001773948170487108, 
        -0.00036465498008184799, 
        3.8322458674092119e-05, 
        0.00044554117682751512, 
        6.0783119052349593e-05, 
        0.00033887434666832195, 
        -0.00012947442232279921, 
        -0.0010019330179572433, 
        -0.0017570621961287558, 
        -0.00072545888698157847, 
        0.00082821287858891521, 
        0.00060593100474707826, 
        0.00064644303062811465, 
        -0.00021953487474427394, 
        -0.00069737703818369481, 
        0.00043640277410543493, 
        0.00063454032128601109, 
        0.00049955094388926674, 
        -9.1308455004771721e-05, 
        0.00030634177682114724, 
        -7.4146689736178523e-05, 
        -0.0011595157805102847, 
        8.6830665388674261e-05, 
        -0.00026050589272613028, 
        -0.00045241496320500701, 
        0.00023405260246556897, 
        -0.00070796792381988549, 
        -0.00041177009081701937, 
        -0.00022720609624246081, 
        -0.00054942264644180887, 
        0.00021742826491426802, 
        -0.00078450182014105918, 
        0.00019292202880851969, 
        -0.00071544576320051179
      ], 
      [
        -0.013213553671793089, 
        0.0034995432425683481, 
        -0.0021988798658294818, 
        -0.0066883987545324486, 
        -0.002884127389732441, 
        -0.029661018579090023, 
        0.0059172934581950831, 
        -0.0044505883357484691, 
        7.5730820194450099e-05, 
        0.0041620081531152583, 
        -0.0071172232851243536, 
        0.019078897887307898, 
        -0.0023952899542211709, 
        0.0015732500932476804, 
        -0.0034759128930932307, 
        0.0018304279812670823, 
        0.011998637555592127, 
        -0.0025729141601030132, 
        -0.017220634236940799, 
        0.0037576924220849139, 
        -0.0031284830880830873, 
        0.010200620589448189, 
        0.028762888182609941, 
        0.0092173772503611334, 
        0.0027667516141653588, 
        0.014760257678027685, 
        -0.0065036865648018683, 
        0.00025841836949179117, 
        -0.0030639442583803092, 
        0.0019845324114733873, 
        0.0091553418483970358, 
        0.0070736233094685873, 
        0.026869546383474191, 
        0.029420834744293772, 
        0.015363898113383579, 
        0.031618816995718599, 
        0.0094513832205712391, 
        0.019872325664898438, 
        0.01683568772383643, 
        0.019200008658819365, 
        0.014861002704889751, 
        0.0091715607156656505, 
        0.033220189767430637, 
        0.037502203746824649, 
        0.015108687399270083, 
        0.00081762030637592964, 
        0.011808888692036154, 
        0.014544926571566197, 
        0.01106896499971048, 
        0.034221207788439047, 
        0.010980011545243484, 
        0.02077363272673876, 
        0.017221401454396781, 
        0.0063747029311668826, 
        -0.0061572769630560027, 
        -0.020254374799288571, 
        0.018647899319921297, 
        -0.011225785313534065, 
        -0.0013785029218266638, 
        -0.0092922375006335729, 
        -0.020255088064932737, 
        0.002944071655848049, 
        -0.015207474292051812, 
        0.0031660181599712789, 
        0.0015976268499099631, 
        -0.0013979760122932242, 
        -0.024457960193772693, 
        -0.020410672368826981, 
        -0.0039620070546580524, 
        0.0065830222112961828, 
        0.015202474727996875, 
        0.017451566570646282, 
        0.001934188578537532, 
        0.021730295218952311, 
        -0.013500338309808541, 
        -0.012339252855956263, 
        -0.030272593020654298, 
        -0.0085617257659545004, 
        0.012172128175816144, 
        0.00012396089052104341, 
        -0.019528841979703074, 
        0.0015691472318013593, 
        -0.016360956353354283, 
        -0.004239986136981207, 
        -0.0093044131389624189, 
        -0.0069562376001893987, 
        0.0087012388203157823, 
        -0.0015739271474367184, 
        -0.0013580664172298668, 
        -0.010974555024748209, 
        -0.0023201128875532835, 
        0.0091342993181756302, 
        -0.0012259963706318031, 
        0.0060071078311431606, 
        -0.012200969537609286, 
        0.0093154928962867374, 
        0.003055850160525099, 
        -0.0049795899814207133, 
        -0.0091573938847997836, 
        -0.017429302006848474, 
        0.016828942063395698, 
        -0.0083377403550257984, 
        0.0080423765831476712, 
        0.00089904283841223641, 
        -0.010617313895536693, 
        0.012757137464134358, 
        0.00523536852226523, 
        -0.025705111167640907, 
        0.010010818569356178, 
        0.0038360880106166409, 
        -0.0065788940021776297, 
        -0.010935360721599757, 
        -0.013867176871864704, 
        0.0062621171388822384, 
        -0.016072690651629966, 
        0.012521282366282287, 
        -0.015645007016073083, 
        -0.011242403388440301, 
        0.01029688685331185, 
        -0.0061356212063579576, 
        -0.024200524479955153
      ], 
      [
        -0.002908089408437045, 
        0.00095135213161288176, 
        -0.00085359323640702518, 
        -0.00035078870298940789, 
        -0.00057573283810870702, 
        -0.00034653953026216044, 
        -0.0012154814769685662, 
        0.00034598911727610343, 
        0.0008709105152893738, 
        0.0016985403644556416, 
        0.00063354958664623177, 
        0.0014334999619872095, 
        -0.00061997786656577971, 
        0.00043245809602900087, 
        -0.00050595791170044693, 
        4.5870191927563624e-05, 
        -0.00053660977470229273, 
        0.0005235388205195768, 
        0.0016621488885204931, 
        0.0016052201644449358, 
        0.00021268459809958991, 
        -1.1820103702091245e-05, 
        -0.00028094202956898458, 
        -0.0002221867873162405, 
        -0.00064856233114481045, 
        0.00047579609159453589, 
        0.00047914038942205609, 
        -0.00010322726439504883, 
        0.0010086511436467921, 
        0.0015510027282031953, 
        -5.5110221310798605e-05, 
        0.00020105168372493414, 
        -0.00059674893525796333, 
        3.2210611682908282e-05, 
        0.0011173920569725929, 
        0.0010622262917522303, 
        -0.0008231206332775542, 
        0.00047639216336671118, 
        0.0014261249102545249, 
        0.0021717454312197887, 
        0.00039767208491345947, 
        -0.0011982407689032095, 
        0.00068148193627809743, 
        -0.0016907190458987646, 
        0.0012261099772872858, 
        0.00074828702234268612, 
        0.00038961402525431506, 
        0.0024085722679117192, 
        0.00098120382176171677, 
        0.0019227280458542955, 
        -0.00018346175690968792, 
        -0.0011513804472016139, 
        0.0011511176528776622, 
        -0.0017109635454588569, 
        -0.0012408643842477776, 
        0.0029417106845568311, 
        0.0020778667411475082, 
        0.0014060875763124304, 
        0.00037294760552833688, 
        -9.7111310083123226e-05, 
        3.6828775410337102e-05, 
        -0.000409240263639372, 
        -0.00016824355603800144, 
        -0.0013512598062792084, 
        -0.0012653810659309156, 
        0.00024373032686106312, 
        0.0012430570198412108, 
        -0.0014586753155649908, 
        -0.00073274790753971976, 
        -1.4262245690534886e-05, 
        0.00060138507325611695, 
        0.0014915449596631498, 
        -0.00051969344808031363, 
        -0.0012453194815963057, 
        6.2596985600309532e-05, 
        0.0011800943873476631, 
        -0.0012466291339806351, 
        -0.00034813885834562809, 
        0.00057152638552716633, 
        0.0019279055411599209, 
        0.0017090258684944991, 
        0.00018549132977446238, 
        -0.0032326013941602768, 
        -0.0017783712403704808, 
        0.00030904859218503725, 
        0.0001445335344944774, 
        -0.0014433203426721906, 
        0.00070162698011301322, 
        0.001103768146174284, 
        0.00011999268944354021, 
        0.00049498957930902343, 
        -0.0024605351912533996, 
        -0.0019139779603780946, 
        0.00036250248846717318, 
        0.0021055706269538029, 
        -0.00040757287404625218, 
        0.00047898509373409765, 
        0.00023743970450736509, 
        -0.00081029798424705297, 
        0.00029222164230730723, 
        -0.00071415180331591476, 
        -0.0026732597832134545, 
        0.0015127588303146277, 
        0.00074120531839748805, 
        0.0020924394712738383, 
        -0.0020687657033830287, 
        0.00084800042348552856, 
        -0.00058390724312518561, 
        -0.00047618567932460488, 
        0.00084805832558150235, 
        -0.0014003520933660489, 
        -0.00022404834180546557, 
        0.0014011413919917952, 
        -0.0019677803224032592, 
        -0.00028160364840335104, 
        -0.0021030899823058576, 
        0.0002974009358597885, 
        -0.00021967968849057875, 
        -0.00039645277709474212, 
        0.0013526405071248378, 
        -0.0016923785859530307
      ], 
      [
        -1.4411744912198529e-05, 
        -0.00016988651229694028, 
        -7.1654448867140494e-05, 
        0.00014003376682391114, 
        -0.00034243226908284644, 
        7.6222619486135054e-05, 
        -0.00014748004867104481, 
        -0.00032267981065510487, 
        -4.1555945344301515e-05, 
        0.00034859502252007624, 
        0.00021105463547022724, 
        -0.00012243382425991718, 
        9.654763697336359e-05, 
        0.00015826575643843738, 
        -0.00036260605205660351, 
        0.00022452276772951668, 
        -0.00026208910044173833, 
        -0.00022466845308343961, 
        0.00012506069222574349, 
        0.00038085460963969975, 
        -0.0001487410660301336, 
        -5.985884193025065e-05, 
        0.00018912989731834648, 
        -4.908142660211591e-05, 
        -0.00034593742699591187, 
        0.0004000249755160834, 
        -0.00037027531627107681, 
        -0.0001454997033691445, 
        0.00014189914036966816, 
        0.00032524346625164777, 
        4.4678622704075188e-05, 
        9.7081204309873437e-05, 
        -0.0003065025036358901, 
        -0.00010287145282838594, 
        -2.0674369224924112e-05, 
        0.00014450305792248173, 
        -0.00015459987748459025, 
        -0.00016507430540833781, 
        0.00017480794077586251, 
        8.3637648166715733e-05, 
        0.00017393746381868039, 
        -2.142818342093511e-05, 
        -3.7219137738610242e-05, 
        1.0533251084598495e-05, 
        0.00024219331013292621, 
        -0.00025046121457888981, 
        -7.244345224851137e-05, 
        2.7886409065057405e-05, 
        0.00014376704464661404, 
        0.00013615831681088736, 
        0.00045876801362559373, 
        -0.00012964129988165402, 
        -0.00034682670329494632, 
        -0.0001650531283851446, 
        1.9387278934910809e-06, 
        -0.00014086847582134993, 
        0.00015244525278464843, 
        -9.4183339300866337e-05, 
        4.6079867511202716e-05, 
        0.00012300796519042548, 
        -7.7680580071582891e-05, 
        -0.00011726812877541244, 
        -0.00032730375302439038, 
        -6.6894609884720485e-06, 
        9.7353909583666742e-05, 
        4.9646479177441194e-05, 
        0.00015142974654871327, 
        6.3935162873018231e-05, 
        0.00010938116045632745, 
        -0.00012448523587351573, 
        -0.00015250995433978981, 
        0.00027299164051840588, 
        2.0601060972789617e-05, 
        -0.00022136560158615096, 
        0.00014790675467536013, 
        2.9289996159885534e-05, 
        -0.00013731127929413056, 
        5.4928865871668731e-05, 
        -0.00015688100965884771, 
        -0.00017772955577862772, 
        0.00013068835363660297, 
        0.00037532363004443708, 
        -0.0001460692411407935, 
        -0.00027520839767270627, 
        5.8073137868333569e-06, 
        0.00018391678423081842, 
        -0.00034854819696458934, 
        0.00020243050493264775, 
        -3.3034735901597834e-05, 
        7.5059999188489476e-05, 
        0.00012188706750859094, 
        -2.0854240913385433e-05, 
        2.8570980690553402e-05, 
        -0.00012252031895541166, 
        -0.00022178386010243689, 
        0.00035091652880683659, 
        -0.00042181521842015509, 
        0.00041169191570016549, 
        -0.0001409660564099767, 
        -9.6644108633553438e-05, 
        9.56117399375251e-05, 
        5.119346955803801e-05, 
        0.00031152829755212719, 
        -0.00021378008026885775, 
        -4.7198798371556397e-05, 
        0.00025345064994394904, 
        -0.00019149289404228609, 
        0.0003124753722879986, 
        -0.00028928270424831599, 
        9.7566776200878197e-05, 
        0.00018608325988333195, 
        -4.851272009185302e-05, 
        9.1216384092696751e-05, 
        -0.00031377350129008566, 
        1.2725297008901737e-05, 
        0.00010975411798375655, 
        -0.00038160320184662914, 
        0.00024088038697870576, 
        -0.00047639464386667937, 
        0.00038939199001906781, 
        -0.00019367413793150434
      ], 
      [
        0.0005469460701987422, 
        -0.0074660839014952379, 
        0.0040289242659723168, 
        -0.0069671409661836575, 
        -0.0072348085895068597, 
        -0.046803986604106382, 
        -0.036476534176458256, 
        0.0085379431822551616, 
        0.074123376584630946, 
        0.03579490968067113, 
        -0.043307987385860322, 
        -0.0031134708215673733, 
        0.0048514188361099136, 
        -0.0083393201364467956, 
        -0.015763788168012202, 
        -0.018223220855687366, 
        -0.020629947889224506, 
        0.0122297309606368, 
        0.050992290249863043, 
        0.011182627042909773, 
        -0.030886438042991723, 
        -0.0055116492337088235, 
        -0.0025836002504945957, 
        -0.019356983603605635, 
        0.009890472361207929, 
        0.0039699005837295701, 
        -0.036390253190255288, 
        -0.0034787696704160764, 
        0.020989334424549415, 
        0.0640642239178775, 
        -0.037768151474364631, 
        -0.017445023135780405, 
        0.0038684452072202946, 
        -0.014783561415230875, 
        0.0012376223654672856, 
        -0.0090324971014580906, 
        -0.020083704646142016, 
        -0.0096435748322323822, 
        0.0051937173566104777, 
        0.08168101031798651, 
        -0.030049230352511412, 
        -0.017392935063958011, 
        0.021060911972210328, 
        -0.01983729369686945, 
        -0.0096114755875178447, 
        -0.0078193448698723189, 
        -0.0079976085904448248, 
        -0.022146970125638869, 
        -0.0072649166779262878, 
        0.069430851362286078, 
        0.018139441066305002, 
        -0.061900981501781367, 
        -0.00661179758441785, 
        -0.0072499780694029042, 
        0.020543989837493462, 
        -0.012764117504625047, 
        -0.0058803446855646094, 
        -0.013745433484688548, 
        0.023079553141404613, 
        -0.0050777814900759451, 
        0.057621467464866148, 
        -0.036208324986394334, 
        -0.004306005339557422, 
        -0.0042683563186689255, 
        0.021028078196993965, 
        -0.034083373771667085, 
        -0.0172086525633269, 
        -0.005248027071121257, 
        0.014835374116525191, 
        -0.0067183122055607617, 
        0.033841189777601227, 
        0.0099077026923500046, 
        -0.022026040846061669, 
        -0.0069358951193408368, 
        0.010368449988723494, 
        -0.02027264662061292, 
        -0.0049816758711856007, 
        -0.014151359492049799, 
        0.017747649640636246, 
        0.014261120834364175, 
        -0.016504416030590174, 
        0.038708304608137012, 
        -0.011317254069105512, 
        -0.006693886679039477, 
        -0.0034985741030346407, 
        -0.012946915197331817, 
        0.011241881446176293, 
        0.0032938326877760288, 
        0.0091996047808382241, 
        0.015583010237975679, 
        -0.045689600384754385, 
        0.05133609721937344, 
        0.019340148584685093, 
        -0.027378149656854579, 
        -0.018501614163358021, 
        -0.0046476649005068003, 
        0.0052451836938787848, 
        -0.024190178134284968, 
        0.020041608053189691, 
        0.0081119573947830929, 
        -0.042931257127071673, 
        0.049310937659620163, 
        0.028591528909459523, 
        -0.028842316620373905, 
        -0.0047034441677024866, 
        -0.00773080050202982, 
        0.0011576520300509863, 
        0.003537193037615816, 
        0.0098372403069752999, 
        -0.0098936300830501783, 
        -0.012246065899246164, 
        0.041795131489891918, 
        0.016803333268695982, 
        -0.036749593375284481, 
        -0.031727261341631022, 
        -0.002817124051943354, 
        -0.0073491495764316274, 
        0.0074518738347704762, 
        -0.017100194511643962, 
        0.0035392950693542737, 
        -0.029130115851003432
      ], 
      [
        -0.028076281318635779, 
        0.0017903476477089848, 
        -0.010892588691950422, 
        -0.019605029553684816, 
        -0.023755333668411607, 
        -0.083762094965882716, 
        0.10726071042551265, 
        0.067552666608455533, 
        -0.016782104346718806, 
        -0.029847471862203073, 
        -0.0084901506899597579, 
        0.0008246160346405268, 
        -0.002612097048493852, 
        -0.0023589927411666739, 
        -0.0022137005782176533, 
        -0.020122092351464074, 
        -0.003471566242729901, 
        0.042511198388786559, 
        0.017993163473891308, 
        -0.03428507832323846, 
        0.011500915591905372, 
        -0.013873657222957539, 
        -0.014855647472717094, 
        -0.0035951746273460983, 
        -0.023694395949618308, 
        0.020510185931754521, 
        -0.051091912672425799, 
        0.01824506128595986, 
        0.080978693913603753, 
        -0.035350368391306022, 
        -0.0081083777981001692, 
        0.0091407111925626075, 
        -0.0072069624230504531, 
        -0.0044391190970929639, 
        -0.00067695793878025379, 
        0.0013264490296305692, 
        -0.019666265922640355, 
        -0.045994887720728364, 
        0.056634122809954834, 
        0.04265285363384401, 
        -0.039124759095025684, 
        -0.0018809376559285745, 
        0.0038676138191546389, 
        -0.0073800343046530742, 
        -0.00068153894588120212, 
        -0.0075388464090412471, 
        -0.018291164034828514, 
        -0.00065191816419421511, 
        -0.065597311588283372, 
        0.090862887817326016, 
        0.012374767559995212, 
        -0.041931140145851753, 
        -0.0064599815953582107, 
        -0.013928412171078472, 
        0.0041460443179207364, 
        -0.0044161069843213635, 
        -0.0025752918523369514, 
        0.0034395283290732173, 
        -0.035174588953083376, 
        0.018506284999205595, 
        0.078191400766724303, 
        -0.019046296434709405, 
        -0.013452598785740094, 
        -0.010482927275392254, 
        0.0004755598379062656, 
        -0.0082959791180380188, 
        -0.012881703428667984, 
        0.00073718162922258024, 
        0.0027129808673396413, 
        -0.050627241301309987, 
        0.053610681949289252, 
        0.049902168542348239, 
        -0.050536251825663833, 
        -0.025226351594406587, 
        0.0026262658476459734, 
        -0.0033415228956911736, 
        -0.012293580398991264, 
        -0.0018915458737579702, 
        -0.004169065278204806, 
        -0.0045474897775601153, 
        -0.027674182471857059, 
        0.095420870321107451, 
        0.0040835034283644225, 
        -0.039801835722249712, 
        0.022879438278157201, 
        -0.016917652311819041, 
        0.0089557567847592251, 
        -0.0049601000690815966, 
        -0.020834737356178995, 
        0.0091711027345221657, 
        -0.030774796107854871, 
        0.019096031116227527, 
        0.054168835441744737, 
        -0.028018085094803302, 
        -0.016872888418981713, 
        -0.0028685174295023444, 
        0.0036931404516705006, 
        -0.011185440824078012, 
        -0.0067118634504826774, 
        0.013056017712647194, 
        -0.025458473205976433, 
        -0.0087586959038755269, 
        0.056541172166897156, 
        0.025955989342121566, 
        -0.026555513965575053, 
        -0.015566099996315155, 
        -0.0010257374796553628, 
        -0.0096875087269848309, 
        -0.0025900626599617282, 
        0.0015629564703344943, 
        -0.03157967096552277, 
        -0.0075729714322567837, 
        0.060967107180158429, 
        0.052969713020368132, 
        -0.024482122757999353, 
        -0.062851204980915301, 
        -0.009437560475859981, 
        -0.0080186194386100695, 
        -0.0040508831048808747, 
        0.0096093850477368334, 
        -0.031759512062280698
      ], 
      [
        -0.015793143988750619, 
        -0.0037824642962254705, 
        -0.012478603491113224, 
        -0.022657119862360756, 
        -0.0061628330457269842, 
        0.0028056596045862997, 
        0.05193296794789605, 
        -8.7382507898879636e-05, 
        -0.0091127186861796536, 
        0.0041991207383739043, 
        -0.01320591014851432, 
        -0.0059677188728512395, 
        -0.00098504927081597554, 
        0.004202734900383592, 
        -0.013439390887358633, 
        0.0069580329967764351, 
        0.0037748506038730034, 
        0.024503293060476904, 
        -0.019489199330429308, 
        -0.015516370212300547, 
        0.025618455585864348, 
        -0.015255690283914006, 
        -0.0056843717648005568, 
        -0.0040147102411471486, 
        -0.012447328732074258, 
        0.011579734117018382, 
        -0.021444199266219648, 
        0.01168693550544804, 
        0.03797780258542157, 
        -0.040198366373997846, 
        0.012761262104193587, 
        -0.0073920754420567641, 
        -0.010582209645189189, 
        -0.0011257419292399276, 
        0.013513758526239483, 
        -0.010418872460773287, 
        -0.012378790915865856, 
        0.0017674136253880354, 
        0.020615045157967801, 
        0.0021070669128040349, 
        -0.026922764324589708, 
        -0.0026799273479669247, 
        -0.0010427967757579565, 
        -0.0097828339746894172, 
        -0.014506654874006658, 
        0.0084969081143637624, 
        -0.0012499324049274133, 
        -0.015710873373109432, 
        -0.031921683860273255, 
        0.04125876971440718, 
        -0.008614527978648992, 
        -0.017950326477382622, 
        0.0027678268412817328, 
        0.0035058204280880162, 
        -0.0048841559568039566, 
        -0.013796714479706516, 
        0.0006174216936316243, 
        -0.006789645517071681, 
        -0.015071876467839775, 
        -0.0072184376753513645, 
        0.040863426697572092, 
        0.0048484936083348501, 
        0.0053071865137644357, 
        0.0018559281828502434, 
        0.0089610719249379484, 
        -0.011328551974496521, 
        -0.015616528222577856, 
        -0.010784844298938362, 
        0.0095995114513170443, 
        -0.032369039788462943, 
        0.0092269083706535762, 
        0.040062613761040408, 
        -0.014930056714390086, 
        0.017575977381745492, 
        0.020548806482350284, 
        -0.0072101656095761441, 
        -0.0040486005674440096, 
        0.0081688436653808705, 
        -0.0079230246086569867, 
        -0.00087273004259775383, 
        -0.043389400783615209, 
        0.057910984369945018, 
        0.020925036085677709, 
        -0.024314762904639728, 
        0.003566016742269083, 
        -0.010054094055496052, 
        0.021252091244753649, 
        -0.0090128122038052854, 
        -0.016715254497862923, 
        0.0097318327155611652, 
        -0.011486583354458769, 
        -0.033751069282634653, 
        0.044232907282900386, 
        0.035708465039971535, 
        -0.048561914149254148, 
        0.016478438869319052, 
        -0.011297648673678501, 
        -0.017953178382840211, 
        0.0058064563835564242, 
        -0.021140473628832999, 
        0.0037271751557445831, 
        -0.0034896510828656482, 
        -0.011433839987841164, 
        0.069252059657940138, 
        0.0093055872273386554, 
        -0.051132126859116139, 
        0.020171258702580942, 
        -0.03110709127027066, 
        0.02371397875107896, 
        -0.021402139458757449, 
        -0.025273839363320727, 
        -0.020075669239427857, 
        -0.042014630406005171, 
        0.06033100316483278, 
        0.081987789885456103, 
        -0.04600525314973223, 
        -0.05938531749589581, 
        -0.011537000747666072, 
        -0.014490160219313545, 
        -0.0054014074062442201, 
        -0.044983345319331597
      ], 
      [
        0.00030201518184554826, 
        -0.012556777986467347, 
        -0.010296127529234166, 
        -0.025956701252343617, 
        0.058480663756280242, 
        0.029969256301935802, 
        -0.010499847957216465, 
        -0.012962359487570855, 
        0.014009929895096494, 
        0.0050857676415482292, 
        -0.019958740147302454, 
        -0.013012973992795961, 
        0.0018220989363039244, 
        0.0045429727269209255, 
        -0.022826243774557397, 
        0.035073727942139463, 
        0.0068560036399441839, 
        -0.005948181192854677, 
        -0.0050675516725421088, 
        -0.014696476813083932, 
        0.010966075559946775, 
        -0.010312948580774715, 
        0.0056195281130107869, 
        -0.0066092404181951198, 
        -0.0084031094921364693, 
        -0.025073548932515385, 
        0.026242439496174122, 
        0.024728064940862972, 
        -0.010584409832397232, 
        -0.0042382271097115365, 
        0.004805657159258821, 
        -0.0025605649289486727, 
        -0.0028320492363616955, 
        -0.025302739686416182, 
        0.011623027158762799, 
        0.0037397685673411195, 
        -0.017134678803739083, 
        0.011259118822080815, 
        0.025645386051903238, 
        -0.029050961773140625, 
        0.016315817100807883, 
        0.0066544518409405928, 
        0.0016570288115930875, 
        -0.0038839651047537461, 
        -0.0093954790320315978, 
        -0.018933750155335577, 
        -0.0074578655796017678, 
        -0.012519567161990465, 
        0.03351240725993325, 
        0.026055805906678924, 
        -0.01727255355660718, 
        0.0043747964853585765, 
        -0.0088478353380330426, 
        0.0094300306236745589, 
        -0.0012107550389170805, 
        -0.008710387434049633, 
        0.017577927339827604, 
        -0.0052208343751150551, 
        -0.013453954947750301, 
        0.0095816076165959503, 
        0.02723857252686122, 
        -0.024715459024629266, 
        -0.0058719391804523168, 
        -0.0037386202836476781, 
        0.018182511326524254, 
        -0.016832482949240252, 
        -0.019579465680631871, 
        0.0018855434280460903, 
        -0.0064658181268138293, 
        -0.028292075412534791, 
        0.0029793134426246695, 
        0.024761184357802085, 
        -0.02273697766537398, 
        -0.011314278309981555, 
        0.018121696986127436, 
        -0.014979261311840115, 
        -0.0024284117760208449, 
        -0.012858155710288602, 
        0.0045063839675135234, 
        0.019414022343905653, 
        -0.030695727194892719, 
        0.015560899681888785, 
        0.024397230959866872, 
        -0.032862616309205887, 
        0.018924805026051768, 
        -0.010006833704604041, 
        0.0011426587219553561, 
        0.00048830813781536482, 
        0.0038814189529939127, 
        0.0032223678350751994, 
        -0.026956157901006882, 
        -0.017022918128398276, 
        0.038340278073030754, 
        0.012609263086936299, 
        -0.018328100697758122, 
        0.0053739654316441333, 
        -0.0051952559310612387, 
        0.017220128891217504, 
        -0.021524619631012366, 
        -0.0255123966782408, 
        0.010582766592300228, 
        -0.0059629845291076589, 
        0.018686387770033994, 
        -0.0094924675088756509, 
        0.0067232425000457998, 
        0.014022700149150651, 
        -0.0085443981474247876, 
        0.022820364020505076, 
        -0.0015933627901253159, 
        0.0030963207831536223, 
        -0.021723789344564003, 
        -0.031710498721216875, 
        -0.0056549336602359727, 
        -0.00469285622701181, 
        0.034735687555300696, 
        0.02919782808733613, 
        -0.044578598783947765, 
        0.024234513444601091, 
        -0.026780298584141229, 
        -0.006546570946670726, 
        -0.020866895129143432
      ], 
      [
        -0.024202203806415547, 
        0.0060873362939566841, 
        -0.040442056314854424, 
        0.0017463359245213084, 
        0.076987571863865373, 
        0.029641677317210013, 
        -0.045193774079740782, 
        -0.022687957748018288, 
        -0.023371541455698121, 
        -0.017166866060805967, 
        -0.028321279204836031, 
        0.0099497480844515634, 
        -0.0065238955915842478, 
        -0.0013354082285189275, 
        -0.010910259932708815, 
        0.028964595958164446, 
        0.032724445730614782, 
        -0.034783603757503403, 
        -0.0070170242672801548, 
        -0.0064369257453766038, 
        -0.00013971585623410217, 
        0.001807719148810432, 
        -0.0052205190896075591, 
        0.006715778959728344, 
        0.009290402875183677, 
        -0.036308324178595933, 
        0.056266062534459108, 
        0.045938485015581489, 
        -0.046361795246315507, 
        0.007711560442263574, 
        -0.0056327020033781049, 
        0.015448855535602888, 
        -0.010224362626564037, 
        -0.03487769454356443, 
        -0.0026863862863507337, 
        -0.0038241572351278008, 
        -0.028370919430357511, 
        0.02377115949780172, 
        0.056731857114398786, 
        -0.037994532503898802, 
        -0.0074574631590839839, 
        0.0089548144042846355, 
        -0.013694798922671024, 
        0.0023336986246563635, 
        0.039948903159889353, 
        -0.023470224088134768, 
        -0.0077391129450579913, 
        -0.024049940419303632, 
        0.018836123522066924, 
        0.073556515791720053, 
        -0.054429220092916043, 
        -0.017299653966713832, 
        -0.0048049705810430865, 
        0.0044825663475186262, 
        0.0025480402968901302, 
        -0.019716304542842802, 
        0.021077966903954321, 
        -0.0084213232054679201, 
        -0.012903738173569837, 
        -0.0097346456237855303, 
        0.073862714138333341, 
        -0.018897448759477246, 
        -0.018332451008747593, 
        0.015281339795504936, 
        0.011484355413139274, 
        -0.01087629862869827, 
        0.011644178688931608, 
        -0.022534484104600985, 
        0.017250717920790828, 
        -0.034021831423810628, 
        0.015816902884037372, 
        0.060270093528261771, 
        -0.011728246294998718, 
        -0.0014371266435143722, 
        0.003167318848123787, 
        -0.0019111636392656367, 
        -0.016195448668719241, 
        -0.00026802389753193857, 
        0.01219122972966365, 
        -0.02165253625536008, 
        -0.017245687448498644, 
        -0.013438843689477243, 
        0.058025029489256745, 
        0.0016822106728731647, 
        -0.034610158630854274, 
        -0.0018949630851904044, 
        -0.0054923517774356778, 
        0.014031695936128227, 
        0.0070040808600834422, 
        -0.033913258987050915, 
        0.0112122333418457, 
        -0.014855826525559345, 
        -0.032694943781219642, 
        0.087512037657766537, 
        -0.015562191188128533, 
        0.0051278173060113029, 
        -0.012626833722272222, 
        0.017957201059046732, 
        -0.012082735688014273, 
        -0.0057042448192245855, 
        -0.016104241186914982, 
        0.010238857971502827, 
        -0.0085369409006739554, 
        -0.016844189301835382, 
        0.037794177012569201, 
        0.0051073566290495646, 
        -0.011906500715375308, 
        -0.0046575746609211245, 
        -0.0082222074400765122, 
        0.0011639146623244776, 
        -0.03043811194516827, 
        -0.011454832799398402, 
        -0.031194082896550714, 
        -0.024247818340488034, 
        -0.037961081357695409, 
        0.073802455378204818, 
        0.055129851821103248, 
        -0.017051682458354617, 
        0.0010783515006110283, 
        0.00091330004907704118, 
        -0.010773532363317743
      ], 
      [
        -0.018889370549569483, 
        -0.011445408917508114, 
        -0.011958892000426175, 
        -0.017422372796432349, 
        -0.024559191918577514, 
        0.00060052217437025351, 
        0.0049932509068907269, 
        0.016141381276497176, 
        0.0053242112624854593, 
        -0.0091889063954881459, 
        0.00097374528696340945, 
        0.0027045979201759732, 
        0.013462424109035077, 
        0.011927947685913544, 
        -0.00056144638779644486, 
        -0.0045604406418352601, 
        -0.01342108244452212, 
        -0.0060771538843390092, 
        0.0035379991925850555, 
        -0.002105763306735493, 
        0.01106351879954905, 
        -0.00037500932096739843, 
        0.015257286773674019, 
        -0.0041917793814177234, 
        -0.003564666079549951, 
        0.034509397676724896, 
        0.0055076777054186999, 
        -0.045833257225744675, 
        0.012387925390262977, 
        0.009378947972561797, 
        -0.0068681291453228585, 
        0.0050656388935980123, 
        0.0037095130844601379, 
        0.027998751379574582, 
        0.0070111146559294762, 
        -0.002356882656462285, 
        -0.020038841151326182, 
        0.048025851262954472, 
        0.010575632436268509, 
        -0.03308739179197371, 
        -0.013725042413222952, 
        -0.00017419403579654186, 
        -0.0080542221471404038, 
        0.0022157676105260399, 
        0.0078172580651999779, 
        0.012392906839984369, 
        0.039117113982848992, 
        -0.0055183569174176023, 
        -0.038255721309798006, 
        0.045937156922955219, 
        -0.013544038791980573, 
        -9.5059652527318406e-07, 
        -0.0057990109698219452, 
        0.00058566556547091919, 
        0.0036778230698241848, 
        -0.022313707990972709, 
        0.012706760346320563, 
        -0.00038971275375611, 
        0.051765593638558739, 
        -0.0031375317672913614, 
        -0.03653627896673689, 
        0.011019316672014938, 
        -0.0024771560187472966, 
        -0.0036706422880343204, 
        -0.0023043483552751959, 
        0.0048731270656108272, 
        -0.024081161585008837, 
        -0.045026667329343878, 
        -0.013926854269074914, 
        0.0040523709940765047, 
        0.077312885914868193, 
        0.010574280196264191, 
        -0.016778960501708899, 
        -0.0077100039858528993, 
        0.0076881494758505309, 
        -0.0049479450343710776, 
        -0.0065956682172321132, 
        0.011119144148734647, 
        -0.019821271183854464, 
        -0.031360186146939702, 
        -0.060291306213947002, 
        -0.022300954712804737, 
        0.027315962491240676, 
        0.0046111068944079438, 
        0.0065043762592680229, 
        -0.030502344954891143, 
        0.022626603460736024, 
        -0.00059350017082075452, 
        0.013406696330426652, 
        0.015274482626438667, 
        0.0080037962948664252, 
        -0.0014644398671671832, 
        -0.039127341533766832, 
        -0.013533702099330002, 
        0.00038347261451932707, 
        0.011376613052110494, 
        0.011802341099813443, 
        -0.0044303383828280694, 
        0.0049354359440352494, 
        0.023706406461900916, 
        0.017855271863700416, 
        -0.0073585777813904244, 
        0.013473277425549208, 
        0.00047173178252103796, 
        -0.014909196687765545, 
        -0.020726224848535944, 
        0.001888354504487464, 
        -0.014214164593349819, 
        0.0030879273437635635, 
        0.0014491969070566796, 
        0.025725861257380259, 
        0.0057404833298206337, 
        0.041455190334130462, 
        -0.0069753534277798464, 
        -0.013078108410186275, 
        -0.024765848244476384, 
        -0.0060612976950165549, 
        -0.00075536199283581483, 
        0.0041943323085030237, 
        0.0022262918437494297, 
        0.012532698088760529
      ], 
      [
        -0.049007954041436562, 
        -0.016339912177990478, 
        -0.02345645832847322, 
        -0.025106318521352797, 
        -0.013463238878701215, 
        0.0057118869096798672, 
        -0.016281380286383974, 
        -0.0066110876121424599, 
        0.0059937838388434295, 
        -0.0076543398346628887, 
        0.00049106368442837327, 
        -0.034719518629529454, 
        -0.024618321914001959, 
        -0.0092712196496245042, 
        -0.0019952725428561274, 
        0.008473003978591017, 
        -0.011717130031788231, 
        0.0075632031333217348, 
        -0.0282093375012933, 
        0.0072705604705439377, 
        -0.0018785218807915935, 
        0.005878941939201552, 
        -0.027297021532247084, 
        -0.0022701646000737761, 
        -0.031913542849569293, 
        -0.016054687982667144, 
        -0.041556780667513255, 
        0.011694373908422314, 
        -0.042363337869454724, 
        0.020458085781622205, 
        -0.021784520072448691, 
        -0.0040025050470410169, 
        0.0088024411631272385, 
        0.029609923954598074, 
        0.03414701333761784, 
        0.041269824977932593, 
        0.012210025351573303, 
        0.037651110517447073, 
        -0.00094984588537341125, 
        -0.0045690081140345937, 
        -0.016499979484404285, 
        -0.03174503072083347, 
        -0.0004684795426262503, 
        -0.0061745513383531653, 
        0.064487793439777355, 
        0.037342866931082831, 
        0.042687467114588262, 
        0.054134430185789846, 
        0.066653451517442466, 
        0.078127516167178987, 
        0.059035670979792766, 
        0.020999016597775592, 
        0.0027565753661230631, 
        -0.018913504347010775, 
        -0.040090800135427748, 
        0.017802394359222314, 
        -0.025569482480244599, 
        -0.042626714542255008, 
        -0.081585528128488405, 
        -0.11124834010587591, 
        -0.10336166692002244, 
        -0.012138388887686358, 
        0.051573918257345641, 
        0.032419531690457054, 
        0.045038723225148375, 
        -0.0064714700937486408, 
        -0.034711000833890768, 
        0.0073291686799450712, 
        0.031757361333205017, 
        0.025291469285402768, 
        0.064381227975168195, 
        0.034057968482833906, 
        -0.056155402928118631, 
        -0.064945950109459624, 
        -0.036752629975731643, 
        -0.039765067060473502, 
        0.028922041521014553, 
        0.021855916940259047, 
        0.011515009299532964, 
        0.0080141183899687246, 
        0.022138585762199639, 
        0.02311574662525881, 
        0.051806959535516492, 
        0.077253058676682196, 
        0.043150993083937786, 
        -0.0020381479715476623, 
        0.014854330221947123, 
        -0.037857341551815429, 
        0.013562593253982555, 
        -0.0040684881139876339, 
        -0.0062706812472199912, 
        -0.0012269213964554299, 
        -0.033567666149780247, 
        -0.043714785055532127, 
        -0.018722776711892677, 
        0.0055947541028093656, 
        0.0032272587632116642, 
        -0.00012646905196920383, 
        0.0035947226075032646, 
        -0.034520197668640742, 
        -0.014391629922186603, 
        -0.037921854405110235, 
        -0.035145504069493863, 
        -0.0022794736601241053, 
        -0.0090376686352680799, 
        -0.0096242976961221777, 
        0.013788181713905116, 
        0.010166775786076152, 
        0.0025393645983977989, 
        -0.0065097480847645869, 
        0.0289221388374418, 
        0.026321326303456002, 
        0.038167455357833377, 
        0.021390014593145313, 
        0.022908338459479399, 
        0.010399753038479162, 
        -0.009918146474262271, 
        -0.013364802596465095, 
        -0.0049351323917393719, 
        -0.0058673053219164394, 
        -0.012794886899573969
      ], 
      [
        -0.021705559330312263, 
        0.010843285565122512, 
        -0.017494595528383561, 
        -0.029091424174135433, 
        0.011350747370174274, 
        -0.014976932140451094, 
        -0.01499146187501639, 
        -0.0074238079912703758, 
        -0.017115786484042616, 
        -0.016804321488018793, 
        -0.045762231756587814, 
        -0.022052274202986707, 
        -0.015423863476717647, 
        -0.014952810671586894, 
        -0.0083444130118701804, 
        -0.05188073668081894, 
        -0.0086241890152410072, 
        -0.023683812929484419, 
        -0.028878833204450088, 
        -0.029847607277264293, 
        -0.0047498121580946909, 
        -0.011666985980779608, 
        -0.010997530445067481, 
        -0.017804027472268134, 
        -0.031603777309017388, 
        -0.032164669329640037, 
        -0.068012263176990106, 
        -0.065463073392161619, 
        -0.058266456803217209, 
        -0.037508084018544351, 
        -0.0014611562782998536, 
        -0.0046259112296885355, 
        0.016852422153340138, 
        -0.04902354725392586, 
        -0.025036238697744677, 
        -0.030297886901467251, 
        -0.033080733317164115, 
        0.043409189175316193, 
        0.069609962355936486, 
        0.089778768573561873, 
        0.11643885908207227, 
        0.075779656258547073, 
        0.078553012862906724, 
        0.025074161587886029, 
        -0.036222900092438025, 
        0.0062097332491191093, 
        0.062837493281193285, 
        0.17357979813455146, 
        0.18633381423103301, 
        0.19165327303997148, 
        0.13272627164015188, 
        0.045655272920837132, 
        0.018960962557758851, 
        -0.036296951555304137, 
        0.002891787317809702, 
        0.052800447292300462, 
        0.11445015962814316, 
        0.15187691848536033, 
        0.037278911768660911, 
        -0.07435783553434698, 
        -0.17978889058161196, 
        -0.19376717926197368, 
        -0.14814101981973216, 
        -0.10733372146063677, 
        -0.047110087496281004, 
        -0.044221669446083404, 
        0.091443976213167383, 
        -0.011944323481236377, 
        -0.10722224801629121, 
        -0.14465211275016857, 
        -0.12182383141604736, 
        -0.014977676608817672, 
        0.04740073159542238, 
        0.086253552998654059, 
        0.075181495990329195, 
        0.081666315996137606, 
        0.031925660206784945, 
        -0.047853277436023224, 
        -0.041290733047108924, 
        -0.0014643908661529093, 
        0.043640985504034682, 
        0.13069788287934014, 
        0.088253709358478594, 
        0.06627863499090654, 
        0.0090156426406230172, 
        0.008263216054569901, 
        -0.037927918067251182, 
        -0.0042224270276079098, 
        0.036453569744441389, 
        -0.002751398054450821, 
        0.016714482678432868, 
        -0.0027092304554778568, 
        -0.0352389665598404, 
        -0.033796265490101327, 
        -0.063834654589169454, 
        0.0015234991983083326, 
        -0.034726835836491034, 
        0.024201274434476824, 
        -0.013018239898007919, 
        -0.032898458502461606, 
        -0.016457650308977272, 
        -0.02875062006757122, 
        -0.013540878123530241, 
        -0.038886169792639078, 
        -0.020755167540766541, 
        0.037280719911375881, 
        -0.048057256278277512, 
        0.0041459280519908354, 
        -0.037125470310540185, 
        -0.0035015103146709692, 
        -0.035718330756010934, 
        -0.0041200435646288891, 
        -0.016569175616954535, 
        0.014731109078072728, 
        0.025096512793515581, 
        0.010947510414746724, 
        -0.010286314738984413, 
        0.03592847419195383, 
        0.02008690178058109, 
        0.024687956180303589, 
        0.019367155426846333
      ], 
      [
        -0.015667053898867619, 
        -0.0010829842721639185, 
        0.012836935253488075, 
        -0.0078747500969560784, 
        -0.010484184053904621, 
        -0.017840548404236697, 
        -0.024146332043072649, 
        -0.018919676612132577, 
        -0.046156888043046629, 
        -0.051892975573209987, 
        -0.074321814575844636, 
        -0.013508819889194418, 
        -0.0028133419539964066, 
        -0.0077204064302534084, 
        -0.0077963911578872985, 
        0.0021692040951427297, 
        0.0034768211641684026, 
        -0.035422317829465352, 
        -0.037336965542737487, 
        -0.039348663090137459, 
        -0.019429702230193156, 
        0.032950914530622828, 
        -0.015320750565812551, 
        -0.0013625943103468506, 
        -0.020577976608366064, 
        -0.00096265172829878079, 
        -0.03199131814188353, 
        -0.039145002292933662, 
        -0.050386098156061848, 
        -0.0048126839553834233, 
        0.064389900442432826, 
        0.095938391097809411, 
        0.13468377024613637, 
        -0.023078153737951669, 
        -0.016818650132162723, 
        -0.013549939332061216, 
        -0.020088863492787309, 
        -0.040861008360748553, 
        0.0088451092118015748, 
        0.090713741076738783, 
        0.13174166250221386, 
        0.13153391081895455, 
        0.04227949872132912, 
        -0.023100619747423383, 
        -0.02514526125935098, 
        0.0025059296390122568, 
        -0.021910439488118758, 
        -0.011151045035827693, 
        0.035542216694643601, 
        0.11238962723933685, 
        0.091963594811098864, 
        0.018510576123091926, 
        -0.073835708984033604, 
        -0.079799734900728003, 
        -0.066445745888581279, 
        -0.021320397039579879, 
        -0.011586443630853718, 
        -0.0022289426956970254, 
        0.023452245246570504, 
        0.052691326161947334, 
        0.024338207281161324, 
        -0.059842960136355948, 
        -0.09469485162388247, 
        -0.027671978000734773, 
        0.013147280447611973, 
        0.033126288688406239, 
        -0.0094781781394674483, 
        -0.0023505940818165788, 
        -0.0063227129375454175, 
        0.0059435134950524202, 
        0.016801358480672594, 
        -0.02032106464253363, 
        -0.0018987049380039308, 
        0.023334302298572147, 
        0.027169137274559454, 
        0.0071220391938312186, 
        0.0059087750199645836, 
        -0.034353310189506575, 
        0.017206844584298199, 
        0.016695213839485724, 
        0.013052769147825043, 
        -0.012285573230926848, 
        -0.023006758321049217, 
        -0.013558058098862617, 
        0.0052849406199465265, 
        -0.010490417537673283, 
        -0.022580464674867913, 
        -0.031492661485392551, 
        0.0018290021756088709, 
        0.0081737834273660666, 
        0.022910883000980604, 
        0.017411819417074599, 
        -0.039435384965406592, 
        -0.0098685095006199111, 
        -0.010149541591864781, 
        -0.017736414115114563, 
        -0.032713684934276399, 
        0.011928711605634947, 
        0.01581268947351714, 
        -0.013764373397621987, 
        0.036773798230096459, 
        -0.0084932384991226392, 
        -0.018144156442640856, 
        0.014204127125004962, 
        -0.031855326802015999, 
        -0.0071947562424587216, 
        0.0050925899242403004, 
        0.016084687933311453, 
        -0.025268763132823474, 
        -0.011592894195854513, 
        -0.0043004101177795614, 
        0.018731905698945176, 
        0.023047424830593889, 
        -0.017880068778431089, 
        0.0039082605918208495, 
        -0.012327787298702271, 
        0.018415895203910914, 
        -0.017724728150596312, 
        0.0061033680421198923, 
        0.022687560306425828, 
        0.028739339037515434
      ], 
      [
        -0.00070082649600560366, 
        0.0090100197751108863, 
        -0.022305526158249375, 
        0.017178495769886198, 
        0.011902806197795546, 
        -0.0040320979237407351, 
        -0.022567787222900714, 
        -0.0087722863018046375, 
        -0.0077226772683238673, 
        -0.017298716960222948, 
        -0.0096607287225683597, 
        0.0060065249386370631, 
        -0.017294673795325934, 
        0.029795771467139034, 
        0.0037989334721645271, 
        0.0073755219864477181, 
        -0.015435810897889098, 
        -0.0056675936031470101, 
        -0.0024530495760585191, 
        -0.0053420581062492284, 
        0.010377344322776243, 
        -0.0039463767121368787, 
        0.0041719003466156798, 
        -0.0055807693494404551, 
        -0.012271631309444139, 
        0.0079540266872044751, 
        0.0043459870384163976, 
        -0.025999944685615364, 
        -0.0071296503809247236, 
        0.0088063711674924439, 
        0.0017780114685303425, 
        0.0049418529946954198, 
        0.027122212012067173, 
        -0.0094595234243003978, 
        0.013283510168854821, 
        0.0054254111566456251, 
        -0.0092738419705548428, 
        -0.038682056162821873, 
        -0.015833784764780773, 
        0.056843978589514843, 
        0.0043193185015496759, 
        0.020329822743076598, 
        0.0099829784771043734, 
        0.01420545128325934, 
        -0.0016431761565537245, 
        -0.012287568621305377, 
        0.012097027283641992, 
        -0.014415038105824918, 
        -0.020044130058733674, 
        0.067380574939441107, 
        -0.010770607175349726, 
        -0.01593434034117221, 
        -0.0054552671754374759, 
        0.0093380080032114537, 
        0.0099205739311472377, 
        0.0085480629288288978, 
        -0.0078006453252365375, 
        -0.006970932402456026, 
        -0.0048739426959051174, 
        0.028898082374865075, 
        -0.037064875978041541, 
        -0.043907365496347578, 
        0.049295106269945488, 
        0.030532468387187608, 
        0.027238351851981424, 
        -0.019108311278243702, 
        -0.0031838522313161273, 
        0.0021188499790343457, 
        0.011227759406076891, 
        -0.015381832253399196, 
        -0.011296143816972814, 
        -0.0093112956128262314, 
        0.089203488856483049, 
        0.013030370271618547, 
        -0.012740639090757414, 
        -0.045515437070381339, 
        -0.042696699713003175, 
        0.0035775162896235376, 
        0.0047674698754221131, 
        -0.0020919281437511983, 
        0.0029408821490840009, 
        -0.00497498477307496, 
        0.021903038225049506, 
        -0.014388540121347031, 
        -0.05086580323907082, 
        -0.036300436588760879, 
        -0.016635283057117877, 
        0.024608208116316515, 
        0.017157476642785049, 
        -0.015309038846952859, 
        0.0014827572333273031, 
        0.0071935647171173303, 
        0.0071427485537724072, 
        -0.015279864813087317, 
        -0.034360540484507665, 
        -0.020202913138294434, 
        0.0015950668672020316, 
        0.010451951752593301, 
        0.012041339096851827, 
        0.0045985223317383458, 
        0.0035250830015673487, 
        0.0016877546638396669, 
        0.0091153021995950267, 
        -0.020974375658599016, 
        0.011225236926985887, 
        -0.0041756644143882918, 
        0.0067651543021868465, 
        0.0094736979618999829, 
        -0.00031786516759656908, 
        0.025317311613348964, 
        0.0056431529374540296, 
        0.010173244148526481, 
        -0.0071522461827727285, 
        -0.0045784011981227293, 
        -0.0034545051215357642, 
        -0.021502471052832813, 
        -0.016713292267413037, 
        -0.012677262600832198, 
        0.020778902505604463, 
        0.022246168807848465, 
        0.02214843102964284
      ], 
      [
        0.014828950026270028, 
        0.001471511172156735, 
        0.0050821789808399437, 
        0.0037093489893429699, 
        -0.021010024713611866, 
        -0.0013994685890196396, 
        -0.00034867662768595098, 
        -0.021595138708316759, 
        -0.029300499352885735, 
        -0.017286544357339222, 
        -0.044891541394592969, 
        0.0044884712888875258, 
        -0.015371359842805105, 
        -0.0051834686807021579, 
        -0.009589460864554894, 
        0.00077101427774113607, 
        -0.017256258143813964, 
        -0.0099716925683696889, 
        -0.010435655753035053, 
        -0.014706356417931471, 
        -0.008979400975652474, 
        -0.041079285270971516, 
        -0.0022921062871664177, 
        0.010797406893773065, 
        -0.0016696007988371425, 
        -0.00059256885450219288, 
        -0.031722522795206556, 
        0.0089166984194116727, 
        -0.0072810848842462667, 
        -0.016480854236679332, 
        -0.032417292598105607, 
        -0.0069810317577724684, 
        -0.0284895450655126, 
        -0.0050044692483886301, 
        -0.018734340953284093, 
        -0.024398864864622123, 
        -0.011663392233440761, 
        -0.02943837231753571, 
        -0.010503219481113137, 
        -0.002095195265505792, 
        0.033612434750470696, 
        0.054472367697113083, 
        0.024059478140114672, 
        0.031889283653470171, 
        -0.023662346487158009, 
        -0.026975339149637345, 
        0.0003929604589916029, 
        -0.006736200591817891, 
        0.068559801565881678, 
        0.090823491611859708, 
        0.10372801724986987, 
        0.048327217606448654, 
        0.013900090581555821, 
        0.051344619296386396, 
        0.087305451369947829, 
        -0.021580423487285005, 
        0.031011244637446603, 
        0.030715278111847932, 
        0.08179452822737418, 
        0.010290761698390188, 
        -0.084597505904479758, 
        -0.1417313789224148, 
        -0.085524556214033737, 
        -0.026971225017486861, 
        -0.031640460246573604, 
        -0.0052061331397375982, 
        -0.00037430210963204646, 
        0.015141900584711709, 
        -0.0034096463631506924, 
        -0.072229808895933639, 
        -0.083512059260834576, 
        0.016980971742166555, 
        0.070504732810939511, 
        0.058979344583618754, 
        0.026670167243368251, 
        -0.01330193694482415, 
        -0.041825129291625233, 
        -0.0065451473395212456, 
        -0.012021646299653119, 
        -0.013851574785414017, 
        0.017957729098316944, 
        0.07849722904462271, 
        0.049859679329457798, 
        0.021504696282397304, 
        0.01935758270234951, 
        0.010719085436895454, 
        0.044203216507278889, 
        0.037004708840971776, 
        -0.0042853496200222566, 
        -0.0073861006106462207, 
        0.012633160365523088, 
        0.00048263597602157121, 
        -0.0021664492946144587, 
        -0.047768553471398856, 
        -0.036043645042793088, 
        -0.035024665196080731, 
        -0.0072515058570362945, 
        -0.015236527938823602, 
        -0.0032082878431798356, 
        -0.0023935702823077581, 
        -0.0016840874553068971, 
        0.0053362336140428124, 
        0.011334579836363143, 
        -0.01384179996836149, 
        0.017070946539629137, 
        -0.0050207929486127817, 
        -0.01590204225542402, 
        -0.027136899086316842, 
        -0.010186866041729636, 
        -0.017389401867924481, 
        -0.030595766093718918, 
        0.0056588466963312309, 
        0.0088935522083777169, 
        -0.027915302939177863, 
        0.016401898244013169, 
        -0.017934318697136159, 
        0.007507766410228392, 
        0.041478916254092592, 
        0.027985776078339422, 
        0.02221002406188461, 
        0.013949305700833671
      ], 
      [
        -0.038457532371151487, 
        -0.0028067496542954038, 
        -0.01332252567872462, 
        -0.010331231400096116, 
        -0.015072597756170451, 
        -0.013860325416393381, 
        -0.012767863774787599, 
        -0.0084207341971958959, 
        -0.02578582685494555, 
        -0.010961733415764025, 
        -0.02103038152781074, 
        -0.018056150178191788, 
        -0.015163079926593383, 
        -0.017322878941571036, 
        -0.031759925939579117, 
        -0.045812774801703378, 
        -0.016607085868905525, 
        -0.020786753499246812, 
        -0.016768642872283152, 
        0.011875926128599947, 
        -0.00073455124425267099, 
        -0.013089809602202681, 
        0.002944943482549197, 
        0.022373876228390554, 
        -0.014472698479474654, 
        -0.021767093411710552, 
        -0.04564065607592098, 
        -0.079869740276966486, 
        -0.057454923195338271, 
        -0.0491322008843912, 
        -0.066281077751922851, 
        -0.025768680555513408, 
        -0.020338879600410607, 
        0.011372311429879257, 
        0.046281569707472617, 
        0.07004689599298225, 
        0.072770499554802581, 
        0.1145705634452, 
        0.087568120950391709, 
        0.0260170968740134, 
        -0.0085209383088068885, 
        -0.011546002356383173, 
        -0.028099614420156474, 
        -0.054919650543434242, 
        -0.041256868243047078, 
        -0.022805175735260363, 
        -0.00421310832823453, 
        0.079857090445826312, 
        0.10660539244534811, 
        0.166437848902039, 
        0.19620197113122168, 
        0.16866105184809621, 
        0.091163798693496903, 
        0.031537980031910468, 
        -0.018690060053133721, 
        0.017237414440001944, 
        -0.023379355238428989, 
        -0.090013920877947518, 
        -0.14194619927011715, 
        -0.1874504659499418, 
        -0.16679448138324493, 
        -0.11716762740611467, 
        0.048951099866420655, 
        0.086084355436325907, 
        0.13259286302621354, 
        0.085915719841139382, 
        0.022995562068083106, 
        0.050720247868794241, 
        0.070784981626085597, 
        0.093250075033471103, 
        0.04995319622421765, 
        0.0043055623829861972, 
        -0.060874888846582653, 
        -0.15585452230363636, 
        -0.10142993186393599, 
        -0.061923911417873109, 
        0.070765172000583992, 
        0.0091577172260486756, 
        -0.020836778714269848, 
        0.001607097078206797, 
        0.023661644088769883, 
        0.037677329737333412, 
        0.049947617954766849, 
        0.078600958743185206, 
        0.053839960599281908, 
        0.0020032048976668382, 
        -0.037682631908220063, 
        -0.055704144262390225, 
        -0.02353360276436427, 
        0.020082382549703452, 
        -0.025007316332732694, 
        -0.045965406248198976, 
        -0.038033344170414353, 
        -0.040362056504005761, 
        -0.021338631810959328, 
        0.01910141889574022, 
        0.02447516845959688, 
        0.029771783043946363, 
        0.0041319365450181193, 
        0.017808272186762113, 
        -0.023508456980146933, 
        0.0091606168309313115, 
        -0.0024247378443533734, 
        -0.021404038474305939, 
        0.011433670250360508, 
        -0.022787667112027302, 
        -0.04901088943686973, 
        -0.025278495197023909, 
        -0.011139136970747643, 
        -0.015885086482856844, 
        0.0052830936873571755, 
        0.022729370777349586, 
        0.0061850454464556313, 
