// built with mosse filter size = 16
var pModel = {
  "scoring": {
    "size": [ 20, 22 ], 
    "bias": 0.15468165141986931, 
    "coef": [ 0.043439209559495935, 0.0053011436982459866, 0.046814812857854549, -0.021694591770843229, -0.019134449090763193, 0.021006517036801294, 0.017689267552429555, 0.054199851822071272, -0.029515015735449533, -0.067306224868051101, -0.09228691230986559, -0.10374963665379641, -0.073004665698221449, -0.00074248164194135914, 0.04349720474086069, 0.014944113768154991, 0.030381591694172344, -0.020545383972566389, 0.027693068268568564, 0.042902007611025153, -0.012231733140126029, -0.011923515568145394, 0.0038984163911536503, -0.013748984133456481, 0.0090036125838986944, -0.018605914205220168, 0.0021170162237248618, 0.039195891009321498, -0.010697241838057731, -0.05736153722710035, -0.078224067970559738, -0.048035708274601463, -0.04330826032718528, 0.019652975598744273, 0.012476214259234949, 0.010021064555045381, -0.004202906047744797, -0.0061863522712722659, -0.00087072294794903957, 0.026475311802629804, 0.0194420297143462, 0.042813731454523066, 0.0029426127305616986, 0.0039844432313854592, -0.050671397310991607, 0.0012616713474169565, 0.023039818006652515, 0.040782937595470012, -0.0065388318273047318, -0.018536032390063906, -0.085255381989227386, -0.070957081973939309, -0.0078356912035955559, 0.050731713663931303, 0.030946309522499226, -0.0039359226508806633, -0.038844130374001341, -0.060794825403415291, 0.036068451238039596, 0.034875403495642922, 0.033848686150949714, 0.018942992978107913, 0.0013939050219627987, -0.027071302845551315, 0.084147054016937547, 0.057329701998410025, 0.12581516516791696, 0.010590266157097752, 0.092660368483675454, 0.014872073300779656, -0.07567433401632763, -0.025688563033024449, 0.069014609350745007, 0.084228616074792331, 0.088816001303417616, 0.11793477195118586, 0.089161539713946761, 0.048968156117405626, -0.048825540913603929, -0.041047697645823368, -0.00076215167753779234, -0.019968184480897645, -0.036138201386389027, -0.0066337999156105302, 0.018686143947716449, 0.042519998921314632, 0.089855287923816127, 0.11158143965177243, 0.083108064772616397, -0.022950201624348167, -0.044967741234057827, -0.029838947222681794, 0.022018408048060076, 0.079156298525032517, 0.089266753346946365, 0.031518267816444408, 0.046365657839251354, 0.036994189997973763, -0.030491717775011258, -0.082430961621784246, -0.029735173849761789, -0.026096051176185932, -0.0037816931008970781, -0.01765846753394984, -0.039739503323866221, -0.03955616223955552, -0.021922614709579971, 0.030111153751159594, 0.016779904982871262, -0.033641337310399297, -0.040510537641283081, -0.017870540840410405, -0.020581491923935685, 0.024050193237323859, 0.0029491795061743543, -0.038012714640768927, -0.025748819610180114, -0.024983562977300675, 0.013907324026555763, -0.012751949863167512, 0.0083181643096806174, -0.027325122124384427, -0.013002410784786131, 0.012012658670266945, -0.020142245123950138, -0.02410290922962437, -0.0021329759325119622, 0.0024826670489740137, -0.044599928409646952, -0.050098838488921812, -0.018543709614728652, -0.018430322343224802, -0.06701815549253827, -0.03448528924109668, 0.0086518429872926, -0.0002502091091351414, -0.025146095110458871, -0.046343748719634363, -0.0001897312858577388, -0.00087403925714704938, -0.0065672239280975177, 0.021698329881609843, 0.015724489667140389, 0.014749578246755343, -0.022706629799003664, -0.0073869770876828344, -0.040405088154909688, -0.05960796954594122, -0.061565381646492862, -0.0022477774521149872, 0.054830326980863424, 0.047007406235883828, -0.0098635392138187797, -0.060829966642900406, -0.052252576220861255, -0.036832588557721369, -0.010907651671274748, -0.011636809215791914, 0.0048862728783862306, 0.0059045400762080917, -0.019002675960423657, -0.0038910942886192252, 0.012831848753978104, 0.027544824988472143, 0.0085712239721374185, -0.050235432186799496, -0.049482519760019307, -0.034444718589245492, 0.040839701954998926, 0.033803224713727806, 0.040979702220687635, 0.04413614979687859, -0.0089095115576266048, -0.01338200546870655, -0.059943954038333157, -0.079066635787426912, -0.033651156811888051, 0.038726908903550301, 0.034968402204644457, 0.035051231798553094, 0.020263341553137571, 0.017104254553679303, -0.0106868399299386, 0.0027914781998940835, 0.0016543931161485752, -0.03152579275679946, -0.045008885401068038, -0.0079242374959663554, 0.04620340503220953, 0.056652560915902934, -0.051151433974627701, -0.00063325285705143324, 0.049028545774280813, 0.0079502670335472869, -0.0016275556578589862, -0.052381926204837115, -0.028506065454852562, 0.025847793857621103, 0.048066692671670602, 0.015124819882199502, 0.027931285037431555, -0.0024700355698064405, -0.00091204511017680106, 0.0071168343104581044, -0.010101503196082079, -0.030232498081255405, 0.027806756777994813, -0.020716120847866858, -0.04075081442274521, 0.00073112386644537224, 0.0078349989489360523, 0.023978470219372054, -0.010056819122822563, -0.023632711252074629, -0.01054266078903366, 0.010413310723142432, -0.014551551016387236, 0.059961108989849715, 0.02947842845304053, -0.0015622730998448835, 0.023131765591546706, -0.00061972477633127996, -0.0086575958192105888, 0.000516459891206595, 0.010553896116430074, -0.003019696610643355, -0.0064511847763031307, -0.01721328381447286, 0.045103652444978153, 0.04058935657660416, 0.0017717800386184285, -0.01315846208326717, 0.02915838205571613, 0.025853928862601676, -0.0025269100685356618, 0.0143356087256368, 0.0099660291096167752, 0.0021829936002745231, 0.0017808267587214504, -0.026310072097203437, -0.0018597163965837233, 0.033752558537301962, 0.0010803675046988257, 0.00096661872155169755, 0.012812170458643834, -0.0068226007129643679, -0.028656892213106026, 0.0017576227673367587, -0.019372986107742123, 0.02070089237530787, 0.016648367898290835, -0.029296209411047148, -0.025841126036405405, -0.043741281115785582, 0.010889075636471589, 0.030604958959320732, -0.044006492266419665, -0.025179614947537989, -0.015747196074665366, 0.016325536848546977, -0.011384243810149505, -0.014594289428921168, -0.029343141750739883, -0.0086077074200246045, -0.021502464550434204, 0.025033203037248025, 0.050667297821936241, 0.0024288532727522634, -0.013183084330304301, 0.017060250611777784, -0.009594395813310206, -0.017660959341491488, -0.010469909015493674, 0.0073674022485504635, 0.035410019799668291, 0.044925278077128025, -0.02599446204877616, -0.038266778214882738, 0.012802116463602114, 0.0052112305574670195, 0.0098631705099696907, -0.0042387338371145744, 0.0060106326644767585, 0.024915332527722916, -0.021220959139084873, -0.014199360172697111, -0.017108799362154405, 0.037387463230027104, 0.025094622925955868, 0.02045122743669579, -0.0069090301521934835, 0.021231282709072784, 0.042383193316614928, 0.024012431801046598, 0.044827996284301265, -0.032560752511544604, -0.038395251874887106, -0.02312176422166538, 0.0014573603851845826, 0.017821221472883304, 0.0070824357705996273, 0.030294758056163874, -0.0090777600541459176, 0.0075889438555710471, -0.0016998462142246342, -0.057900202240687211, -0.023173623428029255, 0.04761221407019018, 0.083993574450107453, 0.057010372271417441, 0.014116163795718764, 0.0043968455422000469, 0.027935843376633414, 0.06549478419698597, 0.027943608481465217, -0.016627851551328676, -0.043917900047063356, 0.017826924337133593, -0.0023797049461510749, 0.0012939155390108053, -0.011309361465177312, -0.040362081731893762, 0.016327242698896773, 0.0006016375287191001, 0.033690703831285432, -0.050824029368034339, 0.0043381147601741317, -0.06472462401858467, -0.035745444940453286, -0.031451736099812569, -0.0016916132786017838, -0.037334518063284972, -0.027839517102102942, -0.048816560793016807, -0.022386807657924827, 0.0056330007082925947, -0.016370034311502604, 0.0069262874912499224, -0.01187631059268808, -0.01833969745972925, -0.01086413710390291, -0.01625588416268673, 0.037169562983669774, 0.046546234831900304, 0.021080934663522601, -0.032074240302493673, 0.041330732477600336, 0.0022786883975196583, -0.023056345050728049, 0.0051556648410370767, -0.040437279123421065, -0.058626803991848719, 0.018358991267266662, -0.019391991270548199, -0.025834327774743655, 0.00070191674349825203, -0.011285100644641107, 0.013133055206183516, 0.00018491806943968583, 0.0047563728340779005, 0.031257375991759977, -0.030515436902417821, -0.032224484041679505, -0.021984204794281356, 0.033662096873297298, -0.0024093271419790086, 0.011266268056897306, -0.01325970319796744, 0.013935186873285852, 0.037499055177889991, 0.027106806672028458, -0.012164425105525324, 0.036210437273916374, 0.0052063012928443165, -0.0015785925834522433, 0.012620048722592611, 0.016140203252421569, 0.026272791513235423, 0.029373395881332517, 0.00020908800219895593, 0.0081676922751502713, -0.013154919921649199, -0.029631560990032398, 0.00056617648048460246, 0.034227106736199754, -0.0025314697452682878, 0.00079069108505725426, -0.028215492654868717, -0.01904041577950033, 0.02151357910634448, -0.0041215401499830832, -0.026412945435607599, 0.011149986113836826, -0.043901034922151076, -0.0075273771829194747, 0.014352011002284937, -0.01680923848085366, -0.0085513731099117387, 0.019741790482898952, -0.024638794393605994, -0.0045486008434269688, -0.018314034990888753, -0.013848838642816405, 0.017974471879596436, -0.00029356392455711679, 0.017582095651360347, -0.0060908191116988766, 0.023873610318668879, -0.012551595184652689, -0.043323366449440542, -0.053796034729873883, -0.022725616948728058, -0.0087826788999708656, -0.018457395858914302, -0.002253585470632518, -0.00046868288062876934, -0.0033359040245383494, 0.032151767064506835, 0.027754650636499793, -0.022989147984239757, 0.0016992117747112005, -0.010366500962232706, 0.032547987826453642, 0.007316937339040732, 0.022012178673056403, 0.026128444545864972, 0.057711949808319694, 0.048988888958617714, 0.014715153570807724, -0.021143510218732137, -0.018945255956816703, 0.0040902504232491832, -0.033690156693664063, 0.039201774259982405, 0.065370839771346251, 0.047825493362667573, 0.02382358671246141, 0.018067276812209845, -0.0099307362412126791, -0.0066029183608967978 ]
  }, 
  "path": {
    "normal": [
      [0, 1, 2, 3, 4, 5, 6, 7, 8, 9, 10, 11, 12, 13, 14], 
      [15, 16, 17, 18], 
      [19, 20, 21, 22], 
      [23, 63, 24, 64, 25, 65, 26, 66, 23], 
      [28, 67, 29, 68, 30, 69, 31, 70, 28], 
      [34, 35, 36, 42, 37, 43, 38, 39, 40], 
      [33, 41, 62], 
      [44, 45, 46, 47, 48, 49, 50, 51, 52, 53, 54, 55, 44, 56, 57, 58, 50, 59, 60, 61, 44], 
      27, 32
    ],
    "vertices": [
      // jawline
      [0,1,23,0],
      [1,23,66,1],
      [1,2,66,1],
      [2,66,26,2],
      [2,26,35,2],
      [2,35,36,2],
      [2,36,3,2],
      [36,44,45,36],
      [3,4,44,3],
      [3,44,36,3],
      [4,44,55,4],
      [4,5,55,4],
      [5,55,54,5],
      [5,6,54,5],
      [6,53,54,6],
      [6,7,53,6],
      [7,8,53,7],
      [8,52,53,8],
      [8,9,52,8],
      [9,51,52,9],
      [9,10,51,9],
      [10,50,51,10],
      [10,11,50,10],
      [11,38,50,11],
      [11,12,38,11],
      [12,38,39,12],
      [12,31,39,12],
      [12,31,70,12],
      [12,13,70,12],
      [13,28,70,13],
      [13,14,28,13],
      // right eyebrow
      [14,15,28,14],
      [15,28,67,15],
      [15,16,67,15],
      [16,67,29,16],
      [16,17,29,16],
      [17,68,29,17],
      [17,18,68,17],
      [18,68,30,18],
      [18,30,33,18],
      // below eyes
      [30,40,69,30],
      [39,40,69,39],
      [39,31,69,39],
      [26,65,35,26],
      [34,35,65,34],
      [25,34,65,25],
      // left eyebrow
      [22,25,33,22],
      [22,25,64,22],
      [21,22,64,21],
      [21,24,64,21],
      [20,21,24,20],
      [20,24,63,20],
      [19,20,63,19],
      [19,23,63,19],
      [19,23,0,19],
      // below nose
      [36,45,46,36],
      [36,42,46,36],
      [42,37,46,42],
      [37,46,47,37],
      [46,37,47,46],
      [37,47,48,37],
      [38,48,49,38],
      [37,43,48,37],
      [43,38,48,43],
      [38,49,50,38],
      // nose region
      //[21,17,22,21],
      //[17,18,22,17],
      [22,18,33,22],
      [40,41,30,40],
      [25,33,41,25],
      [33,41,30,33],
      [25,34,41,25],
      [41,40,62,41],
      [34,41,62,34],
      [34,35,62,34],
      [35,36,62,35],
      [36,42,62,36],
      [42,37,62,42],
      [37,43,62,37],
      [43,38,62,43],
      [38,39,62,38],
      [39,40,62,39],
      // mouth
      [44,45,61,44],
      [45,46,61,45],
      [46,47,61,46],
      [47,61,60,47],
      [47,59,60,47],
      [47,48,59,47],
      [48,49,59,48],
      [49,50,59,49],
      [50,51,58,50],
      [51,52,58,51],
      [52,57,58,52],
      [52,53,57,52],
      [53,54,57,53],
      [54,56,57,54],
      [54,55,56,54],
      [44,55,56,44],
      // left eye
      [23,63,27,23],
      [63,24,27,63],
      [24,64,27,24],
      [64,25,27,64],
      [25,65,27,25],
      [65,26,27,65],
      [26,66,27,26],
      [66,23,27,66],
      // right eye
      [28,67,32,28],
      [67,29,32,67],
      [29,68,32,29],
      [68,30,32,68],
      [30,69,32,30],
      [69,31,32,69],
      [31,70,32,31],
      [28,32,70,28]
    ]
  }, 
  "patchModel": {
    "numPatches": 71, 
    "weights": [
      [ [  -0.46984819369798309,  -0.093584019139815885,  -0.11324678727899255,  -0.1326005282153673,  -0.24714271404216517,  -0.3250319447050079,  -0.39186353409330493,  -0.59986058478685766,  -0.62621233715932223,  -0.59986058478686,  -0.39186353409330538,  -0.32503194470500735,  -0.24714271404216517,  -0.13260052821536758,  -0.11324678727899259,  -0.093584019139815941,  -0.124695627478738,  0.011427262241234495,  0.017198611684462215,  -0.047961872686527643,  -0.07774347498613797,  -0.21391457854242965,  -0.36803877934850615,  -0.42300698565870659,  -0.39166947022142107,  -0.3159804482527826,  -0.26732480088490435,  -0.14659927003183601,  -0.17695008043406704,  -0.10399433156609804,  -0.19658052627450323,  -0.22783738720638025,  -0.19837007464100673,  -0.093503607279337736,  -0.0053448741559556359,  0.0073225999360197599,  0.056424741161147332,  -0.24848529017554236,  -0.32853552950681453,  -0.20222841211139844,  -0.35327441491169592,  -0.30263388653766277,  0.013313338752486853,  0.057150114628876446,  0.062991505697836431,  -0.028274199310936426,  -0.12551600873144439,  0.092738200178089647,  0.075453082849569739,  -0.31334660528004821,  -0.21583064573214006,  -0.062826613727537436,  0.18281922170951961,  0.10711052948623649,  -0.070937430485209715,  0.04460150184317014,  -0.14430645604426379,  -0.11264440839546946,  0.18456254168768191,  -0.026349048781328294,  0.0026112970810282438,  -0.065296341903928912,  -0.04008862932413354,  0.43243435428946209,  -0.18930233331827867,  0.032336974608054181,  -0.16163817336920427,  -0.23419109533402591,  0.16651054403351426,  0.3543590655645325,  -0.061766719056610339,  -0.13696939821500431,  0.13198475059953549,  0.49012745186145729,  -0.022916408441428247,  0.011342748018578892,  0.049561660532634506,  -0.041248913335840194,  -0.14324271623488499,  -0.39070325080310375,  -0.00074113087395043936,  0.17235304599262183,  -0.027710283607157157,  -0.083128099452857943,  0.30027263748415051,  0.064113128834048877,  -0.26735779482148936,  -0.089339370916642749,  -0.14653434280008787,  0.029403117369670689,  -0.15252750268389118,  -0.43157250672616976,  -0.047053889193804981,  -0.39507401402119957,  -0.17455258422192041,  -0.35112149329665093,  0.67221124723161796,  0.32108931710500543,  -0.0036550079103448599,  0.12389832175354218,  0.35289148528889808,  -0.034200466996353894,  -0.32018047113670267,  0.1440436536347498,  0.72080968103910259,  0.17469114423541482,  -0.067476703331134272,  0.3143951959167236,  -0.086870516285754956,  -0.15441662098134271,  -0.13408459451576918,  0.64542882947532554,  0.28083856413071945,  0.095432292635699842,  0.043587741682193891,  0.13287812264856202,  -0.00035611929264674696,  0.61681301206740824,  -0.21972067124482564,  0.32873490560706664,  -0.005115073756118845,  0.23823446871159124,  0.10503056570375395,  -0.039595940249088385,  -0.25414828561270514,  -0.09785818870440649,  0.039998094240877934,  0.097777985574763596,  -0.70405903331216435,  -0.60574424399520443,  -0.23975006229703291,  -0.23679982341909583,  -0.018821236738680996,  0.28962067197535657,  0.23347877641219705,  -0.078752361971794083,  -0.26594619887562992,  -0.078752361971794041,  0.23347877641219675,  0.28962067197535774,  -0.018821236738680996,  -0.23679982341909597,  -0.2397500622970325,  -0.60574424399520566,  0.28083856413071628,  0.097777985574757906,  0.03999809424087284,  -0.097858188704409307,  -0.25414828561270708,  -0.039595940249088329,  0.10503056570375502,  0.23823446871159265,  -0.0051150737561184842,  0.32873490560706686,  -0.21972067124482469,  0.61681301206740746,  -0.00035611929264524046,  0.13287812264856347,  0.043587741682198068,  0.095432292635701493,  0.67221124723161751,  0.64542882947532076,  -0.13408459451577215,  -0.15441662098134334,  -0.086870516285755442,  0.31439519591672327,  -0.067476703331134133,  0.17469114423541449,  0.72080968103910337,  0.14404365363474933,  -0.32018047113670178,  -0.034200466996353859,  0.35289148528889841,  0.12389832175354351,  -0.0036550079103436425,  0.32108931710500738,  -0.00074113087395118952,  -0.35112149329664699,  -0.17455258422191874,  -0.3950740140211989,  -0.047053889193804731,  -0.43157250672616954,  -0.15252750268389181,  0.029403117369669978,  -0.14653434280008748,  -0.089339370916643138,  -0.26735779482148897,  0.064113128834049446,  0.30027263748415089,  -0.083128099452857568,  -0.027710283607157379,  0.17235304599262058,  -0.18930233331827867,  -0.39070325080310309,  -0.14324271623488571,  -0.041248913335840597,  0.049561660532634506,  0.011342748018578567,  -0.022916408441428102,  0.49012745186145679,  0.13198475059953549,  -0.13696939821500431,  -0.06176671905661002,  0.35435906556453273,  0.16651054403351426,  -0.23419109533402591,  -0.16163817336920439,  0.032336974608054167,  0.075453082849568212,  0.43243435428946159,  -0.040088629324134754,  -0.065296341903930008,  0.0026112970810277321,  -0.026349048781328738,  0.18456254168768177,  -0.11264440839547081,  -0.14430645604426409,  0.044601501843169362,  -0.07093743048521009,  0.10711052948623666,  0.18281922170951986,  -0.062826613727537159,  -0.21583064573214036,  -0.31334660528004904,  -0.19837007464100681,  0.092738200178089716,  -0.12551600873144425,  -0.028274199310936665,  0.062991505697836486,  0.057150114628875821,  0.013313338752486942,  -0.30263388653766321,  -0.35327441491169587,  -0.20222841211139761,  -0.32853552950681464,  -0.24848529017554277,  0.056424741161147353,  0.0073225999360195344,  -0.0053448741559558172,  -0.093503607279337805,  -0.12469562747873808,  -0.22783738720638019,  -0.19658052627450309,  -0.10399433156609764,  -0.17695008043406704,  -0.14659927003183565,  -0.26732480088490351,  -0.31598044825278121,  -0.39166947022142107,  -0.42300698565870615,  -0.36803877934850621,  -0.21391457854242923,  -0.077743474986138178,  -0.04796187268652792,  0.017198611684461979,  0.011427262241234358 ], [  0.0,  0.22180807719123266,  0.35133226107416154,  0.51810894781946848,  0.59576147029693005,  0.65899353729786381,  0.4941973277466612,  0.23579150088724105,  0.0,  -0.23579150088724338,  -0.49419732774666164,  -0.65899353729786325,  -0.59576147029693005,  -0.51810894781946881,  -0.35133226107416138,  -0.22180807719123266,  0.41643495122595015,  0.32865820194388595,  0.45392595038338768,  0.63019043468959623,  0.78773121670427038,  0.70848003579867158,  0.68971119753866184,  0.57666134657023882,  0.42030104930169476,  0.15278118424896245,  0.12362997421829929,  -0.18529442670990223,  -0.28364398792468237,  -0.36438608913707465,  -0.29814814572331294,  -0.075772489451815805,  0.39364723364106952,  -0.13894193736487156,  -0.13955201918536203,  0.13098883725539348,  0.30201818035877204,  0.25057932380539305,  0.43933151569085793,  0.11654344750742762,  0.070797108878074638,  0.30802065069199858,  0.27802247994941987,  0.13175238246128929,  -0.078953057614273847,  -0.037070757667421197,  0.034927542049589526,  0.25655266802646903,  0.37358593263508266,  -0.097489637050473504,  0.064514928080587869,  0.003692285420642693,  0.37541921398151079,  0.1688854885769171,  0.36247271453838442,  0.20113995640010138,  0.097599753146767887,  0.27049467364253588,  0.25285910536522538,  0.012783546028446398,  -0.019216784249647054,  -0.14560641997262261,  0.052502937233984449,  0.1339293094775818,  0.034016936688480624,  0.4365969121844307,  0.081747707751985713,  0.068931759931292066,  0.29368578656832794,  0.20085041725782796,  -0.39403478705447015,  0.029424198543473685,  -0.02860867029383389,  0.01838929829178565,  -0.11198886396223512,  -0.00090924859521414163,  -0.065856031223884309,  -0.22763509976347482,  -0.089200607992297343,  -0.164398186034828,  0.20171733874343578,  0.24791805776593173,  -0.00016282268469318945,  -0.074367168341369513,  0.15272009691879054,  -0.21263821378338135,  -0.2018066905502682,  0.02356975328900637,  0.072990399691495955,  0.0088398597104224486,  -0.13406670637602514,  -0.1409840059407507,  -0.12578299180674188,  -0.086266586426623271,  0.20450156583990026,  0.20531145340359561,  0.51533597860671465,  -0.10355194788168144,  0.14638141137938102,  0.046049076008345277,  0.039756520692704161,  0.11325962620786084,  -0.16046681421847708,  0.49544045892004446,  0.18511709876442395,  -0.11189187065278269,  -0.026419367038222258,  -0.37050974539055193,  -0.0517031865178448,  0.1216682717895881,  0.2834646451184954,  0.31371670403029689,  0.17892106011725456,  0.075250064938241309,  -0.052083515614475766,  -0.098812779391312097,  0.16718972484584138,  0.18411661752205918,  0.3061114121703411,  -0.054665374015459033,  -0.32022051279741109,  -0.05608844739508579,  -0.1743336780413382,  -0.44805566680132186,  -0.42512749036726832,  0.23543587822712814,  0.27800321657384719,  0.086932327074350918,  0.0,  -0.095761513081253885,  -0.12285425933491666,  -0.098373090649863992,  0.3106224212241509,  0.057277926208607562,  0.15536529490065271,  -0.41443882623149064,  0.0,  0.41443882623149214,  -0.15536529490065268,  -0.057277926208608151,  -0.3106224212241509,  0.098373090649864423,  0.12285425933491645,  0.095761513081254093,  -0.17892106011725922,  -0.086932327074351098,  -0.27800321657384813,  -0.23543587822712864,  0.42512749036726771,  0.44805566680132303,  0.17433367804133809,  0.056088447395085853,  0.32022051279741098,  0.054665374015459643,  -0.30611141217034005,  -0.18411661752205907,  -0.16718972484584052,  0.098812779391312722,  0.052083515614474017,  -0.07525006493824421,  -0.51533597860671476,  -0.31371670403029717,  -0.28346464511849589,  -0.12166827178958649,  0.051703186517844564,  0.37050974539055254,  0.026419367038222241,  0.11189187065278168,  -0.18511709876442461,  -0.49544045892004429,  0.16046681421847644,  -0.11325962620786068,  -0.03975652069270369,  -0.046049076008346242,  -0.14638141137938329,  0.10355194788167874,  -0.20171733874343445,  -0.20531145340359933,  -0.20450156583990103,  0.08626658642662241,  0.12578299180674046,  0.14098400594075072,  0.13406670637602477,  -0.0088398597104223601,  -0.072990399691496052,  -0.023569753289005995,  0.20180669055026884,  0.21263821378338088,  -0.15272009691879013,  0.074367168341369763,  0.00016282268469403703,  -0.24791805776592721,  -0.034016936688480624,  0.16439818603482767,  0.08920060799229737,  0.22763509976347487,  0.065856031223884309,  0.00090924859521393595,  0.11198886396223506,  -0.018389298291786017,  0.02860867029383389,  -0.029424198543473147,  0.39403478705447076,  -0.20085041725782851,  -0.29368578656832794,  -0.068931759931292247,  -0.08174770775198581,  -0.43659691218442964,  -0.37358593263508255,  -0.133929309477582,  -0.05250293723398354,  0.14560641997262277,  0.019216784249647748,  -0.012783546028446315,  -0.2528591053652246,  -0.27049467364253554,  -0.097599753146767915,  -0.20113995640010102,  -0.36247271453838509,  -0.16888548857691699,  -0.37541921398151085,  -0.0036922854206432585,  -0.064514928080588563,  0.097489637050472713,  -0.39364723364106952,  -0.25655266802646909,  -0.034927542049589387,  0.037070757667420989,  0.078953057614274166,  -0.13175238246128967,  -0.27802247994941992,  -0.30802065069199802,  -0.070797108878074638,  -0.11654344750742819,  -0.43933151569085793,  -0.25057932380539294,  -0.30201818035877215,  -0.13098883725539384,  0.13955201918536206,  0.13894193736487179,  -0.4164349512259502,  0.07577248945181593,  0.29814814572331305,  0.36438608913707476,  0.28364398792468248,  0.18529442670990162,  -0.12362997421829988,  -0.15278118424896367,  -0.42030104930169432,  -0.57666134657024015,  -0.68971119753866095,  -0.70848003579867136,  -0.78773121670427082,  -0.63019043468959646,  -0.45392595038338818,  -0.32865820194388601 ] ],
      [ [  -0.28950230195363641,  -0.10924242313970693,  -0.23321842668782333,  -0.31743807033772042,  -0.40587467555591156,  -0.47014416683440358,  -0.41630053128021416,  -0.40750022239981754,  -0.59799841333976134,  -0.40750022239981915,  -0.41630053128021433,  -0.47014416683440402,  -0.40587467555591156,  -0.31743807033772042,  -0.23321842668782353,  -0.10924242313970699,  0.15658274175596132,  0.070810616792091566,  0.045916824247617269,  0.015132333308459303,  -0.03672874307245997,  -0.13182569077624257,  -0.15806217648003329,  -0.37343660641388521,  -0.42700814306900209,  -0.30178089197010888,  -0.39445329183245154,  -0.41908974460781528,  -0.36422335638209635,  -0.27006377744567955,  -0.24268398698445406,  -0.17216972775522743,  0.066734637394337465,  0.1351905923503906,  0.079692198203232867,  0.14483822845518993,  0.2879986549769486,  0.067066351024114748,  0.03042759795722293,  -0.15582250657759233,  -0.32127268604470688,  -0.1645943637599015,  -0.22811499458235285,  -0.11489894203487659,  -0.07863877721761188,  0.038911492193055605,  0.17429979015438685,  0.1555629085295725,  0.4937923744493728,  0.17208344859263269,  0.030271117075949764,  -0.065889975007033821,  -0.080663706390122131,  -0.095269150054656845,  0.069983859914570179,  0.14699715966196042,  0.0074460048732311298,  -0.031684557683622376,  -0.014939096123402962,  -0.10810183757798618,  0.058753611992157673,  0.14396044311429437,  0.025649961764967012,  0.34246227471452373,  -0.37354887780490265,  0.067126360291443962,  0.10838981781427638,  -0.077711185126647264,  0.039421221139059583,  0.096354657249285311,  -0.0047463495997989826,  0.15397634523051176,  -0.032628692683243414,  0.16178933919462843,  0.36086508102730191,  0.0048371686135870711,  0.06395077861292979,  0.10809147454471921,  0.0085016709742244019,  -0.17550212407474447,  -0.07363854779795069,  0.1246365162813334,  0.25632024909958701,  0.057097424021873858,  0.38363369403762698,  -0.086700487061801682,  -0.27160843868358225,  -0.37278550410279326,  0.01156287431144894,  0.064363417062006531,  0.20025654923155733,  -0.12486910143654306,  -0.18173544167571082,  0.05664418384288334,  -0.080399272014346643,  -0.22875004323553305,  0.44013344837578883,  0.41230761338852606,  -0.12296323350504509,  -0.20705083938225283,  -0.32161591395984346,  -0.10930689295740477,  0.065257853626471463,  -0.10141358246738028,  0.23766192136449371,  0.35255543526203498,  0.088425781436981751,  0.1011969019146579,  -0.24283291106312621,  0.021615784896345365,  0.23143252529494113,  0.44261176368380029,  0.22827375719349616,  0.028286753967593836,  0.41956219340670514,  -0.29102248954758009,  -0.18448833653401117,  -0.064208907895008174,  -0.12284088016047053,  -0.40516856462775469,  -0.25457285515623962,  -0.23152989648380976,  0.083930419361230482,  -0.15217932732464015,  -0.208761730820094,  0.51854077712490498,  0.10661338004896163,  0.50742188624210782,  -0.51165048978198102,  -0.096785994173173934,  -0.18841931095045666,  -0.1108832501472535,  -0.10509269486459798,  -0.2544346526375138,  0.10423187428793264,  -0.036693665858306898,  -0.3860298164357015,  -0.036693665858306523,  0.10423187428793335,  -0.25443465263751291,  -0.10509269486459798,  -0.11088325014725271,  -0.18841931095045769,  -0.096785994173172685,  0.2282737571934971,  0.5074218862421046,  0.10661338004896011,  0.51854077712490576,  -0.2087617308200945,  -0.15217932732464093,  0.083930419361230135,  -0.23152989648380862,  -0.25457285515623945,  -0.40516856462775352,  -0.1228408801604715,  -0.06420890789500848,  -0.18448833653401123,  -0.29102248954758025,  0.41956219340670831,  0.028286753967598575,  0.44013344837578844,  0.44261176368379823,  0.23143252529494074,  0.021615784896345944,  -0.24283291106312546,  0.10119690191465847,  0.088425781436983111,  0.35255543526203553,  0.23766192136449338,  -0.10141358246737969,  0.065257853626471657,  -0.10930689295740459,  -0.32161591395984246,  -0.20705083938225272,  -0.12296323350504511,  0.41230761338852795,  -0.073638547797949705,  -0.22875004323552936,  -0.080399272014345255,  0.056644183842884006,  -0.18173544167571096,  -0.12486910143654384,  0.20025654923155636,  0.064363417062005768,  0.011562874311448861,  -0.37278550410279299,  -0.27160843868358236,  -0.086700487061801113,  0.38363369403762693,  0.057097424021873892,  0.25632024909958678,  0.12463651628132899,  -0.37354887780490265,  -0.17550212407474447,  0.0085016709742242683,  0.10809147454471926,  0.06395077861292979,  0.0048371686135873383,  0.3608650810273023,  0.1617893391946281,  -0.032628692683243414,  0.15397634523051162,  -0.0047463495997991205,  0.096354657249285491,  0.039421221139059583,  -0.077711185126647334,  0.10838981781427616,  0.06712636029144399,  0.49379237444937341,  0.34246227471452423,  0.025649961764966867,  0.14396044311429421,  0.058753611992156937,  -0.10810183757798689,  -0.014939096123403132,  -0.031684557683622827,  0.0074460048732308045,  0.14699715966195964,  0.069983859914569818,  -0.095269150054656471,  -0.080663706390122381,  -0.06588997500703371,  0.030271117075949754,  0.17208344859263303,  0.066734637394337368,  0.15556290852957255,  0.17429979015438699,  0.038911492193055432,  -0.078638777217611908,  -0.11489894203487654,  -0.22811499458235243,  -0.16459436375990205,  -0.32127268604470738,  -0.15582250657759278,  0.030427597957222562,  0.067066351024114734,  0.28799865497694865,  0.14483822845518995,  0.079692198203233047,  0.13519059235039071,  0.15658274175596137,  -0.17216972775522729,  -0.24268398698445398,  -0.2700637774456795,  -0.36422335638209641,  -0.41908974460781528,  -0.39445329183245148,  -0.30178089197010788,  -0.4270081430690017,  -0.37343660641388499,  -0.15806217648003329,  -0.13182569077624262,  -0.036728743072460122,  0.015132333308459006,  0.045916824247617186,  0.070810616792091455 ], [  0.0,  0.18057368117288608,  0.18219201229992685,  0.20287675121010262,  0.15558130756081118,  0.13991576901886263,  0.21978798563059343,  0.021387912590240105,  0.0,  -0.021387912590241812,  -0.21978798563059357,  -0.13991576901886293,  -0.15558130756081118,  -0.20287675121010226,  -0.18219201229992688,  -0.18057368117288611,  0.25258390301459271,  0.3608704672241389,  0.35269785765933243,  0.35315114737826087,  0.32005844087539598,  0.26953955488813724,  0.25326966946629031,  0.046069577483602707,  0.14668558374128071,  0.012891727446854221,  -0.11266371483371117,  -0.042104613970093206,  0.022515260361295714,  0.024432271432669028,  -0.0029801996691124636,  -0.067330636080243242,  -0.17105958062906135,  -0.1977448980127392,  -0.18444386235405055,  -0.018649293544601504,  -0.061768107443544523,  -0.1049809230801647,  0.012708460997985541,  -0.045636459375470201,  0.17768669880584809,  0.097965212462537976,  -0.000443411697752562,  0.059772692967617266,  0.054286203940854136,  0.095264402431422951,  -0.00010349217526505912,  0.0057932687563209935,  -0.14273228416467654,  -0.5317244555638676,  -0.29026489191075139,  -0.33170309437808848,  -0.25482591665037324,  -0.27935647731875363,  -0.093058199165679423,  -0.25886973402235453,  -0.017670876206248038,  -0.052857362009557693,  0.015321618521798329,  0.083379579838085666,  0.16295738112751917,  0.03268809780357125,  -0.011077172751869887,  0.2937282261335985,  -0.019915937419023363,  0.088323146473729602,  -0.331397961730721,  0.00041104983461545403,  -0.066835436286635505,  -0.43494357670572448,  -0.09261247907493092,  -0.34228417293411012,  0.041285523035677299,  0.10334456420878278,  9.7551363240940895e-05,  -0.060716809558439076,  0.089810734286008831,  -0.093930229720921909,  -0.16205457678758564,  -0.31903073749919386,  -0.22042536195819959,  0.25884165860909369,  -0.12992765538255524,  -0.11696336351338339,  0.2401838845839494,  -0.022951824463848386,  0.086531493290763081,  0.26853887373548208,  0.53335044068498783,  0.47874718790689819,  0.24190031419480978,  0.063067017718026475,  0.024794492437274027,  -0.12569813894740983,  -0.075081427115497729,  -0.13275660339474049,  -0.3576918148020381,  -0.45385378416564931,  -0.20722737171180181,  -0.092415243683938844,  -0.046750374661071688,  0.27877066979456067,  0.37711610380749899,  0.064252196458064487,  0.075707449000382204,  -0.1761518178747436,  -0.16612720895425254,  -0.28596596625352194,  -0.15711811552427241,  0.17074951725043366,  -0.12267884577301434,  -0.1162709636758756,  0.25648971157801709,  -0.17545146889586027,  -0.62503466678972952,  -0.43716870274031555,  -0.029124513538687096,  0.16309364516595656,  0.049797273884494557,  0.02734293966050105,  0.13342807522522437,  0.010305674763416376,  -0.098211757640566125,  -0.61366391452991009,  0.18481417206329448,  0.27969043290443135,  -0.057212580564962458,  -0.13955798220076013,  0.0,  0.37946756068530529,  0.21188918239545046,  0.26575877142150445,  0.24682608048684232,  0.43649260345415114,  0.34415185159572981,  0.38199589734725709,  0.0,  -0.3819958973472572,  -0.34415185159572975,  -0.4364926034541507,  -0.24682608048684232,  -0.26575877142150539,  -0.2118891823954496,  -0.37946756068530491,  -0.25648971157801598,  0.13955798220076035,  0.057212580564963637,  -0.27969043290443202,  -0.18481417206329581,  0.6136639145299092,  0.098211757640566666,  -0.010305674763416874,  -0.13342807522522496,  -0.027342939660500765,  -0.049797273884495646,  -0.16309364516595837,  0.029124513538686139,  0.437168702740315,  0.62503466678972808,  0.17545146889586197,  0.35769181480203749,  0.11627096367587628,  0.12267884577301376,  -0.17074951725043369,  0.15711811552427193,  0.28596596625352055,  0.16612720895425145,  0.17615181787474166,  -0.075707449000381788,  -0.064252196458063293,  -0.3771161038074986,  -0.27877066979456128,  0.046750374661071632,  0.092415243683938941,  0.20722737171180181,  0.45385378416564676,  0.22042536195820056,  0.13275660339473877,  0.075081427115496771,  0.12569813894740894,  -0.024794492437274985,  -0.063067017718027529,  -0.24190031419481017,  -0.47874718790689785,  -0.5333504406849876,  -0.26853887373548296,  -0.086531493290763026,  0.022951824463847362,  -0.24018388458394943,  0.11696336351338459,  0.12992765538255549,  -0.25884165860908986,  0.019915937419023363,  0.31903073749919308,  0.16205457678758567,  0.093930229720922187,  -0.089810734286008831,  0.060716809558439208,  -9.7551363241350439e-05,  -0.103344564208783,  -0.041285523035677299,  0.34228417293411018,  0.092612479074931239,  0.43494357670572414,  0.066835436286635505,  -0.00041104983461516504,  0.331397961730721,  -0.088323146473729949,  0.14273228416467723,  -0.29372822613359811,  0.011077172751869981,  -0.032688097803571452,  -0.16295738112751904,  -0.083379579838085235,  -0.015321618521798561,  0.052857362009557873,  0.017670876206247962,  0.25886973402235469,  0.09305819916567977,  0.27935647731875363,  0.25482591665037357,  0.33170309437808748,  0.29026489191075039,  0.53172445556386794,  0.17105958062906132,  -0.0057932687563209432,  0.0001034921752650174,  -0.095264402431422937,  -0.054286203940853921,  -0.059772692967616586,  0.00044341169775278497,  -0.097965212462538032,  -0.17768669880584817,  0.045636459375470062,  -0.012708460997985565,  0.10498092308016507,  0.061768107443544482,  0.018649293544601528,  0.18444386235405041,  0.19774489801273942,  -0.25258390301459277,  0.067330636080243284,  0.0029801996691125173,  -0.024432271432668826,  -0.022515260361295558,  0.042104613970093178,  0.11266371483371153,  -0.012891727446854115,  -0.1466855837412806,  -0.046069577483603269,  -0.25326966946629048,  -0.26953955488813797,  -0.32005844087539598,  -0.35315114737826109,  -0.35269785765933254,  -0.36087046722413901 ] ],
      [ [  -0.27512767507284203,  -0.076880486232726183,  -0.19101660312864507,  -0.26864742083637311,  -0.33412215096027342,  -0.38854769164329961,  -0.22458957995886789,  -0.23427786378545595,  -0.24075104404967335,  -0.23427786378545737,  -0.22458957995886766,  -0.38854769164329911,  -0.33412215096027342,  -0.26864742083637372,  -0.19101660312864527,  -0.076880486232726239,  -0.029156173422621317,  -0.1309395631070277,  -0.26805396725784203,  -0.28779760604334814,  -0.35586632684220992,  -0.52050834847267446,  -0.25053760501871963,  -0.1788935675326046,  -0.13626066554157129,  -0.18489733139299225,  -0.1761714574344096,  -0.15447031307350625,  -0.17700647903539213,  -0.1388706048294282,  -0.12053938912652973,  -0.039220194275729689,  0.17232956401845864,  -0.088718247866051342,  -0.17878859011800921,  -0.14027122961062066,  0.010974449732322523,  -0.017024203581610907,  -0.12005497161632667,  0.048329521534100812,  0.12270189695732982,  0.23357309597411352,  0.11561901816797025,  0.034498990013732189,  0.083105519207822706,  0.17699586127781317,  0.20901045594122647,  0.320121328168536,  0.35973571083443356,  0.073083220005507474,  0.10720903799646661,  -0.04535056517710781,  0.096346462503565614,  0.12558506845367309,  0.034599516046749768,  -0.19253202371954786,  -0.21836491893066995,  0.19457483030667166,  -0.022243074096188597,  -0.0064150355077817493,  -0.053297205441969239,  0.11050725675443118,  0.12532596452536249,  0.24056969582707402,  0.26096645226070941,  0.20829127232920278,  0.0067779023225225258,  0.032746742088592275,  -0.07479340598684453,  -0.0097435969665906706,  0.055744635952409527,  0.093227411910056818,  0.19166497290471873,  -0.010768454780827117,  0.13013676593401713,  0.1343926210901131,  -0.03492697593162522,  -0.054134844144118233,  -0.010760287889981181,  0.00013681464511602814,  -0.11878465509863086,  -0.065372491077180558,  -0.093377323480926394,  -0.12401189267319912,  -0.082952396972896483,  -0.08248042096845222,  -0.1852030643992329,  -0.047552743166896803,  -0.12567862091383039,  0.049017049867808603,  -0.093173032054270119,  -0.05856223659092083,  -0.21228372232359208,  -0.064718316055518629,  -0.056883395999542181,  -0.12524307593369305,  -0.44230430132522941,  -0.29372547077457939,  -0.16762126157131466,  -0.10199631220548665,  -0.15309653783536017,  0.075704263821758239,  0.18676907138191587,  0.36501929322721188,  0.06071887112213023,  0.22188048373437644,  0.34089205922992183,  0.025400867025955318,  -0.18800444433660568,  -0.23713741451495871,  -0.15489882420472173,  -0.31700030503832455,  -0.28982294900391786,  -0.0041907212433548984,  0.16382554343611713,  -0.15452037301252053,  -0.10191195061307373,  0.18706346946456082,  0.4431197641126064,  0.29439694755105167,  0.21218509673178226,  -0.16427497865299714,  -0.071599059831258693,  0.031648582466407886,  -0.32700247556236589,  -0.033308036200895792,  -0.035298873298862207,  -0.27886776925117124,  0.059276056345759415,  -0.12931673374887828,  0.045227476475923706,  -0.18959764271293675,  0.023995591340696024,  0.023874410863200649,  -0.051230335890561217,  0.02966685748570044,  -0.15021054802736394,  0.029666857485700346,  -0.051230335890560585,  0.023874410863200496,  0.023995591340696024,  -0.18959764271293664,  0.045227476475923283,  -0.12931673374887803,  -0.28982294900391764,  -0.27886776925117107,  -0.035298873298862832,  -0.033308036200896077,  -0.32700247556236617,  0.031648582466408365,  -0.071599059831259013,  -0.16427497865299667,  0.21218509673178176,  0.29439694755105178,  0.44311976411260595,  0.18706346946456062,  -0.10191195061307365,  -0.15452037301252089,  0.1638255434361178,  -0.0041907212433554943,  -0.44230430132523069,  -0.31700030503832533,  -0.1548988242047232,  -0.23713741451495934,  -0.18800444433660524,  0.025400867025955304,  0.34089205922992155,  0.22188048373437733,  0.060718871122130626,  0.36501929322721177,  0.18676907138191653,  0.075704263821759016,  -0.15309653783535959,  -0.1019963122054864,  -0.16762126157131491,  -0.29372547077457839,  -0.11878465509863069,  -0.12524307593369147,  -0.05688339599954214,  -0.064718316055518518,  -0.21228372232359174,  -0.058562236590920941,  -0.093173032054270466,  0.049017049867808526,  -0.12567862091383045,  -0.04755274316689629,  -0.18520306439923248,  -0.082480420968452275,  -0.082952396972896636,  -0.12401189267319876,  -0.093377323480927032,  -0.065372491077181585,  0.26096645226070941,  0.00013681464511592441,  -0.010760287889981257,  -0.05413484414411858,  -0.03492697593162522,  0.13439262109011288,  0.13013676593401793,  -0.010768454780827153,  0.19166497290471873,  0.093227411910057553,  0.055744635952409152,  -0.0097435969665909863,  -0.07479340598684453,  0.032746742088592233,  0.0067779023225228649,  0.20829127232920283,  0.35973571083443473,  0.24056969582707458,  0.12532596452536246,  0.11050725675443131,  -0.053297205441969198,  -0.0064150355077816582,  -0.022243074096188774,  0.1945748303066715,  -0.21836491893066981,  -0.19253202371954778,  0.03459951604675042,  0.12558506845367307,  0.096346462503565863,  -0.045350565177107845,  0.10720903799646662,  0.07308322000550832,  0.17232956401845861,  0.32012132816853589,  0.20901045594122647,  0.17699586127781344,  0.083105519207822706,  0.034498990013732279,  0.11561901816797031,  0.23357309597411344,  0.12270189695732994,  0.048329521534100167,  -0.12005497161632639,  -0.017024203581611073,  0.010974449732322603,  -0.140271229610621,  -0.17878859011800938,  -0.088718247866051356,  -0.029156173422621268,  -0.039220194275729675,  -0.12053938912652973,  -0.13887060482942828,  -0.17700647903539207,  -0.15447031307350637,  -0.17617145743441023,  -0.18489733139299203,  -0.13626066554157104,  -0.17889356753260552,  -0.25053760501872019,  -0.52050834847267524,  -0.3558663268422102,  -0.28779760604334848,  -0.2680539672578422,  -0.13093956310702767 ], [  0.0,  0.168762175034576,  0.14550339013778049,  0.17058402974232739,  0.086096160898617893,  0.10895191738150775,  0.18130475336926255,  0.0027167022854087401,  0.0,  -0.0027167022854101401,  -0.18130475336926219,  -0.10895191738150851,  -0.086096160898617893,  -0.17058402974232723,  -0.14550339013778063,  -0.16876217503457605,  -0.30012404394528058,  -0.032581376439276853,  0.023920607386162775,  -0.056285097835654892,  -0.13472095113100147,  -0.16197410004978388,  -0.18401591724011168,  -0.077896085483232555,  -0.057866468373470592,  -0.077896494709324304,  -0.075886793501919805,  -0.093192794917615993,  -0.1724182695130094,  -0.17973798367810168,  -0.14546079064908773,  -0.15572728861182905,  -0.32394310247178881,  -0.2778438491924457,  -0.24458631635838335,  -0.21187820248933423,  -0.28122431495730055,  -0.30071894126858173,  -0.38531869169016719,  -0.11937163677612964,  -0.11061792956044271,  -0.056403459613107228,  -0.25753481555386687,  -0.2830514045402111,  -0.19043578237278971,  -0.14875564569487867,  -0.00046121278559487319,  0.01650028621576927,  -0.078029815446775688,  -0.42509277029731146,  -0.29533244347344767,  -0.21619035792285365,  0.018226481504035288,  -0.026638511555954546,  -0.054908740100156034,  -0.23759350712723432,  0.069133398492842238,  -0.13522357215542097,  -0.33703739371005276,  -0.10896927295590403,  -0.0062420018760667604,  0.16522326817228486,  0.036712214044240812,  0.18289855497469432,  0.14234060214625704,  0.024119282483440599,  0.023920795272427783,  0.092214792763617812,  0.061729092273309652,  0.18331171995702705,  0.13091019464802461,  -0.014953518928171374,  -0.46074365115220761,  -0.40719205370762196,  -0.082930425497397667,  -0.0902294637403568,  -0.065015026024180397,  0.098497560172424656,  0.19546085205283742,  0.13483666406765388,  0.012426650810032488,  0.090884131621984415,  0.19405451142602936,  -0.079220900277029355,  0.045383371201054505,  -0.089089976827639042,  0.040889084255407805,  -0.084548938775500418,  -0.18839342694185859,  0.089266481428841346,  -0.083655776822567626,  -0.26709416941747061,  -0.10626841640154112,  0.058127555947613894,  -0.07176366192243587,  -0.083775803406848426,  -0.032212539289340716,  -0.10874317367581193,  0.032208579256531922,  0.076416051599500198,  0.23397361135737099,  0.42805352494884347,  0.41165849785511699,  -0.0089214274153160168,  -0.068383629098954207,  -0.12423306193658776,  -0.56670610180455361,  -0.5387776100622006,  -0.25112800240574185,  -0.11109378487300219,  -0.069337248992199937,  -0.12870733153725783,  -0.27146542827123576,  -0.059508428596769671,  -0.22786555044469703,  -0.16778972938708275,  0.17208578284313411,  0.28820758309058397,  0.39581631080013574,  0.07392439525975622,  0.05437252685981004,  -0.16497247638904583,  -0.11189327594984977,  -0.39526143039931505,  -0.21211773108676377,  -0.021714210132267295,  -0.24647252516591303,  0.034884003795173549,  0.0,  0.048415004503511765,  0.10901595554032652,  0.18081784053747676,  0.21178369335402131,  0.23234980337385247,  0.26026970667258315,  0.14958163144104925,  0.0,  -0.14958163144104805,  -0.26026970667258331,  -0.23234980337385239,  -0.21178369335402131,  -0.18081784053747749,  -0.10901595554032674,  -0.048415004503511661,  0.27146542827123837,  -0.034884003795174097,  0.24647252516591345,  0.021714210132268239,  0.21211773108676471,  0.39526143039931411,  0.11189327594984955,  0.16497247638904686,  -0.054372526859810533,  -0.073924395259756526,  -0.39581631080013674,  -0.28820758309058497,  -0.17208578284313567,  0.16778972938708109,  0.2278655504446977,  0.059508428596768997,  0.03221253928934005,  0.12870733153725761,  0.069337248992199063,  0.11109378487300205,  0.25112800240574146,  0.53877761006220048,  0.56670610180455394,  0.12423306193658856,  0.068383629098954124,  0.0089214274153163638,  -0.41165849785511571,  -0.42805352494884319,  -0.2339736113573706,  -0.076416051599500212,  -0.032208579256531956,  0.10874317367581073,  -0.012426650810030984,  0.083775803406849023,  0.071763661922435426,  -0.058127555947613166,  0.10626841640154142,  0.26709416941747005,  0.083655776822568625,  -0.08926648142884093,  0.1883934269418589,  0.084548938775500959,  -0.040889084255407132,  0.089089976827638889,  -0.045383371201054595,  0.079220900277029424,  -0.1940545114260295,  -0.090884131621982764,  -0.14234060214625704,  -0.13483666406765402,  -0.19546085205283759,  -0.098497560172424919,  0.065015026024180397,  0.090229463740356744,  0.082930425497397889,  0.4071920537076219,  0.46074365115220761,  0.014953518928171258,  -0.13091019464802564,  -0.18331171995702766,  -0.061729092273309652,  -0.092214792763617437,  -0.02392079527242786,  -0.024119282483440783,  0.078029815446775438,  -0.18289855497469498,  -0.036712214044240986,  -0.16522326817228505,  0.0062420018760667387,  0.10896927295590399,  0.3370373937100527,  0.13522357215542066,  -0.06913339849284196,  0.23759350712723473,  0.054908740100156388,  0.026638511555954078,  -0.018226481504035615,  0.21619035792285393,  0.29533244347344739,  0.42509277029731196,  0.32394310247178892,  -0.016500286215769256,  0.00046121278559471148,  0.14875564569487854,  0.19043578237278991,  0.28305140454021116,  0.25753481555386643,  0.056403459613107054,  0.11061792956044274,  0.11937163677613004,  0.38531869169016686,  0.30071894126858156,  0.28122431495730021,  0.21187820248933473,  0.24458631635838354,  0.27784384919244604,  0.30012404394528075,  0.155727288611829,  0.14546079064908771,  0.17973798367810176,  0.17241826951300959,  0.093192794917616159,  0.075886793501919667,  0.077896494709324429,  0.057866468373470627,  0.077896085483232083,  0.18401591724011224,  0.16197410004978335,  0.13472095113100149,  0.056285097835655142,  -0.023920607386162689,  0.032581376439276916 ] ],
      [ [  -0.3438606747593928,  -0.044624331216990297,  -0.072083930733582588,  -0.0091217213174997046,  -0.030149615708956103,  0.16701376484225719,  0.25713022576965505,  -0.038167356310516209,  0.12270273731951439,  -0.038167356310516126,  0.25713022576965533,  0.16701376484225583,  -0.030149615708956103,  -0.0091217213175001557,  -0.072083930733582602,  -0.044624331216990325,  -0.14896193796652096,  0.16562948644706035,  0.1292273867995479,  0.19827706981435286,  -0.019730985286190651,  0.17806832171945008,  0.094741305386055547,  0.11550161410233785,  -0.044389206425723735,  0.093861688840246177,  0.028498573180307421,  -0.030293640461209571,  -0.15293055761912186,  -0.18521318639122528,  -0.19208300999007569,  -0.16086045791719855,  0.11787387621685463,  -0.10254423665864837,  -0.070341963941005753,  -0.040920477159570159,  0.19075441075859739,  0.18474177081418308,  0.15022146481827861,  -0.10419387016103336,  -0.092009562293303718,  -0.13255933630939967,  -0.27505753448965298,  -0.38175666623892601,  -0.37592749391855423,  -0.34193537238795252,  -0.20983793482911972,  0.25886184362308579,  -0.12108140801818769,  0.12919680393783331,  0.068294456114197349,  -0.0030469023448754752,  0.069946577571569968,  0.23610290416922308,  0.020191119577319831,  -0.23821924173349529,  -0.16828653203733326,  -0.15711871026891161,  -0.22916504557439621,  -0.32047373203397278,  -0.11189339811080107,  0.26676323291267223,  0.098975343981971844,  0.10196881429136835,  0.56695172387428039,  0.13049796473926875,  -0.038827876143530747,  -0.16854093172179313,  0.1037153932794483,  0.14598975193523889,  0.11369970342573649,  0.076658226518868805,  -0.027726562759189954,  0.14049806020201794,  -0.12920264699098144,  -0.057465745297932205,  0.25602111934971833,  0.12962061240549377,  -0.3140827390428278,  0.20271955923527174,  0.29169720185589026,  -0.033119422800280858,  -0.040683413893311378,  -0.059554072290961199,  0.20886996295818849,  0.17297251227851485,  0.22569398502297161,  0.12015364007546872,  0.073894622493620804,  0.21923241704480159,  0.12451289545973554,  0.013140385988855665,  0.27561481248868797,  0.17620174105835221,  0.15658685886088577,  0.033494989857833044,  0.10320101238495233,  0.17388913485042928,  0.10665551933586757,  0.060033909019091405,  0.55865730618629095,  -0.052132403108332261,  -0.048633469794685712,  -0.015293385722141893,  0.46157249778613313,  0.0902707214285213,  -0.11588695247128711,  -0.040735038159280743,  0.031251753483726247,  0.1927125977389538,  0.097989014244859063,  0.13712569851785852,  0.27578960173921307,  -0.051009693148396117,  0.14264177055901478,  0.26502562505240967,  0.28713425825866651,  -0.25225396035909187,  -0.15237923116753679,  0.11051160803440103,  0.2200544875642278,  -0.26001905484825705,  0.014184127747870468,  -0.029303454704449217,  -0.073560089654061189,  -0.31003508497073001,  0.077729225949256089,  0.77821656042596288,  0.00086947871410909588,  0.23523871112771058,  0.2463224895476871,  0.19248117800892681,  -0.41797735255309376,  -0.41407194535197661,  -0.21608569667800459,  0.10764274233836059,  0.53542511077094845,  0.10764274233836052,  -0.21608569667800415,  -0.41407194535197644,  -0.41797735255309376,  0.19248117800892667,  0.24632248954768921,  0.23523871112771078,  0.27578960173921363,  0.77821656042596166,  0.077729225949255645,  -0.31003508497072924,  -0.073560089654061217,  -0.029303454704448718,  0.014184127747870709,  -0.26001905484825599,  0.22005448756422841,  0.11051160803440097,  -0.15237923116753693,  -0.25225396035909109,  0.28713425825866601,  0.26502562505240851,  0.14264177055901806,  -0.051009693148392148,  0.10320101238495158,  0.13712569851785647,  0.09798901424485984,  0.19271259773895366,  0.031251753483725407,  -0.040735038159280333,  -0.11588695247128639,  0.090270721428522285,  0.46157249778613307,  -0.015293385722141435,  -0.048633469794685955,  -0.05213240310833242,  0.55865730618629039,  0.060033909019091239,  0.10665551933586881,  0.17388913485043106,  0.29169720185589115,  0.033494989857835625,  0.15658685886088447,  0.17620174105835021,  0.27561481248868774,  0.013140385988855665,  0.12451289545973598,  0.2192324170448022,  0.073894622493621401,  0.12015364007546966,  0.22569398502297133,  0.17297251227851548,  0.20886996295818827,  -0.059554072290961636,  -0.04068341389331178,  -0.03311942280028192,  0.56695172387428039,  0.20271955923527141,  -0.31408273904282824,  0.12962061240549377,  0.25602111934971833,  -0.057465745297932171,  -0.12920264699098147,  0.14049806020201761,  -0.027726562759189954,  0.076658226518868874,  0.11369970342573608,  0.1459897519352395,  0.1037153932794483,  -0.16854093172179307,  -0.038827876143530372,  0.13049796473926831,  -0.12108140801818801,  0.1019688142913682,  0.098975343981971636,  0.26676323291267245,  -0.11189339811080122,  -0.32047373203397245,  -0.22916504557439629,  -0.15711871026891217,  -0.16828653203733349,  -0.23821924173349543,  0.020191119577320005,  0.236102904169223,  0.069946577571570009,  -0.0030469023448755328,  0.068294456114196808,  0.12919680393783411,  0.11787387621685455,  0.25886184362308601,  -0.20983793482912005,  -0.34193537238795263,  -0.37592749391855396,  -0.38175666623892635,  -0.27505753448965298,  -0.13255933630939917,  -0.092009562293303468,  -0.10419387016103351,  0.15022146481827875,  0.18474177081418319,  0.19075441075859717,  -0.040920477159570166,  -0.070341963941005836,  -0.10254423665864859,  -0.14896193796652099,  -0.16086045791719858,  -0.19208300999007555,  -0.18521318639122528,  -0.1529305576191218,  -0.030293640461209328,  0.028498573180307615,  0.093861688840246066,  -0.044389206425723825,  0.11550161410233703,  0.094741305386054353,  0.17806832171944964,  -0.019730985286190744,  0.19827706981435284,  0.12922738679954768,  0.16562948644706021 ], [  0.0,  0.17894776203133139,  0.2338742677237314,  0.20004440654877534,  0.13745549622661832,  0.091575711651631725,  0.13635984201981266,  0.16421110994376378,  0.0,  -0.16421110994376625,  -0.13635984201981244,  -0.091575711651632016,  -0.13745549622661832,  -0.20004440654877517,  -0.23387426772373135,  -0.17894776203133139,  -0.2234584588064617,  0.19742176869922989,  0.17738722286631023,  -0.021086334219502838,  0.059035852974803613,  0.031651265084486187,  -0.041342192837187028,  -0.01691758889081036,  0.030309118663595879,  -0.12164269237149718,  -0.19406972545972043,  -0.2295215929244038,  -0.25227273638341274,  -0.23416426951049976,  -0.23000110363157225,  -0.20521695743905741,  0.024580061019290018,  -0.076069348178618226,  -0.053416974652628055,  -0.014959582806625007,  -0.058050748334246415,  -0.15864795701534781,  -0.22455935153167295,  -0.2590745011273432,  -0.1723227892493977,  -0.30519349585067895,  -0.30152741822730916,  -0.25671399227687741,  -0.22956874537831218,  -0.25011254331554839,  -0.30143038095523733,  -0.02222579967268095,  0.13276676666038809,  -0.31052640041978902,  -0.12811582189749157,  -0.22622709915553785,  0.010809367976513476,  -0.30524798305578216,  -0.30668492071916414,  -0.21880313120543812,  -0.26212163738301514,  -0.29710324542527883,  -0.25846069341903233,  -0.20548162691182634,  -0.22583751898573587,  -0.06449176585557545,  -0.036077483652714383,  0.28589109963845372,  0.066232220307912898,  -0.01011405444641132,  -0.26064069380118221,  0.055881712773558655,  -0.11594030970693464,  -0.22462191881384799,  -0.41740744799682927,  -0.47304990740642694,  -0.36158947720645934,  -0.22307401507380065,  -0.46402114194944499,  0.045613294062275489,  0.022016532351802932,  -0.02785717927363647,  0.020765757127677718,  0.023385277928921533,  -0.013597429140597144,  0.11971139386154328,  0.046766759909131837,  0.085296143393403662,  0.11625484184489027,  -0.38104403105860274,  0.0018367100334203302,  0.013867021188663028,  0.018548434455800795,  -0.2002456685132919,  -0.13675500860824696,  0.49398387069752941,  0.35684654771248098,  0.12456917825575672,  -0.12703696187930089,  -0.29302240688622855,  -0.1129939089717104,  -0.27541111432027976,  -0.40722126652671486,  -0.40945447782444627,  -0.18157627883029639,  -0.25683221216485036,  0.072238078057562258,  0.32763734270720485,  -0.028960043298284825,  -0.088027787495371046,  0.36865028171988978,  0.19054413999262548,  -0.16064582718938544,  -0.14482076918826989,  0.28079006489447994,  0.3182564832470135,  -0.67631090461167542,  -0.19821678137986237,  -0.3241442993324844,  0.090553244556299928,  0.32248819102968701,  0.34720218530633951,  0.33435699139144681,  0.41016290195382588,  0.16557991962357976,  0.24148263583879365,  0.17409044452039765,  0.34650408985628928,  0.17827605733551552,  0.22129870652265735,  0.33722168443191441,  -0.22574388257193412,  0.0,  0.47637599976023798,  -0.25111819126442397,  0.0055232975051840039,  0.068888817836930558,  -0.15072050582482857,  0.07704643027935601,  -0.15430903900477327,  0.0,  0.15430903900477366,  -0.077046430279355968,  0.15072050582482865,  -0.068888817836930558,  -0.0055232975051836665,  0.25111819126442475,  -0.47637599976023909,  0.6763109046116782,  0.22574388257193467,  -0.33722168443191436,  -0.22129870652265743,  -0.17827605733551494,  -0.34650408985628839,  -0.1740904445203966,  -0.24148263583879284,  -0.16557991962357937,  -0.41016290195382565,  -0.33435699139144653,  -0.3472021853063379,  -0.32248819102968646,  -0.090553244556300747,  0.32414429933248384,  0.19821678137986079,  0.1129939089717098,  -0.31825648324701333,  -0.28079006489448033,  0.14482076918827103,  0.1606458271893868,  -0.19054413999262448,  -0.3686502817198879,  0.088027787495371754,  0.028960043298285547,  -0.32763734270720452,  -0.072238078057562646,  0.25683221216485136,  0.18157627883029631,  0.40945447782444633,  0.40722126652671403,  0.27541111432027782,  0.013597429140596307,  0.29302240688622871,  0.12703696187930261,  -0.12456917825575543,  -0.35684654771247987,  -0.4939838706975293,  0.13675500860824785,  0.20024566851329229,  -0.018548434455800775,  -0.013867021188662959,  -0.0018367100334208011,  0.38104403105860196,  -0.11625484184489115,  -0.085296143393403995,  -0.046766759909130561,  -0.11971139386154213,  -0.066232220307912898,  -0.02338527792892179,  -0.020765757127677479,  0.027857179273636724,  -0.022016532351802932,  -0.045613294062275739,  0.4640211419494461,  0.22307401507380115,  0.36158947720645934,  0.47304990740642699,  0.41740744799682922,  0.2246219188138481,  0.11594030970693464,  -0.055881712773558523,  0.26064069380118221,  0.010114054446411311,  -0.13276676666038889,  -0.2858910996384541,  0.03607748365271455,  0.064491765855575603,  0.22583751898573626,  0.20548162691182661,  0.25846069341903172,  0.29710324542527933,  0.26212163738301508,  0.21880313120543807,  0.30668492071916403,  0.30524798305578182,  -0.010809367976513544,  0.22622709915553638,  0.12811582189749049,  0.31052640041978863,  -0.024580061019289948,  0.022225799672681023,  0.3014303809552375,  0.25011254331554827,  0.22956874537831212,  0.25671399227687774,  0.30152741822730944,  0.30519349585067895,  0.17232278924939756,  0.25907450112734409,  0.22455935153167228,  0.15864795701534731,  0.058050748334246012,  0.014959582806624891,  0.053416974652627992,  0.076069348178618254,  0.2234584588064617,  0.20521695743905743,  0.23000110363157236,  0.23416426951049965,  0.25227273638341252,  0.22952159292440308,  0.19406972545972018,  0.12164269237149676,  -0.030309118663595879,  0.016917588890808518,  0.041342192837186757,  -0.031651265084486006,  -0.059035852974803536,  0.021086334219502907,  -0.17738722286631034,  -0.19742176869922995 ] ],
      [ [  -0.23114841459221416,  -0.021427710518013714,  -0.015017580163219532,  0.032773188729896888,  -0.047100770808647476,  -0.010097088445750172,  0.16364836865706692,  0.20233733230283393,  -0.25033514428788078,  0.20233733230283193,  0.1636483686570657,  -0.010097088445751362,  -0.047100770808647476,  0.032773188729896409,  -0.01501758016321956,  -0.021427710518013725,  -0.18299702395445835,  0.21052251342562153,  0.034330849788676607,  0.021803576404369099,  -0.018735655529092076,  0.14476228370944075,  -0.1218123063854531,  -0.11025463953981256,  0.067368009101479234,  0.22602511695137711,  0.10181683200236383,  -0.013970612867554202,  0.04122384118428489,  -0.078421361349929067,  -0.16616816617413191,  -0.19043255930304515,  -0.19608671685124499,  -0.10072772589819279,  -0.16685553655870716,  0.044295499105520164,  0.059727627291510176,  -0.08804389028785535,  -0.23074836157914741,  -0.11581058815257772,  0.082957454468163411,  0.24634687830673158,  -0.023703456557357103,  0.016871258963459587,  -0.11290782469521732,  -0.27386951181479802,  -0.45600730946981743,  -0.35803864183700351,  -0.079547616669386076,  -0.21298064138498407,  -0.08605940893302802,  0.053216894084526893,  0.22652273469946554,  0.035234916616770841,  0.08097193469897089,  0.16585589356795696,  0.30249188659121007,  0.086901224487307707,  -0.067169606458163722,  -0.11854541691872768,  -0.33796013449707007,  -0.57021851016190472,  -0.54566653057451364,  0.078169174443922976,  0.21831698101242455,  0.054959074376411399,  -0.0014617723001028101,  0.23064889470460723,  -0.061112938171943791,  0.038121134498655368,  0.076474747326203241,  0.057825250002482606,  0.17242382643996076,  0.060021196537024035,  0.053961572220966737,  -0.33549512289399752,  -0.45228644024609016,  -0.48217041279622319,  -0.040061964550301699,  0.24652445129415593,  0.18128304115606331,  -0.017802176704153412,  -0.27093242310901394,  0.14235602382479684,  0.24529305810190172,  0.1102141414870967,  -0.082681163603835442,  0.010383302080511638,  0.092839251113562296,  0.076577209492069351,  -0.20433564232186358,  -0.41208647738486193,  -0.3019329125598052,  -0.24040312771403582,  -0.0060344588654767019,  -0.27598608841561367,  -0.39988852586467877,  -0.3699661687951778,  -0.13638894971578705,  -0.04855434223760062,  -0.19696855330693408,  0.043750766394871764,  -0.04895255935910342,  0.22097708036106933,  0.29267269210413954,  0.10961072967698032,  -0.42158596210162186,  -0.48503909021205843,  -0.27038874408771041,  -0.24874665848375316,  -0.046164805983602578,  0.13744306669898457,  0.05347351337483152,  -0.16723019452710344,  -0.049737612189382781,  0.11750516744342812,  0.050345034113328142,  0.28982836556737462,  -0.1847978382131065,  0.044837337211592408,  0.30389163596677571,  0.059724657406037857,  -0.34784530621096604,  -0.1811292544859795,  0.1715714522843694,  -0.064738171127228253,  -0.23805723546796662,  0.087077750602852499,  0.21213678711389727,  0.010001033107842287,  0.079438948049994032,  -0.082853347369426747,  0.28511978214913841,  -0.072016965163409399,  -0.033853773067637996,  -0.12751400672215604,  -0.016966037699646403,  -0.12751400672215618,  -0.033853773067638038,  -0.072016965163409608,  0.28511978214913841,  -0.082853347369426261,  0.079438948049993352,  0.010001033107842382,  0.053473513374833061,  0.087077750602849141,  -0.23805723546796664,  -0.064738171127230279,  0.17157145228436846,  -0.18112925448597922,  -0.34784530621096554,  0.059724657406038065,  0.3038916359667766,  0.044837337211593234,  -0.18479783821310591,  0.28982836556737412,  0.050345034113327101,  0.11750516744342837,  -0.049737612189380762,  -0.1672301945271015,  -0.39988852586467966,  0.13744306669898235,  -0.046164805983604083,  -0.24874665848375435,  -0.27038874408771141,  -0.4850390902120586,  -0.42158596210162136,  0.10961072967698048,  0.29267269210414026,  0.22097708036106947,  -0.048952559359103545,  0.043750766394871431,  -0.19696855330693458,  -0.048554342237600558,  -0.13638894971578758,  -0.3699661687951778,  0.18128304115606356,  -0.27598608841561323,  -0.0060344588654817422,  -0.24040312771403696,  -0.30193291255980476,  -0.41208647738486215,  -0.20433564232186344,  0.076577209492069767,  0.092839251113563032,  0.010383302080511249,  -0.082681163603835414,  0.1102141414870967,  0.24529305810190166,  0.14235602382479712,  -0.27093242310901461,  -0.01780217670415446,  0.21831698101242455,  0.24652445129415562,  -0.04006196455030147,  -0.48217041279622336,  -0.45228644024609016,  -0.33549512289399741,  0.05396157222096707,  0.060021196537024681,  0.17242382643996076,  0.057825250002482516,  0.076474747326203893,  0.038121134498654875,  -0.061112938171943791,  0.23064889470460692,  -0.0014617723001032485,  0.054959074376411496,  -0.079547616669385826,  0.078169174443923337,  -0.54566653057451409,  -0.57021851016190472,  -0.33796013449707002,  -0.11854541691872755,  -0.067169606458163542,  0.086901224487307929,  0.3024918865912104,  0.16585589356795649,  0.080971934698970488,  0.03523491661676989,  0.2265227346994656,  0.05321689408452733,  -0.086059408933028048,  -0.21298064138498499,  -0.19608671685124504,  -0.35803864183700362,  -0.45600730946981749,  -0.27386951181479802,  -0.11290782469521735,  0.016871258963459666,  -0.023703456557356704,  0.24634687830673216,  0.082957454468163078,  -0.11581058815257766,  -0.2307483615791476,  -0.088043890287855225,  0.059727627291509974,  0.044295499105519984,  -0.16685553655870761,  -0.10072772589819307,  -0.1829970239544583,  -0.19043255930304506,  -0.16616816617413177,  -0.078421361349929067,  0.041223841184284821,  -0.013970612867553505,  0.10181683200236451,  0.22602511695137825,  0.067368009101478998,  -0.11025463953981497,  -0.12181230638545425,  0.14476228370943964,  -0.018735655529092052,  0.021803576404368464,  0.034330849788676586,  0.21052251342562153 ], [  0.0,  0.17966505405276148,  0.13217578570159266,  0.061379814607206998,  -0.026354777909749109,  0.0068643644985824856,  0.13102379316541757,  -0.032018438652829211,  0.0,  0.032018438652827712,  -0.1310237931654174,  -0.0068643644985824847,  0.026354777909749109,  -0.061379814607206928,  -0.13217578570159269,  -0.17966505405276159,  -0.22365757089892818,  0.045574819875836531,  0.092656824837886884,  -0.010269414367035753,  0.11036089300048454,  -0.00052119493572715982,  -0.12475334090416856,  0.14051880167894787,  0.1871788432536437,  0.12080721657220875,  -0.10422177601146457,  -0.0475753937439852,  -0.15037149196755606,  -0.21160183307054531,  -0.16420172135860769,  -0.14305767902204047,  -0.099490258677536206,  -0.087744464189783961,  0.017747243040262144,  0.14811225984305551,  -0.047598664025546737,  -0.19737180380945543,  0.046202925627532108,  0.2038298609217172,  0.17300565501409046,  -0.078131586057361507,  -0.14979415352668521,  -0.18482737501667756,  -0.22775738089127864,  -0.12231116277179351,  -0.059754372572452669,  0.0021720165315060316,  -0.13999381332208716,  -0.3514187970263335,  0.1033779808930706,  0.065480099733853506,  -0.10115698205393792,  -0.087702976545292272,  0.11870707795993851,  0.081793308440747517,  0.13717906667531771,  -0.24234722669253353,  -0.15608436599140033,  -0.13753848558037146,  -0.069051449692081185,  0.076297076125767804,  -0.058341058676902383,  0.097656549650652402,  -0.01160401529845796,  0.30652471002051485,  0.23701593614887417,  0.10812956590329389,  0.1052629098213417,  0.09338767193361143,  -0.00390335900585842,  -0.011128870642781653,  -0.097319313579162917,  -0.060592311538511509,  -0.13997242372657084,  -0.08725732618872134,  0.2471965321463962,  0.05342708025784576,  -0.097825922611423186,  -0.22772621868981432,  0.10404078322994997,  0.26714413738252557,  0.56057302211344406,  -0.019025507154080183,  0.10670321709448867,  -0.09103329641950049,  -0.24418289492980003,  0.1254419361078703,  0.027954527428213416,  -0.12704434490488586,  -0.20084261005398685,  0.13842288582900389,  0.12052347678385561,  -0.1954876742109207,  -0.22559119633940614,  0.016208225428271637,  -0.018913637222442482,  -0.40156683658128678,  -0.12528570338153569,  -0.051097151918511663,  0.10630996977684697,  0.1238075799235694,  0.36718060216662196,  0.21406248143527118,  -0.13456856326569916,  -0.17780249094611505,  -0.13046976880162536,  0.0032445976188423958,  0.038151863496677797,  0.00040081368032629636,  -0.095064440695159805,  0.39493552099137846,  -0.34139692029430102,  -0.10487633712111268,  0.24368040776831698,  -0.15238985956225631,  0.21987181226172625,  0.065292641187474743,  -0.036754095286748348,  -0.22244498784278524,  0.014200064291155593,  -0.30747298369245923,  0.080549363522411557,  -0.25990791021666992,  -0.21446830234053332,  -0.1441264835590427,  0.35119447830017653,  -0.38042414241385397,  0.0,  0.2701441182982674,  0.095877692293849362,  -0.037040232183452766,  0.063461833624816666,  0.0092777802075762403,  -0.20102750836017746,  0.11836521284809451,  0.0,  -0.11836521284809476,  0.20102750836017683,  -0.0092777802075762906,  -0.063461833624816666,  0.037040232183452641,  -0.095877692293849279,  -0.27014411829826618,  0.34139692029430124,  0.38042414241385408,  -0.35119447830017586,  0.14412648355904312,  0.2144683023405333,  0.25990791021667004,  -0.080549363522412029,  0.30747298369245812,  -0.014200064291155548,  0.2224449878427866,  0.036754095286749326,  -0.065292641187474132,  -0.2198718122617262,  0.15238985956225598,  -0.24368040776831584,  0.10487633712111215,  0.018913637222443415,  -0.39493552099137869,  0.095064440695160207,  -0.00040081368032646202,  -0.038151863496677665,  -0.0032445976188419448,  0.13046976880162475,  0.17780249094611447,  0.13456856326569921,  -0.21406248143527126,  -0.36718060216662263,  -0.12380757992356906,  -0.10630996977684729,  0.051097151918512156,  0.12528570338153605,  0.40156683658128728,  -0.1040407832299502,  -0.016208225428272403,  0.22559119633940619,  0.19548767421092161,  -0.12052347678385558,  -0.13842288582900383,  0.20084261005398665,  0.1270443449048862,  -0.027954527428213707,  -0.12544193610787044,  0.24418289492979992,  0.091033296419500032,  -0.10670321709448861,  0.019025507154080919,  -0.56057302211344218,  -0.26714413738252524,  0.01160401529845796,  0.22772621868981405,  0.097825922611423088,  -0.053427080257845531,  -0.2471965321463962,  0.087257326188721479,  0.13997242372657084,  0.060592311538511197,  0.097319313579162917,  0.011128870642781719,  0.0039033590058588133,  -0.093387671933612262,  -0.1052629098213417,  -0.10812956590329438,  -0.23701593614887453,  -0.30652471002051379,  0.13999381332208577,  -0.09765654965065218,  0.058341058676902618,  -0.076297076125767818,  0.069051449692081102,  0.13753848558037168,  0.1560843659914001,  0.24234722669253456,  -0.13717906667531762,  -0.081793308440747267,  -0.11870707795993914,  0.087702976545291647,  0.101156982053938,  -0.065480099733854269,  -0.10337798089307158,  0.35141879702633189,  0.09949025867753615,  -0.0021720165315059626,  0.059754372572452787,  0.12231116277179352,  0.22775738089127856,  0.18482737501667745,  0.14979415352668562,  0.078131586057361146,  -0.17300565501409049,  -0.20382986092171743,  -0.046202925627532809,  0.19737180380945557,  0.047598664025546689,  -0.14811225984305548,  -0.017747243040262334,  0.087744464189783766,  0.22365757089892821,  0.14305767902204045,  0.16420172135860778,  0.21160183307054534,  0.15037149196755614,  0.047575393743985062,  0.10422177601146439,  -0.12080721657221023,  -0.18717884325364376,  -0.14051880167895037,  0.12475334090416838,  0.00052119493572746426,  -0.1103608930004845,  0.010269414367035408,  -0.092656824837886995,  -0.045574819875836566 ] ],
      [ [  -0.31950897599135064,  -0.025266372662065752,  0.036810546020186609,  -0.010325186451425892,  -0.078675275562896843,  -0.2287533488853572,  0.13068849847666214,  0.24567550272344346,  -0.26498347742703959,  0.24567550272344268,  0.13068849847666231,  -0.22875334888535617,  -0.078675275562896843,  -0.010325186451426247,  0.036810546020186533,  -0.025266372662065793,  -0.25039074094634195,  0.097819600498245424,  -0.027461492141113802,  0.2644754133942489,  -0.065947807635700087,  -0.29318175732550522,  0.1394793842987973,  0.31479592546596213,  -0.055617330760588182,  0.27466202539285223,  0.0013240405285594144,  0.088090916571920239,  0.096993577888083993,  0.045153809573093652,  -0.049060314060103839,  -0.22082084058560997,  -0.46279853676149096,  -0.2236836896058223,  -0.083708902905315768,  0.13532302440393063,  -0.074580839695903664,  -0.2673847355965509,  0.098479918189969234,  -0.11914808021509932,  0.1333178331124642,  0.11172623004293633,  0.24541322046086358,  0.13368404186596386,  0.013208684999085736,  -0.070271994562173021,  -0.35024177907227672,  -0.47488353668802119,  -0.30284816276483534,  -0.28305364359610991,  0.10675324813798956,  -0.30002280779456947,  0.073508694964818294,  -0.26675984382430534,  -0.41694431930487064,  -0.008028428513737659,  0.53142253023356245,  -0.053903702556465087,  0.18082017084035026,  -0.018422596963358882,  -0.1411452030084365,  -0.40853093300969756,  -0.61662417744761755,  -0.63832069808593805,  0.4094792880205288,  0.080368712642305773,  -0.15101611722470318,  -0.17545559955516848,  0.126673062675801,  0.14606965369576344,  -0.43619953477099627,  0.0017431975093616726,  0.33244624285658869,  0.18377023085728886,  -0.091706830817633617,  -0.14150990113772868,  -0.44995878867049727,  -0.57566370016582513,  -0.82107927892571275,  -0.25761591877208206,  -0.11657956774255746,  0.32953140397554992,  -0.19101882638361342,  -0.15644016781706502,  -0.11891699472992562,  0.039260851565548996,  0.10719854044213914,  0.15505072719507626,  0.1319889689973606,  0.01003764954882343,  -0.25986232028761608,  -0.29204308398461121,  -0.46751138210307303,  -0.57229384617566426,  -0.52072736855604929,  -0.38237198729834504,  -0.38187887731580977,  0.024899821073849533,  -0.30171616624748243,  -0.29739961150073602,  -0.13220763880878553,  -0.15678423581749226,  -0.058099138964453179,  0.096757113244517912,  -0.051048412070159879,  -0.34166944573514879,  -0.31395186780233353,  -0.2775345048649458,  -0.40397526668373523,  -0.22430170842558089,  -0.3264087979149779,  -0.16405596281251925,  0.25549773930483149,  0.062998790942276242,  0.19888991822310886,  -0.17853367953266916,  0.0062410960517226459,  -0.079594147014663386,  0.10729397423132944,  -0.1748260276019617,  -0.092533041727982421,  -0.22519316525915192,  -0.063981490189307932,  -0.044864957001904571,  -0.26724085368153605,  -0.2966205147962731,  -0.4559583257072703,  -0.19007072354032878,  0.57730599230941171,  0.07206388841394111,  -0.32558238292242198,  -0.24930893755559433,  0.21854970354932032,  0.21883469381501022,  -0.069545683243819933,  -0.1227258772353811,  -0.10711276571133078,  -0.12272587723538128,  -0.069545683243819975,  0.21883469381501053,  0.21854970354932032,  -0.24930893755559452,  -0.32558238292242186,  0.07206388841394111,  0.25549773930483577,  -0.19007072354032856,  -0.45595832570726974,  -0.29662051479627416,  -0.26724085368153644,  -0.044864957001905209,  -0.06398149018930839,  -0.22519316525915192,  -0.092533041727982449,  -0.17482602760196109,  0.10729397423132969,  -0.079594147014662497,  0.0062410960517225037,  -0.17853367953267091,  0.19888991822310717,  0.062998790942277977,  -0.38187887731580933,  -0.16405596281251988,  -0.32640879791497796,  -0.22430170842558123,  -0.40397526668373573,  -0.2775345048649458,  -0.31395186780233342,  -0.34166944573514801,  -0.051048412070160337,  0.096757113244518314,  -0.058099138964453623,  -0.1567842358174926,  -0.1322076388087858,  -0.29739961150073507,  -0.30171616624748276,  0.02489982107385038,  -0.1165795677425613,  -0.38237198729834954,  -0.52072736855604962,  -0.57229384617566392,  -0.46751138210307303,  -0.29204308398461026,  -0.25986232028761669,  0.010037649548823815,  0.13198896899736118,  0.15505072719507698,  0.10719854044213875,  0.039260851565548753,  -0.11891699472992687,  -0.15644016781706555,  -0.1910188263836145,  0.32953140397554898,  0.4094792880205288,  -0.2576159187720819,  -0.82107927892571275,  -0.57566370016582524,  -0.44995878867049727,  -0.14150990113772877,  -0.091706830817633603,  0.18377023085728952,  0.33244624285658869,  0.0017431975093623439,  -0.43619953477099671,  0.14606965369576336,  0.126673062675801,  -0.17545559955516901,  -0.15101611722470326,  0.080368712642304968,  -0.30284816276483628,  -0.6383206980859385,  -0.61662417744761766,  -0.40853093300969762,  -0.14114520300843655,  -0.018422596963358615,  0.18082017084035079,  -0.053903702556464393,  0.53142253023356212,  -0.0080284285137374196,  -0.41694431930487147,  -0.26675984382430612,  0.073508694964818058,  -0.30002280779456902,  0.10675324813798931,  -0.28305364359611185,  -0.46279853676149063,  -0.4748835366880213,  -0.35024177907227694,  -0.07027199456217284,  0.013208684999085897,  0.13368404186596433,  0.24541322046086356,  0.11172623004293623,  0.13331783311246442,  -0.11914808021509986,  0.098479918189968832,  -0.26738473559655185,  -0.074580839695903733,  0.13532302440392974,  -0.083708902905316504,  -0.22368368960582247,  -0.25039074094634195,  -0.22082084058560988,  -0.04906031406010386,  0.045153809573093784,  0.09699357788808427,  0.088090916571920891,  0.0013240405285584475,  0.27466202539285317,  -0.055617330760588148,  0.31479592546596052,  0.13947938429879644,  -0.29318175732550611,  -0.065947807635699976,  0.26447541339424818,  -0.027461492141113819,  0.097819600498245327 ], [  0.0,  0.15305067872005237,  -0.03900246353679223,  0.023135683652646948,  0.02165190025592913,  0.053160367783201906,  0.32723224476576895,  -0.062620485060621539,  0.0,  0.062620485060619124,  -0.32723224476576801,  -0.053160367783201976,  -0.02165190025592913,  -0.023135683652646552,  0.039002463536792223,  -0.1530506787200524,  -0.15488217264668824,  -0.033321886661970675,  0.0063774234325092802,  0.054965604246816173,  -0.18596061683000312,  0.19217232872078069,  0.18415227119779895,  -0.1562940201257641,  -0.071286773035763543,  0.036920544173460544,  -0.1014469779944159,  -0.0092003468250444545,  -0.11568503016139052,  -0.048970056242199439,  -0.051054756798439779,  -0.092020191836115511,  -0.12457336544852325,  -0.10479595029322361,  0.0035150863054880656,  0.057485445051058667,  0.072008275646753314,  0.2415293306622511,  0.22685832624795663,  0.098694291064429077,  0.018002514437744369,  0.14674589677381036,  0.13000435056788881,  -0.029870008458780264,  -0.10501981795243807,  -0.1609038114356503,  -0.029989511036867558,  0.028095968432306485,  -0.028000888292460498,  -0.20815890993683225,  -0.015655426517961403,  0.1652283231177919,  0.28266849079911271,  -0.12355173982855316,  0.062717516765132708,  0.31491156892223288,  -0.043340743195246355,  -0.039057549641753522,  -0.1035371973380446,  -0.20459235827745287,  -0.17858868467111244,  0.041035376921199247,  0.18637554767151893,  0.098516681199585412,  -0.22800382936590854,  -0.044367270670962043,  0.063410598066098778,  0.21860712634181689,  0.20771251833445772,  -0.14836240518520497,  0.14563218009285508,  0.50954897584509551,  0.23704401177729101,  -0.37710166454121136,  -0.18784828984947818,  -0.041226706382211181,  0.10608667171788833,  0.32967916520794516,  0.25048437964589987,  -0.11914068677883186,  0.03303129734953688,  -0.076921453228664963,  0.29035921167255491,  0.20306718545050623,  0.07746447354126984,  -0.070265222907771652,  0.2975780047471776,  0.27518961309766227,  -0.023707928737218546,  -0.31028273196298167,  0.10847283175324386,  0.15401860442003848,  0.33373473561615929,  0.44331705927174364,  0.14306911639670433,  -0.0041671901798266868,  -0.15111365587917747,  -0.16410932108774226,  0.38488033789451065,  0.36595849518189905,  0.096971037943032259,  -0.30230327598490231,  -0.035397614318602097,  -0.48368058019826288,  -0.36160528443402851,  -0.070730570322616398,  0.18327399930865737,  0.44302725270953214,  0.259542173356207,  0.33866782404651152,  -0.055387532373083921,  -0.32587838129161634,  -0.51382919063865562,  0.18068895762169387,  0.31556576201573161,  0.2867286168200488,  -0.2511925408718525,  -0.31911703769909927,  -0.45544266003086609,  -0.27989881367199565,  -0.052538388566733187,  0.011372270874263938,  0.21253529902302823,  0.47292377398215274,  0.47185018269448248,  0.47066156455724623,  -0.36224284247490829,  -0.56055112345721081,  0.0,  0.36575127625562326,  0.37912136899655141,  -0.092649157342646629,  -0.34284955644274562,  -0.29058500980874802,  -0.37353839494200841,  0.14070728416593284,  0.0,  -0.14070728416593328,  0.37353839494200808,  0.29058500980874818,  0.34284955644274562,  0.09264915734264767,  -0.37912136899655102,  -0.36575127625562354,  0.51382919063865384,  0.56055112345721225,  0.36224284247490807,  -0.47066156455724534,  -0.47185018269448148,  -0.47292377398215202,  -0.21253529902302795,  -0.011372270874264524,  0.052538388566732805,  0.27989881367199693,  0.45544266003086448,  0.31911703769909988,  0.25119254087185211,  -0.28672861682005113,  -0.31556576201573366,  -0.18068895762170165,  0.15111365587917699,  0.32587838129161495,  0.055387532373083283,  -0.33866782404651202,  -0.25954217335620738,  -0.44302725270953153,  -0.18327399930865793,  0.070730570322616607,  0.36160528443402962,  0.48368058019826426,  0.035397614318602513,  0.30230327598490236,  -0.09697103794303244,  -0.36595849518190005,  -0.38488033789451231,  0.16410932108774226,  -0.033031297349540044,  0.0041671901798240752,  -0.14306911639670442,  -0.44331705927174325,  -0.33373473561615874,  -0.15401860442003848,  -0.10847283175324399,  0.31028273196298162,  0.023707928737219115,  -0.27518961309766277,  -0.2975780047471781,  0.070265222907770777,  -0.077464473541269646,  -0.20306718545050678,  -0.29035921167255446,  0.076921453228661646,  0.22800382936590854,  0.11914068677883213,  -0.25048437964589959,  -0.32967916520794488,  -0.10608667171788833,  0.041226706382211084,  0.18784828984947838,  0.37710166454121119,  -0.23704401177729101,  -0.50954897584509551,  -0.14563218009285572,  0.1483624051852043,  -0.20771251833445772,  -0.2186071263418165,  -0.063410598066098764,  0.044367270670961821,  0.028000888292459412,  -0.098516681199585024,  -0.18637554767151865,  -0.041035376921199206,  0.17858868467111247,  0.20459235827745242,  0.10353719733804462,  0.039057549641753224,  0.043340743195246119,  -0.31491156892223371,  -0.062717516765132444,  0.12355173982855262,  -0.2826684907991136,  -0.16522832311779176,  0.015655426517960726,  0.20815890993683112,  0.1245733654485234,  -0.028095968432306332,  0.029989511036867617,  0.16090381143565038,  0.105019817952438,  0.029870008458779736,  -0.13000435056788914,  -0.14674589677381089,  -0.018002514437744508,  -0.098694291064432851,  -0.22685832624795618,  -0.24152933066225191,  -0.072008275646753578,  -0.057485445051059195,  -0.0035150863054884047,  0.10479595029322336,  0.15488217264668835,  0.092020191836115511,  0.051054756798439745,  0.048970056242199578,  0.11568503016139078,  0.009200346825043516,  0.10144697799441502,  -0.036920544173460336,  0.071286773035763418,  0.15629402012575791,  -0.18415227119779998,  -0.19217232872078077,  0.18596061683000292,  -0.054965604246816804,  -0.0063774234325090972,  0.033321886661970709 ] ],
      [ [  -0.44207758841977068,  -0.058258564142536731,  0.020249764893937337,  0.070416761052503565,  0.052121813352933075,  -0.015199604192240472,  0.34680207899092041,  0.18485499742073053,  0.18374322577784552,  0.1848549974207313,  0.34680207899092041,  -0.015199604192238949,  0.052121813352933075,  0.070416761052502538,  0.020249764893937233,  -0.058258564142536759,  -0.23376391300401028,  0.20313675370738277,  0.079173224524723154,  0.25695224621334978,  -0.11122196129578302,  -0.29774772728752841,  0.30054720346071462,  -0.15432096039154455,  0.22918505565345274,  0.11152509173171532,  -0.24916889845334353,  0.20483411090580111,  0.27892097827422857,  0.008340815536078551,  -0.10991486265527269,  -0.26434903556543898,  -0.45636062491761525,  -0.17214184107779304,  0.060255383211054933,  -0.010565838428769068,  -0.055490548563665011,  0.014001788778018449,  -0.11760263297136442,  -0.26354544631731591,  -0.53978316710946739,  0.097360835872856308,  0.19250914579796885,  0.2122622305870798,  -0.035241965437642457,  -0.23022394651513434,  -0.33781154346187203,  -0.36655606659981671,  -0.49512689865379905,  0.083025728631731993,  -0.076769573690424905,  -0.031099742524501536,  -0.082367295331111368,  0.08055229206655376,  -0.36731857105147298,  -0.23199857956782213,  -0.24731567722082379,  0.26206577373262718,  -0.36502713384449598,  -0.17176511456242724,  -0.10962647983091151,  -0.36183532027517801,  -0.27642226644153489,  -0.50928424888145762,  -0.20453235539733103,  0.11722317133684326,  -0.041771760025832091,  -0.10522304843017349,  0.1799770925204083,  0.092235035685879666,  -0.30281245264760248,  -0.16440939048578973,  -0.37881829637451686,  -0.26821781368082709,  -0.153485675294496,  -0.055434832250561901,  -0.37882024598607777,  -0.21300725729917816,  -0.30552308694079244,  -0.72055928306219807,  -0.26982253274149348,  0.14847210971785815,  -0.19727085072986855,  0.1751495700114156,  0.41347513141200726,  0.4169707037042551,  -0.16834879339607017,  -0.078808348013410842,  -0.24305022757778955,  -0.31591968010111865,  -0.26162633995676821,  -0.48827164362080883,  -0.29625627391843773,  -0.10911874153647123,  -0.50848637025467947,  -1.0440420286266787,  -0.36675335958792599,  0.23496407123860774,  -0.013421805699715978,  0.15064434235705507,  0.31208284862612207,  0.33895980600012698,  0.076879685367610515,  -0.036301120905015485,  -0.28570488484934059,  -0.20395705056475957,  -0.52725671435512533,  -0.33019031038115809,  -0.07821927727660434,  -0.023115645378005149,  -0.66749643865629227,  -0.8874558908944653,  0.060781397698573783,  0.064337519854312783,  -0.7574097961192765,  -0.20739774958154436,  0.058872359878533259,  0.055601449356928082,  -0.36753562890119867,  -0.47442023920407306,  -0.16430995843945309,  -0.19027614364955528,  -0.50093829797263967,  -0.13078912932954531,  0.10461264344469298,  -0.039367911221412512,  -0.75256221899855302,  -0.53425128706046854,  0.40539858329863337,  -0.24452348316284139,  -0.71676002226758173,  -0.14563494353473513,  0.046593812778783952,  -0.2553083850191929,  -0.31151001489258739,  -0.37482530458578645,  -0.54431427947368916,  -0.37482530458578683,  -0.31151001489258778,  -0.25530838501919301,  0.046593812778783952,  -0.14563494353473511,  -0.71676002226758218,  -0.24452348316284211,  0.06078139769857669,  -0.53425128706046876,  -0.75256221899855191,  -0.039367911221413143,  0.1046126434446927,  -0.13078912932954584,  -0.500938297972639,  -0.19027614364955409,  -0.16430995843945276,  -0.47442023920407367,  -0.36753562890119901,  0.055601449356929407,  0.058872359878533405,  -0.20739774958154425,  -0.7574097961192785,  0.064337519854314976,  -0.36675335958792571,  -0.88745589089446453,  -0.66749643865629171,  -0.023115645378005936,  -0.078219277276604673,  -0.33019031038115737,  -0.52725671435512522,  -0.20395705056475896,  -0.28570488484934103,  -0.036301120905015721,  0.076879685367609793,  0.33895980600012809,  0.31208284862612207,  0.15064434235705407,  -0.01342180569971612,  0.23496407123860727,  -0.26982253274149254,  -1.0440420286266785,  -0.50848637025467947,  -0.1091187415364719,  -0.29625627391843767,  -0.48827164362080794,  -0.26162633995676737,  -0.31591968010111948,  -0.24305022757778949,  -0.07880834801341044,  -0.16834879339607034,  0.41697070370425537,  0.4134751314120077,  0.17514957001141473,  -0.19727085072987,  0.1484721097178561,  -0.20453235539733103,  -0.72055928306219852,  -0.30552308694079267,  -0.21300725729917869,  -0.37882024598607777,  -0.055434832250561193,  -0.15348567529449525,  -0.26821781368082631,  -0.37881829637451686,  -0.16440939048579026,  -0.30281245264760165,  0.092235035685879291,  0.1799770925204083,  -0.10522304843017388,  -0.041771760025831814,  0.11722317133684328,  -0.49512689865379955,  -0.50928424888145718,  -0.27642226644153545,  -0.36183532027517862,  -0.10962647983091135,  -0.17176511456242702,  -0.36502713384449559,  0.26206577373262868,  -0.24731567722082337,  -0.23199857956782055,  -0.36731857105147359,  0.080552292066554246,  -0.082367295331111631,  -0.031099742524501397,  -0.07676957369042435,  0.083025728631731355,  -0.45636062491761514,  -0.36655606659981682,  -0.33781154346187192,  -0.23022394651513445,  -0.035241965437642346,  0.21226223058708241,  0.19250914579796835,  0.097360835872855836,  -0.53978316710946617,  -0.26354544631731347,  -0.1176026329713649,  0.014001788778019129,  -0.055490548563665067,  -0.010565838428769594,  0.060255383211054614,  -0.1721418410777934,  -0.23376391300401017,  -0.26434903556543898,  -0.10991486265527269,  0.0083408155360783689,  0.2789209782742279,  0.20483411090580234,  -0.24916889845334386,  0.11152509173171607,  0.22918505565345282,  -0.15432096039154325,  0.30054720346071279,  -0.29774772728752746,  -0.11122196129578286,  0.25695224621334928,  0.07917322452472314,  0.20313675370738285 ], [  0.0,  0.19857306647048453,  0.17279483161499368,  0.015496297964321434,  -0.25919810174386132,  -0.087962780489913975,  0.40349872736440406,  -0.0086397834990876391,  0.0,  0.0086397834990850839,  -0.40349872736440323,  0.087962780489913919,  0.25919810174386132,  -0.015496297964321039,  -0.17279483161499379,  -0.19857306647048464,  -0.11937291488087835,  -0.24568283885558034,  0.11880528156350398,  -0.016697652827005353,  0.080966115380302489,  0.50233772130550602,  -0.31747729096619975,  0.001888050865085471,  0.423775676820766,  0.012979992468434088,  0.12194302356425918,  -0.30094900288108034,  -0.029324644358910273,  -0.07467391349368814,  -0.098956729921100633,  -0.056776362738752306,  -0.045508162144897807,  -0.36820094934874975,  0.097270035409836517,  -0.18953285001826697,  0.34788447284488916,  0.26910050792304957,  -0.017630507475635958,  -0.30850131458317981,  0.01141019376778557,  0.11166909263754739,  -0.17125108871966743,  -0.30088408286975055,  -0.2579684276542194,  -0.047769081387239606,  0.15050347665515759,  0.17308444819350241,  -0.17123789623161531,  -0.23752785999756099,  0.0073675964009460521,  -0.082298567068138706,  0.050378495337671719,  -0.23795932328431088,  -0.0043467332426557603,  0.021428226386383826,  -0.11411006452400416,  -0.26082488215647703,  -0.13655362102277471,  -0.21915500993132256,  -0.15788028838543852,  0.18777032956606282,  0.45401102440605162,  0.32825321094041027,  -0.37633072926806238,  0.062745939142446305,  -0.0093203746155869592,  0.20089438823148645,  0.032235565537658183,  -0.072224068838608046,  -0.27758623549041872,  -0.050373773449313201,  -0.23530784954838987,  -0.065089156672495194,  0.014379716393062614,  -0.18149872946341794,  0.0015120917000461217,  0.47369801034754988,  0.59122934565084995,  0.2844103533164789,  -0.44890827765025421,  0.14829264776067322,  0.30637319319664552,  0.28515638923767334,  0.080030955118651104,  -0.36352038231338696,  -0.23219767943422459,  -0.17775202851505223,  -0.026592264063428819,  -0.052740434745591501,  -0.17593146972744633,  0.068860009530337093,  0.36144695244194652,  0.64563330795130225,  0.57340974192762018,  0.023974249045972462,  -0.33988852946998754,  -0.27989868913451665,  0.45818467980519534,  0.40680573847768603,  0.029013276947110957,  -0.63657425570031101,  -0.37620448515284338,  0.010876934836327956,  0.087661712930905411,  -0.33418619772077524,  -0.17782205246759997,  0.23701704947081001,  0.50630820043466018,  0.62587696645676039,  0.39158646683049148,  -0.16837556429824654,  -0.4038644617338229,  0.40123784643846372,  0.44326363767390869,  -0.016781454098167812,  -0.18353500675413945,  -0.54914274320607981,  -0.20889003103930809,  0.01019192343402473,  -0.30569449223670458,  -0.40039963654789351,  -0.15600243550692205,  0.19724571342771102,  0.49663951588390703,  0.76312129247995253,  0.28709446165157321,  -0.41910992895160099,  0.0,  0.82053483252339832,  0.11398833501185006,  -0.51709907607766259,  -0.33001567812571081,  -0.0017161004780195316,  -0.020358056819566119,  -0.090452757139165882,  0.0,  0.090452757139165951,  0.020358056819565932,  0.0017161004780194623,  0.33001567812571081,  0.51709907607766259,  -0.11398833501184968,  -0.82053483252339876,  0.4038644617338184,  0.41910992895160204,  -0.28709446165157293,  -0.76312129247995286,  -0.49663951588390642,  -0.19724571342771094,  0.15600243550692225,  0.40039963654789357,  0.30569449223670425,  -0.010191923434023784,  0.20889003103930817,  0.5491427432060807,  0.18353500675413875,  0.016781454098166455,  -0.44326363767391125,  -0.40123784643847549,  0.33988852946998765,  0.16837556429824682,  -0.39158646683049153,  -0.62587696645676116,  -0.50630820043465974,  -0.2370170494708097,  0.17782205246760041,  0.33418619772077568,  -0.087661712930905564,  -0.010876934836327982,  0.37620448515284266,  0.63657425570031112,  -0.029013276947110887,  -0.4068057384776862,  -0.45818467980519756,  0.27989868913451393,  0.44890827765024965,  -0.023974249045974387,  -0.57340974192762095,  -0.64563330795130203,  -0.36144695244194591,  -0.068860009530336969,  0.17593146972744625,  0.052740434745590703,  0.026592264063428454,  0.17775202851505115,  0.2321976794342242,  0.36352038231338568,  -0.080030955118651617,  -0.28515638923767339,  -0.30637319319664524,  -0.14829264776067605,  0.37633072926806238,  -0.2844103533164789,  -0.59122934565085017,  -0.47369801034754999,  -0.0015120917000461217,  0.18149872946341766,  -0.014379716393062895,  0.065089156672494125,  0.23530784954838987,  0.05037377344931062,  0.27758623549041855,  0.072224068838608116,  -0.032235565537658183,  -0.20089438823148645,  0.0093203746155867701,  -0.062745939142446416,  0.17123789623161512,  -0.32825321094040993,  -0.4540110244060514,  -0.18777032956606257,  0.15788028838543855,  0.21915500993132198,  0.13655362102277396,  0.2608248821564777,  0.11411006452400416,  -0.021428226386387531,  0.0043467332426557932,  0.23795932328431055,  -0.050378495337672004,  0.082298567068138512,  -0.0073675964009467564,  0.23752785999755877,  0.045508162144897765,  -0.17308444819350241,  -0.15050347665515756,  0.047769081387239724,  0.25796842765421951,  0.30088408286974955,  0.17125108871966518,  -0.11166909263754542,  -0.011410193767785203,  0.30850131458317387,  0.01763050747563609,  -0.26910050792305013,  -0.34788447284488944,  0.18953285001826578,  -0.09727003540983678,  0.36820094934874942,  0.11937291488087848,  0.056776362738752376,  0.098956729921100703,  0.074673913493688224,  0.02932464435891002,  0.30094900288107984,  -0.12194302356426211,  -0.012979992468431335,  -0.42377567682076539,  -0.0018880508650953782,  0.3174772909662002,  -0.50233772130550591,  -0.080966115380302683,  0.016697652827003865,  -0.11880528156350401,  0.24568283885558051 ] ],
