{"scoring":{"size":[20,22],"bias":-1.3970965781063711,"coef":[-0.019443206312618266,-0.008462655136937398,-0.0056439963412376806,-0.0030632716896851417,0.00505819387986131,0.003867199969294663,0.007378142189325282,0.008408844556368901,0.002107991667489747,0.008802151798966045,0.008463420285129255,0.00913418810487556,0.0021677708519095705,0.005790582602295826,0.01002704292430879,0.010018015835686447,0.011074574130386098,-0.0006169578361774428,-0.0060840083569450205,-0.009448767880890366,-0.012441209862965338,-0.0038650406223106025,-0.00031049888008515014,0.003187872856386012,0.007818302118092636,0.010960251877128001,0.012100913210202307,0.012289318801648701,0.012872315936395949,0.0134197639066574,0.012863004278393353,0.012570470005854794,0.0144288424245574,0.01333943052400528,0.013248442014867023,0.012998181709015256,0.008056198630310941,0.0014670228332206666,-0.011928206846124195,-0.009790927665988413,-0.019951337591485003,-0.014601516863452837,-0.013174779761633797,-0.006051490369656748,-0.0010407140556988824,0.005465099755534548,0.010448591237341475,0.014061216421035866,0.015918382919452134,0.016360925963435087,0.02175676516818845,0.017301016139781272,0.014195207612699818,0.012452400847919372,0.010454129710215853,0.004088301926982683,-0.0014194361456059026,-0.003849859914217695,-0.010769873280441659,-0.011758097810167857,-0.004692730262498565,-0.002213411234938204,-0.003980443406752217,-0.012186682535867691,-0.011886732829841436,-0.008198434083715244,0.0028353930104073055,0.007082018952877583,0.012238372017639833,0.016348014515026394,0.02098025121015047,0.01731275318263429,0.01186526524722499,0.007237133559106634,0.002878758237322798,-0.007467321804467685,-0.012293394385884527,-0.014833951237083715,-0.00838863948674114,-0.001277206299448029,-0.004323776226736641,-0.0007999555489078964,-0.009044693937783461,-0.015715154398522533,-0.01637435302016491,-0.018048467332774626,-0.012034275948581882,-0.00724304399758809,0.0005125240784108197,0.01309194391257256,0.01857040908507438,0.013098815816852492,0.0008591564011330168,-0.0064555113363009954,-0.014574145037132261,-0.018221531408352937,-0.01805986873321162,-0.01666595999261013,-0.016742981997331947,-0.012862200876738698,-0.03740877678221599,-0.02683031532226969,-0.03669286789535555,-0.0347880739448974,-0.0218850319679039,-0.024484660949111742,-0.028068870569776663,-0.018631752402912666,0.0003386250226657851,0.01559117928255003,0.021178968053305464,0.015184030917486158,0.002942909802540911,-0.014374637994945122,-0.025568052116952664,-0.025717989966112242,-0.023218559873459776,-0.043064179414035626,-0.04224466749057232,-0.04056098939759206,-0.029282249261991376,-0.03709718041495928,-0.05020937144504969,-0.043175446636272506,-0.038799263945784764,-0.03791335031217714,-0.024596940746816367,-0.013391546719824746,0.0026176056292311106,0.0161600431397954,0.021950494557360537,0.018824694902420232,0.006927363884398058,-0.006709974776830696,-0.018258612142465137,-0.031150030943545643,-0.030987027023796063,-0.033628054995754796,-0.04343705380087554,-0.034534827602693656,-0.0027688241949539527,-0.004549275180497156,-0.0029637241504820444,-0.003406700423480626,-0.005815867591608318,-0.0050003474884839725,-0.005218902767395339,-0.003509430269612119,0.004807586605047698,0.015230282965296896,0.017877023790346995,0.015060123226282708,0.006830114845501906,-0.0007473542577977511,-0.004712922425024908,-0.002017247560106044,-0.002873371575985725,-0.00003216525956375969,0.005257631846099062,0.0043528918718454875,0.016945619656148794,0.015930900625567117,0.013751773645422991,0.010130474427749569,0.008048089829708472,0.006653967439781698,0.006832470034884443,0.006957704411470728,0.004039912948910134,0.011715241103133139,0.017439724961211336,0.014273924944517397,0.006148597549223434,0.00645013298676054,0.00641548242674101,0.008797261748865885,0.008537108473799983,0.008728211283033556,0.011782866421798245,0.016746943082334282,0.022118218282678175,0.020835875059091086,0.018311801034637344,0.01589801188949137,0.01783342296051293,0.01556573659143182,0.014048773907766661,0.009241576620658817,0.008151842723012729,0.011230814598071655,0.01256801671117759,0.012111623945116202,0.00983817412742883,0.007361162802690301,0.009554115733366411,0.011727533965135649,0.018125902932239795,0.01946924820706354,0.017398513191690286,0.021144199041044975,0.021132145666912093,0.019499184169656004,0.019592876054570843,0.02028149781228069,0.01745060509084696,0.01415914728419608,0.006229051144510064,0.0038367364618697264,0.007020631149365693,0.009656116146710875,0.011406409148288063,0.007327377475605029,0.0046725824974188255,0.005253560299244529,0.0001875842284737577,0.008152362961246195,0.012760089024104778,0.021600004613459223,0.02330330354276354,0.023745752734397885,0.018230549428489853,0.02001338863792708,0.0198421711017051,0.018799688221643948,0.010638029835974899,0.00047497591850582786,-0.007177935918128386,-0.0013492660142831474,0.0015382005340972228,0.0026091901041104195,0.0005404682454971559,-0.0004966422184611876,-0.0004620349686195485,-0.005244022876608114,-0.005215235448209645,-0.010002649985436339,0.0014386382744505852,0.012845063185194877,0.020827676960957435,0.02373841052172394,0.01571668571346539,0.01638066669873605,0.014902611437895159,0.007373035779786103,0.0019356373041797752,-0.006199971232118993,-0.009116541477138968,-0.008810991502401562,-0.014849548271736901,-0.002088752298238026,0.005214097048844173,0.0010527273675475608,-0.010321625138183299,-0.016207678046552692,-0.012439252596672909,-0.013087206027715756,-0.002796996928583211,0.0023632017053047227,0.011157492323637063,0.018368837091378775,0.009522424063657664,0.010552085697652452,0.006561107470035311,-0.0015314856230301123,-0.003249203820988987,-0.003132985735142634,-0.0009277374824954263,-0.0020968871213430215,-0.002752601764726735,0.0009438837129042068,0.00005916433694984531,-0.001725467988837404,-0.0034420772687673035,-0.004577360958590432,-0.0025304599008137956,-0.0003821556159806081,0.0005707858453624459,0.003132596619556824,0.006023783141733366,0.01158476991744758,0.0016262584963572593,0.0032288122743198387,0.0012532877511827127,0.0006274779428878639,0.002376673070768022,0.0028182202873619686,0.0023771129569157626,-0.0033402786707182365,-0.004895422636916792,0.0030746977489523515,0.006264859067042066,0.005023115930404464,0.00044657525636142406,-0.004827090498873711,-0.004023720007629251,0.002498818345759046,0.005458039465951253,0.007288031192023364,0.0036009634090189563,0.010569246292394684,-0.0045836905885612515,0.0005793643998226257,0.00102991877614139,0.0030014799750564766,0.003667515928752245,0.004471800582196911,0.006892742110051421,0.0039124352937196984,0.007139428500837236,0.010304447674314087,0.012609007891982103,0.008958913992549505,0.008603791251174015,0.005540849488829477,0.004672179031230026,0.0047921200350865495,0.005881820100455876,0.005604722572404298,0.005411245001991173,0.007326498514953648,-0.0027341865318231302,-0.002724700534666883,-0.003490049841464953,-0.007995715468728556,-0.004076110506711122,-0.002077804850112882,-0.0028478822594267903,-0.0039662744056797195,-0.00261612035304613,0.0009261126741127569,0.001742688698674802,0.0005518705877623288,-0.001372339198004937,-0.004599586886222826,-0.004201475995629732,-0.005472177851887195,-0.002341678055566526,-0.002544084181193918,-0.007877754680715537,0.00005340267621167532,0.004687346571394124,0.0021887942815206605,0.0013036188253628853,-0.001369820467079858,-0.015804998363084376,-0.016267691007421516,-0.018900936626522147,-0.01765945032079295,-0.011812605534381678,-0.0034436129735933847,-0.00234833217156215,-0.005011146346425207,-0.005092238624051651,-0.015030789874247219,-0.020198024497642013,-0.021620507739756673,-0.018586140603325793,-0.018723839025246693,-0.005572269849920948,0.006448045830050279,0.002682265163248593,0.006001001756989062,0.003998624466137994,0.005081325942641908,-0.005911407232368929,-0.027745788024718613,-0.029251292823436387,-0.023066523347947315,-0.017210413752997977,-0.015963112589643183,-0.021075188283476324,-0.023666705491108494,-0.020005598090990763,-0.019062969033403668,-0.01779211719234862,-0.025322677372927888,-0.0209712403520562,-0.003436645553932082,0.004335089683955427,0.008455718362753438,-0.006321337322179261,-0.0012841346959162978,-0.0012350140140767124,0.004020967306281667,0.009227486761414333,0.0045264965008091395,0.004131589813441068,0.0007710844545262394,0.001758081991837795,-0.0011577021001876594,-0.0036195352433658614,-0.003731990866591472,-0.001666179302724247,0.0031110879435167255,0.0014906582671670387,0.004844301505441868,0.005999082929420393,0.008475097921929535,0.005582716891229391,0.0025145315352065756,-0.004631923000619128,-0.007618251428388232,-0.0046593775053102,-0.0031253513278243637,0.007465336752811483,0.010125926733440484,0.009474705361680475,0.003565757195444251,0.005783369506083248,0.003888133034710705,0.0019960148005530504,0.0015056031401225207,0.0011132050024144288,0.005487654792876848,0.004736573364903342,0.007210635062716214,0.01007774641754751,0.0038570243972044947,-0.003118757327733293,0.00008694979275512165,-0.02144138726654334,-0.007210297606987767,-0.007835905822355455,-0.00594066743311885,-0.00161002982250586,0.005345006481645826,0.007104949657808108,0.01019687544512947,0.005757787329337457,0.007457080004758256,0.006273105317508202,0.00762420836735205,0.006843693093305499,0.007002142239943064,0.008725084064059078,0.00899957896818086,0.0034314447644411355,-0.001989159567628072,-0.007896602411841893,-0.010924672368545567]},"path":{"normal":[[0,1,2,3,4,5,6,7,8,9,10,11,12,13,14],[15,16,17,18],[19,20,21,22],[23,63,24,64,25,65,26,66,23],[28,67,29,68,30,69,31,70,28],[34,35,36,42,37,43,38,39,40],[33,41,62],[44,45,46,47,48,49,50,51,52,53,54,55,44,56,57,58,50,59,60,61,44],27,32],"vertices":[[0,1,23,0],[1,23,66,1],[1,2,66,1],[2,66,26,2],[2,26,35,2],[2,35,36,2],[2,36,3,2],[36,44,45,36],[3,4,44,3],[3,44,36,3],[4,44,55,4],[4,5,55,4],[5,55,54,5],[5,6,54,5],[6,53,54,6],[6,7,53,6],[7,8,53,7],[8,52,53,8],[8,9,52,8],[9,51,52,9],[9,10,51,9],[10,50,51,10],[10,11,50,10],[11,38,50,11],[11,12,38,11],[12,38,39,12],[12,31,39,12],[12,31,70,12],[12,13,70,12],[13,28,70,13],[13,14,28,13],[14,15,28,14],[15,28,67,15],[15,16,67,15],[16,67,29,16],[16,17,29,16],[17,68,29,17],[17,18,68,17],[18,68,30,18],[18,30,33,18],[30,40,69,30],[39,40,69,39],[39,31,69,39],[26,65,35,26],[34,35,65,34],[25,34,65,25],[22,25,33,22],[22,25,64,22],[21,22,64,21],[21,24,64,21],[20,21,24,20],[20,24,63,20],[19,20,63,19],[19,23,63,19],[19,23,0,19],[36,45,46,36],[36,42,46,36],[42,37,46,42],[37,46,47,37],[46,37,47,46],[37,47,48,37],[38,48,49,38],[37,43,48,37],[43,38,48,43],[38,49,50,38],[22,18,33,22],[40,41,30,40],[25,33,41,25],[33,41,30,33],[25,34,41,25],[41,40,62,41],[34,41,62,34],[34,35,62,34],[35,36,62,35],[36,42,62,36],[42,37,62,42],[37,43,62,37],[43,38,62,43],[38,39,62,38],[39,40,62,39],[44,45,61,44],[45,46,61,45],[46,47,61,46],[47,61,60,47],[47,59,60,47],[47,48,59,47],[48,49,59,48],[49,50,59,49],[50,51,58,50],[51,52,58,51],[52,57,58,52],[52,53,57,52],[53,54,57,53],[54,56,57,54],[54,55,56,54],[44,55,56,44],[23,63,27,23],[63,24,27,63],[24,64,27,24],[64,25,27,64],[25,65,27,25],[65,26,27,65],[26,66,27,26],[66,23,27,66],[28,67,32,28],[67,29,32,67],[29,68,32,29],[68,30,32,68],[30,69,32,30],[69,31,32,69],[31,70,32,31],[28,32,70,28]]},"patchModel":{"patchType":"MOSSE","weights":[[[-0.46394610031581446,-0.09607000369692421,-0.1208305189860705,-0.1754017737424113,-0.262165588346831,-0.2716779191377288,-0.3643709066776122,-0.5531959207825267,-0.7872806092668886,-0.5531959207825283,-0.3643709066776126,-0.27167791913772843,-0.262165588346831,-0.17540177374241148,-0.12083051898607067,-0.09607000369692423,-0.11913314137124409,0.0035910484914590053,0.010786577404530201,-0.07209442275685853,-0.14392313140385393,-0.26383927557318115,-0.42012015185237644,-0.45549205453482905,-0.43445618644150696,-0.3119667547990619,-0.22276845385844143,-0.14708225436866393,-0.17840741471851307,-0.13655343862963432,-0.1937386326386544,-0.22272990692282094,-0.15249646623610688,-0.07805349543396552,0.06815769600515159,0.05051994578625779,0.022380781310753866,-0.2499732714527021,-0.15216413103753204,0.10528819382322722,-0.11900594392902761,-0.15169320471900358,-0.11305087787789199,0.011060644197993772,-0.018974393098293036,0.0029886906522368266,-0.061790369438299624,0.16029519527756136,0.040858876607634514,-0.23399916490672962,-0.11655437171666003,0.016537958012334698,0.17015469447110704,-0.10168562380705747,0.24097475392313944,-0.0729731850601127,-0.23648922812516038,-0.2651561592590044,-0.40965132636962004,-0.0877160754155469,-0.04986165943137552,0.0076698733500573085,-0.07869457499512586,0.30259777812279237,-0.28288190487722087,0.0799981245179189,-0.1484827303219465,-0.13320714865051406,0.07521039232484455,0.015904728961520048,0.08630300837369383,-0.187032153447302,-0.4271717376622412,-0.42714350961099634,-0.1732853794912289,0.06708538807662645,0.15574024593579763,-0.15931244592700836,-0.15606451970221608,-0.5174129165265227,-0.04723454403777232,0.6330983349463754,-0.07435126090794177,-0.1489251791635996,-0.07679635697398972,-0.10230128301114336,-0.2482119621077352,-0.5193463954629461,-0.2655080703085147,0.05971020183437869,-0.10239610199425195,-0.07384078516003079,-0.08152575923066224,-0.0646529342396657,-0.047126626276037836,-0.5330582409959779,0.4068593676348315,0.2310703467462547,0.19850984758080853,0.24841437712133307,-0.07252190873664463,-0.008606668467498956,0.01847721684165916,-0.21101505295833514,-0.05052606859397149,0.2371386671436758,-0.29055372306245825,-0.250591009832745,0.14950132233657706,0.3495273184828433,0.320373019101484,0.479309423744562,-0.027226431187632183,-0.1523056783740075,0.24839658213608604,0.17878256490281477,-0.46277420706446004,-0.2701773051366935,-0.020807933272295045,-0.10697661941605137,-0.3803261455666791,0.08660932733797605,-0.04969259849955672,0.1810639095899196,0.35947057082813716,0.21173144360478266,0.4116965206290932,0.31583362118699654,-0.1920236784542499,-0.3704422856051943,-0.058148697451331124,0.03147605641750999,-0.6896556845828216,0.06043391167514924,-0.2778611331622412,0.18998531712925773,-0.36530181191380673,0.18998531712925731,-0.2778611331622415,0.06043391167514892,-0.6896556845828216,0.031476056417509855,-0.058148697451331124,-0.3704422856051933,-0.027226431187633144,0.31583362118699443,0.41169652062909134,0.211731443604782,0.35947057082813644,0.18106390958991844,-0.04969259849955699,0.08660932733797552,-0.3803261455666799,-0.10697661941605198,-0.020807933272294712,-0.27017730513669297,-0.4627742070644584,0.17878256490281638,0.24839658213608737,-0.15230567837400533,0.4068593676348326,0.4793094237445601,0.32037301910148247,0.3495273184828427,0.14950132233657698,-0.25059100983274574,-0.29055372306245864,0.23713866714367607,-0.0505260685939716,-0.21101505295833511,0.01847721684165889,-0.008606668467498971,-0.0725219087366448,0.24841437712133352,0.19850984758080803,0.23107034674625648,-0.047234544037773385,-0.5330582409959748,-0.04712662627603617,-0.0646529342396655,-0.0815257592306617,-0.07384078516003002,-0.10239610199425177,0.05971020183437706,-0.26550807030851575,-0.5193463954629465,-0.24821196210773508,-0.10230128301114326,-0.07679635697398998,-0.14892517916359957,-0.07435126090794061,0.6330983349463739,-0.28288190487722087,-0.5174129165265227,-0.1560645197022163,-0.15931244592700833,0.15574024593579763,0.06708538807662699,-0.173285379491229,-0.42714350961099545,-0.4271717376622412,-0.18703215344730215,0.0863030083736931,0.01590472896152028,0.07521039232484455,-0.13320714865051392,-0.14848273032194675,0.0799981245179184,0.0408588766076329,0.3025977781227918,-0.07869457499512685,0.007669873350056855,-0.04986165943137612,-0.08771607541554673,-0.40965132636962065,-0.265156159259005,-0.23648922812516054,-0.07297318506011323,0.2409747539231389,-0.10168562380705887,0.17015469447110698,0.016537958012335315,-0.11655437171665972,-0.23399916490672992,-0.15249646623610694,0.1602951952775614,-0.061790369438299624,0.0029886906522370474,-0.018974393098292904,0.011060644197993557,-0.1130508778778921,-0.15169320471900427,-0.11900594392902786,0.10528819382322713,-0.152164131037532,-0.2499732714527023,0.02238078131075393,0.050519945786258055,0.06815769600515167,-0.07805349543396574,-0.11913314137124409,-0.22272990692282107,-0.19373863263865435,-0.13655343862963412,-0.178407414718513,-0.14708225436866376,-0.2227684538584412,-0.3119667547990611,-0.434456186441507,-0.45549205453482944,-0.420120151852377,-0.2638392755731816,-0.14392313140385396,-0.07209442275685854,0.01078657740453002,0.0035910484914589255],[0,0.22238312700264667,0.3522261453645574,0.5021502578390971,0.589462908901089,0.5214619525562457,0.40629099268574154,0.055738070696386706,0,-0.055738070696388545,-0.40629099268574187,-0.5214619525562458,-0.589462908901089,-0.502150257839097,-0.3522261453645575,-0.2223831270026466,0.4012048745585819,0.3343004003528836,0.4653962046846326,0.5992897311965356,0.7067146043845777,0.5564307880154946,0.44807656503246535,0.3364530182275064,0.12636273455103697,0.12987402278340462,-0.06948152971784623,-0.24810219631454455,-0.3134780955645553,-0.3556729096794912,-0.307138924460706,-0.059492621952334936,0.39913205254384715,-0.22099537579444026,-0.157039217269499,0.08005376727005639,0.2966861574113226,0.28907561340599414,0.454646729574974,0.020796530208505342,-0.08796979719466877,0.09850716263012764,0.22220829414538673,0.028642407706062082,0.004752756616603612,-0.020409424559074775,-0.01981095444845975,0.2077240279132782,0.44224656542830004,-0.00883010509085169,-0.22257963177493065,-0.25353767211651806,0.04107411435431573,0.17820171332301524,-0.024626725907526018,-0.24000370934562454,-0.3670269515850607,-0.07635391207695452,-0.017702905065640682,0.009035068567784073,-0.06891680130238963,-0.09602688772949748,0.0758232560202689,0.1524670594309279,0.048672447548642424,0.6054803687977327,0.10329987989118625,0.06316484810132653,0.323418345783171,0.29470643131041707,-0.12398496669463786,-0.20078569436534435,-0.2408985241080224,0.2898471836598295,0.471943603674646,-0.15581218169826896,-0.18694073112026224,-0.18584557777184257,-0.09270741233158498,-0.09277660806731748,0.3267739266889738,0.23448147211633594,0.03255086490840389,-0.28458543911758094,-0.23262629176098948,0.1589252516896388,-0.05128625189118084,0.15413097426518832,0.2209429584591881,0.1254161900354802,0.00919544034747172,0.06020648699192601,-0.05112047649133837,0.1770164799334215,0.0021659099658150774,0.28863430043506494,0.30855578481070006,-0.3822101997396742,0.15972777767123164,-0.06879371858092598,-0.31943810502210296,-0.014130701262575434,-0.22417669548839583,0.3227201195590492,0.07661105939805338,-0.47117050732044774,-0.2232993900627671,0.6616889552920298,0.32502846285805553,0.31808675081275944,0.08762008677883369,0.5946356574311319,0.026956251830031124,-0.34283338418531384,0.041106089572925254,-0.4280236083843187,-0.18836176947720631,0.01781210352931497,0.05344206152627264,-0.07971121213098566,0.3847870538989326,0.26223404471124295,0.23087080756882122,0.3985868716976923,0.036158960748289566,0.19935945918321776,0.1635370845551418,0.12600787537087707,0,0.015608564307680005,0.14764019304906292,-0.2111457928915483,0.13844437049973637,0.1742915148467562,-0.029619389227243376,-0.14795874445072763,0,0.1479587444507275,0.029619389227243404,-0.17429151484675687,-0.13844437049973637,0.2111457928915487,-0.14764019304906442,-0.015608564307680723,-0.026956251830036297,-0.12600787537087696,-0.16353708455514054,-0.19935945918321643,-0.03615896074828905,-0.39858687169769214,-0.23087080756882136,-0.26223404471124356,-0.38478705389893286,0.07971121213098578,-0.053442061526271546,-0.01781210352931517,0.18836176947720668,0.4280236083843195,-0.04110608957292494,0.3428333841853125,-0.3085557848107009,-0.594635657431129,-0.08762008677883311,-0.3180867508127605,-0.32502846285805503,-0.66168895529203,0.22329939006276825,0.4711705073204484,-0.07661105939805349,-0.3227201195590491,0.22417669548839633,0.014130701262574475,0.31943810502210235,0.06879371858092535,-0.1597277776712326,0.38221019973967185,-0.32677392668897365,-0.28863430043506816,-0.002165909965814707,-0.1770164799334219,0.051120476491337274,-0.060206486991926766,-0.009195440347472824,-0.12541619003548016,-0.22094295845918796,-0.15413097426518904,0.051286251891180336,-0.1589252516896399,0.23262629176098928,0.28458543911758244,-0.03255086490840252,-0.2344814721163344,-0.048672447548642424,0.09277660806731783,0.0927074123315854,0.18584557777184335,0.18694073112026224,0.15581218169826871,-0.4719436036746452,-0.2898471836598289,0.2408985241080224,0.2007856943653438,0.12398496669463799,-0.29470643131041685,-0.323418345783171,-0.0631648481013263,-0.10329987989118634,-0.6054803687977339,-0.4422465654283,-0.1524670594309276,-0.0758232560202674,0.09602688772949868,0.06891680130239074,-0.009035068567783845,0.017702905065640144,0.07635391207695494,0.36702695158506077,0.2400037093456251,0.02462672590752552,-0.17820171332301507,-0.04107411435431605,0.2535376721165175,0.2225796317749299,0.008830105090851215,-0.3991320525438473,-0.20772402791327835,0.019810954448460052,0.020409424559074754,-0.0047527566166034796,-0.028642407706062595,-0.22220829414538704,-0.09850716263012689,0.08796979719466873,-0.020796530208505328,-0.454646729574974,-0.2890756134059935,-0.2966861574113229,-0.08005376727005664,0.1570392172694987,0.22099537579444023,-0.40120487455858195,0.0594926219523351,0.30713892446070606,0.3556729096794912,0.3134780955645555,0.24810219631454417,0.06948152971784644,-0.12987402278340424,-0.126362734551037,-0.3364530182275072,-0.44807656503246535,-0.5564307880154942,-0.706714604384578,-0.5992897311965358,-0.46539620468463266,-0.3343004003528837]],[[-0.31351634857351934,-0.1074365341745388,-0.22680283482318378,-0.32796967769001256,-0.39467166935603554,-0.42569728612037555,-0.32198136424434165,-0.35481494685908027,-0.5537536871298867,-0.35481494685908077,-0.3219813642443418,-0.4256972861203748,-0.39467166935603554,-0.3279696776900126,-0.22680283482318397,-0.10743653417453884,0.13526279974818414,0.09418858872586891,0.058385058098884446,0.039629997623370654,0.00006497447072112146,-0.08665801913837921,-0.058360655118551125,-0.3683979446465854,-0.316923714265002,-0.4085020067928381,-0.4235311424675614,-0.4435339521376526,-0.4070149606601772,-0.3148529137210286,-0.25272270733209085,-0.18036199761170502,0.08753109502291721,0.13304860848578948,0.07809246353861873,0.0782418895834334,0.0779521946740587,0.0974778035761973,-0.0813288193959289,-0.19375441551660635,-0.0806072525837698,-0.2245599813245174,-0.15864759598129746,-0.035378257612878265,-0.012989955773726957,0.018145341339236003,0.20689077360281838,0.16060882953792474,0.41788884971520185,0.12391609835258596,0.17228749957464046,0.046252232064177466,-0.11359203078217063,-0.14705993342541024,0.025422636859510326,-0.03956090208449326,-0.07576573660024866,-0.17659145249109193,-0.09038477818774918,0.01678950541143431,0.07290604334794674,0.1610845090670141,-0.04108213573208269,0.25050342033977124,-0.2816191735609937,0.006818584198135795,-0.06991136406401693,-0.009171362364368007,0.05753611900159691,-0.02805015771134381,-0.07639628164115406,-0.0746577878624717,-0.11293975695890378,0.22013965755196876,-0.1466327429518179,-0.005175256517163383,0.15743178682636585,0.21980510372797973,0.22018711596255375,-0.03170005279833955,0.15115903611485162,0.21212988318002848,-0.20332593214013184,0.4209589536382161,0.273004667878255,0.06719742274055059,0.011008697112311937,0.09628770015327082,-0.04300100893538535,-0.35167885945403377,-0.2519841178473386,-0.14890060816170034,0.10065880463440983,0.018736956279636258,-0.072541440328077,-0.19332500673424394,0.40467343212901197,0.094396751250522,0.5535412695185731,0.37296595332133,0.19706585903467666,-0.036217098821622516,-0.11766643033715041,-0.43400918676794503,-0.012170575298243362,-0.1519625338345077,-0.21613361072774345,0.03934592262325758,0.12576827127007342,-0.040294523684008245,0.055435751515092946,0.28684285344401067,-0.22496202369984963,-0.08977885393884788,0.25103941467914337,0.43536401192149227,0.2592187952970038,0.19922068480300864,-0.19766445308321795,-0.17707732202864776,0.04436346786820259,-0.12205580117562363,-0.27209432110914594,-0.6484178671104897,-0.1631842607969424,0.012483617781567617,-0.01600019011862889,0.07552262627618789,-0.7088036780277673,-0.3609629251608822,0.2614810441141615,-0.032945182470077695,-0.3472823716089126,-0.23654195412856932,-0.38632484096496367,-0.3277232115887923,0.15026091438451608,-0.32772321158879286,-0.3863248409649629,-0.23654195412856904,-0.3472823716089126,-0.03294518247007758,0.2614810441141624,-0.3609629251608827,-0.22496202369985002,0.07552262627618464,-0.016000190118632615,0.012483617781567008,-0.16318426079694376,-0.6484178671104892,-0.272094321109146,-0.12205580117562544,0.044363467868202534,-0.1770773220286478,-0.1976644530832178,0.19922068480300992,0.25921879529700353,0.4353640119214931,0.25103941467914426,-0.08977885393884598,0.4046734321290137,0.2868428534440085,0.055435751515092384,-0.04029452368400824,0.12576827127007284,0.03934592262325888,-0.21613361072774326,-0.15196253383450983,-0.012170575298244014,-0.43400918676794614,-0.11766643033714987,-0.03621709882162157,0.19706585903467674,0.37296595332133,0.5535412695185733,0.09439675125052456,0.151159036114853,-0.1933250067342411,-0.0725414403280758,0.018736956279636237,0.10065880463440997,-0.1489006081617007,-0.2519841178473399,-0.35167885945403543,-0.04300100893538523,0.09628770015327145,0.011008697112313165,0.06719742274055227,0.273004667878255,0.42095895363821706,-0.20332593214013273,0.2121298831800275,-0.2816191735609937,-0.03170005279833973,0.22018711596255383,0.2198051037279796,0.15743178682636585,-0.005175256517163351,-0.14663274295181797,0.22013965755196804,-0.11293975695890378,-0.07465778786247054,-0.07639628164115378,-0.028050157711343456,0.05753611900159691,-0.009171362364368246,-0.06991136406401721,0.006818584198135773,0.4178888497152023,0.25050342033977174,-0.04108213573208285,0.16108450906701416,0.07290604334794684,0.016789505411434216,-0.09038477818774886,-0.17659145249109165,-0.07576573660024895,-0.03956090208449354,0.025422636859510076,-0.14705993342541113,-0.11359203078217041,0.04625223206417736,0.17228749957464032,0.12391609835258674,0.08753109502291707,0.1606088295379248,0.20689077360281835,0.018145341339236044,-0.012989955773726988,-0.0353782576128786,-0.15864759598129757,-0.22455998132451802,-0.08060725258377033,-0.19375441551660658,-0.08132881939592917,0.09747780357619752,0.0779521946740585,0.07824188958343355,0.07809246353861868,0.13304860848578945,0.1352627997481842,-0.18036199761170493,-0.2527227073320908,-0.31485291372102847,-0.4070149606601771,-0.4435339521376533,-0.42353114246756146,-0.4085020067928378,-0.31692371426500215,-0.3683979446465856,-0.05836065511855132,-0.08665801913837941,0.00006497447072110175,0.03962999762337039,0.058385058098884335,0.09418858872586883],[0,0.18230456553467092,0.1956562821934026,0.25587395215894493,0.21753917464137323,0.21813761080688346,0.21438511798971635,0.006199449201909868,0,-0.006199449201911373,-0.21438511798971682,-0.21813761080688382,-0.21753917464137323,-0.2558739521589447,-0.1956562821934026,-0.18230456553467095,0.2105449992755169,0.3495171043935499,0.33920806539940423,0.39967847405767803,0.3644856932781106,0.3840363835311317,0.26503284801987764,0.10408717594348288,0.16760205143635484,0.034633176330989814,0.014087415473643637,-0.05525119921548719,-0.014696879616117237,0.01142036508396992,-0.017952783909728355,-0.07116359316974731,-0.13560126859124788,-0.18561030658135738,-0.2606854254508398,-0.1036817050709962,-0.0023300702253022383,-0.02006168932702898,-0.08748012418905048,0.1334336951351824,-0.004660698640175949,-0.026572348919937254,0.045775614760273135,-0.04181217265325632,-0.060714735527698925,0.049659661855825515,-0.03381275208562961,0.003688565945493504,-0.024660936225862757,-0.5163692306054869,-0.2521754132868723,-0.41077052728920527,-0.28722294803883636,-0.2006483526045073,-0.2570842089941772,-0.26281689795586527,-0.14457152142525173,-0.06441459462783145,0.023989119534992994,0.10872323115698321,0.030787213727994867,-0.019850112459576956,0.07816100758599767,0.23854699363512324,-0.15011655316179112,0.21486862886651253,-0.09507527160248153,-0.19723431703265165,0.03211482391789471,-0.14326652038288681,-0.2168624022864514,-0.32693128157216433,0.05349977656969126,-0.044867334198889455,-0.06718298715098808,0.12660288609119355,0.09779964522117156,0.09034733739049863,-0.19441176910774016,-0.24797226820446036,-0.443543588375513,-0.40695369272656984,0.1070253317576052,0.1429761337178615,-0.043757087039094436,-0.008364087481829706,0.10719936330245645,-0.041372653338528256,-0.4581412028397612,-0.2840914535462352,0.06371183452840906,0.18523001939833939,0.1908623054662101,-0.21563980445563838,-0.20270612578332917,-0.24126604532775264,-0.013173394076250912,-0.1654604418517468,-0.3330359865273708,-0.5916421611377354,-0.5727126160804914,-0.31514282531281057,-0.5939710541097146,-0.3388655284767383,0.44671013784136704,-0.10095612329441674,0.010345973655216148,0.1099124106140383,0.09755984000906893,-0.05698627138537772,0.11019309150938364,-0.006793405547175169,0.15480085497459045,0.3133290235157906,0.3033318189844592,0.053625227035501,-0.2293135809563281,-0.15728549278910525,-0.2966454701160008,-0.17737301341116335,0.20696029114135478,-0.013550752027316629,-0.38861587698767647,-0.14398844709924927,0.028308332737719957,-0.012025976202671828,-0.09942537020463112,-0.2485877324707017,0,0.4691569221772515,0.43084115300276404,-0.04745404351973643,0.04881410530706754,0.03902375864833872,-0.28423686591180575,0.1968051152106333,0,-0.1968051152106334,0.28423686591180597,-0.03902375864833911,-0.04881410530706754,0.04745404351973588,-0.4308411530027637,-0.4691569221772508,-0.154800854974591,0.24858773247070276,0.09942537020463209,0.012025976202673604,-0.028308332737719336,0.14398844709925002,0.38861587698767575,0.013550752027316261,-0.20696029114135386,0.1773730134111641,0.29664547011600106,0.15728549278910492,0.22931358095632767,-0.05362522703549986,-0.30333181898446177,-0.31332902351579417,0.013173394076250206,0.006793405547174203,-0.11019309150938454,0.056986271385377596,-0.09755984000906902,-0.1099124106140379,-0.010345973655217163,0.10095612329441576,-0.4467101378413669,0.3388655284767398,0.5939710541097151,0.31514282531281096,0.572712616080492,0.5916421611377363,0.33303598652737076,0.16546044185174624,0.4435435883755138,0.24126604532775195,0.20270612578332806,0.21563980445563802,-0.1908623054662107,-0.18523001939834102,-0.06371183452841034,0.28409145354623416,0.4581412028397617,0.0413726533385291,-0.10719936330245677,0.00836408748182852,0.043757087039093756,-0.14297613371786308,-0.10702533175760386,0.40695369272657456,0.15011655316179112,0.24797226820446047,0.19441176910774013,-0.09034733739049872,-0.09779964522117156,-0.12660288609119372,0.0671829871509879,0.04486733419888948,-0.05349977656969126,0.3269312815721645,0.21686240228645173,0.1432665203828871,-0.03211482391789471,0.19723431703265162,0.0950752716024815,-0.21486862886651245,0.02466093622586335,-0.2385469936351245,-0.07816100758599721,0.01985011245957731,-0.030787213727994773,-0.10872323115698314,-0.02398911953499294,0.06441459462783151,0.14457152142525126,0.26281689795586466,0.2570842089941766,0.20064835260450734,0.2872229480388364,0.4107705272892051,0.25217541328687193,0.5163692306054877,0.13560126859124785,-0.0036885659454933494,0.033812752085629706,-0.049659661855825474,0.060714735527698835,0.041812172653256326,-0.045775614760272906,0.026572348919937316,0.004660698640175806,-0.13343369513518172,0.08748012418905048,0.020061689327029102,0.002330070225302415,0.10368170507099629,0.26068542545083995,0.18561030658135722,-0.21054499927551698,0.07116359316974741,0.01795278390972847,-0.01142036508396975,0.0146968796161173,0.05525119921548716,-0.014087415473643327,-0.03463317633098984,-0.16760205143635487,-0.10408717594348409,-0.26503284801987803,-0.38403638353113206,-0.36448569327811076,-0.3996784740576782,-0.33920806539940435,-0.3495171043935502]],[[-0.3159512826791104,-0.08792711944850158,-0.2053021582680812,-0.2581629389723617,-0.32892013886290933,-0.3448535266593068,-0.15741797673479546,-0.22038517481739817,-0.4063480092610266,-0.22038517481740041,-0.1574179767347962,-0.3448535266593073,-0.32892013886290933,-0.2581629389723622,-0.20530215826808118,-0.08792711944850162,-0.01656344842265237,-0.12742929222247978,-0.23878536383152166,-0.2514476512312558,-0.19121070117807612,-0.26978383686380264,-0.2145002823354067,-0.12582031425376808,-0.09731927662567248,-0.11754311350605898,-0.206972758724121,-0.18864486398035377,-0.18959609471707772,-0.13278763604837351,-0.09589746168550185,-0.030153739088890213,0.2299144930729797,-0.020206252727813463,-0.13806462771528522,-0.08492868188343174,-0.012284931796563989,-0.11480750389709479,-0.1877056173125877,-0.008604085133665462,0.08054671335289232,0.13492892016031366,0.16139728563491842,0.11702760016997499,0.09461761391769355,0.20962041754252683,0.23979392383788783,0.2620740342522411,0.29683980806331633,0.1977460931086546,0.09829470234303249,-0.055515320109507126,-0.05190758496515407,0.12347881559059225,-0.037137604323276674,0.042001578761056244,0.05147120765187284,0.2858499389073668,0.1220952665933136,-0.14599188261560808,-0.15719414120642625,0.06146082421490257,0.12811076092539359,0.25797051906422713,0.18337523715062434,0.3156045278002571,0.22484531897291288,0.019264727766510167,-0.1277300691514459,-0.31605423318781417,-0.22437706041893388,-0.2360299500073373,-0.05252867682791677,-0.2673429318401991,-0.05673497947463398,0.21167966454484144,0.14305972662765876,0.12624497163590725,0.045379120407484944,-0.12575004773056697,0.03713652317771064,0.10457587436496227,0.12541898242248528,0.08250632413619739,-0.28490249804001666,-0.23510137460376465,-0.14284261437789636,-0.11590306626883883,-0.3408599382012916,-0.18708068709290554,-0.12161093286168831,0.043198751185504196,-0.10870150971159538,-0.02098369584703559,0.03415626345037252,-0.04555997973503259,-0.3818593165308416,0.03063129996395356,0.25354002014501736,0.10069956840212956,-0.19303353809153012,-0.04667042275414062,-0.061672906679032254,-0.13038402491202553,-0.3733297066489718,-0.1346720588524187,-0.09957540832890484,0.18477279510027309,-0.023264648513478745,0.02193184092960176,0.33028128719741245,0.19262846269255493,-0.16553823432626158,0.012433817963303204,-0.08978730991786306,0.1307490513916001,0.15912532039349223,0.027640835246366572,-0.06979708695537637,0.019216781203004865,0.3165882426852443,0.0956246217557354,-0.05635134044796346,-0.03524116876451477,0.06706804413804034,-0.1654568425819977,0.07139627314212427,-0.022158428460970533,0.04486078447321042,-0.09555080515105376,-0.2796383254836032,-0.36073888405562143,-0.025547197924794072,-0.25287084975759416,-0.11596950693713959,0.08490161861759483,0.15210510683936698,0.08490161861759528,-0.11596950693713999,-0.25287084975759416,-0.025547197924794072,-0.36073888405562127,-0.2796383254836025,-0.09555080515105326,-0.16553823432625966,-0.022158428460970877,0.07139627314212407,-0.16545684258199703,0.06706804413804111,-0.03524116876451368,-0.05635134044796312,0.09562462175573552,0.31658824268524455,0.019216781203005188,-0.0697970869553751,0.027640835246369094,0.15912532039349378,0.13074905139160226,-0.08978730991785984,0.012433817963306178,-0.38185931653084154,0.19262846269255432,0.3302812871974121,0.021931840929602146,-0.023264648513478335,0.18477279510027353,-0.0995754083289045,-0.13467205885241829,-0.373329706648971,-0.13038402491202514,-0.061672906679031914,-0.04667042275413945,-0.19303353809153018,0.10069956840212925,0.25354002014501825,0.03063129996395459,0.037136523177711066,-0.04555997973503171,0.0341562634503727,-0.020983695847035997,-0.1087015097115956,0.0431987511855036,-0.12161093286168917,-0.18708068709290632,-0.3408599382012922,-0.11590306626883944,-0.1428426143778967,-0.2351013746037634,-0.2849024980400154,0.08250632413619755,0.12541898242248528,0.10457587436496203,0.18337523715062434,-0.12575004773056678,0.045379120407484944,0.12624497163590695,0.14305972662765876,0.21167966454484155,-0.056734979474633726,-0.26734293184019914,-0.05252867682791677,-0.2360299500073373,-0.22437706041893363,-0.3160542331878131,-0.1277300691514459,0.01926472776651022,0.2248453189729126,0.3156045278002571,0.2968398080633165,0.25797051906422763,0.1281107609253931,0.061460824214902385,-0.15719414120642664,-0.1459918826156082,0.1220952665933141,0.28584993890736693,0.051471207651872616,0.04200157876105575,-0.03713760432327653,0.12347881559059293,-0.051907584965154255,-0.05551532010950699,0.09829470234303236,0.19774609310865537,0.22991449307297956,0.262074034252241,0.23979392383788783,0.20962041754252694,0.09461761391769351,0.11702760016997506,0.1613972856349184,0.13492892016031324,0.08054671335289217,-0.008604085133665899,-0.18770561731258767,-0.11480750389709429,-0.012284931796563514,-0.0849286818834318,-0.13806462771528516,-0.020206252727813505,-0.01656344842265234,-0.030153739088890193,-0.09589746168550178,-0.13278763604837346,-0.18959609471707767,-0.18864486398035343,-0.20697275872412116,-0.11754311350605881,-0.09731927662567279,-0.1258203142537693,-0.21450028233540805,-0.2697838368638032,-0.19121070117807626,-0.25144765123125595,-0.2387853638315214,-0.12742929222247984],[0,0.16271396366356944,0.14955977326391956,0.18074975238889945,0.02754896515358699,0.09267478572854776,0.03642359433180916,-0.11388445426038482,0,0.11388445426038273,-0.03642359433180975,-0.09267478572854863,-0.02754896515358699,-0.18074975238889926,-0.1495597732639195,-0.16271396366356952,-0.29164375324056063,-0.05414951490788343,-0.0009104708250440325,-0.010070518893502769,-0.07226280595567036,-0.09794549183228919,-0.03327286370229419,0.044926386488257114,-0.0247758369244137,-0.12131227378539652,-0.0981437855972586,-0.15497218284715136,-0.20010868910774027,-0.20189997098924356,-0.14019299001707736,-0.15039073747339388,-0.2709818058449234,-0.2713669925689835,-0.27126122201121194,-0.1828500800542251,-0.20235434163116947,-0.3987343071146472,-0.3010680152124327,-0.2018249638902243,-0.23607722901384565,-0.16756794592233012,-0.287248782893691,-0.3551178311267998,-0.2978957085037074,-0.0993256356828132,-0.02036978018263223,0.04533779959647125,-0.0025581017601541377,-0.3843269504196927,-0.366534130618224,-0.4037948543900615,-0.1197532543249922,-0.15768788339501358,-0.10092298112259569,-0.07418345861887411,-0.13202504116100258,-0.2840657811307987,-0.4242217405229352,-0.2764430695047158,0.19350534765585867,0.22301625957944818,0.112430595686811,0.16743758971884862,0.25476997090587694,0.08155295896856778,-0.056344174654899375,-0.16516296801457242,-0.18152195900514717,-0.03710447922632486,-0.020062926975435144,-0.08758776109099509,-0.2723132466151321,-0.2875562316771422,0.05867334874503382,0.02376416361799392,0.1492900381375174,0.10338958939054156,0.08885934457748013,0.11125986965529414,-0.030962335575397973,0.0637226999192127,-0.0009580793340372627,-0.052840239920270794,-0.20878184041426764,-0.05810878627111556,0.13419961867702143,-0.02985347303398026,-0.10274768109862091,-0.033858400294168,0.15564687743763259,0.033714834688422034,0.04754557933648027,0.056195329894533116,-0.1109966619965044,-0.17029837368452114,-0.21942097591336301,0.02004057798628595,0.1288868971370955,-0.06545470459098503,-0.10736518721400119,0.13830777860898455,-0.12813563772904157,-0.05144126797777114,-0.15039025188697394,0.13078065679483622,-0.15516363916195744,-0.3560276495547437,-0.23215914158255999,0.03971779969714331,-0.05730409279450355,-0.3402733020380993,0.4191035453824664,0.24688863144449075,0.21115389744149965,0.27242922847219475,-0.24054872014687734,-0.604287477956746,-0.41704166772643836,-0.27147470938650814,0.007602690870289546,-0.31192627954212143,-0.1717073163332135,0.004527955449665203,0.01340026538771626,0.09088825733939325,0.21008580168957927,0.24450095822737627,0,0.07239669680199896,0.0707701185527563,0.28472098233870247,-0.018690469954070504,-0.2671869908059036,0.045775993237638576,-0.03882030660763559,0,0.0388203066076359,-0.04577599323763867,0.26718699080590347,0.018690469954070504,-0.28472098233870197,-0.07077011855275617,-0.07239669680199953,-0.41910354538246575,-0.24450095822737636,-0.21008580168957974,-0.0908882573393932,-0.013400265387716296,-0.004527955449665883,0.17170731633321332,0.31192627954212127,-0.00760269087029032,0.27147470938650664,0.4170416677264385,0.6042874779567452,0.24054872014687537,-0.27242922847219603,-0.2111538974415002,-0.246888631444491,0.2194209759133625,0.34027330203809975,0.05730409279450287,-0.03971779969714337,0.23215914158255985,0.3560276495547429,0.1551636391619571,-0.1307806567948365,0.15039025188697375,0.05144126797777134,0.12813563772904155,-0.13830777860898466,0.10736518721400068,0.06545470459098521,-0.12888689713709514,-0.02004057798628822,0.030962335575398296,0.17029837368451997,0.1109966619965039,-0.05619532989453293,-0.04754557933648063,-0.033714834688422526,-0.15564687743763264,0.03385840029416794,0.10274768109862135,0.029853473033980928,-0.13419961867702057,0.05810878627111584,0.20878184041426706,0.052840239920269746,0.0009580793340377152,-0.0637226999192105,-0.25476997090587694,-0.11125986965529411,-0.08885934457747993,-0.10338958939054166,-0.1492900381375174,-0.023764163617993665,-0.05867334874503316,0.2875562316771429,0.2723132466151321,0.08758776109099506,0.020062926975434953,0.03710447922632473,0.18152195900514717,0.1651629680145723,0.05634417465489924,-0.08155295896856786,0.002558101760153608,-0.16743758971884906,-0.1124305956868113,-0.2230162595794485,-0.19350534765585853,0.2764430695047164,0.42422174052293465,0.28406578113079844,0.13202504116100253,0.07418345861887374,0.10092298112259636,0.1576878833950131,0.11975325432499166,0.40379485439006024,0.3665341306182236,0.3843269504196928,0.2709818058449233,-0.045337799596471315,0.02036978018263205,0.09932563568281284,0.2978957085037074,0.3551178311268002,0.28724878289369105,0.16756794592233026,0.2360772290138455,0.2018249638902245,0.30106801521243237,0.39873430711464874,0.20235434163116964,0.1828500800542253,0.27126122201121206,0.2713669925689837,0.2916437532405607,0.15039073747339388,0.1401929900170774,0.20189997098924362,0.2001086891077404,0.1549721828471513,0.09814378559725813,0.12131227378539537,0.024775836924413912,-0.04492638648825794,0.03327286370229455,0.09794549183228946,0.07226280595567026,0.010070518893503326,0.0009104708250441414,0.0541495149078835]],[[-0.34483282248638125,-0.04298473408222747,-0.09034589468746052,-0.050059329613822146,-0.02320498289906163,0.129657553767116,0.09533163790701307,0.034972508050103296,-0.43255448116857187,0.03497250805010222,0.09533163790701334,0.12965755376711496,-0.02320498289906163,-0.05005932961382253,-0.09034589468746058,-0.04298473408222752,-0.14114370618331556,0.1499728997817447,0.14108422521372402,0.11111509945701468,-0.01791556856310823,0.05777705286564005,0.032480802744893206,0.04560287972425923,0.05760774213388046,0.05914485517467123,-0.027784140817083053,-0.07279325228906712,-0.17555715837546523,-0.20700510710507125,-0.18207951287118165,-0.15207000451135638,0.13427579527978672,-0.0474054901040913,-0.022298926937799845,0.048178083256480965,0.11582397796918047,0.10502236483937846,0.2873932298001718,0.027796735746649422,0.045465779908901,-0.18685580786321837,-0.27059504232502907,-0.34806991900923795,-0.40215578481478587,-0.3032184351917882,-0.18250809210751007,0.17096736448851124,-0.07449245670457472,0.06779369702172318,0.12012220287543163,-0.17297997179151614,0.1118241578387618,-0.004048913183784435,-0.11646564971651378,-0.13744672540781147,-0.20347920227239502,-0.27655540496689046,-0.3125580210444267,-0.3228510804542131,-0.11335174539664712,0.0357360743345787,0.008015208923414487,0.10206978923849652,0.2610235513233763,0.1300188004740229,-0.017171512454039257,-0.26264847572390443,-0.3072769047660785,-0.06245961582114605,0.09967977038836018,-0.06137688333689561,-0.1103414073470168,-0.22352235255522718,-0.027711808343487392,-0.0316325751950402,0.28084496099320494,-0.12571060525544284,-0.3176829842396797,0.07481754526581691,0.2750736106662232,-0.12497534902121163,-0.2901625708948197,-0.47175014494753476,0.0010605617831593364,0.1370589256979545,0.28901617528679463,-0.16668535915903596,-0.3300572674208329,-0.18241524802091394,-0.13628434819548507,0.453961513254638,-0.30502623002658835,-0.28799898159300324,0.027336228539846786,0.08859402070566051,-0.4172955990074186,-0.12721701574671151,-0.3804620004858636,0.1961333366049703,0.41915165263027426,0.18096512661649478,-0.23084043559256268,-0.2594512659894237,-0.3078773396405825,0.1704497594368732,0.13922871682814844,0.2719995404870156,-0.08109823463310387,-0.12692473747201524,-0.059846244028854995,-0.20832251845523786,-0.21047070044720315,-0.7071094576900494,-0.3425258691085015,0.03335117949439264,0.05986765525098769,-0.24076493572996302,0.10211697435629039,-0.050135061800099724,0.206661359543501,0.043170600952150084,-0.12371069354452519,0.025276702815280667,-0.00491561611987116,-0.42807092421217635,0.021451736032093875,0.10164789555123788,0.0028663630246618496,0.07908058386300305,0.1445109871445047,-0.0934989889714218,-0.13895210460731763,-0.044588882196434775,-0.11181581099442062,-0.4320402880009717,0.13343122462420634,-0.43204028800097133,-0.11181581099442102,-0.04458888219643457,-0.13895210460731763,-0.09349898897142124,0.14451098714450458,0.07908058386300326,-0.21047070044720212,0.10164789555123974,0.021451736032095426,-0.42807092421217663,-0.004915616119871414,0.025276702815281254,-0.12371069354452466,0.04317060095214976,0.20666135954350012,-0.050135061800100515,0.10211697435628972,-0.24076493572996374,0.059867655250988194,0.03335117949439347,-0.3425258691084998,-0.7071094576900501,-0.41729559900741936,-0.20832251845524094,-0.059846244028853066,-0.12692473747201355,-0.0810982346331048,0.27199954048701575,0.13922871682814686,0.17044975943687288,-0.3078773396405828,-0.2594512659894239,-0.2308404355925633,0.18096512661649408,0.41915165263027476,0.19613333660497176,-0.3804620004858613,-0.12721701574671188,0.27507361066622205,0.08859402070566176,0.02733622853984479,-0.28799898159300524,-0.3050262300265879,0.4539615132546379,-0.13628434819548504,-0.18241524802091388,-0.3300572674208327,-0.166685359159036,0.28901617528679396,0.1370589256979541,0.001060561783159369,-0.4717501449475352,-0.29016257089481956,-0.12497534902121206,0.2610235513233763,0.07481754526581733,-0.3176829842396794,-0.12571060525544295,0.28084496099320494,-0.03163257519504078,-0.027711808343487562,-0.22352235255522646,-0.1103414073470168,-0.06137688333689579,0.0996797703883594,-0.06245961582114582,-0.3072769047660785,-0.26264847572390443,-0.017171512454039202,0.1300188004740228,-0.07449245670457533,0.10206978923849645,0.0080152089234145,0.035736074334578885,-0.11335174539664725,-0.3228510804542133,-0.312558021044427,-0.2765554049668904,-0.20347920227239552,-0.13744672540781147,-0.11646564971651341,-0.004048913183784483,0.11182415783876176,-0.17297997179151575,0.12012220287543172,0.06779369702172379,0.13427579527978664,0.17096736448851113,-0.18250809210751026,-0.3032184351917881,-0.402155784814786,-0.34806991900923806,-0.27059504232502885,-0.18685580786321823,0.04546577990890104,0.02779673574664994,0.2873932298001716,0.10502236483937791,0.11582397796918055,0.04817808325648086,-0.02229892693779982,-0.047405490104091313,-0.1411437061833156,-0.1520700045113563,-0.18207951287118165,-0.2070051071050711,-0.17555715837546515,-0.07279325228906694,-0.027784140817082633,0.05914485517467182,0.05760774213388029,0.045602879724258215,0.03248080274489302,0.05777705286563996,-0.017915568563108285,0.11111509945701452,0.14108422521372382,0.1499728997817446],[0,0.16962901453866652,0.21269770297140217,0.1727191238701527,0.04626791195557209,0.02953125036511501,0.058287561229818444,-0.09577995130088059,0,0.09577995130088005,-0.05828756122981839,-0.02953125036511641,-0.04626791195557209,-0.1727191238701527,-0.2126977029714022,-0.16962901453866655,-0.2230295716843674,0.16965811207568204,0.18336889778988974,-0.08866368287231872,0.06759762513222044,0.06385600219666647,-0.017695323602707164,-0.009604034512905717,0.03707496226510445,-0.15799049788479633,-0.07331983718985663,-0.14972720477542192,-0.20990283324593068,-0.21749851576291898,-0.2062524091562747,-0.20334415392221647,0.07513269912101142,-0.054678022228785636,-0.024060788183210346,-0.047185444971659045,0.03391172100670304,-0.0000030268723099862445,-0.25024994736266315,-0.038103066771708376,-0.11651006031722641,-0.238665847656313,-0.18207316929963618,-0.2111649940276013,-0.24648586125146155,-0.2092189091945309,-0.38707548520959933,0.02255351819831684,0.08068450071009892,-0.2639316746427393,-0.12325356235833469,-0.0945474944631043,-0.008970626448534412,-0.03613373667569736,-0.0794152103617629,-0.1908875520004134,-0.27828542851968496,-0.23282159352202242,-0.16308309358158843,-0.07083904445848506,-0.038543971613991986,0.017089626578170116,0.04319352757479919,0.14207166296868473,0.027055975157083828,0.0776635302692858,-0.19214599788761236,0.07698909331292889,-0.12787412246390262,-0.3265860156259332,-0.19910835627040066,-0.3833163821880148,-0.35997230578119754,-0.12052175014746827,-0.01015069737316778,0.12525468429924788,-0.0678775734881396,-0.257461916368481,0.12083801397950332,-0.0631367965656355,0.09407874643717669,0.10058182827147114,-0.1909049690347773,-0.12378861028496049,-0.015264703046858922,-0.17445291136323118,-0.2090483728293037,-0.31845281708130974,-0.04292846414621846,0.06723203084206766,0.011274026102273365,-0.03805549352770311,-0.6180071137071533,-0.07191308208844206,-0.040341919329114954,-0.3185292824897661,-0.021304067362057325,-0.24466209901000732,-0.3591387087327406,0.06454363760605424,0.20967883647830643,-0.013714645761932499,0.14617782927609474,-0.020857699222551283,0.27404420352966974,-0.1478557844128921,0.41903068521612724,0.10342057440604367,0.017208293576747778,-0.16366832975749462,-0.058049248048017345,-0.1492983709514524,-0.1685789293700942,0.08801254239019687,0.40957453439607916,0.15549808520266384,0.24184368829775707,0.39539936933470676,0.3647881020793714,0.14148369572789557,0.10739245508188698,-0.4100113201475927,0.24730621368942587,0.19327870113146847,-0.3167492602886564,-0.003022039995959193,0.18023922466856981,-0.18448795021122044,0,0.153864009554988,-0.01817109483868647,-0.14555675463259543,-0.037444093733182165,0.030424224133618224,-0.27518876852464846,0.052643839820104045,0,-0.052643839820104274,0.27518876852464874,-0.030424224133619036,0.037444093733182165,0.14555675463259596,0.018171094838686286,-0.15386400955498786,0.16857892937009572,0.18448795021122072,-0.18023922466857176,0.003022039995958227,0.3167492602886566,-0.1932787011314679,-0.2473062136894261,0.4100113201475916,-0.10739245508188718,-0.14148369572789615,-0.36478810207937123,-0.3953993693347051,-0.24184368829775646,-0.15549808520266484,-0.4095745343960831,-0.08801254239019853,0.021304067362057297,0.149298370951454,0.05804924804801761,0.16366832975749607,-0.017208293576747625,-0.1034205744060441,-0.41903068521612724,0.14785578441289152,-0.27404420352966935,0.02085769922255207,-0.14617782927609382,0.013714645761932966,-0.20967883647830687,-0.06454363760605537,0.3591387087327401,0.24466209901000782,-0.09407874643717595,0.3185292824897678,0.04034191932911877,0.07191308208844367,0.6180071137071544,0.0380554935277027,-0.011274026102272915,-0.06723203084206761,0.04292846414621943,0.3184528170813095,0.2090483728293041,0.17445291136323146,0.015264703046858836,0.1237886102849603,0.1909049690347763,-0.10058182827147105,-0.027055975157083828,0.06313679656563545,-0.12083801397950346,0.2574619163684802,0.0678775734881396,-0.12525468429924783,0.010150697373167782,0.12052175014746852,0.35997230578119754,0.3833163821880143,0.19910835627040077,0.32658601562593337,0.12787412246390262,-0.07698909331292879,0.19214599788761258,-0.07766353026928574,-0.08068450071010032,-0.14207166296868445,-0.04319352757479824,-0.017089626578169773,0.038543971613992,0.07083904445848516,0.16308309358158862,0.23282159352202278,0.27828542851968496,0.19088755200041368,0.07941521036176317,0.036133736675697484,0.008970626448534238,0.09454749446310297,0.12325356235833271,0.2639316746427381,-0.07513269912101136,-0.022553518198316747,0.3870754852095996,0.20921890919453104,0.24648586125146169,0.21116499402760158,0.18207316929963638,0.23866584765631282,0.11651006031722641,0.03810306677170784,0.25024994736266276,0.0000030268723095211455,-0.03391172100670317,0.04718544497165881,0.024060788183210377,0.05467802222878556,0.22302957168436743,0.20334415392221658,0.2062524091562748,0.217498515762919,0.20990283324593073,0.14972720477542112,0.0733198371898555,0.15799049788479488,-0.03707496226510452,0.009604034512905143,0.01769532360270726,-0.06385600219666601,-0.0675976251322206,0.08866368287231884,-0.18336889778988966,-0.16965811207568204]],[[-0.26455443960572983,-0.012862085419144593,0.02466421481144226,0.03512847922801916,-0.00200628052273551,-0.02033091051793886,0.3161870500348079,0.05490034225325437,-0.1276061422597404,0.05490034225325394,0.31618705003480824,-0.020330910517938883,-0.00200628052273551,0.03512847922801862,0.024664214811442153,-0.012862085419144614,-0.2036314024420499,0.1807565663068285,0.033560938573614946,0.07916373815896141,0.18450440388323605,-0.022885965169404603,-0.15589828843244458,-0.056775010470665355,-0.0960218605862842,0.008647171804321679,0.09021853492597047,-0.04727316951009092,-0.0017201533257739164,-0.11752890767371037,-0.16416996751526927,-0.1919604031768593,-0.21122271871274972,-0.027154041509900168,-0.09992997002674257,-0.1794927253131245,0.005705404492004256,0.14759294628596736,-0.12107578456718354,0.16501984993499205,0.11315995348184579,0.04957859491752892,0.04133207675572097,-0.09315256630422393,-0.21429798411075102,-0.32661273597529766,-0.47012407976036624,-0.39744532861045856,-0.04074193559190215,-0.3454295471157835,-0.08506643524109418,0.109949639063297,0.07720428287849986,0.21808343506769917,0.07359822688533506,0.07519996670968614,0.25945300111150726,0.15622216677799672,-0.09097823105364407,-0.26439882782707014,-0.4442590572512281,-0.590032428078036,-0.5572999123975834,0.07714376304891328,0.3440328783856047,0.037609199601186284,0.06038953235710346,0.26657038433810337,0.042478856625865126,0.24989555496398655,0.2644820276717117,0.15369742233676845,0.1565306285271466,-0.054847476996242775,-0.1679158335080364,-0.26786346062068617,-0.5091724771800749,-0.7319321116418078,-0.16708061429651458,0.2289143306403446,0.12291953277168402,0.13176707114209013,0.10026775752263235,0.32192244772204553,0.2472932535434308,0.10688301542854385,0.1120087512637177,0.13444839416568508,0.11815376071704263,-0.13629332472936137,-0.25481637556532993,-0.5568902051488241,-0.3651622941024321,-0.15140879552586486,-0.19058421940670234,-0.0738809942730025,-0.6549004961227622,0.0442188613519902,0.01604108807832388,0.17261368034269617,0.03862108609365966,-0.0016015002680603912,-0.010037822220829464,-0.07915083625868985,0.03855841883381342,0.12857944488180012,-0.260120637347967,-0.47166892703048363,-0.2377715662490575,0.18040337134245246,0.11469051807397225,0.13158759381507032,0.09697646892855957,-0.13285131548451826,0.03404770272035637,0.0613705778038231,0.16463626861993816,-0.04032748521998369,-0.290757054761372,-0.32678597297714823,0.08541836920729028,-0.10434729232292737,-0.14243417932119293,-0.12890108853502302,-0.12057144009855889,-0.3955040366190455,0.15259234103687042,0.2005934563304046,1.029808687834457,0.6451864217819987,0.13069553782615187,0.09412295402052989,-0.11466372576538135,0.1006342393011556,-0.4375138641940174,-0.18129966927100793,0.007668140679200667,-0.18129966927100766,-0.4375138641940177,0.1006342393011555,-0.11466372576538135,0.0941229540205303,0.13069553782615187,0.645186421781998,0.09697646892856561,0.20059345633040515,0.15259234103687244,-0.39550403661904565,-0.12057144009855933,-0.12890108853502313,-0.14243417932119334,-0.10434729232292798,0.08541836920729015,-0.32678597297714906,-0.2907570547613723,-0.040327485219983625,0.1646362686199382,0.06137057780382611,0.03404770272036261,-0.13285131548450954,-0.6549004961227611,0.1315875938150693,0.11469051807397093,0.18040337134245193,-0.23777156624905815,-0.47166892703048385,-0.2601206373479678,0.12857944488179973,0.03855841883381362,-0.07915083625869077,-0.010037822220829041,-0.0016015002680596837,0.03862108609365956,0.17261368034269753,0.01604108807832378,0.04421886135199313,0.12291953277168469,-0.07388099427300736,-0.1905842194067072,-0.15140879552586672,-0.36516229410243267,-0.5568902051488254,-0.25481637556533027,-0.13629332472936076,0.11815376071704252,0.13444839416568463,0.11200875126371906,0.10688301542854448,0.24729325354343112,0.3219224477220462,0.10026775752263169,0.13176707114208724,0.3440328783856047,0.2289143306403442,-0.16708061429651452,-0.7319321116418079,-0.5091724771800749,-0.2678634606206855,-0.1679158335080363,-0.05484747699624221,0.1565306285271466,0.15369742233676847,0.264482027671712,0.24989555496398666,0.042478856625865126,0.2665703843381031,0.06038953235710322,0.03760919960118603,-0.040741935591902166,0.07714376304891297,-0.5572999123975839,-0.5900324280780355,-0.44425905725122805,-0.26439882782706997,-0.09097823105364392,0.15622216677799647,0.25945300111150726,0.07519996670968618,0.0735982268853351,0.21808343506769956,0.07720428287850016,0.10994963906329724,-0.0850664352410943,-0.3454295471157861,-0.21122271871274953,-0.39744532861045856,-0.47012407976036596,-0.32661273597529766,-0.214297984110751,-0.09315256630422379,0.04133207675572115,0.04957859491752905,0.11315995348184582,0.16501984993499175,-0.12107578456718396,0.14759294628596784,0.005705404492004438,-0.17949272531312488,-0.09992997002674307,-0.02715404150990055,-0.20363140244204994,-0.19196040317685928,-0.16416996751526916,-0.11752890767371005,-0.0017201533257737943,-0.047273169510090196,0.09021853492597033,0.00864717180432218,-0.09602186058628434,-0.05677501047066648,-0.15589828843244535,-0.02288596516940461,0.1845044038832361,0.0791637381589601,0.033560938573614786,0.18075656630682838],[0,0.1657299219608797,0.11118258218955218,0.06674048195359897,-0.055284333389732584,-0.015178815003441764,-0.02853559683565458,0.07284055285654249,0,-0.07284055285654319,0.028535596835655246,0.015178815003441194,0.055284333389732584,-0.06674048195359888,-0.11118258218955211,-0.16572992196087977,-0.22589591569972267,0.039031968679999265,0.049668944402596164,0.08146242970756297,0.1751430887036919,-0.04401182103453272,0.0029571123830957713,0.11559352196926086,0.20330116420447447,0.11091506008800128,-0.1917450371183461,-0.08367129263731592,-0.15018025692123885,-0.19782505504980485,-0.12826458303253424,-0.1285000725286117,-0.1079617366899909,-0.0009331375778172228,-0.03981724957866685,0.11203938287312794,0.018011871155627735,-0.03659603811184412,0.01822235169091256,-0.16224857627675074,-0.23174331506978596,-0.1378928324534633,-0.2517212956010907,-0.20233891214528835,-0.20117814621972055,-0.1195806202224613,-0.043764630252754906,-0.0385374712813967,-0.08346482267510331,-0.23105354269762332,0.19190285735282223,0.04889424206318315,-0.13809385196044965,0.09066264093828384,-0.08481932261669196,0.17951786127579392,0.02294280417064538,-0.29251299699597394,-0.24181861062477386,-0.19102055618303196,-0.07856225597515187,0.0633399790644583,-0.05503209630808075,0.17683957593217423,-0.04064091933772521,0.13610733643763798,0.32464110924409134,-0.009550362913518682,-0.11119885746787991,0.22429190185916967,-0.08679910990779009,0.10363363575359509,0.05740076427683824,-0.08796814361615073,-0.08919375936851909,-0.0410249868773849,0.14886088847345663,0.08239134667984421,0.06377514699543678,-0.0737396203631894,0.16215445017145827,0.3053769508227434,0.15132503983059634,-0.08990911461079124,0.0849445738490188,0.10820406235265113,-0.26510644911423387,0.20898305453745955,0.180593426111986,-0.08513929702072773,-0.029545858276841842,0.1357242552525807,0.0015438441162549524,-0.13918808777346064,0.048412225472919436,0.09736177712593536,0.10958344440284108,0.15513662708064094,-0.3095093886200384,-0.20612504739856985,-0.07999368893913138,0.3212875150180508,-0.038652745500969865,0.09519925577640842,-0.000059849702724109916,-0.002640125071939953,0.1210266724952095,-0.04239799281442385,0.17647558590207696,0.24027715351611706,-0.05225573611856074,0.04246538194884622,-0.41710584421905794,-0.1802470543145556,-0.3488455036399276,-0.09824842056394792,-0.12989117628493127,0.3525349804736497,0.22210930259112416,0.15896701062473734,0.20483702603919948,0.26150548812237545,-0.16468383491261943,0.011851454568964873,0.10677840485964595,0.14562506120386393,-0.11141080107854949,-0.18144823097618307,0,0.13562344287249412,-0.11180999864341168,0.11988498844017786,0.09177174217366779,0.32051876896800546,0.07027852500457105,0.1013349626221796,0,-0.10133496262217925,-0.07027852500457084,-0.32051876896800546,-0.09177174217366779,-0.11988498844017845,0.11180999864341092,-0.135623442872495,0.4171058442190563,0.18144823097618318,0.11141080107855018,-0.14562506120386454,-0.10677840485964596,-0.011851454568965074,0.16468383491261945,-0.2615054881223761,-0.20483702603920026,-0.1589670106247372,-0.2221093025911247,-0.3525349804736493,0.1298911762849322,0.09824842056394756,0.34884550363992567,0.18024705431455185,-0.10958344440284049,-0.04246538194884422,0.05225573611856107,-0.24027715351611884,-0.17647558590207743,0.04239799281442447,-0.1210266724952091,0.0026401250719399203,0.000059849702723755456,-0.0951992557764083,0.03865274550096997,-0.321287515018051,0.07999368893913131,0.20612504739856893,0.3095093886200377,-0.15513662708063947,-0.1621544501714612,-0.09736177712593909,-0.04841222547291904,0.1391880877734619,-0.0015438441162543067,-0.1357242552525797,0.02954585827684202,0.08513929702072749,-0.18059342611198584,-0.20898305453746002,0.265106449114234,-0.10820406235265148,-0.08494457384901923,0.0899091146107903,-0.15132503983059584,-0.30537695082274263,0.04064091933772521,0.07373962036318944,-0.06377514699543663,-0.0823913466798439,-0.14886088847345663,0.04102498687738485,0.089193759368519,0.08796814361615045,-0.05740076427683824,-0.10363363575359542,0.0867991099077904,-0.22429190185916995,0.11119885746787991,0.009550362913518783,-0.32464110924409106,-0.13610733643763812,0.08346482267510097,-0.176839575932174,0.05503209630808111,-0.06333997906445812,0.07856225597515178,0.19102055618303157,0.24181861062477378,0.29251299699597344,-0.02294280417064505,-0.17951786127579322,0.08481932261669264,-0.09066264093828355,0.13809385196044943,-0.04889424206318432,-0.19190285735282311,0.23105354269762188,0.10796173668999078,0.03853747128139676,0.04376463025275503,0.11958062022246144,0.20117814621972055,0.20233891214528799,0.2517212956010903,0.13789283245346262,0.2317433150697861,0.16224857627675052,-0.01822235169091297,0.03659603811184388,-0.018011871155627978,-0.11203938287312813,0.039817249578666315,0.000933137577817035,0.22589591569972278,0.1285000725286117,0.12826458303253438,0.19782505504980483,0.15018025692123899,0.08367129263731504,0.19174503711834598,-0.110915060088002,-0.20330116420447392,-0.11559352196926448,-0.0029571123830962357,0.04401182103453231,-0.17514308870369188,-0.08146242970756325,-0.04966894440259619,-0.03903196867999926]],[[-0.33438236129428195,-0.0193089444204348,0.008119725421956108,0.03567933837334673,-0.09576112290590026,-0.0955669750510568,0.2616736487514955,0.13066015050328644,-0.3403397805554635,0.13066015050328525,0.26167364875149646,-0.09556697505105659,-0.09576112290590026,0.03567933837334632,0.008119725421956053,-0.019308944420434813,-0.24466247664569055,0.07984796568438575,-0.06320342115323783,0.1769354678134878,-0.02085847971336042,-0.06145980998501292,0.08202732280536618,0.2684275518938135,-0.2585627255493993,-0.04488005643247731,0.0037815133845385614,-0.009354817489242462,0.0703958657761675,0.02432245311865499,-0.03897826081183595,-0.21477428012188243,-0.44927844911699044,-0.16255062485089725,-0.07334694994714967,-0.07533226615087618,-0.31893870454975937,0.1474140500875417,0.08737675172402846,0.11964924878094678,-0.01577422557866576,0.055446954410215334,-0.06447435821334005,-0.031089743678085625,-0.040675249234537,-0.12228486770448202,-0.3347954978807673,-0.4701509295600817,-0.32106552195520505,-0.22251098906155764,0.05188341212286772,-0.04627087219386075,-0.33035059668622996,-0.10337133519221368,-0.08996436701961617,-0.08907086314864204,-0.06247126864840771,0.05813497570623462,-0.02949375018974794,-0.02792245596683021,-0.16204047362929414,-0.41258295912165033,-0.6052678163731524,-0.5761562002609053,0.1521018430491885,0.19669771039218803,-0.09971328149576575,-0.18717647760574646,-0.08935628842649047,-0.15732302224855185,-0.2967561830286409,0.14971834199648537,0.0023081922781848264,-0.11187619799657886,-0.025478836082326265,-0.1343154705757286,-0.3004906050306975,-0.5250359471834899,-0.7207420378788523,-0.23474720197670834,-0.13812928496189744,0.1048744227097063,0.14589677946905438,-0.21637159944437492,0.12625804121075626,0.027514122482215395,-0.1522346976254078,-0.36691299667028515,-0.4172200307717488,0.0539976714794687,-0.07526577206634069,-0.30011863425444824,-0.4789156031199811,-0.5959009654220753,-0.5024423998778422,-0.3935459291008976,-0.3371132089537707,-0.27618364329031087,-0.278440693807824,-0.2824883788526167,-0.3386455206349662,0.26759620197451667,0.2322691281837658,-0.3881516621917456,-0.02387994378979072,0.04870796134126962,-0.19240751282870533,-0.3190484881756815,-0.4331694173912782,-0.2245493191002871,-0.32419411872617115,-0.2703811984278288,0.1326267793134056,-0.3329246470498075,-0.20738804058192326,0.23039241898809507,0.17185932999112685,0.26133978612824804,-0.10614295337298445,-0.28825945974241807,-0.07208466014215255,-0.2236707760180653,-0.263566669452927,-0.38348468738384367,-0.30621852378263964,-0.0972270181131433,-0.19232036412111353,0.25747563350175573,0.04501983663583412,0.01485482878204059,0.22652852996317902,0.01959111491336495,0.087197770816884,-0.22275942829228187,-0.14409325833168385,-0.09439854457782197,-0.5319424549123325,-0.09439854457782221,-0.1440932583316837,-0.2227594282922816,0.087197770816884,0.01959111491336482,0.22652852996317907,0.014854828782040579,0.1326267793134039,0.2574756335017538,-0.19232036412111328,-0.09722701811314413,-0.30621852378263953,-0.3834846873838439,-0.26356666945292695,-0.22367077601806543,-0.07208466014215305,-0.28825945974241873,-0.106142953372984,0.26133978612824865,0.1718593299911271,0.23039241898809343,-0.2073880405819227,-0.3329246470498063,-0.3371132089537702,-0.270381198427829,-0.32419411872617354,-0.22454931910028722,-0.43316941739127773,-0.31904848817568165,-0.192407512828705,0.048707961341269534,-0.02387994378979117,-0.3881516621917456,0.23226912818376588,0.26759620197451706,-0.3386455206349667,-0.2824883788526188,-0.27844069380782405,-0.27618364329030953,-0.13812928496189988,-0.39354592910089975,-0.5024423998778424,-0.595900965422075,-0.4789156031199812,-0.30011863425444785,-0.0752657720663407,0.053997671479468844,-0.4172200307717491,-0.366912996670285,-0.1522346976254075,0.027514122482215013,0.1262580412107559,-0.21637159944437528,0.14589677946905327,0.10487442270970483,0.1521018430491885,-0.23474720197670798,-0.7207420378788525,-0.5250359471834899,-0.3004906050306975,-0.13431547057572846,-0.025478836082325824,-0.11187619799657836,0.0023081922781848264,0.14971834199648568,-0.29675618302864115,-0.15732302224855166,-0.08935628842649047,-0.18717647760574702,-0.09971328149576647,0.1966977103921882,-0.3210655219552066,-0.5761562002609055,-0.6052678163731526,-0.4125829591216507,-0.16204047362929405,-0.02792245596682999,-0.029493750189747762,0.05813497570623418,-0.06247126864840757,-0.08907086314864256,-0.08996436701961574,-0.10337133519221349,-0.3303505966862305,-0.046270872193860973,0.05188341212286762,-0.22251098906155906,-0.4492784491169906,-0.4701509295600817,-0.33479549788076707,-0.12228486770448223,-0.04067524923453696,-0.03108974367808445,-0.06447435821334109,0.055446954410213786,-0.01577422557866571,0.11964924878094595,0.08737675172402806,0.1474140500875415,-0.31893870454975937,-0.07533226615087703,-0.07334694994715003,-0.1625506248508977,-0.2446624766456905,-0.21477428012188252,-0.03897826081183589,0.02432245311865502,0.07039586577616747,-0.009354817489242325,0.003781513384536689,-0.044880056432476716,-0.2585627255493991,0.26842755189381384,0.08202732280536464,-0.06145980998501387,-0.020858479713360443,0.17693546781348615,-0.06320342115323783,0.07984796568438571],[0,0.15354080686929267,-0.04450397358592491,0.052189243870660526,-0.12499041263215559,0.05749367415931694,0.0066964981164774565,-0.02637255643541882,0,0.026372556435417704,-0.006696498116476949,-0.05749367415931666,0.12499041263215559,-0.05218924387066037,0.04450397358592489,-0.1535408068692927,-0.15096773694113574,-0.05351882610107604,0.004497934954242486,0.04055630478349209,0.01428088790402118,0.046669256702545354,-0.07217852356672289,-0.15829646103079364,0.17438615276105177,0.45154690986547014,-0.16746957683738475,-0.11877351464864247,0.10349824117448128,-0.06612497679497496,-0.06015101687359944,-0.09105037450164859,-0.10964239740090775,-0.1592896053905401,-0.01864656578924487,0.0884058292938431,0.15243139151934584,0.19694287712432373,0.07686899445226869,0.1263995807513059,0.1660910737143519,0.03793999392348851,0.12112032877418855,0.1082622659661931,-0.04288403931230352,-0.16963322888513482,-0.06142133185147801,-0.006126098065653324,-0.08087847022105207,-0.2603308012071051,0.01704951604931204,-0.0045251114317967425,0.023945685286318644,-0.08639971044191977,0.08739804158147133,0.33739107628953036,0.07429029753790384,-0.0846240760548047,-0.005439810963062712,-0.014474339631305655,-0.1734131086420245,-0.03273941889806603,0.11816238216525918,0.06264022005694067,-0.05774700569989918,0.050803802392085845,-0.08120325173555533,-0.15844301672371275,0.18702471634471626,0.010638078506193475,0.2614086198896308,0.49501099579082364,0.0461847753653967,0.0677418988396619,-0.08375882793446968,-0.10478175264598534,0.022362026589903643,0.2142518516424673,0.1382895610756931,-0.15994160257623224,0.05500390130785184,-0.057727322864170955,-0.03034476932845383,0.23197701900039577,0.35620684518932977,0.4112222284833068,0.27473580230081424,0.08801791412868734,0.42949547217973577,0.04972706580883944,-0.18198571661841617,0.12225279671797973,0.22027985125114735,0.1855052896313873,0.11113486643542966,0.24819749150188344,-0.06013170060956786,-0.5398746692809202,-0.03974435204341604,0.0771082589098488,0.11491672171010608,0.30962518484472473,0.16208400596209732,0.17110118874597724,0.09298048183852156,-0.16727088410743846,0.20906035608302623,0.2927404360454655,0.23195735533440215,0.041321600064385955,-0.12108771354627956,-0.04178647631775494,-0.174279593421465,-0.17339402516076272,0.11431184114251268,-0.23433857418945328,-0.3012793768212642,0.042900601845125785,0.002213394981507081,-0.14049465158565014,-0.1534478544712843,0.1619454947781894,0.10846597122173694,0.23587196038806504,0.19970468533131058,-0.10488442244164163,-0.28797823161920305,-0.14459915059187892,0,0.37166993391229536,-0.30209621246682117,-0.32037377254876914,-0.45284504439174456,-0.40060603529724187,-0.03916019855581038,-0.06331957033746284,0,0.0633195703374626,0.03916019855581028,0.4006060352972426,0.45284504439174456,0.32037377254876837,0.30209621246682067,-0.37166993391229597,0.17427959342146204,0.1445991505918768,0.28797823161920133,0.10488442244164087,-0.19970468533131028,-0.23587196038806407,-0.108465971221737,-0.16194549477818895,0.15344785447128476,0.1404946515856505,-0.0022133949815068277,-0.042900601845126674,0.3012793768212648,0.23433857418945298,-0.1143118411425157,0.17339402516075578,0.06013170060956806,0.041786476317755075,0.12108771354627809,-0.04132160006438626,-0.2319573553344022,-0.292740436045465,-0.20906035608302584,0.16727088410743893,-0.09298048183852171,-0.1711011887459766,-0.16208400596209765,-0.30962518484472473,-0.11491672171010597,-0.07710825890984975,0.03974435204341489,0.5398746692809179,-0.05500390130785451,-0.24819749150188636,-0.11113486643542989,-0.1855052896313869,-0.22027985125114732,-0.1222527967179795,0.1819857166184162,-0.04972706580883987,-0.42949547217973655,-0.08801791412868722,-0.2747358023008145,-0.4112222284833078,-0.35620684518933016,-0.231977019000396,0.03034476932845362,0.057727322864169546,0.05774700569989918,0.159941602576232,-0.13828956107569285,-0.21425185164246693,-0.022362026589903643,0.10478175264598545,0.08375882793446934,-0.06774189883966258,-0.0461847753653967,-0.49501099579082297,-0.2614086198896309,-0.01063807850619351,-0.18702471634471626,0.15844301672371278,0.08120325173555505,-0.05080380239208651,0.08087847022105074,-0.06264022005694017,-0.11816238216525891,0.0327394188980663,0.17341310864202428,0.014474339631305247,0.00543981096306207,0.08462407605480472,-0.07429029753790391,-0.3373910762895313,-0.08739804158147242,0.08639971044191984,-0.023945685286319258,0.004525111431796624,-0.017049516049312388,0.2603308012071038,0.10964239740090782,0.006126098065653451,0.06142133185147807,0.169633228885135,0.042884039312303564,-0.10826226596619382,-0.12112032877418953,-0.03793999392348868,-0.16609107371435214,-0.12639958075130914,-0.07686899445226968,-0.19694287712432443,-0.15243139151934593,-0.08840582929384391,0.01864656578924418,0.15928960539054024,0.1509677369411357,0.0910503745016486,0.06015101687359948,0.06612497679497506,-0.10349824117448114,0.11877351464864098,0.1674695768373842,-0.45154690986546875,-0.17438615276105204,0.158296461030789,0.07217852356672314,-0.04666925670254598,-0.014280887904021258,-0.040556304783493174,-0.004497934954242621,0.05351882610107614]],[[-0.4501678463547686,-0.05704125676544532,0.042222056747415436,0.055071860108161015,0.034750124130727277,-0.1829585004838107,0.18708550826443127,0.03857340875173152,-0.5973142865504826,0.038573408751729085,0.1870855082644306,-0.18295850048380985,0.034750124130727277,0.05507186010816042,0.04222205674741531,-0.05704125676544534,-0.24530191012641103,0.160942423807486,0.051731554715459774,0.3077368962445143,-0.28172823059994695,-0.22610813920395978,0.2883557185340802,-0.5197108691057989,0.02316218815203319,0.37375416802727784,-0.4698889911094013,-0.03763355044960839,0.1744072770142756,0.04628861214086363,-0.07890666685828382,-0.2605031889845269,-0.46633751238700877,-0.19108002929212062,0.12054082270846077,0.06620257091138317,-0.19928143925798242,0.10658549962633072,-0.5224369182104343,-0.27221204094642676,0.033535011461392775,0.12035327805356091,-0.018657405623335253,0.19913300533466027,0.0016606079491448028,-0.2196940580455665,-0.2954738634092886,-0.3619016860776502,-0.5685716590825726,0.002879714520572147,-0.017064309626575992,0.030947025660316624,0.1954766901235792,0.04973638570483701,0.16502559988203336,-0.33556325770554013,-0.21045073422290753,-0.22439802439213097,-0.0014525233741646292,0.03510113563762685,-0.04569012323338948,-0.18840612822890707,-0.2800160928295673,-0.5466240825608927,-0.36023995749993104,0.09234496230478749,-0.12269865926016335,0.058919878985881816,0.21333002939230766,0.20205214803258875,0.2256489211885295,0.2798046039080327,0.014109933221776266,-0.20039449529462816,0.07674908336481287,-0.12768043242337954,-0.15258634671859603,-0.12591851254842024,-0.3544068531041493,-0.7225448870434527,-0.6061203645737916,0.20085777459490034,-0.08453316412981673,0.17983405418579632,0.13479055191829165,0.4206416275340213,0.13321060650568028,0.48991498099041003,0.03492254593849017,0.009935696126298424,-0.10330547927104354,-0.13455525037754415,-0.06480668966005748,-0.12193501809762793,-0.4822804759037558,-1.0111183103347485,-0.4676085927680425,-0.05538938079265014,0.1651193157664228,-0.14100700248518883,0.1248876611483139,0.4259016612480734,0.0837442532591984,-0.16086888909708175,0.30215553836309683,0.1482984223059705,-0.17481256772513307,-0.14074913510719228,0.12240162042310741,-0.039422337020437,-0.6105523100910718,-0.8472206497302481,0.13931070236395895,0.13822323259032257,-0.49768660337273674,-0.19115529171115017,0.1328988419590478,0.19254381522292766,0.0590368704390937,-0.15475535346274105,-0.09849663012897414,-0.20939267258658487,-0.1378085472851778,0.13369327998107636,0.17823422272153636,0.026915774307157646,-0.7443127910234065,-0.5441215595836179,0.14204489474428778,-0.3101341313104972,-0.7705726312383497,-0.28236689596000536,0.1396777312140681,0.1851043525683381,0.0560473683810789,-0.3969927688060346,-0.2939155120480057,-0.396992768806034,0.0560473683810791,0.18510435256833815,0.1396777312140681,-0.28236689596000547,-0.7705726312383487,-0.3101341313104976,0.13931070236395757,-0.5441215595836184,-0.7443127910234068,0.02691577430715748,0.17823422272153597,0.13369327998107666,-0.13780854728517783,-0.20939267258658495,-0.09849663012897408,-0.15475535346274172,0.05903687043909461,0.19254381522292846,0.13289884195904764,-0.1911552917111506,-0.4976866033727391,0.13822323259031943,-0.46760859276804245,-0.8472206497302484,-0.6105523100910712,-0.03942233702043737,0.12240162042310729,-0.14074913510719292,-0.1748125677251332,0.1482984223059714,0.3021555383630969,-0.1608688890970817,0.08374425325919782,0.4259016612480726,0.12488766114831308,-0.14100700248519019,0.1651193157664212,-0.055389380792650614,-0.6061203645737923,-1.0111183103347479,-0.48228047590375595,-0.1219350180976279,-0.06480668966005793,-0.13455525037754348,-0.10330547927104229,0.00993569612629948,0.03492254593849051,0.48991498099041003,0.13321060650568012,0.42064162753401935,0.13479055191829178,0.1798340541857953,-0.0845331641298178,0.20085777459489892,-0.36023995749993104,-0.7225448870434522,-0.3544068531041493,-0.12591851254842035,-0.15258634671859603,-0.12768043242337912,0.07674908336481387,-0.2003944952946271,0.014109933221776266,0.2798046039080331,0.22564892118852978,0.20205214803258847,0.21333002939230766,0.05891987898588103,-0.12269865926016364,0.0923449623047875,-0.5685716590825729,-0.5466240825608931,-0.2800160928295674,-0.18840612822890704,-0.04569012323338936,0.035101135637627644,-0.0014525233741642482,-0.2243980243921307,-0.21045073422290808,-0.33556325770553824,0.1650255998820332,0.04973638570483818,0.1954766901235793,0.0309470256603172,-0.017064309626575357,0.0028797145205705812,-0.466337512387009,-0.3619016860776505,-0.2954738634092886,-0.21969405804556627,0.0016606079491449327,0.1991330053346635,-0.018657405623335056,0.12035327805355991,0.03353501146139283,-0.27221204094642354,-0.5224369182104333,0.10658549962633138,-0.19928143925798222,0.06620257091138258,0.12054082270846042,-0.19108002929212106,-0.2453019101264111,-0.260503188984527,-0.07890666685828367,0.04628861214086317,0.17440727701427583,-0.037633550449606264,-0.46988899110940113,0.3737541680272771,0.02316218815203294,-0.519710869105802,0.2883557185340778,-0.22610813920395803,-0.28172823059994706,0.3077368962445133,0.05173155471545969,0.16094242380748605],[0,0.19042256147139863,0.15803689992544684,-0.12252485422839027,-0.2621503866755849,-0.07192922956500314,0.13759533975623678,0.05739125174507207,0,-0.05739125174507593,-0.13759533975623575,0.07192922956500411,0.2621503866755849,0.12252485422839113,-0.1580368999254469,-0.1904225614713987,-0.10588086423783298,-0.26216384306006957,0.16969795590972545,-0.1147701659814026,0.2319643647608141,0.4421783530687848,-0.3655558973807205,0.21473412450686818,0.5651052071571278,0.004022690273187679,-0.14745938671758468,0.12462554723960739,0.08510947423351774,0.08345172317058927,-0.09791292163579907,-0.04467943764102788,-0.012475488109116313,-0.42897706120182044,0.08656895511655484,-0.16457945201381222,0.3058077257381481,0.006151615074096741,0.0535693040364623,0.26007215394102984,0.2496654234038373,0.28828018447547765,0.06661172533545982,-0.04689282067030631,-0.20331967014504992,-0.04287751386488522,0.15202024184810997,0.19593464674775915,-0.165279364530707,-0.3910599175335659,0.12853782582417775,0.1282892876991546,0.2607352164753124,-0.24819095125232674,-0.14869850070680654,0.08024411143847242,0.22960851184704012,0.1391193007318582,-0.025322303094318047,-0.09541728912943293,-0.14198092726675282,0.1826574844189189,0.3905089120809633,0.40091540387761093,-0.5231913473985277,-0.11539142369233396,-0.03239301032638794,0.14085638124753821,0.48135584392681147,-0.06548751721187135,0.15551511170840618,0.12812472123209903,0.2872261769491561,0.22177906064222982,0.1828408371726653,-0.04547783968243406,0.017259855775808724,0.2802310142694374,0.5916869457398848,0.28853063661118916,-0.6344635279393506,-0.1647838207809749,-0.060637739545562834,0.026013681351446886,-0.10363943505365975,-0.050418488915810696,0.3837289237274078,-0.25617667185525567,0.1298650460476021,0.029501387064474527,-0.11742644633971729,0.1367819566166624,0.16272820329504786,0.4986021374379153,0.5907600078396843,0.008651270497662157,-0.44615393415995025,-0.0607177238126737,0.38752015422122,-0.17118578358426922,-0.328271743423664,-0.3485897022791597,-0.08962941904772376,0.15818985999514606,-0.07888414572481238,-0.017372965396834177,0.10803429518633484,0.3258092969959001,0.20952130560734344,0.5874475149653966,0.5729421822314065,0.009583878568975284,-0.3732703457152545,0.4161951293736859,0.15740598239047912,0.1458828745155932,-0.19294502446693287,-0.2299070662181555,-0.16184974385536538,0.1191818878486031,0.06530868785983185,0.17881223331949453,0.23101180326087406,0.19897907324466435,0.3091393552679815,0.6069333433777157,0.4507508936149572,-0.2668711917698391,0,0.39071676120829796,-0.0835720278729609,-0.31433130430949663,-0.2907549493410439,0.19043022835653184,0.06463940318223194,0.021029720826078648,0,-0.021029720826078367,-0.06463940318223182,-0.19043022835653137,0.2907549493410439,0.3143313043094956,0.08357202787296089,-0.39071676120829824,0.3732703457152527,0.26687119176983864,-0.4507508936149571,-0.6069333433777157,-0.3091393552679814,-0.19897907324466418,-0.23101180326087348,-0.17881223331949336,-0.06530868785983152,-0.11918188784860279,0.16184974385536563,0.22990706621815565,0.19294502446693293,-0.145882874515594,-0.1574059823904804,-0.41619512937369174,0.4461539341599506,-0.009583878568976707,-0.5729421822314074,-0.587447514965397,-0.20952130560734333,-0.32580929699589944,-0.10803429518633413,0.017372965396834486,0.07888414572481227,-0.15818985999514593,0.08962941904772256,0.34858970227916014,0.3282717434236642,0.17118578358426825,-0.38752015422121955,0.06071772381267347,0.6344635279393462,-0.008651270497664384,-0.5907600078396849,-0.49860213743791526,-0.1627282032950478,-0.13678195661666212,0.11742644633971787,-0.02950138706447514,-0.12986504604760213,0.25617667185525506,-0.38372892372740725,0.05041848891581084,0.10363943505365983,-0.026013681351447635,0.060637739545560815,0.16478382078097512,0.5231913473985277,-0.28853063661118916,-0.5916869457398846,-0.28023101426943686,-0.017259855775808724,0.04547783968243444,-0.18284083717266558,-0.2217790606422302,-0.2872261769491561,-0.12812472123209934,-0.15551511170840543,0.06548751721187163,-0.48135584392681147,-0.14085638124753921,0.03239301032638751,0.1153914236923334,0.16527936453070638,-0.40091540387761093,-0.3905089120809632,-0.18265748441891885,0.14198092726675277,0.09541728912943309,0.02532230309431852,-0.13911930073185821,-0.2296085118470395,-0.08024411143847386,0.14869850070680593,0.24819095125232613,-0.2607352164753123,-0.1282892876991567,-0.1285378258241789,0.39105991753356484,0.0124754881091163,-0.195934646747759,-0.1520202418481096,0.04287751386488532,0.20331967014504984,0.04689282067030719,-0.0666117253354607,-0.28828018447547693,-0.2496654234038375,-0.26007215394103345,-0.05356930403646309,-0.006151615074097192,-0.3058077257381478,0.16457945201380952,-0.08656895511655543,0.42897706120182033,0.10588086423783306,0.04467943764102792,0.09791292163579919,-0.0834517231705893,-0.08510947423351799,-0.12462554723960584,0.14745938671758194,-0.004022690273186513,-0.5651052071571299,-0.2147341245068783,0.3655558973807202,-0.4421783530687843,-0.23196436476081392,0.11477016598140137,-0.16969795590972528,0.26216384306006946]],[[-0.46007047990402145,-0.0676301702224185,-0.06598530534147759,-0.06924561307915522,-0.13847676858988092,-0.01933230414502975,0.20692085339858957,-0.133428932188277,0.1941609502951472,-0.13342893218827462,0.20692085339858926,-0.01933230414502917,-0.13847676858988092,-0.06924561307915532,-0.06598530534147755,-0.06763017022241855,-0.2252270464047106,-0.3193358865484391,0.21456514622360467,0.2149433940301898,0.025639392105280594,-0.4343475354910457,0.11717588163206799,0.3877074891006491,0.132298376719738,0.11679173807681209,0.3143709298458145,0.07138916157072667,-0.3027340206202514,0.07558833102299921,0.11689430870173044,-0.2545211018763859,-0.34742319266949284,-0.4613050145720317,0.08503187006588356,0.10953562719427662,0.1048471240178101,0.0689839428526024,-0.12347022733570868,-0.013358481013998806,-0.33989114409636684,0.23921163136566717,-0.2033075735852474,-0.17392209969054997,0.037193252839580984,0.015893904249389267,0.2685658281392772,-0.4441252021904481,-0.40175188016469254,-0.5595793027861957,-0.05504463262845217,0.2768168497485146,0.039079195146151456,0.09524187439769793,-0.2863800365891209,-0.2040270035075967,-0.29080779273285123,0.12392475992261437,-0.4181125028516065,-0.21072384564405675,-0.06756042155521427,0.046921838374052505,0.12089043032232287,-0.5367557988995096,-0.35363454351121365,-0.5334712433237027,-0.26918705350631483,0.176631063796804,-0.2340754186916466,-0.03702488366380597,0.06496669014243352,-0.45905822155355164,-0.5398518928262936,0.092447398231589,-0.33431902121320284,-0.2364330566261398,-0.1459097756816042,0.0405324845054391,-0.06339559777783502,-0.561171550879541,-0.31237719127410535,-0.4324881498569516,-0.2827832032735589,0.3810562823113459,-0.24583651478087268,-0.24154161877634966,0.1466168933185742,-0.2267901401914514,-0.20247043069623713,-0.11131035391583952,-0.05789442670553326,0.1848285592924663,-0.04188710436724181,0.24205541947654827,-0.1731333328054069,-0.48294740974445854,-0.41926175144777994,-0.5657385891739153,-0.4122190722340493,0.12104054010666297,0.15104157877283522,0.11757550189751421,-0.09384810798379632,0.09397452422102756,-0.18732189997764423,0.12165749452610587,0.14317449492303874,0.2869560513181157,0.014006809606986236,0.08092356240233498,-0.33889132352660856,-0.5203073964040562,-0.07734008492880984,-0.31244075495018375,-0.3966627532041335,-0.15311716653578744,-0.10803152879895216,-0.13320270759217484,0.27379822322231123,0.09749777258498257,-0.11572935902601897,0.2190096153473079,0.19862646407718623,0.09578083684962958,-0.40432676773377946,-0.08123782107089807,-0.33018465944404574,-0.33749575112363817,-0.12789489785495745,-0.3620640230799949,-0.4048125198190532,-0.27047421557086826,0.02465781326209787,0.4348649899239542,0.17833416096956903,-0.16360272041801524,-0.4338658077724228,-0.16360272041801513,0.17833416096956803,0.43486498992395317,0.02465781326209787,-0.2704742155708684,-0.40481251981905336,-0.36206402307999463,-0.07734008492881068,-0.3374957511236383,-0.330184659444045,-0.08123782107089776,-0.4043267677337793,0.09578083684963021,0.1986264640771866,0.21900961534730845,-0.1157293590260194,0.09749777258498113,0.27379822322231256,-0.1332027075921751,-0.10803152879895231,-0.153117166535788,-0.39666275320413263,-0.31244075495018436,-0.41926175144778033,-0.5203073964040569,-0.3388913235266078,0.0809235624023355,0.01400680960698642,0.28695605131811486,0.14317449492303866,0.12165749452610602,-0.18732189997764415,0.09397452422102737,-0.09384810798379664,0.11757550189751384,0.15104157877283553,0.12104054010666356,-0.4122190722340487,-0.5657385891739164,-0.3123771912741059,-0.48294740974445854,-0.17313333280540635,0.24205541947654802,-0.041887104367242564,0.18482855929246647,-0.05789442670553276,-0.111310353915839,-0.2024704306962372,-0.2267901401914523,0.1466168933185738,-0.24154161877635044,-0.24583651478087307,0.3810562823113463,-0.2827832032735591,-0.4324881498569521,-0.35363454351121365,-0.5611715508795412,-0.06339559777783486,0.040532484505439705,-0.1459097756816042,-0.23643305662613978,-0.3343190212132023,0.09244739823158933,-0.5398518928262936,-0.4590582215535525,0.06496669014243378,-0.037024883663806,-0.2340754186916466,0.17663106379680402,-0.26918705350631555,-0.533471243323703,-0.40175188016469215,-0.5367557988995099,0.12089043032232316,0.0469218383740534,-0.0675604215552143,-0.21072384564405752,-0.4181125028516053,0.12392475992261544,-0.290807792732851,-0.20402700350759792,-0.2863800365891193,0.09524187439769832,0.03907919514615113,0.2768168497485139,-0.055044632628452016,-0.5595793027861969,-0.3474231926694927,-0.4441252021904479,0.26856582813927715,0.015893904249391154,0.03719325283958109,-0.17392209969055047,-0.20330757358524598,0.2392116313656658,-0.33989114409636734,-0.013358481014000627,-0.12347022733570805,0.06898394285260274,0.10484712401781009,0.1095356271942758,0.08503187006588335,-0.4613050145720316,-0.2252270464047106,-0.25452110187638577,0.11689430870173068,0.07558833102299954,-0.30273402062025173,0.07138916157072485,0.31437092984581533,0.1167917380768077,0.13229837671973782,0.3877074891006479,0.11717588163206606,-0.4343475354910446,0.02563939210528124,0.2149433940301888,0.21456514622360465,-0.31933588654843914],[0,0.016557113074202046,-0.023614497580419003,-0.0920205292725563,-0.05808186685135266,0.19091447152581548,-0.04783763110153341,0.28242036941983145,0,-0.2824203694198292,0.047837631101532246,-0.1909144715258144,0.05808186685135266,0.09202052927255638,0.023614497580419013,-0.01655711307420206,-0.07877770800820208,-0.1244128964684488,0.09829476067388904,-0.10412520774358416,0.09239180425076939,-0.018803507623311684,-0.25746533618104944,0.028802104957067982,-0.18480874743269432,0.16048595029517151,0.027435338377538702,-0.14056143616536945,-0.07137690600058631,0.12111689937155574,0.15150792395555543,-0.21310635434643926,0.09699932433409393,0.06329954756424946,-0.32919079911721894,0.0010221456041364374,-0.129774812898899,0.25699900259967595,-0.004249915383083146,-0.11597612686801585,-0.3848407085364443,0.1662124348238252,-0.23376787638530694,-0.02290745133792186,0.0005750464536676997,-0.09660735936589804,-0.21041482894722874,-0.0740363931244678,0.3158237712257685,0.27801833950059246,-0.28637720265485467,-0.043865452978050834,0.04011659466138186,0.08428647154354185,0.2258111000564516,-0.09221466384409244,0.02806946483586513,-0.212393270994093,0.20002454975389522,0.2988329373570091,-0.221835128102265,0.19725571101061673,-0.2721880312306599,0.10954133155329457,0.5000328287882029,0.49316923509301097,-0.17860368515995168,0.10941576635918358,0.11301375665821169,0.340699416517101,0.16490554737430296,0.0326679990359995,0.07426380881968112,-0.5049079181425875,0.11496906392932593,0.07496188179306354,-0.0321257514024381,0.2834188497025054,-0.22131665966947106,0.2878886327135174,0.5771794884659134,0.5478888946064022,-0.13573921843100556,0.10403888193554933,0.26616628763388084,-0.1315717179494465,0.04241114619335254,-0.03671545505915835,0.10920433147323096,-0.3058386061635786,0.12964400040806057,-0.20598131896590433,0.197147989730335,0.21084603839035662,-0.18221551066458733,0.37818300514145875,0.5930958781533155,0.5593865992275077,0.08344196008393723,-0.07265065858064912,-0.36403579900059435,0.2178283279613933,0.0054938341616869455,0.0006342476581712738,0.34018131338137075,-0.03222779511477065,-0.3437474418804132,-0.015630896207287408,0.32861878923130383,0.20243723410708325,-0.023015601724599787,0.44795241161714194,0.36535414100723024,0.44852513603693217,0.20039647346965858,-0.1335776719804747,-0.4186365961213425,0.07076766315932058,-0.2300826860592092,0.2469325740793824,-0.11052339576208164,0.007707376200433205,-0.3823810940918537,-0.12747998490891477,0.0915289329442194,0.1463711217885522,0.007827944379246199,0.34603479910675244,0,0.08285064236161976,0.07831097504725097,0.018749339662278403,-0.3592481254389553,-0.010628275689476987,0.05267411100286497,0.30807155533153674,0,-0.30807155533153635,-0.05267411100286478,0.010628275689476066,0.3592481254389553,-0.01874933966227862,-0.07831097504725094,-0.08285064236161963,-0.36535414100723357,-0.3460347991067542,-0.007827944379246703,-0.14637112178855277,-0.09152893294422,0.12747998490891368,0.3823810940918525,-0.007707376200434271,0.11052339576208228,-0.246932574079382,0.23008268605920984,-0.07076766315932011,0.41863659612134246,0.13357767198047427,-0.20039647346965903,-0.44852513603693284,-0.5930958781533154,-0.44795241161714144,0.023015601724599582,-0.20243723410708392,-0.3286187892313034,0.015630896207287494,0.3437474418804134,0.03222779511477053,-0.3401813133813706,-0.0006342476581715134,-0.005493834161686443,-0.2178283279613932,0.36403579900059363,0.07265065858064813,-0.08344196008393656,-0.5593865992275074,-0.5771794884659125,-0.37818300514145897,0.18221551066458735,-0.2108460383903564,-0.19714798973033534,0.2059813189659031,-0.12964400040806193,0.30583860616357783,-0.10920433147323097,0.036715455059158394,-0.042411146193351984,0.13157171794944691,-0.266166287633881,-0.10403888193554946,0.13573921843100564,-0.5478888946064024,-0.5000328287882029,-0.287888632713517,0.22131665966947084,-0.28341884970250486,0.0321257514024381,-0.07496188179306379,-0.11496906392932574,0.5049079181425847,-0.07426380881968112,-0.03266799903600049,-0.16490554737430177,-0.3406994165171006,-0.11301375665821169,-0.10941576635918406,0.17860368515995137,-0.4931692350930114,-0.3158237712257683,-0.10954133155329453,0.27218803123066027,-0.19725571101061656,0.22183512810226516,-0.2988329373570092,-0.20002454975389528,0.21239327099408978,-0.028069464835865154,0.09221466384409127,-0.2258111000564503,-0.08428647154354062,-0.040116594661381975,0.043865452978050536,0.28637720265485483,-0.2780183395005931,-0.09699932433409389,0.07403639312446769,0.2104148289472285,0.09660735936589754,-0.0005750464536677982,0.022907451337923213,0.2337678763853074,-0.16621243482382925,0.38484070853644337,0.11597612686801655,0.004249915383083239,-0.25699900259967257,0.12977481289889925,-0.0010221456041370142,0.3291907991172189,-0.06329954756424948,0.07877770800820219,0.2131063543464394,-0.15150792395555546,-0.1211168993715565,0.0713769060005865,0.1405614361653721,-0.027435338377541342,-0.16048595029517343,0.18480874743269396,-0.02880210495706798,0.2574653361810473,0.018803507623315622,-0.09239180425076922,0.1041252077435839,-0.09829476067388904,0.12441289646844886]],[[-0.39480825493595667,-0.09622112037092073,-0.07213636329667876,0.1610415131632543,0.054990558518489996,0.23596494680909938,-0.28899203048884364,0.04229687808749396,0.6981325719024388,0.04229687808749612,-0.2889920304888427,0.23596494680909857,0.054990558518489996,0.16104151316325455,-0.07213636329667876,-0.09622112037092077,-0.22217504482165876,-0.2758621461467874,-0.13711864713630334,0.16954542042459222,0.04065936977786395,-0.0855891229179568,0.09457623998985104,0.43892024879328856,0.22367794709897584,-0.01661045608047302,0.15411942431533007,-0.26001967458326464,-0.3209639296633694,0.18775186158308038,-0.052102092337364445,0.27210835636718667,-0.4551259289369235,-0.38892135818990026,-0.3459396094734944,-0.21698680303093393,-0.0943357755222771,0.11344952824944286,0.23464815182344465,0.10569995125834551,0.04883349814954697,-0.2020795042058772,0.22327486725392484,-0.18677292169621285,-0.07310973266542622,-0.1088222654813823,-0.03856495697936993,0.014158608631744235,-0.45817901044680864,-0.6377731440560692,-0.37449179917980435,-0.29113026084723315,-0.07944274419878637,-0.080876476693333,-0.22825113494642127,0.13468201263222573,0.16690766832248397,-0.10619624662241792,-0.047975176162780506,-0.0023940594810096436,-0.09513555194906609,-0.337503882307194,-0.08757329455509315,0.1678462850942602,-0.048786963791811355,-0.8344862604359734,-0.5674319096847252,-0.3821692464721835,-0.3097221976663386,-0.20546661262128388,-0.3318489160181508,-0.0647527973560848,0.24887671024017982,0.2438851186305314,0.4731393093934658,0.028426993649871286,-0.20595302709473454,-0.27987761278329304,-0.21509962134977606,0.16778157094142537,-0.15524931209786808,-0.9485367442278404,-0.7859003790018403,-0.4331081557402363,-0.3825915384804713,-0.11185611505540986,-0.058978821271629386,-0.26704199015401564,0.14314429677829144,0.5832533879939986,0.3771347060832994,-0.18385174536265522,-0.27648228713925854,-0.10038246984666978,-0.27443958664764767,0.3332707953122945,-0.1328195674379588,-0.8497848217859266,-0.9454463798743449,-0.6171378482750455,-0.3299444466934158,-0.2272608108751808,0.06353405666831233,-0.09289681231443564,0.21604733658621134,0.22597766730857907,0.20582730397895257,0.13599356625588035,-0.20802616070320645,-0.38760519848785024,-0.0491933262167665,0.26532148639069897,0.1415807945828763,-0.5204208170890553,-0.9505991288425142,-0.5952246143682778,-0.13435346760156022,-0.09698264595923083,-0.13928653335516086,-0.3200030610024593,-0.0826516746855149,0.1837703025585227,0.14359728230025795,0.21782950773418203,-0.20092358363246118,-0.5798680660362853,-0.20776110229645423,0.39098415507867723,0.8653925768577552,-0.029653986025182058,-0.6005497939885845,-0.7383937656083055,-0.2170469287007972,0.014280814514370688,-0.1354970520122207,-0.1698480831596488,-0.4231272998203426,-0.16984808315964872,-0.13549705201222073,0.014280814514370799,-0.2170469287007972,-0.7383937656083054,-0.6005497939885845,-0.02965398602518182,0.14158079458287925,0.39098415507867856,-0.2077611022964533,-0.579868066036285,-0.20092358363246102,0.21782950773418186,0.14359728230025748,0.18377030255852225,-0.08265167468551556,-0.320003061002459,-0.13928653335516092,-0.09698264595923088,-0.13435346760155997,-0.5952246143682783,-0.9505991288425134,-0.5204208170890569,-0.1328195674379584,0.26532148639069864,-0.04919332621676675,-0.387605198487849,-0.20802616070320556,0.13599356625588066,0.20582730397895252,0.22597766730857893,0.2160473365862118,-0.0928968123144356,0.06353405666831258,-0.22726081087518124,-0.32994444669341616,-0.6171378482750449,-0.9454463798743449,-0.849784821785926,-0.1552493120978718,0.3332707953122919,-0.27443958664764745,-0.10038246984666989,-0.27648228713925843,-0.18385174536265456,0.3771347060832994,0.5832533879939998,0.14314429677829177,-0.2670419901540164,-0.05897882127162967,-0.11185611505541038,-0.3825915384804713,-0.43310815574023626,-0.7859003790018403,-0.9485367442278398,-0.048786963791811355,0.16778157094142562,-0.21509962134977562,-0.2798776127832921,-0.20595302709473454,0.028426993649871984,0.4731393093934651,0.24388511863053008,0.24887671024017982,-0.06475279735608531,-0.3318489160181502,-0.2054666126212838,-0.3097221976663386,-0.3821692464721834,-0.5674319096847256,-0.8344862604359727,-0.458179010446808,0.16784628509426006,-0.08757329455509243,-0.3375038823071934,-0.0951355519490659,-0.002394059481010409,-0.047975176162780825,-0.10619624662241804,0.16690766832248446,0.1346820126322264,-0.22825113494642035,-0.08087647669333288,-0.07944274419878626,-0.2911302608472334,-0.3744917991798046,-0.6377731440560698,-0.4551259289369236,0.01415860863174425,-0.03856495697936946,-0.10882226548137919,-0.07310973266542585,-0.18677292169621423,0.22327486725392387,-0.20207950420587728,0.04883349814954622,0.10569995125834555,0.23464815182344398,0.11344952824944253,-0.09433577552227708,-0.21698680303093418,-0.3459396094734945,-0.38892135818990037,-0.22217504482165876,0.2721083563671868,-0.052102092337364216,0.18775186158308257,-0.3209639296633695,-0.2600196745832657,0.15411942431532943,-0.016610456080477072,0.22367794709897543,0.4389202487932856,0.09457623998984936,-0.08558912291795792,0.04065936977786414,0.16954542042459222,-0.13711864713630345,-0.2758621461467875],[0,-0.1927379553914864,-0.1755923949393578,-0.0049215071226781605,0.3678220012376258,0.027432719822264924,-0.4026164769967208,0.11127412881810994,0,-0.11127412881810811,0.40261647699671993,-0.027432719822262933,-0.3678220012376258,0.004921507122676696,0.17559239493935785,0.19273795539148628,-0.1409789448408781,-0.00921505655262159,-0.11184134499626326,-0.040059761236301415,-0.25867608052849356,-0.15834978973560873,0.31847782184757867,-0.1692366018551481,-0.6185279223466893,0.15143680044601865,0.351208909736544,-0.24567159220945062,