var pModel = {
  "scoring": {
    "size": [ 20, 22 ], 
    "bias": 0.15660825299136297, 
    "coef": [ 0.062994217359957069, 0.02794755075609958, 0.050728464220604397, -0.03782110351668682, -0.023295005720097489, 0.0272765170145935, 0.019142938405861457, 0.04429378325097779, -0.053163853852579136, -0.088561501819953273, -0.10466132995661188, -0.06813888821190503, -0.085906021125221901, 0.01443340079556631, 0.052224096859131694, 0.026024856534492696, 0.0238515649897111, -0.010617415815859045, 0.027233194209365399, 0.048417351272265548, -0.0087206358302428406, 0.0070124496983284806, 0.011662801640456792, -0.026338661966416588, 0.0021748685652587738, -0.025318908241663177, -0.0090953823829164095, 0.013320828034794452, -0.011955551350500091, -0.061813572578941323, -0.099540748482169331, -0.0509466259365935, -0.055041180775871418, 0.050034806990821586, 0.015432389615594407, 0.010263162443324895, 0.01383215475896696, -0.0036538443809099467, -0.014213951913323888, 0.057796267828129487, -0.0051889327055217472, 0.002070326969499197, -0.0087397839690369229, -0.019804610941625979, -0.052196150922758179, -0.018330135327265542, 0.024001201184268628, 0.046111263016628698, 0.0027320681364753239, -0.0045215403649611543, -0.082807335976289781, -0.068394322123885964, 0.0079552397601097176, 0.054348539475573047, 0.033076953657155114, -0.0072943724206842682, -0.029365995882687616, -0.077380475399231999, -0.0016903697005961589, -0.021104347620150669, 0.0049636673944554619, 0.0039909224735263302, -0.033362881915636224, -0.021670580794214057, 0.090810985500644939, 0.06206758284344558, 0.12808382911104496, 0.0045481518938191726, 0.11048409196414316, 0.019074783374200412, -0.075856606785611194, -0.054961920882572908, 0.042325913461383702, 0.089368403886587705, 0.084351591222182706, 0.097662363985228193, 0.082343706081656087, 0.051072657824838191, -0.017883505691370302, -0.060385651652226952, 0.0050751251384808663, -0.0082614912513151589, 0.0011853606616584592, 0.014121091202456824, 0.017509897452955739, 0.056439212112866642, 0.095072740441929038, 0.099597432812324457, 0.096029277571286722, -0.0056194126606322449, -0.031361401551067938, -0.024440558677462192, 0.022721758333013854, 0.092337264507766498, 0.08555396768132216, 0.018695216252044324, 0.022303546987088696, 0.018368215135584749, -0.019707940760976116, -0.054902990443284977, -0.0034454325354845716, -0.0049117117375767029, 0.024254366904565242, -0.0016208291995955795, -0.05384371862697418, -0.030737643760421013, 6.0883131371608978e-05, 0.028650771649976908, 0.025417627984984405, -0.035064319849919527, -0.048216455580457847, -0.027819824902205144, -0.043814068701867367, 0.03238186480714126, 0.016610751006785534, 0.00029156091297431047, -0.02151164140236746, -0.015381989987179148, 0.011393291568552793, -0.020174790089251091, 0.0010866005807661297, -0.015653374707570167, 0.0051522649468135132, 0.0031919620799017098, -0.022149354762322663, -0.036593352754926881, 0.0075842502912553018, -0.024451830607329635, -0.072073794839934369, -0.050298078431617557, 0.0052579649072016449, 0.026428779766289233, -0.03127450784260917, -0.01702105573635735, -0.033077178159368545, -0.037552546749239364, -0.026981382358723761, -0.020818182545056154, -0.0015273490936387286, 0.029964968765081961, 0.0018225869391546648, 0.012970120652640822, -0.01648437755431361, 0.035729290114036187, 0.020144415496205874, -0.016677760290519976, -0.025883152170598094, -0.058566104088288759, -0.050011598183066872, -0.010556842596878988, 0.04257625946492638, 0.04029811744800537, -0.0026940964046172139, -0.051610795971031111, -0.069795433210390362, -0.03660788573768417, -0.015004415087176981, 0.0066057164239239534, 0.0053121563015636189, 0.013791441362918924, -0.017909521003914335, 0.014721182328609202, 0.010269926207892126, 0.037846111108103, -0.014423386491866322, -0.051761339976508225, -0.078899507502646987, -0.044193833467077906, 0.02876674350869644, 0.039307090869743523, 0.030009923021707161, 0.031582167387777964, 0.0003408514222656301, -0.0022367878357756775, -0.045555685292510778, -0.072446606495481486, -0.036457969861447961, 0.022306657059846142, 0.02057954258648028, 0.026799291751165601, -0.0046511069860044815, 0.0025124775346250829, -0.010527909010282555, 0.034155385697528282, 0.011063465129451722, -0.022864701070727429, -0.019483100335407864, -0.027039528245593823, 0.045107192178882767, 0.067660988833225369, -0.039472286745837297, -0.006525951822192161, 0.052172144101890972, 0.022926313089030627, -0.0063492510157835752, -0.0463983472600384, -0.035707542261151172, 0.013142180183929365, 0.026116379837161145, 0.025266588961057247, 0.037911643611322779, 0.014004567045706694, -0.0044184010904554614, 0.02290295400745072, 0.024981974602060936, -0.03364388438786222, 0.0074813228352698579, -0.035603197292337352, -0.019524763823183487, 0.0081995655403033635, -0.0039710800779166888, 0.013185444994340243, 0.010081330839104931, 0.0035796280948189076, 0.010198128706332231, 0.030657015723825301, -0.016698141057654898, 0.025548775278933934, 0.032977765095898351, -0.0004220094850113155, 0.008244780927668123, -0.0052372015029627196, -0.0065405475062146699, 0.0068353573963639376, 0.022633411943864153, -0.02600058939042919, -0.010906040211106461, -0.0077484058573227856, 0.049347630656876154, 0.028299362159500279, -0.0033833405533121646, 0.0035990665775874542, 0.017494470647824056, 0.022500274357278739, -0.019653243736277734, 0.012231429302117141, -0.0051610625395936355, 0.0046757874789148625, -0.0073671534242907965, -0.042575956990786507, -0.021478810627961725, 0.041671992748269882, 0.0011166463227367113, 0.033401570652847996, -0.021376555663820764, -0.03347263728071196, -0.012567436603172284, 0.02319717687465633, -0.020736076375407746, 0.011532504866432725, -0.017692828059341015, -0.010243799627054288, -0.028713805266392899, -0.028039354880226061, 0.02189508158992403, 0.014266280020313462, 0.0021681788487699534, -0.03220077623809451, -0.024575190640943156, -0.0065994534219672623, -0.013532735015241812, -0.019262429796837864, -0.039220666482918852, 0.0042180600558897252, -0.016914193630841026, 0.0090265984976595631, 0.039319825138449262, 0.00018896007031775439, -0.014879835185469571, -0.011611410602805412, -0.0094623545814931705, -0.023346427872126048, 0.014349268067654415, -0.027288423503951349, 0.03513565323223853, 0.030047299459487489, 0.015344034180328953, -0.018161565752706228, 0.043091674675034726, 0.0060658384425214141, -0.012860399138553809, -0.0097812085616580686, -0.0040586689183478193, 0.022877590599195981, -0.051470093704905226, -0.019515538678633145, 0.01758587832314866, 0.032900547793319398, 0.050864288589627653, -0.0011602895778896867, 0.0056798715619141805, 0.0067867419899423596, 0.026112360624694735, 0.016851977060473436, 0.030570079148375933, -0.013543699354137132, -0.024851834008348936, -0.024822953540798325, -0.017537605647377601, 0.0069605236832977861, 0.0060808847870282299, 0.014410023489233908, 0.010229015699395983, 0.013935316985969408, -0.016267419604227, -0.059335253238280254, -0.01088485875533509, 0.027391425390665459, 0.11417822696701146, 0.0084350476503633857, 0.017712790073830646, -0.0035677049210059578, 0.022099746154244905, 0.08255178190056045, 0.03043603211114139, 0.00077922629910349896, -0.042384628800501804, 0.021191355772811407, -0.025033561238355234, 0.0075000374613785553, -0.016364768058334971, -0.011515791306925753, 0.025340934027472176, -0.0104927604787912, -0.0083607183136583663, -0.052745783335931058, -0.010619848692145672, -0.036184562201070386, -0.050297412302152636, -0.022249314881137457, -0.015491215743729702, -0.028653047618847474, -0.0093042526834399737, -0.0084650266902429466, -0.060941401343030339, -0.0093158235428625058, -0.038802564737053742, 0.013181271932369794, 0.036087846831375531, 0.0039928871954655974, 0.024832676065703635, -0.021119107961694365, 0.02754745891324531, 0.0013599526023754301, 0.010868304543705038, -0.0013180251249657899, 0.027842516808631736, 0.012119745287232152, -0.024193941582922759, 0.006987184461122801, -0.038700964800453395, -0.0061430481425142911, 0.013698024675980566, -0.040454211167714214, -0.039729617511754196, -0.0060292492286725102, 0.0040703028662691454, -0.0063112937625232294, -0.0091516802406194052, 0.0048315955660302654, 0.025338624549220326, -0.024372085347302022, -0.002587831573689167, -0.0080090707586524812, 0.077382070582761892, 0.018353795760068216, 0.0096126381024973263, -0.018675446648337778, -0.011543826877542785, 0.033140088484436073, 0.0015161107888542625, 0.033204754806810073, 0.030129781708703139, -0.013323374003031444, 0.0070009103727272527, -0.0054342290402969121, 0.018322822371822853, 0.021376710176458268, 0.0048575705745286324, -0.023880020314958457, 0.033847918851995326, -0.0053896681733619578, -0.01374146244600862, 0.0036673085168221591, 0.02224948966444279, 0.0034471662585545708, -0.014301585458603598, -0.0006210069466959494, -0.011356177398385132, 0.014534633491572874, -0.003285416463510135, 0.005121682697191589, 0.0024363611770807604, -0.036835276818707352, 0.0066469674087230408, 0.007571729648692696, -0.0065796218571939694, -0.0012215846415462627, 0.014747455867514372, -0.032925629937901678, -0.010755544102350564, -0.022814028703376555, -0.0016932361456465563, 0.034961203984693316, 0.017045857344723241, -0.00072161156845072186, 0.0014831975244531453, 5.4707026074242351e-05, -0.074130524416137059, -0.037232545549164414, -0.043610419248302501, -0.017616260723602901, -0.029219457123183943, -0.035835134774093079, 0.0079584188177773494, 0.00053650392620632672, 0.014318020022245746, 0.047213833656503605, 0.03545380996135513, -0.021172802647040231, -0.01020849249878236, -0.011418252409942636, 0.0078202127604741784, -0.022343312715413566, -0.012235491610079991, 0.026087046761683733, 0.043575413043923497, 0.069445039554821286, 0.042473396242931998, -0.007416837416383628, -0.012690540925644131, -0.023820824502864539, 0.0018916727587563525, 0.0063188782087098497, 0.046735106614665178, 0.042675039461484369, 0.033272330315960469, -0.016432591805185966, 0.0012931937291655272, 0.0036801675646571793 ]
  }, 
  "path": {
    "normal": [
      [0, 1, 2, 3, 4, 5, 6, 7, 8, 9, 10, 11, 12, 13, 14], 
      [15, 16, 17, 18], 
      [19, 20, 21, 22], 
      [23, 63, 24, 64, 25, 65, 26, 66, 23], 
      [28, 67, 29, 68, 30, 69, 31, 70, 28], 
      [34, 35, 36, 42, 37, 43, 38, 39, 40], 
      [33, 41, 62], 
      [44, 45, 46, 47, 48, 49, 50, 51, 52, 53, 54, 55, 44, 56, 57, 58, 50, 59, 60, 61, 44], 
      27, 32
    ],
    "vertices": [
      // jawline
      [0,1,23,0],
      [1,23,66,1],
      [1,2,66,1],
      [2,66,26,2],
      [2,26,35,2],
      [2,35,36,2],
      [2,36,3,2],
      [36,44,45,36],
      [3,4,44,3],
      [3,44,36,3],
      [4,44,55,4],
      [4,5,55,4],
      [5,55,54,5],
      [5,6,54,5],
      [6,53,54,6],
      [6,7,53,6],
      [7,8,53,7],
      [8,52,53,8],
      [8,9,52,8],
      [9,51,52,9],
      [9,10,51,9],
      [10,50,51,10],
      [10,11,50,10],
      [11,38,50,11],
      [11,12,38,11],
      [12,38,39,12],
      [12,31,39,12],
      [12,31,70,12],
      [12,13,70,12],
      [13,28,70,13],
      [13,14,28,13],
      // right eyebrow
      [14,15,28,14],
      [15,28,67,15],
      [15,16,67,15],
      [16,67,29,16],
      [16,17,29,16],
      [17,68,29,17],
      [17,18,68,17],
      [18,68,30,18],
      [18,30,33,18],
      // below eyes
      [30,40,69,30],
      [39,40,69,39],
      [39,31,69,39],
      [26,65,35,26],
      [34,35,65,34],
      [25,34,65,25],
      // left eyebrow
      [22,25,33,22],
      [22,25,64,22],
      [21,22,64,21],
      [21,24,64,21],
      [20,21,24,20],
      [20,24,63,20],
      [19,20,63,19],
      [19,23,63,19],
      [19,23,0,19],
      // below nose
      [36,45,46,36],
      [36,42,46,36],
      [42,37,46,42],
      [37,46,47,37],
      [46,37,47,46],
      [37,47,48,37],
      [38,48,49,38],
      [37,43,48,37],
      [43,38,48,43],
      [38,49,50,38],
      // nose region
      //[21,17,22,21],
      //[17,18,22,17],
      [22,18,33,22],
      [40,41,30,40],
      [25,33,41,25],
      [33,41,30,33],
      [25,34,41,25],
      [41,40,62,41],
      [34,41,62,34],
      [34,35,62,34],
      [35,36,62,35],
      [36,42,62,36],
      [42,37,62,42],
      [37,43,62,37],
      [43,38,62,43],
      [38,39,62,38],
      [39,40,62,39],
      // mouth
      [44,45,61,44],
      [45,46,61,45],
      [46,47,61,46],
      [47,61,60,47],
      [47,59,60,47],
      [47,48,59,47],
      [48,49,59,48],
      [49,50,59,49],
      [50,51,58,50],
      [51,52,58,51],
      [52,57,58,52],
      [52,53,57,52],
      [53,54,57,53],
      [54,56,57,54],
      [54,55,56,54],
      [44,55,56,44],
      // left eye
      [23,63,27,23],
      [63,24,27,63],
      [24,64,27,24],
      [64,25,27,64],
      [25,65,27,25],
      [65,26,27,65],
      [26,66,27,26],
      [66,23,27,66],
      // right eye
      [28,67,32,28],
      [67,29,32,67],
      [29,68,32,29],
      [68,30,32,68],
      [30,69,32,30],
      [69,31,32,69],
      [31,70,32,31],
      [28,32,70,28]
    ]
  }, 
  "patchModel": {
    "numPatches": 71, 
    "weights": [
      [ [ -0.48153273776672073, -0.090761909271715402, -0.11459979458775284, -0.12963452123697078, -0.19250242800335288, -0.27119453552460931, -0.37544919435844887, -0.48762873336555723, -0.77358055608625964, -0.48762873336555945, -0.37544919435844903, -0.27119453552460898, -0.19250242800335288, -0.12963452123697092, -0.11459979458775284, -0.090761909271715402, -0.1247179504617108, -0.00093884711484225173, 0.0081003928078936787, -0.040204724960639815, -0.11032192681414235, -0.28196039040370602, -0.38235997209068301, -0.388645045219358, -0.43130623356592773, -0.43366888565976064, -0.30349021489124539, -0.22678090181307398, -0.18877983759145781, -0.1200787649327939, -0.19265309807650627, -0.21311395337844222, -0.1578630625056936, -0.090294606093888369, 0.014286716152995958, -0.067049306046122789, 0.18537552446839295, -0.286707501715942, -0.37704140977753126, -0.29088817920444204, -0.46547715774849291, -0.48569329084969148, -0.0033987601485618753, 0.11864818913852343, 0.00039120647512946134, 0.05231891305617889, -0.080444271033982079, 0.098488452148295547, 0.047950758897939781, -0.20008110479325528, -0.14244545477905396, -0.11994943697701203, 0.095399626492811349, 0.0053248395773897754, -0.10606193945321202, -0.067218664579426213, -0.2023055579500343, -0.16885910027717976, 0.091720954593528747, 0.074202722406194174, 0.037283078480947029, -0.073048634873670817, -0.049088052394611899, 0.30511268513637996, -0.26178079814331806, -0.065373352608063803, -0.27246376774510228, 0.043032157320707518, 0.20834546880246416, 0.39326689350499894, -0.010264599786834109, -0.013377439859834774, -0.13859175641390509, 0.31102335712026424, 0.00015793491578184745, -0.08153339023106021, 0.043997644081371717, -0.14899418450926893, 0.061852343709346093, -0.2763783509787846, 0.030705588621978402, 0.49255954433566806, -0.0062870749871768222, -0.019053121400729553, 0.098600653799817695, 0.13584489364547767, -0.042398762058442466, -0.29874541606031491, 0.34617941568144306, -0.13603986233584858, -0.19638848418699423, -0.2737159136270188, -0.38624560399512697, -0.043398601547654299, -0.06302223343656875, -0.48893789476567856, 0.80718103038883227, 0.3262286006883372, -0.47257563409940889, 0.23109311537237603, 0.30339462720338034, 0.38254778582139681, -0.24997859817684259, -0.040940277725013831, 0.76777832911918287, 0.012475319553350041, -0.099323911520322147, -0.04149074656274223, 0.066831618994843994, -0.16505085304163661, 0.16138031841851846, 0.29252110532409176, 0.093338235097297814, 0.28207231543039374, -0.42612158157009644, 0.19418423368004331, 0.30270554588478027, 0.32013764708818881, -0.24276694071315627, 0.17552563729835766, -0.057905238321531549, 0.37780111827696838, 0.089077546805945748, 0.12208637655657405, 0.25491803469028057, -0.201978247984794, 0.24915682351605656, -0.26902053509638502, -0.69313328880082503, -0.30453278237642389, -0.35445757080121276, -0.23833087930456859, 0.047558243968571015, 0.11729362635900681, 0.396728678948714, 0.18606771533753888, -0.15046440446389342, 0.18606771533753919, 0.39672867894871261, 0.11729362635900699, 0.047558243968571015, -0.23833087930456839, -0.35445757080121348, -0.3045327823764245, 0.093338235097293193, -0.26902053509638973, 0.24915682351605281, -0.20197824798479458, 0.25491803469027935, 0.12208637655657367, 0.089077546805945818, 0.37780111827696766, -0.057905238321532111, 0.17552563729835638, -0.24276694071315644, 0.32013764708818837, 0.3027055458847796, 0.19418423368004492, -0.42612158157009467, 0.28207231543039663, 0.80718103038883093, 0.2925211053240882, 0.1613803184185171, -0.16505085304163694, 0.066831618994844438, -0.041490746562741342, -0.099323911520322744, 0.012475319553349381, 0.76777832911918231, -0.040940277725014046, -0.24997859817684348, 0.38254778582139637, 0.3033946272033809, 0.23109311537237723, -0.472575634099409, 0.32622860068833825, 0.030705588621974648, -0.48893789476567467, -0.063022233436567446, -0.043398601547653425, -0.38624560399512581, -0.27371591362701886, -0.1963884841869947, -0.13603986233584903, 0.34617941568144306, -0.29874541606031513, -0.042398762058443028, 0.13584489364547714, 0.09860065379981775, -0.019053121400729588, -0.0062870749871786541, 0.49255954433566468, -0.26178079814331806, -0.27637835097878471, 0.061852343709346017, -0.14899418450926941, 0.043997644081371717, -0.081533390231060127, 0.00015793491578156265, 0.3110233571202643, -0.13859175641390509, -0.013377439859834883, -0.010264599786834055, 0.3932668935049991, 0.20834546880246416, 0.043032157320707254, -0.27246376774510211, -0.065373352608063817, 0.04795075889793849, 0.3051126851363794, -0.049088052394612704, -0.073048634873671484, 0.037283078480946322, 0.074202722406193661, 0.091720954593528359, -0.16885910027717974, -0.20230555795003413, -0.067218664579425907, -0.10606193945321178, 0.0053248395773901995, 0.095399626492811418, -0.11994943697701185, -0.14244545477905413, -0.20008110479325555, -0.15786306250569365, 0.098488452148295477, -0.080444271033981926, 0.052318913056179049, 0.00039120647512925333, 0.11864818913852222, -0.0033987601485615895, -0.48569329084969165, -0.46547715774849285, -0.29088817920444165, -0.37704140977753076, -0.286707501715942, 0.1853755244683927, -0.067049306046122636, 0.014286716152996072, -0.090294606093888619, -0.12471795046171089, -0.21311395337844216, -0.19265309807650624, -0.12007876493279346, -0.18877983759145786, -0.22678090181307434, -0.303490214891245, -0.43366888565976053, -0.4313062335659279, -0.38864504521935822, -0.38235997209068295, -0.28196039040370618, -0.11032192681414249, -0.040204724960639836, 0.0081003928078935781, -0.00093884711484231158 ], [ 0.0, 0.2254818502028646, 0.36172082101746139, 0.52838805861589966, 0.60977206918645599, 0.65480750078234307, 0.52356882977331376, 0.22993897144489561, 0.0, -0.22993897144489731, -0.52356882977331343, -0.65480750078234151, -0.60977206918645599, -0.52838805861589921, -0.36172082101746139, -0.2254818502028646, 0.40124664671643917, 0.3257643995623497, 0.46956952970564414, 0.63011194899335055, 0.75148206080753432, 0.69741340534305041, 0.72491664788188148, 0.58201913240518222, 0.41672320830339588, 0.24121848856936468, 0.12376548521036757, -0.17501720038306295, -0.26638339369103609, -0.35385434470044591, -0.30513396187279307, -0.090232149203304218, 0.39767598595189857, -0.13147670874900338, -0.086358485746485525, 0.14960921346459366, 0.32224739618738829, 0.25252231190904822, 0.47806036723144613, 0.25513922667883399, 0.13965885365716676, 0.31735061909595313, 0.54333992241643858, 0.1830825603880217, -0.034605394633441769, -0.11498909048968069, -0.068124068627309353, 0.22643402751356734, 0.32113244128600044, -0.096525424804490084, -0.11025831228534358, 0.017663021977441254, 0.27794991313275269, 0.029953199221977683, 0.10849354428774982, -0.034423259989590595, 0.10784475837732653, 0.12767051689167269, 0.30357621357164422, 0.075248873486612897, 0.074240292651898909, -0.16394026980357401, 0.090348578493193429, 0.21307614794788149, 0.0016636910742827036, 0.50671003183127405, 0.21583007970594223, -0.15542178131040102, 0.38417966017211019, 0.11882270291133275, -0.30831359353802673, -0.51022334011643988, 0.075075590650815885, -0.037370762715497267, -0.49954448820370245, 0.12942691411827267, -0.15751562603350378, -0.24777638981547545, 0.13668743895565388, -0.31703775505401699, 0.16933723308931953, 0.40817649383614296, 0.099932059740008738, -0.13486411742417856, 0.21027030959558621, 0.21998860834600498, -0.24260493193639629, 0.14551317604603745, 0.22650374413264873, -0.094964741005377939, -0.00032884462879658762, -0.0056982484550664909, 0.019827509996309396, -0.060801493597063487, -0.077807274033848198, 0.21050012735981727, 0.47043706521500078, -0.12945452631814519, 0.03518697434229303, -0.0067247158293098084, 0.18185201302452761, 0.12773874017905587, -0.16529834009602198, 0.38214933064713552, -0.044769556850093706, 0.0099874740641107875, -0.16405155791546391, -0.2551268158894387, 0.2150690991068126, 0.24349878173409978, -0.051438362810490544, 0.48756840115293648, -0.069000319423835499, 0.15418062820435532, 0.21061208801381695, -0.019256832089699537, 0.3171259320980841, -0.25386491912045217, 0.20194707776994344, -0.033215675217024433, -0.10681370258478609, 0.020128211171181177, -0.064549754155300329, -0.12889905013292544, -0.61268047131510506, 0.017142874670903925, 0.011931882747560619, -0.058960803756892083, 0.0, -0.3218669023030003, 0.10390469755102057, -0.26604331293055927, 0.54267141538673025, -0.005323935721667135, 0.056891247579997764, -0.16978453277892647, 0.0, 0.16978453277892608, -0.056891247579997244, 0.0053239357216668254, -0.54267141538673025, 0.26604331293055872, -0.10390469755102025, 0.32186690230299908, 0.069000319423830739, 0.058960803756892055, -0.011931882747558411, -0.01714287467090473, 0.61268047131510373, 0.12889905013292519, 0.06454975415530001, -0.020128211171182343, 0.10681370258478537, 0.033215675217023545, -0.201947077769943, 0.25386491912045084, -0.31712593209808515, 0.019256832089699159, -0.2106120880138167, -0.15418062820435929, -0.47043706521500106, -0.48756840115293676, 0.05143836281049026, -0.24349878173409892, -0.21506909910681249, 0.25512681588943725, 0.16405155791546247, -0.009987474064111948, 0.044769556850092991, -0.38214933064713558, 0.16529834009602176, -0.12773874017905554, -0.18185201302452669, 0.0067247158293086418, -0.035186974342295917, 0.12945452631814139, -0.16933723308932014, -0.21050012735981885, 0.077807274033847851, 0.060801493597063695, -0.019827509996309601, 0.005698248455066013, 0.00032884462879648082, 0.094964741005378175, -0.22650374413264837, -0.145513176046037, 0.24260493193639579, -0.2199886083460055, -0.21027030959558721, 0.13486411742417823, -0.099932059740008614, -0.40817649383614257, -0.0016636910742827036, 0.31703775505401627, -0.13668743895565375, 0.24777638981547545, 0.15751562603350378, -0.12942691411827201, 0.49954448820370256, 0.037370762715497149, -0.075075590650815885, 0.51022334011643866, 0.30831359353802629, -0.11882270291133301, -0.38417966017211019, 0.15542178131040121, -0.21583007970594234, -0.50671003183127339, -0.32113244128600099, -0.2130761479478808, -0.090348578493192319, 0.16394026980357451, -0.074240292651898229, -0.075248873486612577, -0.30357621357164405, -0.12767051689167183, -0.10784475837732697, 0.034423259989590269, -0.10849354428775031, -0.029953199221978158, -0.2779499131327533, -0.017663021977441816, 0.11025831228534279, 0.096525424804489654, -0.39767598595189857, -0.22643402751356748, 0.068124068627309631, 0.11498909048968067, 0.034605394633441901, -0.18308256038802156, -0.54333992241643803, -0.31735061909595341, -0.13965885365716665, -0.25513922667883299, -0.47806036723144624, -0.252522311909048, -0.32224739618738835, -0.14960921346459327, 0.086358485746485469, 0.13147670874900336, -0.40124664671643906, 0.090232149203304302, 0.30513396187279307, 0.35385434470044552, 0.26638339369103642, 0.17501720038306298, -0.12376548521036694, -0.24121848856936418, -0.41672320830339526, -0.58201913240518255, -0.72491664788188193, -0.69741340534305163, -0.75148206080753455, -0.63011194899335077, -0.46956952970564431, -0.32576439956234982 ] ],
      [ [ -0.32177193223773304, -0.10288479815964863, -0.23127969120185779, -0.31994995054443159, -0.42365497948403086, -0.48046473950731011, -0.34616958712924245, -0.40844577210806149, -0.53872976080266999, -0.4084457721080631, -0.34616958712924284, -0.48046473950730983, -0.42365497948403086, -0.31994995054443159, -0.23127969120185779, -0.10288479815964867, 0.15383479688689525, 0.09921008055587073, 0.057399928259310611, 0.057818865071551005, -0.039878018366336997, -0.068423779996296924, -0.15792396126130445, -0.32557814902252558, -0.41983564599641243, -0.38509999205280571, -0.43580336937413033, -0.43252176461118119, -0.37919299111057331, -0.27425168605773304, -0.23455733183348162, -0.16782091288415266, 0.046628121194875354, 0.048858426308135396, 0.041544613827473723, 0.058653720356287867, 0.092520701664444913, 0.0086936053706622579, -0.037910151892676727, -0.1386623627502703, -0.27436106953466594, -0.15017856291724377, -0.1682653079626146, -0.14782820521088952, -0.068882529542716717, 0.0037495439156248994, 0.059419056442148357, 0.11369477154145098, 0.30084041704165576, 0.14230201771196879, 0.14231586328020063, 0.088725624213054841, -0.021788352092480215, -0.15361999352025324, 0.063428100938655516, -0.11145086367871658, -0.045648319448699182, -0.029953787370771184, -0.10026879810792926, -0.05602096762633664, 0.09392653266940082, 0.1829739592406163, 0.12212030807792913, 0.3150856323827933, -0.32919768630176421, 0.086360296002658876, 0.15213789247228598, -0.14122753214991957, 0.17186424436519873, 0.18178847908171786, 0.052903387826167853, 0.1533590905599459, -0.13548441719370119, -0.031155558390858845, 0.2258088599965048, 0.0028229669348784781, -0.069575994415001313, 0.18308465878441879, -0.062382584497798793, -0.084343160496280739, -0.2490463860966986, 0.29879492615971098, 0.08449988610494899, 0.27150541280201013, 0.27757569844840174, -0.077712437807788692, -0.31289922339152121, -0.25812819607149351, 0.18481023559860654, 0.02491546427158969, 0.13420706475746255, -0.073937307372050579, -0.09559818236119827, -0.21814048809767378, -0.30533191489059947, -0.25263994466166245, 0.59601527209450433, 0.22201239305519305, 0.38731921981233464, -0.28756450271705958, -0.047010309951471797, -0.064614273831781671, 0.1701749366046916, -0.1524107353055191, 0.072874830167909035, 0.11407854866367849, 0.05973803296856596, 0.011736797611641142, -0.097266000010566248, 0.060707322058086738, 0.37436721073703183, 0.23220921446383921, 0.13975001369076362, -0.23214401643977328, -0.18341603838865286, -0.47718553690728854, -0.32259317726546705, -0.35973587157535442, -0.28330073791015725, -0.48722939388355629, -0.45209222857578724, -0.20802302699758293, 0.35567394079494691, 0.20218918602109881, -0.15766257881747264, 0.2538407046203035, 0.41682503102366952, 0.36071615151836112, -0.71423517034030937, -0.2274318338637501, -0.34255828935301996, 0.07620454887555228, -0.091709628939019239, -0.22536091374292186, -0.059308962456222511, -0.0028411771481337087, -0.472477115934967, -0.0028411771481335326, -0.059308962456222726, -0.22536091374292061, -0.091709628939019239, 0.076204548875552766, -0.34255828935301991, -0.22743183386375002, 0.13975001369076293, 0.36071615151835734, 0.41682503102366852, 0.25384070462030361, -0.15766257881747253, 0.20218918602109898, 0.35567394079494596, -0.20802302699758429, -0.45209222857578768, -0.48722939388355646, -0.2833007379101567, -0.35973587157535397, -0.32259317726546682, -0.4771855369072886, -0.18341603838865519, -0.23214401643977528, 0.59601527209450533, 0.23220921446383766, 0.37436721073702961, 0.06070732205808551, -0.097266000010566914, 0.011736797611640308, 0.059738032968565245, 0.11407854866367816, 0.072874830167908772, -0.15241073530551813, 0.17017493660469116, -0.064614273831781574, -0.047010309951472352, -0.28756450271706091, 0.38731921981233458, 0.22201239305519424, -0.24904638609669785, -0.25263994466166284, -0.30533191489059902, -0.2181404880976737, -0.095598182361198616, -0.073937307372050842, 0.13420706475746383, 0.024915464271589884, 0.18481023559860643, -0.25812819607149406, -0.31289922339152149, -0.077712437807787096, 0.27757569844840213, 0.27150541280201046, 0.084499886104950919, 0.29879492615971226, -0.32919768630176421, -0.08434316049628085, -0.062382584497798849, 0.18308465878441846, -0.069575994415001313, 0.0028229669348785479, 0.22580885999650485, -0.031155558390858509, -0.13548441719370119, 0.15335909055994607, 0.052903387826167755, 0.18178847908171891, 0.17186424436519873, -0.14122753214991945, 0.15213789247228596, 0.08636029600265871, 0.30084041704165565, 0.31508563238279258, 0.12212030807792848, 0.18297395924061596, 0.093926532669400861, -0.056020967626336446, -0.10026879810792906, -0.029953787370770868, -0.045648319448699057, -0.11145086367871709, 0.063428100938655418, -0.15361999352025432, -0.021788352092480846, 0.088725624213054716, 0.14231586328020013, 0.14230201771196896, 0.046628121194875236, 0.11369477154145109, 0.059419056442148496, 0.0037495439156248066, -0.068882529542716606, -0.14782820521088982, -0.1682653079626136, -0.1501785629172431, -0.27436106953466638, -0.13866236275027072, -0.03791015189267688, 0.008693605370662225, 0.092520701664445204, 0.058653720356288144, 0.04154461382747375, 0.048858426308135423, 0.15383479688689528, -0.16782091288415263, -0.23455733183348199, -0.27425168605773315, -0.37919299111057347, -0.43252176461118053, -0.43580336937413072, -0.3850999920528051, -0.41983564599641265, -0.3255781490225253, -0.15792396126130398, -0.068423779996296785, -0.039878018366337031, 0.057818865071550735, 0.057399928259310451, 0.099210080555870619 ], [ 0.0, 0.17965896060299805, 0.17588388644250619, 0.21252310603061528, 0.16376999902662218, 0.17250358811200092, 0.258505909032201, 0.044093281433714486, 0.0, -0.044093281433716082, -0.25850590903220166, -0.17250358811200076, -0.16376999902662218, -0.21252310603061531, -0.17588388644250619, -0.1796589606029981, 0.23318181858367368, 0.37111965169929167, 0.36176949841805528, 0.34970383979815645, 0.34916435241712296, 0.30985914928472541, 0.21699303428667988, 0.069835834292093793, 0.098367862378448787, 0.026274246776274431, -0.058773077881929418, -0.046784427538169436, 0.017182627713658409, 0.0060101630758443983, -0.0091333957067490767, -0.072561597138853767, -0.11769597966002748, -0.26343226641327722, -0.11012818363858279, -0.10937462505547503, -0.082513982610507977, -0.053863654976392929, 0.029938629100279168, 0.017870047158498773, 0.16944906980214139, 0.18581758996752751, 0.0088704327945367898, -0.008265503452850544, 0.03232747035988822, -0.02131355468523859, -0.029501719918048334, 0.0059913436013245081, -0.043086267209510844, -0.39680169254196074, -0.3214160510068928, -0.32258881084729002, -0.30095225231301986, -0.24569983273398877, -0.15484395989941729, -0.22311518197804062, 0.051291410081381959, -0.095883949195148657, 0.05265350973296163, 0.079513554978318884, 0.10892866553512409, -0.0071305824951695294, 0.080299905827728765, 0.13974907129171257, 0.0014344411526076284, 0.26256202468454226, -0.16721686026131727, -0.065514032537768815, -0.077860080903286361, -0.3268407791647151, -0.13501757993792662, -0.23895736044031385, -0.1186578180416368, 0.14260657646638172, 0.20165024171055992, -0.03139066602615645, 0.18733480893045867, -0.039658035667757913, -0.14414564948072789, -0.24982700992914394, -0.086959996569269227, 0.126041812756571, -0.086601333549032489, 0.24829614386354784, 0.05811100099730606, -0.19218035714828538, 0.074046085969237063, 0.36574895190796741, 0.39109203910297374, 0.36656902281569514, 0.0017769674409487796, -0.069093299046566289, -0.26111994783001957, -0.1660015523087961, 0.046012828437935929, 0.0052526565294937913, -0.20217533705765744, -0.066407718415905273, -0.16069360802044197, -0.15119053100698884, 0.16113598495412113, 0.45296355218805673, 0.38642412463630521, -0.1095560544953471, 0.13314381430862998, -0.10123274407796694, -0.055960867677101234, -0.046622365012516008, -0.053365989392595972, 0.095108055882032014, -0.207625157859499, -0.11579628669141633, 0.072540628074427002, -0.26468598138176097, -0.14385911674873431, -0.40133967826265876, -0.10579900895731269, 0.046308192578151726, 0.033213332067062042, 0.2808264361642967, 0.37476693114052523, 0.15354860777588591, -0.11900803424175105, -0.5598998412520052, -0.0087465975960739403, 0.077634705555654396, -0.10455323525939754, -0.2295428949615276, 0.0, 0.054776037482773814, 0.14830007184521071, 0.12162490998227382, 0.21751700910998703, 0.41303997193837994, 0.41634723363421045, 0.4874130510785753, 0.0, -0.48741305107857485, -0.41634723363421078, -0.41303997193837988, -0.21751700910998703, -0.12162490998227328, -0.14830007184521093, -0.054776037482774959, -0.072540628074424587, 0.22954289496153119, 0.10455323525939786, -0.077634705555654854, 0.0087465975960734476, 0.5598998412520042, 0.11900803424175034, -0.15354860777588614, -0.37476693114052567, -0.28082643616429676, -0.033213332067062833, -0.046308192578151393, 0.10579900895731194, 0.40133967826265787, 0.143859116748733, 0.26468598138176247, 0.20217533705765636, 0.11579628669141454, 0.20762515785949773, -0.095108055882031237, 0.05336598939259566, 0.046622365012514821, 0.055960867677100526, 0.10123274407796568, -0.13314381430862937, 0.10955605449534692, -0.3864241246363051, -0.45296355218805606, -0.16113598495412185, 0.15119053100699031, 0.16069360802044094, 0.066407718415902969, 0.086959996569270614, -0.0052526565294926499, -0.046012828437935041, 0.16600155230879543, 0.26111994783001891, 0.069093299046566276, -0.0017769674409492267, -0.36656902281569548, -0.39109203910297385, -0.36574895190796886, -0.074046085969236425, 0.19218035714828624, -0.058111000997307219, -0.24829614386354745, 0.086601333549032378, -0.12604181275656914, -0.0014344411526076284, 0.24982700992914358, 0.14414564948072778, 0.03965803566775819, -0.18733480893045867, 0.03139066602615638, -0.20165024171055962, -0.14260657646638131, 0.1186578180416368, 0.23895736044031426, 0.13501757993792696, 0.32684077916471449, 0.077860080903286361, 0.065514032537769273, 0.16721686026131699, -0.26256202468454237, 0.043086267209511177, -0.13974907129171227, -0.080299905827727974, 0.0071305824951701045, -0.1089286655351235, -0.079513554978318801, -0.052653509732960985, 0.095883949195149226, -0.051291410081382209, 0.22311518197804053, 0.15484395989941704, 0.24569983273398763, 0.30095225231301848, 0.32258881084728908, 0.32141605100689241, 0.39680169254196046, 0.11769597966002761, -0.0059913436013242982, 0.029501719918048373, 0.021313554685238559, -0.032327470359888186, 0.0082655034528504694, -0.0088704327945366857, -0.18581758996752726, -0.16944906980214158, -0.017870047158498516, -0.029938629100279002, 0.053863654976393123, 0.082513982610507963, 0.10937462505547507, 0.11012818363858282, 0.26343226641327744, -0.23318181858367373, 0.072561597138853726, 0.0091333957067491894, -0.0060101630758442569, -0.017182627713658312, 0.046784427538169679, 0.058773077881929474, -0.026274246776274379, -0.098367862378448717, -0.069835834292094473, -0.21699303428668018, -0.30985914928472658, -0.34916435241712312, -0.34970383979815639, -0.36176949841805572, -0.37111965169929173 ] ],
      [ [ -0.31250843366381598, -0.081290526860459997, -0.20301027775877864, -0.25310813978258684, -0.35388758040921542, -0.41299399922422397, -0.25630991968535943, -0.08971298240332877, -0.31659016937481743, -0.089712982403330699, -0.25630991968535904, -0.41299399922422353, -0.35388758040921542, -0.25310813978258695, -0.20301027775877889, -0.081290526860460038, -0.035826283547097139, -0.13805024972263197, -0.26859614605964166, -0.25051490217772782, -0.27017836686846286, -0.54331943723042553, -0.31777659253593865, -0.23453484101671568, -0.18337012946882808, -0.11777231631212862, -0.1571057681680765, -0.1863691161629113, -0.17447833054033537, -0.12739494914580571, -0.12200017827977234, -0.04347841984581706, 0.21016181888906568, -0.1044268349619466, -0.18524628584667024, -0.17630427848651226, -0.098991378976770697, -0.017677046405582864, -0.10299525867566514, -0.087600506357152927, 0.023291275474586832, 0.13733246865584264, 0.13997868452018805, 0.13543883996488798, 0.15386979745516577, 0.15274065194004122, 0.23835479317114225, 0.28318222916168662, 0.32624501904671827, 0.15878823732338623, 0.026111532694842506, 0.022248884809949351, 0.030052701399351765, 0.18135277339523015, 0.062237311319706168, 0.020331871203467897, 0.15513241893467944, 0.24684067263545362, 0.14249995678339242, -0.088720067567187227, -0.10670635732266387, 0.11729155783715095, 0.21399771334403234, 0.29491687419170459, 0.24108703641930998, 0.2569416578981224, 0.11123143093003882, 0.025706514819263591, 0.015103542857116943, 0.098680100758796491, 0.25843212011843147, 0.31438801813626216, 0.17709331673984147, -0.032949089882834848, 0.019046510275216609, 0.10606484347670134, 0.0093551521951268386, -0.022012481042924897, -0.065001182622534528, -0.087485929137656057, -0.061704563178837983, 0.021275817701799597, -0.058067642774403509, -0.089115618297765611, -0.13716989069541988, -0.25804173592759955, -0.095159467880460646, -0.20545984837570158, -0.19838911370807577, 0.069776066720383847, 0.09054549706350333, -0.012996462965785861, -0.33441816885691561, -0.2337508044710262, -0.21574841356716262, -0.048583381560008396, -0.56974330771712767, -0.13618041331833428, -0.19587309036334527, -0.18242272755584951, -0.25502282057412001, -0.037071118536188066, -0.057858087226321082, 0.30131637487869822, 0.25230871647079722, 0.25139127321611876, 0.15929171685731822, -0.012828803219320607, -0.21089000461835186, -0.22131186622921997, -0.17994259445632207, -0.24950623829938043, -0.36318467084432743, -0.24316718251408523, 0.12682216146310796, -0.041666885753611216, -0.0081941962964532777, 0.19840389107424047, 0.52158311610412578, 0.43475171939076246, 0.029218073370754969, 0.000706491712243228, -0.28071460426393358, 0.093981669989780831, -0.040851197323974527, -0.022148970133689942, 0.099431547255985769, -0.41763653109045151, 0.070060079125148195, 0.10779529894755527, -0.11567801529878316, -0.10909926448459906, 0.034938326274873539, -0.0036042683628361161, -0.087261005676191744, 0.049816377168960639, -0.024019591660039172, 0.049816377168959987, -0.087261005676191425, -0.0036042683628367037, 0.034938326274873539, -0.10909926448459951, -0.11567801529878365, 0.10779529894755449, -0.36318467084432704, -0.41763653109045024, 0.099431547255986102, -0.022148970133690143, -0.040851197323974769, 0.093981669989779693, -0.28071460426393324, 0.00070649171224196144, 0.029218073370754855, 0.43475171939076335, 0.52158311610412611, 0.19840389107424145, -0.0081941962964504258, -0.041666885753609058, 0.12682216146311173, -0.2431671825140799, -0.56974330771712589, -0.24950623829938215, -0.17994259445632185, -0.22131186622921967, -0.21089000461835172, -0.012828803219320341, 0.15929171685731866, 0.25139127321611848, 0.25230871647079711, 0.30131637487869828, -0.057858087226320749, -0.037071118536186928, -0.25502282057411962, -0.18242272755585043, -0.19587309036334699, -0.13618041331833461, -0.061704563178837185, -0.048583381560006918, -0.21574841356716207, -0.23375080447102589, -0.33441816885691589, -0.012996462965786085, 0.090545497063503039, 0.069776066720383584, -0.19838911370807558, -0.20545984837570205, -0.095159467880460688, -0.25804173592759949, -0.13716989069542015, -0.089115618297766083, -0.058067642774404925, 0.021275817701798757, 0.24108703641930998, -0.087485929137656071, -0.065001182622534723, -0.022012481042924907, 0.0093551521951268386, 0.10606484347670138, 0.019046510275216248, -0.03294908988283482, 0.17709331673984147, 0.31438801813626099, 0.25843212011843092, 0.098680100758796296, 0.015103542857116943, 0.025706514819263563, 0.1112314309300389, 0.25694165789812234, 0.32624501904671849, 0.29491687419170426, 0.21399771334403245, 0.11729155783715099, -0.10670635732266384, -0.088720067567187255, 0.14249995678339236, 0.24684067263545342, 0.15513241893467972, 0.020331871203467695, 0.062237311319705814, 0.18135277339523104, 0.030052701399351855, 0.022248884809949968, 0.026111532694842749, 0.1587882373233869, 0.21016181888906593, 0.28318222916168673, 0.23835479317114242, 0.15274065194004127, 0.1538697974551658, 0.13543883996488768, 0.13997868452018811, 0.13733246865584242, 0.023291275474586856, -0.087600506357153107, -0.10299525867566484, -0.017677046405582281, -0.098991378976770655, -0.17630427848651217, -0.18524628584667019, -0.10442683496194645, -0.035826283547097104, -0.043478419845817053, -0.12200017827977234, -0.1273949491458054, -0.17447833054033521, -0.1863691161629113, -0.15710576816807675, -0.11777231631212884, -0.18337012946882825, -0.23453484101671704, -0.3177765925359386, -0.54331943723042531, -0.2701783668684628, -0.25051490217772776, -0.26859614605964155, -0.13805024972263205 ], [ 0.0, 0.16817929595065867, 0.14845886644095016, 0.16995559601886895, 0.055915361067792692, 0.080779572121332952, 0.1555541578700646, 0.05957573899530838, 0.0, -0.059575738995310455, -0.15555415787006491, -0.080779572121333534, -0.055915361067792692, -0.16995559601886842, -0.1484588664409503, -0.1681792959506587, -0.29941563107423413, -0.028160114671737364, 0.0057703454934934202, -0.00048047826988311597, -0.20878597117217357, -0.24589546390177316, -0.16010351315345425, -0.12442569542995215, -0.055750432521784798, -0.069514315126626064, -0.16210973707706203, -0.1586296978972434, -0.1886590482595617, -0.20365221709316242, -0.14426310428974271, -0.16034047254429701, -0.33054355587492062, -0.31919634885368986, -0.28207031215038997, -0.23832903947712447, -0.24459956397324459, -0.33181306084489148, -0.32964213950260662, -0.21538631438230135, -0.10523932780487197, -0.10232419612734293, -0.21714764265623546, -0.29878992207951849, -0.24162944593365759, -0.1341264666918838, -0.036214392378490917, -0.00062034050398692613, -0.078842940878516496, -0.40944464733116082, -0.3156983242290835, -0.30407416104002954, -0.028884355864466981, -0.0063807453816412509, -0.12883323301232255, -0.19525410376946567, -0.20188329033566402, -0.27462382460279622, -0.33929853531758386, -0.23477370711797166, 0.0938508514638106, 0.25763124311922514, 0.11466981654820117, 0.1639852246709704, 0.18942493775866195, 0.10893345522837458, -0.12078018630829769, 0.087300687868595656, -0.053099488262987701, 0.13373620688016921, 0.0055124078090423032, -0.23065259652027051, -0.29668312111941331, -0.20766429345574211, 0.0095097468618264049, 0.10894882778418702, 0.046835646513503984, 0.099040895048233449, 0.12915550199729051, 0.16211489773498561, 0.057728782248940638, 0.1559813300168516, 0.12765158968199405, -0.091390988642404192, 0.027387847365911246, 0.10686921735844691, 0.27335244120679908, 0.1692261495594751, 0.10135177979459492, -0.020564740263430917, 0.0631568958607652, -0.34941379036829551, -0.32520249133266549, -0.0050262230585315466, 0.12542187461309462, 0.00066425184591090548, -0.18869463036005099, -0.15083250474664764, 0.068934088662779391, -0.016655786337271519, 0.20210705829994899, 0.23058703611532233, 0.093555816339866066, 0.098347123649340465, -0.16427561231801202, -0.18719091500956245, -0.41344361227561288, -0.57245332689795203, -0.35332777941234633, 0.056697174527222755, -0.15392935435166691, -0.17617462286084751, 0.0032446636356392639, -0.0091598681909798169, -0.13704508797729542, -0.2483092841688464, 0.0577499103641003, 0.44377604635718393, 0.26404344684600334, 0.016453687052676955, -0.04080711489405392, -0.017944277699749805, -0.24548026135628126, -0.22009278675967187, -0.10575455431074959, -0.15226863375131885, -0.33833866374324728, -0.11329468132529109, 0.0, 0.030954019230629046, 0.06621385895144509, 0.20093766002810257, 0.11917102321764235, 0.41703638295691586, 0.49635860559850159, 0.21916284106038667, 0.0, -0.21916284106038705, -0.49635860559850242, -0.41703638295691525, -0.11917102321764235, -0.20093766002810218, -0.066213858951445201, -0.030954019230628727, -0.0032446636356378128, 0.11329468132529119, 0.33833866374324595, 0.15226863375131844, 0.10575455431074926, 0.22009278675967064, 0.2454802613562802, 0.017944277699748164, 0.040807114894054052, -0.016453687052677385, -0.26404344684600362, -0.4437760463571831, -0.057749910364101743, 0.24830928416884437, 0.13704508797729473, 0.0091598681909800493, 0.18869463036005096, 0.17617462286084837, 0.15392935435166652, -0.056697174527223462, 0.35332777941234489, 0.57245332689795281, 0.41344361227561133, 0.18719091500956181, 0.16427561231801213, -0.098347123649340368, -0.093555816339865941, -0.23058703611532205, -0.20210705829994924, 0.016655786337270759, -0.068934088662779586, 0.15083250474664736, -0.057728782248939486, -0.00066425184591207892, -0.12542187461309526, 0.0050262230585313809, 0.32520249133266499, 0.34941379036829529, -0.063156895860765269, 0.020564740263430865, -0.1013517797945955, -0.16922614955947521, -0.27335244120679936, -0.10686921735844618, -0.027387847365910916, 0.091390988642403706, -0.12765158968199392, -0.15598133001684972, -0.18942493775866195, -0.16211489773498558, -0.12915550199729028, -0.099040895048233393, -0.046835646513503984, -0.10894882778418739, -0.0095097468618265749, 0.20766429345574219, 0.29668312111941331, 0.23065259652027126, -0.0055124078090412042, -0.13373620688016913, 0.053099488262987701, -0.087300687868595753, 0.12078018630829769, -0.10893345522837483, 0.078842940878515982, -0.16398522467097071, -0.11466981654820126, -0.25763124311922492, -0.093850851463810475, 0.2347737071179716, 0.33929853531758419, 0.27462382460279594, 0.20188329033566421, 0.19525410376946598, 0.12883323301232275, 0.0063807453816411563, 0.028884355864466978, 0.30407416104002905, 0.31569832422908167, 0.40944464733116259, 0.33054355587492068, 0.00062034050398697893, 0.036214392378490855, 0.13412646669188388, 0.24162944593365762, 0.29878992207951849, 0.21714764265623518, 0.10232419612734281, 0.10523932780487211, 0.21538631438230246, 0.32964213950260707, 0.33181306084489176, 0.24459956397324487, 0.23832903947712478, 0.28207031215039013, 0.31919634885368964, 0.29941563107423413, 0.16034047254429704, 0.14426310428974273, 0.20365221709316261, 0.18865904825956165, 0.15862969789724307, 0.16210973707706203, 0.0695143151266263, 0.055750432521785159, 0.12442569542995245, 0.16010351315345475, 0.2458954639017735, 0.20878597117217357, 0.00048047826988333931, -0.0057703454934934046, 0.028160114671737336 ] ],
      [ [ -0.34628915498349622, -0.045307050240905852, -0.080956199897991868, -0.029150788977861334, -0.042238656653117213, 0.049565871309655105, 0.11942182305954907, 0.063409325823463064, -0.12684295474141757, 0.063409325823462162, 0.11942182305954882, 0.049565871309654223, -0.042238656653117213, -0.029150788977861813, -0.080956199897991923, -0.045307050240905887, -0.14260434419486145, 0.14866280001221732, 0.089213028935847871, 0.11450499406622396, 0.064097528304444706, 0.13999270826508442, 0.1225149309471219, 0.094802763577891538, -0.11125255347138298, -0.020697514313150218, 0.019450358679911104, -0.076377063779983642, -0.14731547910835177, -0.19139078682122707, -0.18114074126028951, -0.1535993333565023, 0.098723909248279285, -0.041909566566355499, -0.01305080957714339, 0.085844104194148646, 0.20409481660193074, 0.12841759827357016, 0.15632878993587965, -0.068365945342944878, -0.047041476972354168, -0.1012861422686531, -0.22434355691740374, -0.34581314309655009, -0.35601037849409867, -0.32910892144411114, -0.20104844705583916, 0.14516274974436949, -0.059669933312996491, 0.10737966994868796, 0.065687000003601406, -0.24510002323270155, 0.053165830100058223, 0.2115026423330657, 0.13537057845493244, -0.078270292037073474, -0.1395851732902684, -0.16747440708516284, -0.35508711931509962, -0.36113312404555892, -0.28779484354344348, 0.17354012606693472, 0.028487646413600718, 0.13355942030893628, 0.47475496921676741, -0.061620008810675128, -0.17106267659140964, -0.038830613665201505, 0.10092419592042352, 0.13234377484139076, -0.15690366352997326, 0.058923435547066805, -0.071549801290822154, -0.074636012431512341, -0.087069019612646598, -0.03426908573501368, 0.033883012455566908, 0.074960145599698658, 0.091556171279145601, 0.041965343491637629, 0.50907157770688916, 0.43353966727129045, 0.18182701490982392, -0.15998899209500358, 0.17557606006098322, 0.31938250834404558, 0.35654102231752716, 0.13427708626135179, -0.051808815656735056, 0.25987628545214603, 0.00067035342729668691, -0.14638947566420263, 0.16102431041364623, 0.3615157733468779, 0.080209078900685613, -0.038941197179162598, -0.037906775494919165, -0.13328467888375997, -0.23404029509623162, 0.35229027543288804, 0.20218302305576313, -0.13662553214461251, -0.14102507204099071, 0.34572317148829079, 0.38526784267595232, 0.095869044102207535, -0.17656255345318336, -0.14373817166398101, 0.41980691749990723, 0.19691291181404683, -0.059135562522118858, 0.40377198434512224, 0.095165089371466227, -0.14715321568722647, 0.27624570949882971, 0.27183518957533515, 0.022891670745317928, -0.034890434356819107, -0.26966779263203705, 0.12114920166398621, 0.32883254042625748, 0.10571437451300286, -0.41659686887350628, -0.023929442932171481, -0.39515289981048241, -0.51773247663547151, 0.1806657999623151, 0.53451169648188457, 0.63898699905914813, 0.37239805234415374, 0.3203826230727071, 0.099900883536891416, -0.29557768431661124, -0.18645830307890612, -0.073704535561836204, 0.15289569631264557, -0.11155428422967335, 0.15289569631264543, -0.073704535561836121, -0.18645830307890557, -0.29557768431661124, 0.099900883536891555, 0.32038262307270732, 0.37239805234415363, 0.095165089371468059, 0.5345116964818839, 0.18066579996231633, -0.51773247663547217, -0.39515289981048124, -0.023929442932171033, -0.41659686887350628, 0.10571437451300369, 0.32883254042625787, 0.12114920166398623, -0.26966779263203716, -0.034890434356818295, 0.022891670745318206, 0.27183518957533598, 0.27624570949883231, -0.147153215687223, -0.037906775494920678, 0.40377198434511896, -0.059135562522118414, 0.19691291181404816, 0.41980691749990801, -0.14373817166398026, -0.17656255345318253, 0.095869044102207895, 0.38526784267595321, 0.34572317148829279, -0.14102507204098969, -0.13662553214461301, 0.20218302305576366, 0.35229027543288766, -0.23404029509623184, -0.13328467888375875, 0.5090715777068886, -0.038941197179161849, 0.080209078900684752, 0.36151577334687696, 0.16102431041364684, -0.14638947566420241, 0.00067035342729724332, 0.25987628545214764, -0.051808815656734307, 0.13427708626135257, 0.35654102231752666, 0.3193825083440463, 0.17557606006098306, -0.15998899209500317, 0.18182701490982395, 0.43353966727129045, 0.47475496921676741, 0.041965343491638121, 0.091556171279144907, 0.074960145599698644, 0.033883012455566908, -0.034269085735013298, -0.087069019612646834, -0.074636012431512175, -0.071549801290822154, 0.058923435547066715, -0.15690366352997306, 0.13234377484139104, 0.10092419592042352, -0.038830613665201817, -0.17106267659141, -0.061620008810674948, -0.059669933312997248, 0.13355942030893589, 0.028487646413600791, 0.17354012606693525, -0.28779484354344387, -0.36113312404555858, -0.35508711931509951, -0.16747440708516298, -0.13958517329026832, -0.078270292037073128, 0.13537057845493278, 0.2115026423330659, 0.053165830100058362, -0.2451000232327023, 0.065687000003601462, 0.1073796699486885, 0.098723909248279451, 0.14516274974436963, -0.20104844705583916, -0.32910892144411108, -0.35601037849409878, -0.3458131430965502, -0.22434355691740357, -0.10128614226865312, -0.047041476972354411, -0.068365945342945919, 0.15632878993587954, 0.12841759827357022, 0.20409481660193107, 0.085844104194148813, -0.013050809577143729, -0.041909566566355597, -0.14260434419486137, -0.15359933335650217, -0.18114074126028923, -0.19139078682122715, -0.14731547910835172, -0.076377063779983642, 0.01945035867991066, -0.020697514313150409, -0.11125255347138299, 0.094802763577889859, 0.12251493094712061, 0.13999270826508398, 0.064097528304444817, 0.11450499406622333, 0.089213028935847635, 0.14866280001221743 ], [ 0.0, 0.17997117804772911, 0.20591048339501497, 0.20625811124956797, 0.068383609850100335, 0.14188370191956945, 0.13659334881410676, 0.086289484690708865, 0.0, -0.086289484690710502, -0.1365933488141067, -0.14188370191957023, -0.068383609850100335, -0.20625811124956805, -0.20591048339501497, -0.17997117804772914, -0.20747826268740793, 0.18838522955704223, 0.1435495772594613, 0.019577277130290695, 0.053513170907710024, 0.064328557608840292, -0.11777959246272958, -0.082301719669939724, 0.090863567681949808, -0.097823511843039307, -0.1816508190246636, -0.20799599022746643, -0.23389157435884214, -0.22061909627240611, -0.20473430283858457, -0.21307807484918223, 0.031206583325582606, -0.05150955975887906, -0.009725627016658394, -0.10636071390365502, -0.12690807377195149, -0.19941156524979237, -0.22395357171485236, -0.27951392786368062, -0.16123913762738781, -0.23436926530106111, -0.28463527223223922, -0.21120024137573354, -0.23223051097567851, -0.25228099432810203, -0.37571021948238009, -0.012617645631394087, 0.23059900282527176, -0.25355689689063871, -0.16787249208537181, -0.20523008431668949, 0.17334933130635288, -0.15776253082883085, -0.30979032412829927, -0.34087521364855161, -0.19625859092886372, -0.31641323133668042, -0.35660781709540734, -0.18664254789084642, -0.16092637322989523, -0.022667522339036721, 0.074909412419481444, 0.24368499617195824, -0.1961010742877683, -0.18265316324540892, -0.016175758438413491, 0.061039385946594776, -0.179710869695585, -0.31727465192584559, -0.26621985504851403, -0.28258880059415603, -0.36820511215214052, -0.33773036525475947, -0.35340094859622151, -0.05064854207870937, -0.026628338060744706, 0.12280141792775744, -0.048655863996250971, -0.13061876285057936, 0.28349037171807467, 0.18108542166446434, -0.29229321842654266, -0.13058058482752122, -0.01341591783696745, -0.28169459907019218, -0.027945880710043981, -0.17951741355444176, -0.041435297642257722, -0.17124902277050547, -0.20343665343827744, 0.3208343097039163, 0.33736890681704268, 0.065997900156968561, -0.13357973100197765, -0.18489548562909616, -0.25788143175343337, -0.21920126300085491, -0.048616579329882809, -0.10661493609618666, 0.063825213444429971, -0.15633494812775012, 0.067387506272991365, 0.13768235971427334, -0.02107111709414379, -0.10727314277772365, -0.15947266574877911, 0.38887681007574532, 0.18698266179443468, -0.3078497369977331, 0.28518253169979796, 0.30469635863608185, -0.39168095845371653, -0.32135408596658332, -0.064455515164773478, -0.041434745241144495, 0.13290938678828751, 0.39320419500154791, 0.42590533074148884, 0.39669796429283949, 0.16425858887960865, 0.08721808090493513, 0.19345750020314637, 0.13601116580225639, -0.45041580281654608, 0.37613466829666248, 0.43780500307360343, -0.11214674829040534, 0.0, 0.29371194267536149, 0.014853588955471928, 0.048862932994327091, 0.12580173335212044, -0.25069324205370885, 0.070288909511306785, -0.35106031048698882, 0.0, 0.35106031048698916, -0.070288909511307049, 0.25069324205370913, -0.12580173335212044, -0.048862932994327285, -0.014853588955470886, -0.2937119426753626, 0.39168095845372153, 0.1121467482904078, -0.43780500307360409, -0.3761346682966632, 0.45041580281654653, -0.13601116580225781, -0.19345750020314639, -0.087218080904934353, -0.16425858887960906, -0.39669796429284004, -0.42590533074148756, -0.39320419500154768, -0.13290938678828831, 0.041434745241142878, 0.064455515164770771, 0.32135408596658344, 0.25788143175343264, -0.3046963586360833, -0.28518253169979779, 0.30784973699773255, -0.18698266179443496, -0.38887681007574609, 0.15947266574877944, 0.10727314277772348, 0.021071117094143797, -0.13768235971427265, -0.067387506272992143, 0.15633494812775001, -0.06382521344443004, 0.10661493609618701, 0.048616579329883135, 0.21920126300085516, -0.28349037171807606, 0.18489548562909536, 0.13357973100197726, -0.065997900156967951, -0.33736890681704185, -0.32083430970391641, 0.20343665343827849, 0.17124902277050646, 0.041435297642258062, 0.17951741355444203, 0.027945880710043995, 0.28169459907019201, 0.013415917836967009, 0.13058058482752147, 0.29229321842654205, -0.18108542166446479, 0.1961010742877683, 0.13061876285057963, 0.048655863996250798, -0.12280141792775763, 0.026628338060744706, 0.05064854207870919, 0.35340094859622101, 0.33773036525475963, 0.36820511215214052, 0.28258880059415581, 0.26621985504851375, 0.31727465192584497, 0.179710869695585, -0.061039385946594638, 0.016175758438413512, 0.18265316324540917, -0.23059900282527263, -0.24368499617195732, -0.074909412419480834, 0.022667522339036673, 0.1609263732298955, 0.18664254789084639, 0.35660781709540779, 0.31641323133668092, 0.1962585909288643, 0.34087521364855128, 0.30979032412829893, 0.15776253082883035, -0.1733493313063533, 0.20523008431668852, 0.16787249208537047, 0.25355689689063837, -0.031206583325582536, 0.012617645631394182, 0.37571021948238026, 0.25228099432810258, 0.23223051097567843, 0.21120024137573398, 0.28463527223223861, 0.23436926530106048, 0.1612391376273879, 0.27951392786367973, 0.22395357171485164, 0.19941156524979117, 0.12690807377195135, 0.10636071390365436, 0.0097256270166581789, 0.051509559758878977, 0.20747826268740818, 0.21307807484918231, 0.20473430283858457, 0.22061909627240625, 0.23389157435884239, 0.20799599022746573, 0.18165081902466371, 0.097823511843038738, -0.090863567681949892, 0.08230171966993835, 0.11777959246272926, -0.064328557608841014, -0.05351317090771008, -0.019577277130290709, -0.14354957725946121, -0.18838522955704237 ] ],
      [ [ -0.25046646940087125, -0.010609837038906982, -0.00073328192546118632, 0.058900609807942296, -0.055240992372968423, -0.066928719719118471, 0.15460463904868127, 0.16945697239331756, -0.3034198962521768, 0.16945697239331534, 0.15460463904868085, -0.066928719719118887, -0.055240992372968423, 0.05890060980794206, -0.00073328192546123782, -0.010609837038907007, -0.18728762740000546, 0.19223590423685044, 0.067448262176821733, 0.0096759342782855515, 0.062117358236067156, -0.017312680556603958, -0.062408963521236205, -0.079551121566537486, 0.14128076755458491, 0.19199331059785443, 0.055326101003606111, 0.062590854480846725, 0.024685279221615151, -0.09730056654704268, -0.16460046837596279, -0.18804213661614819, -0.18274357564135915, -0.099651920820903614, -0.0038367872236483732, -0.12057345903048407, 0.022550747579407081, 0.15399956557942179, -0.13313888329009155, 0.012026355700962485, 0.23937080922814197, 0.18895219471137034, 0.023882409470770551, 0.0060930184403552778, -0.11587103581792468, -0.27572650557585965, -0.42360113042590769, -0.35742787576911844, -0.04864585332798585, -0.276331976621147, -0.094844729644364717, 0.10314331539427063, 0.2148234657834529, -0.018203902251170041, 0.15202236500786917, 0.112691354802511, 0.17782833482624091, 0.068210118414755452, -0.11112749983055552, -0.17980610388905061, -0.32172510399276366, -0.50657753445437048, -0.47542138011817553, 0.10831893514959667, 0.32592248746899288, 0.04825167337622048, -0.0050797093835362626, 0.23255505513871882, -0.035424328800925477, 0.1802459881078729, 0.079529303012118802, -0.040834719228413752, 0.12341631245214237, -0.084493251256579707, -0.042057454744573904, -0.28066719651193262, -0.43546595441377306, -0.47484719240124046, -0.12069810025991495, 0.19266744937618827, 0.071379028841371289, -0.1297968483236645, 0.033892856510843235, 0.17042362510336967, 0.21373520744216412, 0.12374578401170379, -0.041846467606322831, -0.13779887876793412, 0.016928132970763024, 0.13914890857925702, -0.17692005131278185, -0.39486965684233566, -0.27905055366280934, -0.25342744906225284, -0.030464872322428404, -0.20995579842720061, -0.23076390345701517, -0.30596317462654232, -0.21604075159938024, -0.074079196903655886, -0.15552420872834005, 0.13930041222230929, -0.10774057368770378, 0.1474119809929697, 0.30742851956075562, 0.17619025782024353, -0.52636135051998234, -0.31928930037500497, -0.17229845515236944, -0.21830310240618825, -0.15472847740600534, 0.09292220379137732, -0.02994760584786621, -0.22655834215119872, 0.003588943752335491, -0.10326920820217216, -0.025076071144113789, 0.16157641642608536, -0.20242969916600573, -0.03303625690043703, 0.19670034973488157, -0.21057296230142383, -0.16283428192506236, 0.10570862336759911, -0.12959224056864313, 0.066300375864448841, 0.072417180263243924, 0.011949812298017701, -0.083842608192546214, 0.08838587026774232, -0.063667253458610795, 0.040785020006279794, 0.37652188738222719, 0.079676232421186113, 0.26522431394872503, -0.10035256474546757, -0.13176933981671907, -0.10035256474546711, 0.26522431394872609, 0.079676232421186349, 0.37652188738222719, 0.040785020006279302, -0.063667253458611253, 0.088385870267741362, -0.029947605847864048, 0.011949812298018699, 0.072417180263242245, 0.066300375864446537, -0.12959224056864371, 0.10570862336759919, -0.16283428192506233, -0.21057296230142389, 0.19670034973488174, -0.0330362569004371, -0.20242969916600509, 0.16157641642608608, -0.025076071144113074, -0.10326920820217077, 0.0035889437523382649, -0.22655834215119453, -0.23076390345701367, 0.092922203791376654, -0.15472847740600659, -0.21830310240619027, -0.17229845515236991, -0.31928930037500508, -0.52636135051998212, 0.17619025782024414, 0.30742851956075534, 0.14741198099296868, -0.10774057368770387, 0.13930041222230974, -0.15552420872833927, -0.074079196903655053, -0.21604075159938069, -0.30596317462654116, 0.071379028841370915, -0.20995579842720391, -0.030464872322432758, -0.25342744906225423, -0.27905055366280973, -0.39486965684233449, -0.17692005131278168, 0.13914890857925685, 0.016928132970763229, -0.1377988787679339, -0.041846467606322386, 0.12374578401170384, 0.21373520744216404, 0.17042362510336959, 0.033892856510843825, -0.12979684832366592, 0.32592248746899288, 0.19266744937618868, -0.12069810025991491, -0.47484719240123968, -0.43546595441377306, -0.28066719651193212, -0.042057454744573688, -0.08449325125657961, 0.12341631245214237, -0.040834719228414175, 0.079529303012118482, 0.1802459881078734, -0.035424328800925477, 0.23255505513871844, -0.0050797093835363155, 0.04825167337622014, -0.048645853327986252, 0.10831893514959672, -0.4754213801181752, -0.50657753445437048, -0.32172510399276388, -0.17980610388905066, -0.11112749983055531, 0.068210118414755827, 0.17782833482624097, 0.11269135480251137, 0.15202236500786848, -0.018203902251169784, 0.21482346578345335, 0.10314331539427121, -0.094844729644363884, -0.276331976621148, -0.18274357564135907, -0.35742787576911844, -0.42360113042590752, -0.27572650557585915, -0.11587103581792456, 0.0060930184403555458, 0.02388240947077086, 0.18895219471136954, 0.23937080922814238, 0.012026355700963208, -0.13313888329009207, 0.15399956557942149, 0.022550747579406959, -0.12057345903048439, -0.0038367872236485458, -0.099651920820903905, -0.18728762740000535, -0.18804213661614816, -0.16460046837596265, -0.097300566547042597, 0.024685279221615276, 0.062590854480847447, 0.055326101003606, 0.19199331059785449, 0.14128076755458516, -0.079551121566541386, -0.062408963521237495, -0.017312680556605179, 0.062117358236067309, 0.0096759342782848524, 0.067448262176821802, 0.19223590423685064 ], [ 0.0, 0.16892627024578294, 0.12963909872790211, 0.062097374380894382, 0.011116255139149302, -0.024643647051165028, 0.056016341107078427, 0.14828532304545411, 0.0, -0.14828532304545528, -0.056016341107077948, 0.02464364705116499, -0.011116255139149302, -0.062097374380894216, -0.12963909872790208, -0.16892627024578297, -0.21384806120172611, 0.047458229119966541, 0.059149304681200089, 0.040014991395810932, 0.1097085202450431, -0.057150472282264483, -0.095473969681693513, 0.22859000231488449, 0.080236605671902786, 0.10279736884664842, -0.075045244739239278, -0.080583367174968737, -0.15781262121375128, -0.20649225710399025, -0.15571770773699573, -0.13967201584863387, -0.10848643352278209, -0.068215044648172241, -0.031886281809174827, 0.06015877102626168, -0.0016187990828824578, -0.0013865596830096418, 0.023230564939051866, 0.13463716376701432, 0.12259720491209794, -0.12584311731033168, -0.091532685014866333, -0.1912219484534772, -0.27933766848878827, -0.13742414697652383, -0.064522255349317909, -0.0098013869972890712, -0.058429340304816661, -0.22590732143026282, 0.078987509991286037, -0.030931378384641963, -0.084400293767398299, -0.057557420245749412, 0.16652825507720634, 0.17595199584884713, 0.094256497583542986, -0.19822253919425933, -0.19417448443242219, -0.14302328425314764, -0.073800790275346292, 0.1153982552808991, -0.03930769027053934, 0.11348717862116239, -0.1207208099166826, 0.026501960964738433, 0.3542331366822517, 0.099589039414482675, -0.011540574028986315, 0.18191957064226222, -0.11097709051922001, -0.0081474567264864985, -0.12156225748002235, -0.11792463907144905, -0.19956027859315884, 0.014067024997735924, 0.19542365106038539, 0.099158403432475603, -0.17961428459829529, -0.15241191942949273, 0.38958250721648902, 0.39201201976678768, 0.40318069351351898, 0.22424182499527076, 0.030997104627562017, -0.10771192684586052, -0.1562364894033399, -0.050932348314221117, 0.020964912891876512, -0.031579862279417142, -0.22401964040757941, 0.23267481398288117, -0.0010429282025949667, -0.19376110437463895, -0.013887716703293473, -0.2221523023084295, -0.22517043959783059, -0.077259083157118921, 0.14676446355513378, -0.19522630142807409, 0.11825601811121739, 0.17096983568068477, 0.35261217678335383, 0.2816734876888991, -0.11104039298835441, -0.24581116053977103, 0.09431549911587854, -0.017780063308984021, -0.12776626377430442, -0.11915519923190375, -0.13387001734699366, 0.47718049959502407, -0.27285495454447417, -0.10592167437199444, -0.071542774960670602, -0.1534307852001352, 0.13211790253344236, 0.28523881955831759, 0.020108378247886256, -0.28418670395899759, -0.18453423459256477, -0.14481698456628839, -0.076465729467838875, -0.4446225565037677, -0.055114081645392561, 0.061731702086255967, 0.068340727058058187, -0.3710967707531303, 0.0, 0.41569603287531876, -0.17725544466224738, 0.21901368009495295, 0.037693564220250136, -0.054052761263178137, -0.35988126357467437, 0.14224599527149726, 0.0, -0.14224599527149689, 0.3598812635746747, 0.054052761263178165, -0.037693564220250136, -0.21901368009495298, 0.17725544466224724, -0.41569603287531909, 0.27285495454447223, 0.37109677075312969, -0.068340727058057507, -0.061731702086255481, 0.055114081645393852, 0.44462255650376747, 0.076465729467838792, 0.14481698456628914, 0.18453423459256468, 0.28418670395899731, -0.020108378247886111, -0.28523881955831831, -0.13211790253344288, 0.15343078520013406, 0.071542774960667702, 0.1059216743719892, 0.22517043959783065, -0.47718049959502123, 0.13387001734699316, 0.11915519923190353, 0.1277662637743042, 0.017780063308983407, -0.094315499115878831, 0.24581116053977065, 0.11104039298835421, -0.28167348768889988, -0.35261217678335371, -0.1709698356806843, -0.11825601811121772, 0.19522630142807465, -0.1467644635551347, 0.07725908315711888, -0.38958250721648846, 0.22215230230842897, 0.013887716703293199, 0.19376110437463928, 0.0010429282025949474, -0.23267481398288153, 0.22401964040757977, 0.031579862279416962, -0.020964912891876398, 0.050932348314221047, 0.15623648940333945, 0.10771192684586059, -0.030997104627562059, -0.22424182499527112, -0.40318069351351893, -0.39201201976678884, 0.1207208099166826, 0.15241191942949261, 0.17961428459829509, -0.099158403432475742, -0.19542365106038539, -0.014067024997735848, 0.19956027859315881, 0.11792463907144926, 0.12156225748002235, 0.0081474567264863892, 0.11097709051922047, -0.18191957064226297, 0.011540574028986315, -0.099589039414482633, -0.35423313668225165, -0.02650196096473819, 0.058429340304815273, -0.11348717862116212, 0.03930769027053941, -0.11539825528089916, 0.073800790275346403, 0.14302328425314778, 0.19417448443242225, 0.19822253919425895, -0.094256497583543083, -0.17595199584884738, -0.16652825507720642, 0.057557420245749912, 0.08440029376739841, 0.030931378384641738, -0.078987509991286273, 0.22590732143026246, 0.10848643352278212, 0.0098013869972891094, 0.06452225534931802, 0.13742414697652391, 0.27933766848878838, 0.19122194845347695, 0.091532685014865889, 0.12584311731033154, -0.12259720491209776, -0.13463716376701509, -0.023230564939051641, 0.0013865596830094035, 0.0016187990828822937, -0.060158771026261923, 0.031886281809174646, 0.068215044648172116, 0.21384806120172623, 0.13967201584863398, 0.15571770773699561, 0.20649225710399002, 0.15781262121375114, 0.080583367174968029, 0.075045244739238806, -0.10279736884664875, -0.080236605671902606, -0.22859000231488683, 0.095473969681693874, 0.057150472282264025, -0.10970852024504324, -0.040014991395811141, -0.059149304681200138, -0.04745822911996659 ] ],
      [ [ -0.34433145059759734, -0.023837949473330011, 0.033679675947144522, -0.037772999987554373, -0.022289103184245505, -0.2531671848602543, 0.16134569912867849, 0.13676382078793828, -0.18251482956627449, 0.13676382078793764, 0.16134569912867833, -0.2531671848602538, -0.022289103184245505, -0.037772999987555025, 0.033679675947144508, -0.023837949473330011, -0.24852958230836408, 0.094864150316829127, -0.045970958057961649, 0.28224134399471429, -0.15498623550594645, -0.19141619492573436, 0.18821728954133765, 0.41969425547794881, 0.28797875818482416, 0.0063377678201287395, 0.1179790760830694, 0.046122658913295624, 0.18319765996574477, -0.010996772382014759, -0.049395487060542032, -0.21977558678222578, -0.45550044174414495, -0.1460245333787018, -0.088579604210513321, 0.077262151932493847, -0.04274458002757258, -0.28161358348459603, 0.11242073038306281, 0.1693289491803785, 0.15402100476874964, 0.17481090163666488, 0.25878655432533432, 0.063514928108191315, 0.088609080303429899, -0.10710494960001196, -0.36820667902311832, -0.46911556162295459, -0.35626853671132402, -0.28729007196059592, 0.019676045602127382, -0.17586962147870974, -0.15563406182374306, -0.29412336768628783, -0.43808196480224265, -0.072553284969640586, 0.052011467284282534, 0.068399780408095842, 0.12647876096208355, -0.036322673609161395, -0.23107105483802562, -0.51537233832184004, -0.63949893431989002, -0.58168963581744304, 0.5215026623105754, 0.0036110908202100513, -0.03442930811798877, -0.19989860195397302, 0.023342308410018494, -0.056335524603606177, -0.41280048596677099, -0.041130067515174923, 0.25100856740793615, 0.1199301798401068, -0.012205603286715534, -0.24284244232308566, -0.53302319864822834, -0.6466673056413621, -0.71258463800175287, -0.21607165617958576, -0.016799622522004291, 0.031311128423329233, -0.32437598615509045, -0.077921086716166488, -0.04198412464218057, 0.14479556367616644, -0.18060763876815486, 0.1584130517123388, 0.22749405779503412, -0.25458757599814541, -0.17869612857047104, -0.46125631133417699, -0.47182870536834454, -0.43823568330596707, -0.62949475360292562, -0.52686264653056125, -0.23097808933030561, 0.17877886381514799, -0.12815413445771115, -0.4139777561550313, -0.13594597814273082, -0.21964067501599641, 0.14122180333045789, -0.19256960730913869, -0.16484024303677999, -0.2628969348611056, -0.33874314081108825, -0.23344589968701165, -0.23504323683432091, -0.27879881952853874, -0.32945614408302432, -0.29609857569175069, 0.07454290458380701, -0.27124877629556232, 0.20913613526943922, 0.051307707246923462, -0.13612128257970821, -0.43618772887913154, -0.22379078704821445, -0.065890972491857991, -0.10828654435214806, -0.29730330898489016, -0.015232146291552251, -0.084639198394035567, -0.14443859779286691, -0.45696802143363935, -0.31567843251622668, -0.094038563638397035, 0.29681704066664844, 0.1041797041357098, -0.41884126433784791, -0.23695574243659429, -0.0030561885914633701, -0.13389572130262828, 0.0020103766096246194, -0.37424472487835436, -0.20379215367381107, -0.37424472487835442, 0.0020103766096246259, -0.13389572130262803, -0.0030561885914633701, -0.23695574243659412, -0.41884126433784857, 0.10417970413570904, 0.074542904583811409, -0.094038563638398631, -0.31567843251622613, -0.45696802143364079, -0.14443859779286775, -0.084639198394036566, -0.015232146291552492, -0.29730330898488894, -0.10828654435214767, -0.065890972491858379, -0.22379078704821426, -0.43618772887913099, -0.1361212825797079, 0.051307707246924267, 0.20913613526943919, -0.27124877629556099, -0.23097808933030506, -0.29609857569175185, -0.32945614408302676, -0.27879881952853924, -0.23504323683432155, -0.23344589968701174, -0.33874314081108875, -0.26289693486110544, -0.16484024303678013, -0.19256960730913805, 0.14122180333045806, -0.21964067501599638, -0.13594597814273107, -0.41397775615503174, -0.12815413445771145, 0.17877886381514874, -0.016799622522007188, -0.52686264653056536, -0.62949475360292706, -0.43823568330596746, -0.4718287053683447, -0.46125631133417666, -0.17869612857047118, -0.25458757599814497, 0.22749405779503351, 0.15841305171233844, -0.18060763876815455, 0.14479556367616608, -0.04198412464218141, -0.07792108671616603, -0.32437598615509045, 0.0313111284233289, 0.5215026623105754, -0.21607165617958612, -0.71258463800175276, -0.64666730564136243, -0.53302319864822834, -0.24284244232308508, -0.012205603286715296, 0.11993017984010754, 0.25100856740793615, -0.041130067515174555, -0.41280048596677066, -0.056335524603606281, 0.023342308410018494, -0.19989860195397269, -0.034429308117988791, 0.0036110908202097664, -0.35626853671132425, -0.58168963581744382, -0.63949893431989047, -0.51537233832184015, -0.23107105483802592, -0.036322673609161173, 0.12647876096208399, 0.068399780408095218, 0.052011467284282437, -0.07255328496964028, -0.43808196480224276, -0.29412336768628872, -0.15563406182374359, -0.17586962147871055, 0.019676045602127466, -0.28729007196059753, -0.45550044174414517, -0.46911556162295459, -0.36820667902311832, -0.10710494960001177, 0.088609080303430038, 0.063514928108192259, 0.25878655432533498, 0.17481090163666516, 0.1540210047687495, 0.16932894918037769, 0.11242073038306315, -0.2816135834845967, -0.042744580027572955, 0.077262151932493528, -0.088579604210513849, -0.14602453337870241, -0.248529582308364, -0.21977558678222583, -0.049395487060541921, -0.010996772382014781, 0.18319765996574461, 0.046122658913296345, 0.11797907608306821, 0.0063377678201294767, 0.28797875818482388, 0.41969425547794942, 0.18821728954133607, -0.19141619492573417, -0.15498623550594637, 0.28224134399471285, -0.045970958057961642, 0.094864150316829154 ], [ 0.0, 0.15411025418618018, -0.056616676958700124, 0.070165665795168308, 0.002650199090976088, 0.045487081541772778, 0.27003734467639845, -0.013246982689523701, 0.0, 0.013246982689520783, -0.27003734467639751, -0.045487081541771411, -0.002650199090976088, -0.070165665795168225, 0.056616676958700193, -0.15411025418618027, -0.15337500539039728, -0.019167635390958709, -0.040388335873672472, 0.078095010910273127, -0.18976162603592342, 0.35604308596000628, 0.041726622834743612, 0.040836303277369111, -0.014811433637061257, 0.084629680480244107, -0.23523823087313395, 0.10918303384094122, -0.070594830503415432, -0.05178070610686198, -0.054596680481128423, -0.087888376287267034, -0.13436345664632812, -0.11013576831213596, 0.035816266054920644, 0.013466244846286895, 0.016635553638864705, 0.19452483482532493, -0.0069574657428204331, 0.41464399748028624, -0.072164911807438975, 0.14826835749623921, 0.10398046503680353, -0.046870367375966733, -0.10099151342387884, -0.16179471485362293, -0.018408043492585235, 0.017138623770030559, -0.16049949897199822, -0.23718953447587349, 0.03078818698920437, 0.14386413464857195, 0.28676749922623651, -0.023919109750331236, 0.23899326611377653, 0.094429066541656781, 0.069654460518846523, -0.037928953563523646, -0.14000273741929975, -0.18296101414234558, -0.10810353808451698, 0.044753699876497903, 0.13447598932264881, 0.097136242589266814, -0.23962036818684418, 0.090924496588922904, 0.18553284088987346, 0.031429423327062597, 0.14922175641490973, 0.0064475476095985544, 0.15822916624135117, 0.43837237425757586, 0.19443551986156463, -0.28944254328910579, -0.20424708519990886, -0.048505838523996266, 0.22917026613245017, 0.16939184967201928, 0.24491448733924739, -0.19987921340370601, 0.086437363975330986, -0.23956427263872856, -0.0074863540305533539, 0.11050780483932972, 0.20473571699555987, 0.08895171426446305, 0.095907637454488159, 0.58911428855606263, -0.019456715320180673, -0.42423379918495852, 0.068748268024992107, 0.28719330557904044, 0.2712514795948755, 0.34375490867225367, 0.21393070069378275, 0.032924129545707274, -0.23163166306151112, -0.071443269337962675, 0.15515366996259639, 0.58844440356954975, -0.052447400788727165, -0.088624238403916492, -0.18435065060024503, -0.47183844659282187, -0.33052208866775079, -0.074980666763454662, 0.27339122625188789, 0.33385691444955362, 0.24786950398388921, 0.36982211120985176, -0.14056527297563423, -0.10203479905871057, -0.39936501553196696, -0.13705278835428505, 0.45898897542624006, 0.28149517852605715, -0.19793654923687723, -0.09653353923174679, -0.43006349302033992, -0.10934086017973574, -0.18335097394635452, 0.024050112341009611, 0.2498010058730657, 0.42982873818729117, 0.47692723139602056, 0.0094268528899704301, -0.29998491201441491, -0.35520367744235115, 0.0, 0.055179864051750918, 0.276680983867931, 0.12705989234460807, -0.2803523619566281, -0.36023993349432859, -0.24340001218221086, 0.0019759507083996842, 0.0, -0.0019759507083996456, 0.24340001218221069, 0.36023993349432898, 0.2803523619566281, -0.12705989234460821, -0.27668098386793089, -0.055179864051750779, 0.39936501553196468, 0.35520367744235215, 0.29998491201441363, -0.0094268528899715109, -0.47692723139601972, -0.42982873818729006, -0.24980100587306542, -0.024050112341008512, 0.18335097394635511, 0.10934086017973572, 0.43006349302033986, 0.096533539231745943, 0.19793654923687665, -0.28149517852605671, -0.45898897542624156, 0.13705278835427903, 0.23163166306151134, 0.1020347990587097, 0.14056527297563365, -0.36982211120985164, -0.24786950398388882, -0.3338569144495534, -0.273391226251887, 0.074980666763455758, 0.33052208866775101, 0.47183844659282148, 0.1843506506002443, 0.088624238403915992, 0.052447400788727068, -0.58844440356955097, -0.15515366996259855, 0.071443269337961315, -0.086437363975334747, -0.032924129545709092, -0.21393070069378153, -0.34375490867225383, -0.2712514795948755, -0.28719330557904021, -0.068748268024991802, 0.42423379918495868, 0.019456715320180347, -0.58911428855606462, -0.095907637454488631, -0.088951714264463994, -0.20473571699556034, -0.11050780483933036, 0.0074863540305529826, 0.23956427263872709, 0.23962036818684418, 0.19987921340370549, -0.24491448733924764, -0.16939184967201909, -0.22917026613245017, 0.04850583852399621, 0.20424708519990895, 0.2894425432891069, -0.19443551986156463, -0.43837237425757558, -0.15822916624135136, -0.0064475476095997323, -0.14922175641490973, -0.031429423327062091, -0.18553284088987407, -0.09092449658892289, 0.1604994989719967, -0.097136242589266605, -0.13447598932264865, -0.044753699876497778, 0.10810353808451692, 0.18296101414234539, 0.1400027374192995, 0.037928953563523542, -0.069654460518846356, -0.094429066541657961, -0.238993266113778, 0.023919109750330601, -0.28676749922623646, -0.14386413464857176, -0.03078818698920395, 0.2371895344758726, 0.13436345664632812, -0.017138623770030437, 0.018408043492585322, 0.16179471485362301, 0.10099151342387873, 0.046870367375967129, -0.10398046503680353, -0.14826835749624009, 0.072164911807438697, -0.41464399748028952, 0.0069574657428196273, -0.19452483482532457, -0.01663555363886449, -0.013466244846286479, -0.035816266054920651, 0.11013576831213556, 0.15337500539039733, 0.087888376287267075, 0.054596680481128389, 0.051780706106861925, 0.070594830503415348, -0.10918303384093998, 0.2352382308731332, -0.084629680480245967, 0.01481143363706105, -0.040836303277375946, -0.04172662283474364, -0.35604308596000694, 0.18976162603592378, -0.078095010910273682, 0.040388335873672535, 0.019167635390958778 ] ],
      [ [ -0.43535674277399655, -0.048437545451036235, 0.03329642981027206, 0.061908438635485515, -0.041631647757247897, 0.015214599068338162, 0.23319468902442383, 0.17694648853858858, 0.023323725319089463, 0.17694648853858938, 0.23319468902442281, 0.015214599068339088, -0.041631647757247897, 0.061908438635484508, 0.033296429810271921, -0.048437545451036262, -0.23361790488263465, 0.18944668262747749, 0.092659170745672662, 0.19488134840227445, -0.21742417710469619, -0.19127618486799863, 0.31079734344584631, 0.11431593186302874, 0.17435923385322175, -0.090719209293734324, -0.17647766783838792, 0.27761259369197822, 0.25721777261540896, -0.01356787610956087, -0.11391289873332759, -0.26711727496480853, -0.47749972684945369, -0.17480235502778885, 0.12049910104274628, 0.0090147686163592772, -0.02149186745521222, -0.075567557390824824, -0.1322915641602932, -0.042519641495380504, -0.63335605988186472, 0.17792938810867157, 0.29984234854813208, 0.14365472755944145, -0.07201737922533985, -0.28696082361992248, -0.3531436598594348, -0.3813838482296405, -0.46222149934427159, 0.083427561965590299, -0.039036518421811127, -0.09133551700840023, 0.18185418227751626, 0.24548466258650042, -0.48681146570323719, -0.26314689834502242, -0.33266178661818663, 0.049971648388267467, -0.23192826663456664, -0.12355047692693358, -0.19451565393263009, -0.36531178392085728, -0.28559992275711538, -0.49594434411600141, -0.25449625061050357, 0.11930817955902048, -0.18501473483086386, -0.032895409901033096, -0.0030159641823270431, 0.2155919150998408, -0.14630709766784339, -0.43804164455753403, -0.35992050381149121, -0.23467341361402888, -0.06190560407597915, -0.21553972307802882, -0.36854318825761362, -0.29118926550885799, -0.31105812710001629, -0.6859196388241553, -0.37919013914881811, 0.18231340207867569, 0.14027831103320693, 0.32209456405086578, 0.22310685379206541, -0.054247979509070073, -0.033701835168870847, 0.11676707416802994, -0.49581929985108308, -0.18407340764291916, -0.33097477973652123, -0.34518340230433753, -0.31087810487102374, -0.12463420366014957, -0.51628765917923525, -0.97455418197294696, -0.49352239036084006, 0.16090302298390641, -0.10370271331400373, 0.26982798458082047, 0.12352602817290576, 0.42617985250118218, -0.19597523929479488, -0.14529368129801565, -0.25156053837694436, -0.55995349569005115, -0.54761524779432735, -0.32992936013817054, -0.070173047664550028, -0.064201655297833282, -0.67970703524517218, -0.91669734889699006, 0.30865899863967822, 0.14142778213851195, -0.37165575215866981, -0.21408868752324803, -0.069599462955185334, 0.13364755934131467, -0.24443871111772073, -0.47589703841085046, -0.48102133794718283, -0.27485227153660485, -0.29246531840510942, -0.36329246517859731, 0.031336048428255388, -0.031994616810755439, -0.71530808271940893, -0.50862114832813421, 0.1929845061941621, -0.29892875468876562, -0.63875475367242074, -0.21287002066193303, 0.13645854379618996, -0.19177442424271804, -0.50587039418411184, -0.20836055498870615, -0.64728243093940718, -0.20836055498870623, -0.50587039418411262, -0.19177442424271837, 0.13645854379618996, -0.21287002066193317, -0.63875475367241907, -0.29892875468876656, 0.30865899863967905, -0.50862114832813532, -0.71530808271941138, -0.03199461681075521, 0.031336048428255034, -0.36329246517859737, -0.29246531840510892, -0.27485227153660535, -0.48102133794718321, -0.47589703841085068, -0.24443871111772125, 0.13364755934131572, -0.069599462955184779, -0.21408868752324786, -0.37165575215866831, 0.14142778213851184, -0.49352239036084028, -0.91669734889698939, -0.67970703524517229, -0.064201655297833435, -0.070173047664550098, -0.32992936013817015, -0.54761524779432702, -0.55995349569005004, -0.25156053837694459, -0.14529368129801584, -0.19597523929479543, 0.42617985250118295, 0.12352602817290627, 0.26982798458082025, -0.10370271331400412, 0.16090302298390516, -0.37919013914881861, -0.97455418197294819, -0.51628765917923491, -0.12463420366014943, -0.31087810487102358, -0.34518340230433692, -0.33097477973652162, -0.18407340764291907, -0.49581929985108308, 0.11676707416802933, -0.033701835168870882, -0.054247979509070662, 0.22310685379206557, 0.32209456405086523, 0.14027831103320751, 0.18231340207867594, -0.25449625061050357, -0.68591963882415519, -0.31105812710001662, -0.29118926550885799, -0.36854318825761362, -0.21553972307802857, -0.061905604075979503, -0.23467341361402941, -0.35992050381149121, -0.43804164455753397, -0.14630709766784319, 0.21559191509984152, -0.0030159641823270431, -0.032895409901033817, -0.18501473483086353, 0.11930817955902054, -0.46222149934427154, -0.49594434411600136, -0.28559992275711549, -0.36531178392085734, -0.19451565393263034, -0.12355047692693266, -0.2319282666345672, 0.049971648388266184, -0.33266178661818741, -0.26314689834502164, -0.48681146570323647, 0.24548466258650015, 0.18185418227751618, -0.09133551700840073, -0.039036518421810995, 0.083427561965589578, -0.47749972684945374, -0.38138384822964044, -0.35314365985943486, -0.28696082361992231, -0.072017379225339906, 0.14365472755944281, 0.29984234854813008, 0.17792938810867076, -0.63335605988186405, -0.042519641495378693, -0.13229156416029367, -0.075567557390824283, -0.021491867455212563, 0.0090147686163578045, 0.1204991010427458, -0.17480235502778951, -0.23361790488263456, -0.26711727496480858, -0.11391289873332754, -0.013567876109560974, 0.25721777261540923, 0.27761259369198193, -0.17647766783838797, -0.090719209293735767, 0.17435923385322208, 0.11431593186303066, 0.31079734344584398, -0.19127618486799644, -0.21742417710469675, 0.19488134840227342, 0.092659170745672634, 0.18944668262747752 ], [ 0.0, 0.2013211458386229, 0.12486867274974424, 0.032935885660295185, -0.17155305231979823, -0.0050236588525653554, 0.01240566913687411, -0.11453499992382041, 0.0, 0.11453499992381898, -0.012405669136873295, 0.005023658852565064, 0.17155305231979823, -0.032935885660294616, -0.12486867274974425, -0.20132114583862279, -0.12144035304784352, -0.30355682595002931, 0.20423743626365282, -0.086518923092405525, 0.24062425621687181, 0.34402778465221551, -0.11058647991697979, -0.25720728194979792, 0.25952052608191961, 0.25391973490303554, -0.22342112224413288, -0.16745728520497119, -0.10149311358452129, -0.057039440496772134, -0.098555531145757241, -0.05422276551196397, -0.025525956040657938, -0.43922019799624784, 0.021672012960922239, -0.097716740815672595, 0.27232343748722604, 0.15525919741979566, 0.14694144990283092, -0.11013407952024927, -0.072214337847749707, 0.20593848094641257, -0.17582712108005866, -0.2695879061369913, -0.3212876808515559, -0.05268095735630985, 0.13566574963064237, 0.17785746909554356, -0.15322533038437233, -0.22607010962513213, 0.13093216164616589, -0.21709026687054331, -0.044041210339480649, -0.026190541258222434, 0.16362229982811222, 0.024198387783459438, -0.074014762647552815, -0.072038013198873901, -0.058221749379561996, -0.27688351152937657, -0.16627797903692038, 0.20570594817447682, 0.4302847613559429, 0.36205053484880778, -0.33715308540884081, -0.15620141422078032, 0.023143114111092614, 0.09327078310969765, -0.070483316372948898, -0.20201533306487451, -0.047145699680322929, -0.13002979250328986, -0.1042088356179755, -0.25514227439268522, -0.010899335059883646, -0.17221941527481868, 0.026907710169939453, 0.47426961728538058, 0.63780953355333814, 0.33819930516627278, -0.49369644981935262, -0.11165987603492555, 0.028599885299834669, 0.58220860813310249, 0.27795716286039945, -0.07814457887595927, -0.73407303892358478, -0.21120063338943379, 0.089665493763905937, 0.15435415644772246, -0.096146146546482528, 0.057643134477772966, 0.28960765025556229, 0.57375402204668124, 0.58374953111285699, 0.025863625305111222, -0.28444705974881651, -0.27814764345392029, 0.23986726197689584, 0.21193876240917736, 0.15424281999602404, -0.64127520795383297, -0.35282913283937029, -0.069700788924014906, -0.082302552358363104, -0.46880341287494465, 0.12357436025073486, 0.13151789115482543, 0.47818719376333108, 0.56507823358631681, 0.37144096035189544, -0.061538541275596388, -0.50105066504196927, 0.25853029700604235, 0.40121955608279203, 0.1252716780654787, -0.078540738161982079, -0.38116515374187426, -0.085197671737626671, -0.039770626418498468, -0.3495120211864563, -0.28564477587439502, -0.12437053689089655, 0.0060222712070814588, 0.60857884335269541, 0.71580685897594598, 0.27963129228256606, -0.48540717108510345, 0.0, 0.55098789809261794, -0.044946343600439261, -0.29971143697290981, -0.27861031882038501, -0.046936048703115865, -0.025128732459035769, 0.016147967313314009, 0.0, -0.016147967313313971, 0.025128732459035633, 0.046936048703116302, 0.27861031882038501, 0.29971143697290958, 0.044946343600439115, -0.5509878980926185, 0.50105066504196549, 0.48540717108510179, -0.27963129228256645, -0.71580685897594598, -0.6085788433526953, -0.006022271207081078, 0.12437053689089629, 0.28564477587439485, 0.3495120211864558, 0.039770626418497594, 0.08519767173762649, 0.38116515374187543, 0.078540738161983092, -0.12527167806547868, -0.40121955608279297, -0.25853029700605151, 0.28444705974881757, 0.061538541275596527, -0.37144096035189517, -0.56507823358631815, -0.4781871937633308, -0.13151789115482557, -0.12357436025073469, 0.46880341287494409, 0.082302552358363174, 0.069700788924014934, 0.35282913283936979, 0.64127520795383353, -0.15424281999602407, -0.2119387624091775, -0.23986726197689681, 0.27814764345392046, 0.49369644981934885, -0.025863625305112062, -0.58374953111285743, -0.57375402204668069, -0.28960765025556273, -0.057643134477772584, 0.096146146546482986, -0.15435415644772257, -0.089665493763905951, 0.21120063338943346, 0.73407303892358478, 0.078144578875958423, -0.27795716286039923, -0.58220860813310193, -0.028599885299834052, 0.11165987603492622, 0.33715308540884081, -0.33819930516627261, -0.63780953355333814, -0.4742696172853807, -0.026907710169939453, 0.17221941527481896, 0.010899335059883842, 0.255142274392685, 0.1042088356179755, 0.13002979250328878, 0.047145699680322194, 0.20201533306487413, 0.070483316372948898, -0.093270783109698011, -0.02314311411109286, 0.15620141422078002, 0.15322533038437197, -0.36205053484880773, -0.43028476135594285, -0.20570594817447682, 0.16627797903692051, 0.27688351152937796, 0.058221749379562517, 0.072038013198873943, 0.074014762647552898, -0.024198387783459358, -0.16362229982811285, 0.026190541258221577, 0.044041210339480594, 0.21709026687054175, -0.13093216164616647, 0.22607010962513172, 0.025525956040657879, -0.17785746909554348, -0.13566574963064229, 0.05268095735630967, 0.32128768085155629, 0.26958790613699174, 0.17582712108005746, -0.20593848094641168, 0.072214337847750262, 0.1101340795202479, -0.14694144990283145, -0.15525919741979582, -0.27232343748722609, 0.097716740815669695, -0.021672012960922509, 0.4392201979962474, 0.12144035304784354, 0.054222765511964081, 0.098555531145757228, 0.057039440496771961, 0.10149311358452147, 0.16745728520497297, 0.22342112224413127, -0.25391973490303338, -0.25952052608191956, 0.25720728194979453, 0.1105864799169803, -0.34402778465221573, -0.24062425621687175, 0.086518923092404096, -0.20423743626365271, 0.30355682595002914 ] ],
