(function (global) {
  'use strict';

  var pModel = {
    "scoring": {
      "size": [20, 22],
      "bias": -1.3971,
      "coef": [-0.019443, -0.0084627, -0.005644, -0.0030633, 0.0050582, 0.0038672, 0.0073781, 0.0084088, 0.002108, 0.0088022, 0.0084634, 0.0091342, 0.0021678, 0.0057906, 0.010027, 0.010018, 0.011075, -0.00061696, -0.006084, -0.0094488, -0.012441, -0.003865, -0.0003105, 0.0031879, 0.0078183, 0.01096, 0.012101, 0.012289, 0.012872, 0.01342, 0.012863, 0.01257, 0.014429, 0.013339, 0.013248, 0.012998, 0.0080562, 0.001467, -0.011928, -0.0097909, -0.019951, -0.014602, -0.013175, -0.0060515, -0.0010407, 0.0054651, 0.010449, 0.014061, 0.015918, 0.016361, 0.021757, 0.017301, 0.014195, 0.012452, 0.010454, 0.0040883, -0.0014194, -0.0038499, -0.01077, -0.011758, -0.0046927, -0.0022134, -0.0039804, -0.012187, -0.011887, -0.0081984, 0.0028354, 0.007082, 0.012238, 0.016348, 0.02098, 0.017313, 0.011865, 0.0072371, 0.0028788, -0.0074673, -0.012293, -0.014834, -0.0083886, -0.0012772, -0.0043238, -0.00079996, -0.0090447, -0.015715, -0.016374, -0.018048, -0.012034, -0.007243, 0.00051252, 0.013092, 0.01857, 0.013099, 0.00085916, -0.0064555, -0.014574, -0.018222, -0.01806, -0.016666, -0.016743, -0.012862, -0.037409, -0.02683, -0.036693, -0.034788, -0.021885, -0.024485, -0.028069, -0.018632, 0.00033863, 0.015591, 0.021179, 0.015184, 0.0029429, -0.014375, -0.025568, -0.025718, -0.023219, -0.043064, -0.042245, -0.040561, -0.029282, -0.037097, -0.050209, -0.043175, -0.038799, -0.037913, -0.024597, -0.013392, 0.0026176, 0.01616, 0.02195, 0.018825, 0.0069274, -0.00671, -0.018259, -0.03115, -0.030987, -0.033628, -0.043437, -0.034535, -0.0027688, -0.0045493, -0.0029637, -0.0034067, -0.0058159, -0.0050003, -0.0052189, -0.0035094, 0.0048076, 0.01523, 0.017877, 0.01506, 0.0068301, -0.00074735, -0.0047129, -0.0020172, -0.0028734, -3.2165e-05, 0.0052576, 0.0043529, 0.016946, 0.015931, 0.013752, 0.01013, 0.0080481, 0.006654, 0.0068325, 0.0069577, 0.0040399, 0.011715, 0.01744, 0.014274, 0.0061486, 0.0064501, 0.0064155, 0.0087973, 0.0085371, 0.0087282, 0.011783, 0.016747, 0.022118, 0.020836, 0.018312, 0.015898, 0.017833, 0.015566, 0.014049, 0.0092416, 0.0081518, 0.011231, 0.012568, 0.012112, 0.0098382, 0.0073612, 0.0095541, 0.011728, 0.018126, 0.019469, 0.017399, 0.021144, 0.021132, 0.019499, 0.019593, 0.020281, 0.017451, 0.014159, 0.0062291, 0.0038367, 0.0070206, 0.0096561, 0.011406, 0.0073274, 0.0046726, 0.0052536, 0.00018758, 0.0081524, 0.01276, 0.0216, 0.023303, 0.023746, 0.018231, 0.020013, 0.019842, 0.0188, 0.010638, 0.00047498, -0.0071779, -0.0013493, 0.0015382, 0.0026092, 0.00054047, -0.00049664, -0.00046203, -0.005244, -0.0052152, -0.010003, 0.0014386, 0.012845, 0.020828, 0.023738, 0.015717, 0.016381, 0.014903, 0.007373, 0.0019356, -0.0062, -0.0091165, -0.008811, -0.01485, -0.0020888, 0.0052141, 0.0010527, -0.010322, -0.016208, -0.012439, -0.013087, -0.002797, 0.0023632, 0.011157, 0.018369, 0.0095224, 0.010552, 0.0065611, -0.0015315, -0.0032492, -0.003133, -0.00092774, -0.0020969, -0.0027526, 0.00094388, 5.9164e-05, -0.0017255, -0.0034421, -0.0045774, -0.0025305, -0.00038216, 0.00057079, 0.0031326, 0.0060238, 0.011585, 0.0016263, 0.0032288, 0.0012533, 0.00062748, 0.0023767, 0.0028182, 0.0023771, -0.0033403, -0.0048954, 0.0030747, 0.0062649, 0.0050231, 0.00044658, -0.0048271, -0.0040237, 0.0024988, 0.005458, 0.007288, 0.003601, 0.010569, -0.0045837, 0.00057936, 0.0010299, 0.0030015, 0.0036675, 0.0044718, 0.0068927, 0.0039124, 0.0071394, 0.010304, 0.012609, 0.0089589, 0.0086038, 0.0055408, 0.0046722, 0.0047921, 0.0058818, 0.0056047, 0.0054112, 0.0073265, -0.0027342, -0.0027247, -0.00349, -0.0079957, -0.0040761, -0.0020778, -0.0028479, -0.0039663, -0.0026161, 0.00092611, 0.0017427, 0.00055187, -0.0013723, -0.0045996, -0.0042015, -0.0054722, -0.0023417, -0.0025441, -0.0078778, 5.3403e-05, 0.0046873, 0.0021888, 0.0013036, -0.0013698, -0.015805, -0.016268, -0.018901, -0.017659, -0.011813, -0.0034436, -0.0023483, -0.0050111, -0.0050922, -0.015031, -0.020198, -0.021621, -0.018586, -0.018724, -0.0055723, 0.006448, 0.0026823, 0.006001, 0.0039986, 0.0050813, -0.0059114, -0.027746, -0.029251, -0.023067, -0.01721, -0.015963, -0.021075, -0.023667, -0.020006, -0.019063, -0.017792, -0.025323, -0.020971, -0.0034366, 0.0043351, 0.0084557, -0.0063213, -0.0012841, -0.001235, 0.004021, 0.0092275, 0.0045265, 0.0041316, 0.00077108, 0.0017581, -0.0011577, -0.0036195, -0.003732, -0.0016662, 0.0031111, 0.0014907, 0.0048443, 0.0059991, 0.0084751, 0.0055827, 0.0025145, -0.0046319, -0.0076183, -0.0046594, -0.0031254, 0.0074653, 0.010126, 0.0094747, 0.0035658, 0.0057834, 0.0038881, 0.001996, 0.0015056, 0.0011132, 0.0054877, 0.0047366, 0.0072106, 0.010078, 0.003857, -0.0031188, 8.695e-05, -0.021441, -0.0072103, -0.0078359, -0.0059407, -0.00161, 0.005345, 0.0071049, 0.010197, 0.0057578, 0.0074571, 0.0062731, 0.0076242, 0.0068437, 0.0070021, 0.0087251, 0.0089996, 0.0034314, -0.0019892, -0.0078966, -0.010925]
    },
    "path": {
      "normal": [
        [0, 1, 2, 3, 4, 5, 6, 7, 8, 9, 10, 11, 12, 13, 14],
        [15, 16, 17, 18],
        [19, 20, 21, 22],
        [23, 63, 24, 64, 25, 65, 26, 66, 23],
        [28, 67, 29, 68, 30, 69, 31, 70, 28],
        [34, 35, 36, 42, 37, 43, 38, 39, 40],
        [33, 41, 62],
        [44, 45, 46, 47, 48, 49, 50, 51, 52, 53, 54, 55, 44, 56, 57, 58, 50, 59, 60, 61, 44],
        27, 32
      ],
      "vertices": [
        // jawline
        [0,1,23,0],
        [1,23,66,1],
        [1,2,66,1],
        [2,66,26,2],
        [2,26,35,2],
        [2,35,36,2],
        [2,36,3,2],
        [36,44,45,36],
        [3,4,44,3],
        [3,44,36,3],
        [4,44,55,4],
        [4,5,55,4],
        [5,55,54,5],
        [5,6,54,5],
        [6,53,54,6],
        [6,7,53,6],
        [7,8,53,7],
        [8,52,53,8],
        [8,9,52,8],
        [9,51,52,9],
        [9,10,51,9],
        [10,50,51,10],
        [10,11,50,10],
        [11,38,50,11],
        [11,12,38,11],
        [12,38,39,12],
        [12,31,39,12],
        [12,31,70,12],
        [12,13,70,12],
        [13,28,70,13],
        [13,14,28,13],
        // right eyebrow
        [14,15,28,14],
        [15,28,67,15],
        [15,16,67,15],
        [16,67,29,16],
        [16,17,29,16],
        [17,68,29,17],
        [17,18,68,17],
        [18,68,30,18],
        [18,30,33,18],
        // below eyes
        [30,40,69,30],
        [39,40,69,39],
        [39,31,69,39],
        [26,65,35,26],
        [34,35,65,34],
        [25,34,65,25],
        // left eyebrow
        [22,25,33,22],
        [22,25,64,22],
        [21,22,64,21],
        [21,24,64,21],
        [20,21,24,20],
        [20,24,63,20],
        [19,20,63,19],
        [19,23,63,19],
        [19,23,0,19],
        // below nose
        [36,45,46,36],
        [36,42,46,36],
        [42,37,46,42],
        [37,46,47,37],
        [46,37,47,46],
        [37,47,48,37],
        [38,48,49,38],
        [37,43,48,37],
        [43,38,48,43],
        [38,49,50,38],
        // nose region
        [22,18,33,22],
        [40,41,30,40],
        [25,33,41,25],
        [33,41,30,33],
        [25,34,41,25],
        [41,40,62,41],
        [34,41,62,34],
        [34,35,62,34],
        [35,36,62,35],
        [36,42,62,36],
        [42,37,62,42],
        [37,43,62,37],
        [43,38,62,43],
        [38,39,62,38],
        [39,40,62,39],
        // mouth
        [44,45,61,44],
        [45,46,61,45],
        [46,47,61,46],
        [47,61,60,47],
        [47,59,60,47],
        [47,48,59,47],
        [48,49,59,48],
        [49,50,59,49],
        [50,51,58,50],
        [51,52,58,51],
        [52,57,58,52],
        [52,53,57,52],
        [53,54,57,53],
        [54,56,57,54],
        [54,55,56,54],
        [44,55,56,44],
        // left eye
        [23,63,27,23],
        [63,24,27,63],
        [24,64,27,24],
        [64,25,27,64],
        [25,65,27,25],
        [65,26,27,65],
        [26,66,27,26],
        [66,23,27,66],
        // right eye
        [28,67,32,28],
        [67,29,32,67],
        [29,68,32,29],
        [68,30,32,68],
        [30,69,32,30],
        [69,31,32,69],
        [31,70,32,31],
        [28,32,70,28]
      ]
    },
    "patchModel": {
      "patchType": "SVM",
      "bias": {
        "raw": [-0.96431, -1.0357, -0.87499, -0.91633, -0.84504, -0.8443, -0.73852, -0.80871, -0.72654, -0.84368, -0.86982, -0.91726, -0.87371, -1.0267, -0.98146, -0.87301, -1.0204, -1.058, -1.2212, -0.88168, -1.0332, -1.0513, -1.2405, -1.1638, -1.067, -1.2392, -1.1877, -1.1235, -1.1355, -1.0802, -1.2402, -1.167, -1.112, -0.72954, -1.1239, -1.3005, -1.3147, -1.0871, -1.3362, -1.3247, -1.1149, -0.76288, -1.1216, -1.0986, -1.2995, -1.2784, -1.0059, -0.91233, -0.96292, -1.2527, -1.2946, -1.1523, -1.0005, -0.88771, -1.0142, -1.1965, -1.0387, -0.86719, -1.0089, -1.1238, -0.95069, -1.1224, -0.88922, -1.1176, -1.2249, -1.247, -1.2452, -1.0982, -1.2104, -1.2217, -1.1773],
        "sobel": [-0.83935, -0.62721, -0.55884, -0.69956, -0.71112, -0.80041, -0.8006, -1.1137, -0.80072, -0.80019, -0.71985, -0.69966, -0.58347, -0.65659, -0.82586, -0.77759, -0.77233, -0.85808, -0.81938, -0.76428, -0.79996, -0.86702, -0.82302, -0.74264, -1.0086, -0.71718, -0.79528, -0.88281, -0.7815, -0.99671, -0.71226, -0.81128, -0.961, -1.2055, -0.86243, -0.75576, -0.78897, -0.96273, -0.78559, -0.78317, -0.89144, -1.0805, -0.81895, -0.82399, -0.61098, -0.70637, -0.83608, -0.86537, -0.86189, -0.70686, -0.60467, -0.63896, -0.60021, -0.60121, -0.60027, -0.66659, -0.70694, -0.80643, -0.70127, -0.69741, -0.85141, -0.69645, -1.0096, -0.88808, -0.88378, -0.80101, -0.80271, -0.90248, -0.8675, -0.82653, -0.82836],
        "lbp": [-1.2775, -0.80122, -0.80009, -0.80001, -0.70684, -0.77174, -0.76476, -0.66899, -0.72273, -0.66941, -0.59957, -0.79986, -0.80009, -0.80015, -0.80045, -0.7709, -0.6573, -0.59981, -0.58309, -0.95297, -0.76546, -0.79994, -0.72741, -1.3172, -1.1408, -1.3378, -1.4003, -1.2901, -1.2837, -1.1569, -1.2168, -1.4004, -1.2905, -0.92838, -0.9268, -0.92117, -0.91104, -0.84307, -0.86336, -0.97589, -0.89165, -1.1977, -0.99448, -0.97474, -0.79614, -0.7713, -0.91142, -0.92086, -0.8659, -0.84975, -0.80661, -1.0506, -1.2192, -1.3183, -1.3092, -0.60808, -0.93976, -1.1058, -1.0279, -0.91383, -0.87452, -0.81875, -1.0651, -1.1856, -1.1889, -1.3461, -1.3969, -1.1909, -1.1383, -1.3736, -1.3913]
      },
      "weights": {
        "raw": [
          [-0.0064193, 0.029809, -0.026784, -0.022626, -0.067697, -0.33308, 0.028197, 0.18245, 0.015034, 0.067853, 0.066708, 0.043758, -0.049432, 0.028765, -0.02378, -0.019044, -0.14598, 0.076748, 0.10031, 0.022404, 0.039489, -0.069173, 0.064454, -0.035681, 0.029478, 0.01367, -0.040087, -0.16484, 0.06074, 0.13421, 0.024223, -0.023179, -0.023938, 0.00080564, -0.020188, 0.035394, 0.020506, 0.028993, -0.15876, 0.08638, 0.069612, -0.0051496, -0.086213, -0.11615, -0.10172, 0.050444, -0.010945, -0.001994, -0.082496, -0.19805, 0.14503, 0.10473, -0.054504, 0.058559, 0.02151, 0.017305, 0.054797, 0.08145, -0.015927, -0.026646, -0.29396, 0.26045, -0.014751, 0.013566, -0.052044, -0.068508, 0.026715, 0.01503, -0.0036696, 0.0038326, -0.029296, -0.21686, 0.23218, -0.0032704, 0.0010938, 0.022865, -0.0024711, 0.027139, -0.016799, 0.052897, 0.0068774, -0.11535, -0.20003, 0.26777, -0.012991, 0.014507, -0.028377, 0.0061822, 0.088922, -0.029269, 0.023549, 0.005012, -0.10302, -0.11265, 0.23622, -0.02319, 0.0035723, -0.034182, 0.05063, 0.010945, -0.0026519, -0.025155, 0.02853, -0.13116, -0.093256, 0.16421, -0.010547, 0.03555, -0.020259, 0.022467, 0.03417, 0.11908, -0.0015743, -0.06402, -0.22057, -0.07231, 0.30205, 0.023274, 0.063584, 0.042979, 0.11846],
          [0.16668, -0.061056, 0.0069211, 0.017085, -0.22608, -0.37345, 0.079941, 0.16478, 0.022649, 0.052894, 0.029322, -0.065687, -0.017175, 0.053426, 0.13197, -0.038916, -0.22142, 0.17019, 0.037969, 0.032433, 0.013114, -0.004714, 0.014494, 0.016836, -0.035383, 0.064594, -0.16864, -0.18184, 0.22011, 0.017098, 0.044439, -0.065745, 0.10209, 0.012977, 0.019776, -0.020715, 0.037536, 0.073188, -0.25739, 0.1791, -0.012201, -0.012489, -0.027938, 0.09084, 0.056062, -0.029592, 0.083797, 0.026909, 0.028447, -0.26724, 0.17602, 0.057474, -0.021754, -0.016094, 0.034961, -0.066136, -0.086822, 0.021268, 0.024914, 0.083351, -0.21234, 0.14528, 0.052103, 0.0060527, 0.0041058, 0.073743, -0.063151, 0.071707, 0.050277, 0.059474, 0.041093, -0.23159, 0.039824, 0.035168, -0.039327, -0.046713, -0.029439, 0.030373, 0.010642, 0.035443, -0.064897, -0.032864, -0.15394, 0.011778, 0.17418, -0.054758, 0.047924, 0.054346, -0.0033549, 0.02359, -0.0246, 0.060655, 0.13657, -0.093663, -0.047444, 0.062873, -0.022728, -0.027266, 0.12949, -0.016065, -0.029023, -0.055703, -0.084011, 0.067583, -0.021201, -0.12022, 0.094859, -0.023786, -0.031181, -0.0045461, -0.00096878, 0.075436, 0.010017, 0.06898, 0.077148, 0.016059, -0.19045, -0.010877, 0.12221, -0.035116, 0.061957],
          [0.0011017, -0.10083, 8.5948e-05, -0.004422, -0.09674, -0.13241, 0.13984, -0.0031379, 0.0684, 0.041645, 0.12466, 0.057469, 0.073611, -0.010864, 0.0048406, 0.016396, -0.021671, 0.044733, 0.067922, -0.015872, -0.055943, 0.019702, 0.018616, -0.005659, 0.034038, 0.034411, -0.10871, -0.08096, 0.067428, -0.01988, -0.013665, 0.03579, 0.066231, -0.045918, -0.0042019, 0.021127, 0.040188, -0.036664, -0.030093, 0.0088117, 0.002416, -0.038593, -0.031144, 0.035042, -0.018244, 0.018916, 0.0008242, 0.092475, 0.073297, -0.024312, -0.0027452, 0.067921, 0.0011866, -0.028294, 0.042812, -0.022453, 0.02261, -0.028251, 0.043263, 0.092532, -0.15324, 0.050211, 0.01393, -0.00089781, -0.063661, 0.0048486, 0.07858, 0.025758, -0.032352, 0.028485, 0.023621, -0.21175, 0.10461, 0.047598, -0.013273, -0.060312, 0.021931, -0.054666, 0.02459, -0.053143, 0.049928, -0.024453, -0.1367, 0.013882, 0.10709, -0.030277, 0.045489, 0.021159, 0.0045505, 0.05215, -0.031125, -0.025892, 0.051506, -0.15851, -0.077434, 0.14442, 0.025521, -0.01336, -0.032691, -0.050761, 0.0067267, 0.053583, -0.066091, 0.028319, -0.023395, -0.1219, 0.12641, 0.04107, -0.038345, -0.0051038, 0.011158, -0.025558, -0.015803, -0.01457, 0.058582, 0.048613, -0.29657, -0.067646, 0.13109, 0.05457, 0.062524],
          [-0.025233, 0.022349, -0.072259, -0.18573, 0.061154, 0.16053, 0.035735, 0.032646, 0.049973, -0.017745, 0.12328, -0.0020676, 0.017463, 0.062789, -0.11705, -0.065255, 0.094525, 0.04495, -0.028764, -0.007559, -0.018043, -0.042767, 0.0064727, -0.024499, 0.015096, 0.01148, -0.22512, 0.1375, 0.042174, -0.00097974, 0.0053459, 0.0066959, 0.052939, 0.028663, 0.0083788, 0.00039142, 0.058936, -0.2056, 0.079503, 0.10224, -0.041138, 0.02733, -0.010752, -0.0022307, -0.0079242, -0.0082795, -0.032085, 0.086123, -0.12113, -0.12791, 0.13903, 0.008854, -0.035846, 0.0045791, -0.043587, -0.02644, 0.012179, 0.074042, 0.012884, 0.063138, -0.30013, 0.19885, 0.063816, 0.049735, -0.059942, 0.066082, 0.01826, 0.01778, -0.030632, -0.05294, 0.12681, -0.2386, -0.072937, 0.12737, 0.063566, -0.051173, 0.0097791, -0.0043407, -0.016156, -0.0091924, 0.050666, 0.0060985, 0.017308, -0.20368, 0.12046, 0.012913, -0.0092052, 0.035363, 0.030748, -0.0068483, 0.06077, -0.024831, 0.032205, 0.088513, -0.20132, 0.0025484, 0.14012, 0.019619, 0.03077, -0.044844, 0.010829, -0.018605, 0.0048701, -0.053836, 0.065656, -0.087834, -0.1002, 0.019099, 0.032626, 0.013786, 0.014593, -0.022453, 0.023627, 0.044568, 0.05182, 0.058961, 0.011809, -0.24303, -0.10331, 0.043122, 0.044784],
          [-0.11132, -0.14268, -0.1132, 0.16617, 0.21669, 0.1458, 0.015659, 0.0813, -0.024809, 0.04021, 0.11478, 0.01893, -0.080897, -0.059337, -0.10482, 0.10574, 0.063141, 0.059506, -0.10686, 0.034082, -0.044929, -0.023391, -0.021034, 0.011729, -0.12519, -0.24525, 0.075036, 0.16915, -0.011043, 0.018698, 0.0089194, -0.0095742, 0.074951, 0.052516, 0.00076256, 0.14447, -0.16117, -0.29435, 0.21098, 0.15322, -0.031397, -0.073199, -0.00058139, 0.038374, 0.071661, -0.025228, 0.094356, -0.0055066, -0.31677, -0.17018, 0.20181, 0.038951, 0.020699, 0.0073525, 0.019251, 0.027713, 0.022208, 0.017802, 0.16127, -0.0097927, -0.39692, -0.016345, 0.084335, 0.12332, 0.046852, 0.0026368, -0.015618, -0.0094365, -0.026158, 0.093092, 0.015837, -0.036104, -0.25195, 0.066519, 0.088769, -0.054177, 0.11363, -0.074336, 0.026412, -0.0069935, -0.011837, 0.20496, 0.040653, -0.10952, -0.19526, -0.02669, 0.025635, 0.084142, 0.081561, 0.0339, -0.041778, -0.0095017, 0.014147, -0.0083457, 0.066156, -0.13608, -0.0752, -0.099487, 0.097955, -0.068031, -0.028817, 0.062117, -0.05651, -0.016458, 0.078179, -0.011548, 0.054587, -0.017563, -0.072691, -0.034856, 0.058574, -0.060289, -0.012303, 0.052155, 0.075228, 0.053727, 0.0021832, -0.0023449, 0.069002, -0.05515, -0.18138],
          [-0.23224, 0.079035, 0.20679, 0.17117, 0.060393, 0.070072, -0.061905, 0.10747, 0.014332, -0.032562, 0.096137, -0.11702, -0.18648, -0.072636, 0.12519, 0.070887, -0.032713, -0.014133, 0.0038162, 0.065966, 0.020457, 0.051334, -0.0011168, -0.086504, -0.17856, -0.024882, 0.17292, 0.076636, 0.095776, -0.076644, -0.054109, -0.03761, 0.10647, 0.005106, 0.056304, -0.028155, -0.31729, -0.058091, 0.11556, 0.065723, 0.030551, 0.041747, -0.069588, 0.092461, 0.052299, -0.010486, 0.011062, -0.045253, -0.23598, -0.070893, 0.10681, 0.11991, -0.020183, 0.00057273, 0.096563, 0.084394, 0.0061097, 0.052438, 0.012128, -0.025706, -0.37426, -0.12769, 0.057044, 0.11342, 0.089909, 0.088759, -0.017367, 0.058574, 0.0024242, 0.0811, 0.071615, -0.015636, -0.21764, -0.20281, -0.10017, 0.076481, 0.072072, 0.074832, -0.071669, 0.0033343, -0.020106, 0.12485, 0.088742, 0.012539, -0.080372, -0.20668, -0.042825, -0.041961, -0.011319, 0.0087351, -0.0073466, -0.014035, 0.060981, 0.0044957, 0.060136, 0.12863, -0.043407, -0.17199, -0.12412, -0.067878, -0.014543, 0.013304, 0.086616, -0.050869, 0.059037, -0.030082, -0.039151, -0.01341, 0.082024, -0.1843, 0.04382, 0.031005, 0.010111, -0.0064174, 0.024543, 0.0033265, 0.04021, 0.1055, 0.066466, 0.049202, -0.093932],
          [-0.12203, -0.03698, 0.12683, 0.10063, 0.082154, 0.031377, 0.076193, 0.029644, 0.067195, 0.014606, 0.21693, -0.091991, -0.11496, -0.057854, 0.026983, 0.053704, -0.027394, 0.062051, -0.014065, -0.030464, 0.050223, 0.069522, -0.047915, -0.076313, -0.10543, -0.069963, 0.063888, 0.047704, 0.049626, 7.9371e-07, 0.066938, 0.022331, -0.013204, -0.051208, 0.017252, -0.16856, -0.081718, -0.051493, 0.044258, 0.079861, 0.040257, 0.061168, -0.044454, 0.076059, 0.024485, 0.023739, 0.022211, -0.039096, -0.26994, -0.1381, 0.10638, 0.074165, 0.13611, 0.08862, 0.023943, 0.059455, 0.018811, 0.13333, 0.019081, 0.040954, -0.19369, -0.33097, -0.31537, -0.051012, 0.10153, 0.10646, 0.014631, -0.0037912, -0.031174, 0.12574, 0.082747, 0.1391, 0.015618, -0.09701, -0.25737, -0.2389, -0.39201, 0.014632, -0.0049577, 0.032249, 0.019906, 0.0090031, 0.026111, 0.062898, 0.14639, 0.10175, -0.0083665, -0.22695, 0.016645, 0.01064, -0.033903, -0.05887, 0.022391, 0.010862, 0.028661, -0.0089732, 0.052004, 0.030893, -0.066299, -0.045463, -0.036534, 0.058255, -0.090301, 0.087529, -0.048367, -0.02187, -0.061935, 0.022843, 0.087099, -0.038226, 0.042583, 0.046404, 0.038044, 0.01328, -0.024476, 0.042648, 0.021205, 0.023541, -0.0073299, 0.0090777, 0.072704],
          [0.076135, 0.075929, 0.10248, 0.12142, 0.061859, 0.025464, 0.048676, 0.030286, 0.11129, 0.19455, 0.11003, 0.074607, 0.013898, -0.012869, 0.03812, 0.0071485, -0.03739, 0.027892, -0.0040181, 0.051192, -0.051415, -0.065948, -0.077216, 0.078792, -0.01494, -0.042428, -0.022774, 0.0095521, 0.089225, 0.0026288, 0.027795, -0.011245, 0.002779, -0.084646, 0.10851, 0.064787, 0.071775, 0.10157, 0.13539, 0.022702, 0.081383, 0.10182, 0.13415, -0.067255, -0.252, -0.13138, -0.16366, -0.018741, -0.062883, -0.022204, -0.072308, -0.060022, -0.15902, -0.23762, -0.27876, -0.040264, -0.080156, -0.054339, -0.19775, -0.28232, -0.23354, -0.28871, -0.14102, -0.10254, -0.091079, -7.6022e-05, 0.084334, 0.025777, 0.027111, 0.12587, 0.17095, 0.12108, 0.23254, 0.022508, 0.10869, 0.10336, -0.0044697, -0.019044, -0.038539, 0.059623, -0.028373, -0.02936, 0.00087517, -0.065918, -0.069356, 0.02358, 0.021727, 0.039571, -0.029877, 0.038706, 0.054323, -0.04361, -0.014678, -0.039397, 0.028347, 0.13841, -0.090661, 0.036896, -0.037229, -0.0098949, -0.045239, -0.027745, 0.04194, 0.010554, -0.12123, -0.0087493, -0.022343, -0.036723, -0.074235, 0.13503, 0.046152, -0.00089713, 0.055905, 0.072801, -0.014134, 0.047446, 0.085859, 0.05507, 0.022279, 0.064172, -0.070766],
          [0.118, 0.07821, 0.12816, -0.020597, 0.014337, 0.11621, 0.089056, 0.054438, 0.040501, 0.077089, -0.16589, 0.098328, -0.028103, -0.026588, 0.024055, 0.072814, -0.012894, 0.081294, -0.019639, -0.059461, -0.070719, -0.12759, 0.029993, 0.0019697, 0.026357, 0.077456, -0.0065799, 0.034984, -0.011141, 0.037206, -0.078048, -0.042937, -0.12754, 0.028459, -0.025141, 0.032111, 0.042952, 0.11294, 0.020048, 0.051516, -0.23573, -0.072308, -0.019056, 0.0030321, 0.096971, 0.07581, 0.11716, 0.10957, -0.0024781, -0.064158, -0.26848, -0.059754, 0.061911, -0.021664, 0.08611, 0.053234, 0.17175, 0.028047, -0.085903, -0.33611, -0.28144, -0.008033, 0.10514, -0.016383, 0.068947, 0.032998, -0.25751, -0.14537, -0.35542, -0.31544, -0.015389, 0.25816, 0.089607, 0.024874, 0.06881, 0.03489, 0.0094402, -0.3317, -0.084022, 0.051, 0.11407, 0.12381, 0.061542, 0.024538, -0.051413, -0.037969, -0.083159, 0.060974, -0.069683, 0.013137, 0.054335, 0.086376, 0.025768, -0.030285, 0.0046746, 0.014048, 0.0039043, -0.013244, -0.010235, -0.034349, 0.089307, 0.023673, -0.074064, -0.039416, -0.051468, 0.0066514, -0.0056021, 0.03753, 0.022918, -0.028514, 0.047001, 0.011664, 0.031577, 0.036743, 0.0001679, -0.032413, 0.061177, -0.014966, 0.027964, 0.049596, 0.017494],
          [0.095112, -0.061598, -0.027849, 0.16285, 0.011485, 0.088228, 0.033477, 0.21312, 0.12563, 0.0056585, -0.19669, 0.12202, 0.065004, -0.064638, 0.0076011, -0.014993, -0.013714, 0.06519, 0.060502, -0.0073205, -0.15837, -0.11375, -0.01122, -0.037241, -0.0035346, 0.014184, -0.018805, 0.0022003, 0.086304, 0.05073, -0.19348, -0.024337, -0.022104, 0.11856, -0.0040747, -0.021636, 0.032835, 0.080034, 0.18177, 0.040195, -0.27027, -0.046765, 0.0088521, -0.0095398, 0.073838, 0.0022341, 0.080947, 0.064911, 0.068853, 0.052927, -0.41011, -0.0033883, -0.07662, 0.028027, 0.076992, 0.135, 0.0010836, -0.0094522, 0.11898, -0.10886, -0.31839, -0.079537, 0.088035, -0.019948, 0.055031, 0.017356, 0.11549, 0.047319, 0.0035589, -0.1909, -0.16923, -0.10344, 0.11611, 0.03014, 0.092038, -0.00052811, -0.0199, 0.11041, -0.11355, -0.13266, -0.16828, -0.036676, 0.078177, 0.065049, 0.061266, -0.045421, 0.038674, 0.026641, -0.10482, -0.10701, -0.065259, 0.1028, 0.025141, 0.078995, 0.055586, -0.028237, -0.0025877, 0.033127, -0.028093, -0.19115, -0.084372, 0.032752, 0.044573, 0.07857, -0.076168, -0.011918, 0.038863, -0.044585, -0.041775, 0.066544, -0.20856, 0.16839, 0.028096, 0.029747, -0.028107, 0.040207, -0.0050223, 0.061683, 0.11123, 0.002529, -0.021203],
          [0.090436, -0.042297, 0.079436, 0.038426, 0.018479, 0.15189, 0.24325, 0.11802, -0.080157, -0.21178, -0.13219, 0.018475, 0.092018, -0.050722, -0.068375, -0.015375, 0.03148, 0.087358, -0.068354, -0.14664, -0.00015826, 0.015682, 0.051709, 0.0087471, -0.082976, 0.061059, 0.055713, 0.11256, 0.1201, -0.2412, -0.014823, -0.021321, -0.0064827, 0.011517, -0.0029379, -0.036512, 0.040278, 0.051444, 0.17561, -0.1656, -0.17724, 0.066641, 0.025444, 0.011885, 0.028951, -0.06227, 0.008151, 0.074139, 0.15952, -0.023426, -0.39782, -0.10909, 0.19811, -0.039694, 0.074717, 0.067657, 0.0023721, 0.050106, 0.11669, 0.10445, -0.18066, -0.13733, 0.12306, 0.037249, 0.040395, -0.013511, -0.012464, -0.011253, 0.057264, 0.064124, -0.18291, -0.28694, 0.16662, 0.052134, -0.03452, -0.0020693, 0.067413, 0.069379, 0.017341, 0.1125, -0.12114, -0.16394, 0.042619, 0.0082442, 0.032212, 0.0013431, 0.059794, -0.041854, 0.16142, 0.02529, -0.092772, -0.2216, -0.01754, 0.044685, 0.076526, 0.056282, -0.038323, -0.024136, -0.063727, 0.10195, -0.11144, -0.13769, 0.050856, 0.011876, 0.075788, -0.07629, -0.081411, 0.072942, 0.068768, -0.033998, -0.1679, -0.13094, 0.030093, -0.020742, 0.00030251, 0.088643, 0.052492, 0.087008, 0.024693, -0.11263, 0.075664],
          [0.10662, -0.024041, 0.023732, 0.012547, 0.0662, 0.072881, 0.14196, -0.18846, -0.10001, -0.030399, 0.0065084, 0.035396, -0.016756, 0.039963, -0.032921, -0.0052279, 0.14555, -0.045218, -0.15713, 0.019388, 0.069073, -0.029885, -0.013668, 0.035507, -0.033905, -0.066398, 0.069367, 0.099068, -0.16177, -0.049744, 0.049417, 0.11584, -0.0099765, -0.0058946, 0.024852, -0.022954, 0.035365, 0.070911, 0.16507, -0.20261, 0.0040823, -0.020995, -0.01738, -0.068169, -0.016583, 0.016335, 0.017415, -0.06551, 0.17533, -0.077798, -0.16426, 0.067991, 0.015164, 0.0078509, 0.023953, -0.022724, 0.006469, -0.0046863, 0.023956, 0.17797, -0.14584, -0.064279, 0.0072859, 0.10176, -0.053758, 0.03183, -0.0069311, 0.011744, -0.02288, 0.061704, 0.073774, -0.20953, 0.022857, 0.054729, -0.019112, -0.03021, 0.0030313, 0.015874, -0.0064523, -0.02938, 0.17845, -0.071105, -0.12963, 0.074504, 0.028226, 0.028593, -0.019591, 0.026275, 0.049329, -0.0025258, 0.015184, 0.079378, -0.19506, -0.034582, 0.039284, -0.060962, 0.032105, 0.0010087, -0.0029092, 0.0013445, 0.0050237, 0.10379, 0.022548, -0.11489, -0.022121, 0.043655, 0.0067757, 0.025228, -0.019274, 0.021907, 0.076111, 0.017668, -0.015509, -0.23798, -0.10029, 0.068962, -0.0095808, 0.071808, 0.0096925, 0.0089571, -0.0082775],
          [0.14712, 0.048704, 0.038282, 0.073332, 0.092603, -0.069406, -0.18039, 0.030462, -0.076528, -0.02846, 0.0039885, 0.091531, -0.097047, -0.021416, 0.022881, 0.1163, -0.11091, 0.0052601, -0.0013446, 0.019773, -0.010681, 0.087902, -0.0062328, -0.022953, -0.011871, 0.0057627, 0.09059, -0.032591, -0.02872, 0.018765, 0.034198, 0.092483, -0.039036, 0.046061, -0.03192, 0.035976, -0.02143, 0.087312, -0.10752, 0.0015208, 0.010464, 0.017721, -0.05437, -0.041949, 0.025353, -0.033214, -0.021243, -0.0008824, 0.12799, -0.14588, 0.0049155, 0.11545, 0.024394, 0.026837, -0.007026, -0.020081, 0.023705, 0.02295, -0.053385, 0.083134, -0.19191, 0.028256, 0.051623, 0.026883, 0.0083776, -0.005671, -0.015188, -0.052822, 0.0039064, 0.0052812, 0.10528, -0.15535, 0.012627, 0.033272, -0.016016, 0.047323, 0.029676, 0.062672, 0.02036, -0.056328, 0.062032, 0.13944, -0.16288, -0.062736, 0.0089074, -0.0034475, -0.016188, -0.058358, -0.038566, -0.0077422, -0.045255, 0.13887, 0.084802, -0.19493, 0.067962, -0.039669, -0.042999, 0.056923, 0.02131, 0.023652, 0.005385, -0.031872, 0.12124, -0.096718, -0.094641, 0.050053, -0.041096, 0.067669, -0.01302, -0.017936, 0.030885, 0.017941, 0.12318, 0.082612, -0.19694, -0.084587, -0.0036588, 0.046191, -0.015214, -0.037797, -0.03766],
          [0.02879, 0.024919, 0.046184, 0.11407, 0.12089, -0.33168, -0.30199, 0.075505, 0.015981, -0.030246, 0.070778, 0.021705, -0.014784, -0.092797, 0.073387, 0.21513, -0.13136, -0.04101, 0.0027233, 0.10444, 0.019235, 0.026668, 0.077454, 0.037705, 0.028346, -0.0099782, 0.16392, -0.12998, -0.16954, 0.044202, 0.022535, -0.08057, 0.028323, 0.030852, -0.057281, -0.030642, 0.02744, 0.19419, -0.21394, -0.10823, 0.078776, -0.054726, -0.0018936, 0.027554, 0.12724, -0.053402, 0.032579, -0.0053669, 0.14926, -0.15555, 0.0070015, 0.047597, 0.15763, -0.0017752, -0.07848, 0.047381, -0.054017, -0.01081, 0.03169, 0.23863, -0.17968, -0.0025415, -0.0044923, -0.03345, 0.073251, -0.0025313, 0.04727, -0.018764, -0.085707, 0.037456, 0.24243, -0.25409, 0.043294, 0.040148, 0.013087, -0.019853, -0.023226, 0.030177, 0.030922, -0.040953, -0.0059331, 0.059824, -0.2284, 0.053836, 0.039215, -0.019168, 0.036601, 0.0071217, 0.0055195, 0.017118, -0.010329, 0.022892, 0.10731, -0.081072, -0.052731, 0.020939, 0.027473, 0.0087321, -0.011973, 0.029541, 0.025438, -0.0032417, 0.092169, -0.063485, -0.084864, -0.0055455, 0.04783, -0.038729, 0.021656, -0.048404, 0.081106, -0.050253, 0.062539, 0.050009, -0.066834, -0.22863, 0.13881, 0.081957, -0.036534, -0.019724, 0.074253],
          [0.080975, 0.05653, 0.032548, 0.10153, 0.046435, -0.21467, -0.20895, -0.014893, 0.020894, -0.0067217, 0.035252, -0.0060355, -0.027461, 0.010096, 0.054592, 0.16829, -0.17463, 0.021868, -0.041396, 0.01938, 0.012675, -0.027695, -0.041244, 0.016052, -0.0010187, 0.14438, 0.078408, -0.21215, -0.057681, 0.12665, -0.12395, 0.071773, 0.0075741, -0.051866, 0.038445, -0.11282, -0.013662, 0.21925, -0.14332, -0.054997, 0.0029603, 0.047503, -0.028486, 0.020467, -0.10612, 0.011156, 0.013002, 0.023296, 0.26377, -0.25931, -0.081091, -0.00039674, 0.042663, -0.0029479, -0.026706, -0.08931, -0.0050439, -0.005502, -0.045367, 0.23013, -0.090116, -0.21359, 0.069011, 0.019878, 0.0044609, 0.029591, -0.035017, -0.01693, -0.028665, -0.014127, 0.23223, 0.020022, -0.25101, 0.089307, -0.0077045, 0.033183, 0.0097764, 0.034273, 0.020165, -0.010043, 0.0084138, 0.23503, -0.02443, -0.16832, 0.00052901, -0.023488, 0.096816, -0.036178, 0.0026701, 0.0060485, -0.03295, -0.029843, 0.14656, 0.035391, -0.20847, -0.057892, -0.01027, 0.076538, 0.082782, 0.11259, -0.016599, -0.093948, -0.025158, 0.13711, 0.13285, -0.2231, -0.12554, 0.02511, -0.030215, -0.011749, 0.144, 0.043164, 0.085941, 0.035185, 0.17622, 0.19444, -0.23633, -0.077389, 0.014639, 0.0228, 0.083546],
          [0.12261, 0.16705, 0.19069, 0.064201, -0.00016272, -0.065943, -0.0079351, -0.057893, -0.054006, -0.10459, -0.05418, 0.06699, -0.09922, 0.062446, 0.090945, 0.028278, -0.047069, -0.007151, -0.050253, -0.014707, 0.09548, -0.11062, -0.14256, 0.026859, -0.19465, 0.18485, 0.1789, 0.15499, -0.028242, 0.044796, -0.058444, 0.013625, -0.079693, -0.1145, -0.12378, -0.065906, -0.15742, 0.12985, 0.20266, 0.038497, -0.025654, 0.075726, -0.022083, -0.085487, 0.032081, -0.16479, -0.22038, -0.22297, -0.38061, 0.12776, 0.3174, -0.015834, 0.055459, 0.011929, 0.024193, 0.090971, 0.16123, 0.0089118, -0.017295, -0.35854, -0.48144, 0.033786, 0.12099, -0.022527, 0.049459, -0.029491, 0.25613, 0.11469, 0.12808, 0.11403, 0.30507, -0.19905, -0.20054, 0.039641, -0.043767, 0.03361, 0.0098997, 0.11272, 0.18547, 0.15244, 0.061145, 0.11826, 0.12075, -0.019667, -0.00048386, -0.12176, 0.036172, -0.11869, -0.12502, 0.035905, 0.01784, 0.060859, 0.096352, -0.049212, -0.045373, -0.055897, -0.0023764, -0.038383, 0.0064116, -0.17559, 0.002325, -0.051727, -0.057791, 0.013791, 0.13645, -0.010155, -0.017626, 0.073653, 0.00069329, -0.050008, -0.31928, -0.18353, -0.085538, -0.073096, 0.09019, 0.10661, 0.090351, 0.13292, -0.011857, 0.052935, 0.043013],
          [0.063687, -0.027474, 0.040793, 0.033944, 0.067494, -0.084203, -0.024907, 0.0091584, -0.06882, 0.0031107, -0.097109, 0.11878, 0.0371, -0.089403, 0.021829, 0.050693, 0.01234, -0.023686, -0.02684, 0.034846, -0.016166, -0.027865, 0.12116, 0.0037369, 0.13532, 0.021592, 0.018171, 0.015073, 0.070401, 0.0022894, -0.038532, 0.073413, -0.029637, 0.14797, 0.12294, 0.068355, 0.16847, 0.092089, 0.12471, 0.06941, 0.0028282, 0.028941, -0.082406, -0.09934, -0.0023105, -0.044478, 0.00088096, -0.085099, -0.0064586, -0.044295, 0.10096, 0.14859, 0.1447, 0.078676, 0.041103, -0.18575, -0.17065, -0.17155, -0.25171, -0.27337, -0.21265, -0.17173, 0.027527, 0.05618, 0.12158, 0.079338, -0.12195, -0.13969, -0.026572, -0.07417, -0.14513, -0.115, -0.18279, -0.24715, -0.13748, -0.068393, 0.098672, -0.1674, 0.075274, -0.0044961, 0.1326, 0.31234, 0.15518, 0.06646, -0.015468, -0.030267, -0.05626, -0.038216, 0.067129, 0.12319, 0.18469, 0.086525, 0.095784, 0.15931, 0.07563, 0.11757, -0.076016, -0.011817, -0.051957, 0.17489, 0.14148, 0.086957, 0.081058, 0.046959, 0.049182, 0.003411, 0.015581, 0.026515, -0.062879, -0.056347, -0.093781, -0.23964, -0.13259, -0.084366, -0.12791, -0.070084, -0.044962, 0.049251, 0.072447, -0.016197, 0.10029],
          [0.022795, 0.031855, 0.024367, -0.088291, 0.072323, -0.062925, -0.0040861, -7.973e-05, 0.013966, -0.025131, 0.017076, 0.043144, -0.077791, 0.048534, 0.007217, -0.035475, 0.035692, -0.0053752, 0.043054, 0.036426, 0.026332, 0.018922, 0.034425, -0.043307, -0.023769, 0.080994, 0.0014023, 0.068008, 0.095105, 0.10798, 0.024411, 0.043708, 0.05651, 0.038013, -0.016919, 0.13076, 0.11446, 0.21239, 0.28796, 0.092687, 0.096764, 0.070116, 0.046945, -0.02811, 0.18644, 0.077871, 0.11792, -0.035608, -0.036649, -0.13441, -0.12092, -0.15624, -0.17026, -0.12518, -0.14934, 0.15932, 0.04839, -0.10848, -0.12256, -0.19726, -0.15716, -0.21753, -0.20063, -0.092267, -0.020573, -0.071637, 0.063398, -0.10021, -0.1558, -0.14944, -0.11921, -0.081202, -0.11695, -0.0067284, -0.046838, -0.0077863, 0.019981, -0.12167, -0.11523, -0.057472, -0.052229, -0.046891, 0.061574, 0.11811, 0.17402, 0.13372, 0.19273, 0.13838, -0.043682, -0.035941, 0.011031, 0.066035, 0.16274, 0.10016, 0.15019, 0.051561, 0.058406, 0.020233, 0.080342, -0.066884, 0.043092, 0.061076, 0.043765, 0.031379, -0.0054635, 0.039411, -0.017169, -0.027826, -0.0047149, 0.036104, 0.054667, 0.04624, -0.045456, 0.049402, -0.047668, -0.014225, -0.059509, -0.13174, -0.010384, -0.087812, -0.077603],
          [-0.032356, 0.018327, 0.017296, -0.027671, -0.0076809, -0.041377, -0.015062, -0.043781, 0.036477, 0.044229, 0.18106, 0.042891, -0.020853, -0.024082, 0.041552, -0.014679, -0.040842, 0.017432, 0.0070217, 0.1293, 0.15511, 0.2479, 0.015244, -0.016083, -0.051589, -0.092487, 0.045744, 0.057517, 0.1687, 0.26355, 0.13879, 0.14252, -0.078456, 0.0045618, -0.049966, 0.080369, 0.050147, 0.067477, 0.13152, 0.16709, 0.014141, -0.095378, -0.20288, -0.39934, 0.018783, 0.055848, -0.005273, 0.094884, 0.092662, 0.026342, -0.086839, -0.21346, -0.28211, -0.14896, -0.15888, 0.014524, 0.064105, 0.015209, 0.094836, 0.056563, -0.16636, -0.24132, -0.25962, -0.13982, -0.15532, 0.011695, 0.032011, -0.037561, 0.066608, -0.0076642, -0.04071, -0.04226, -0.090012, 0.069267, 0.15115, 0.15845, 0.15654, 0.057963, -0.031603, -0.0055733, -0.063345, 0.014275, 0.031681, 0.03982, 0.093416, 0.11919, 0.039897, 0.1715, 0.0032917, 0.0044847, -0.021099, 0.02581, -0.13673, -1.2468e-05, 0.045304, -0.052655, 0.020909, 0.08479, -0.063339, 0.091377, 0.072522, -0.07921, -0.067294, -0.04391, 0.029396, 0.023947, 0.017167, 0.030553, -0.058622, -0.0098427, 0.20196, -0.023669, -0.014002, -0.037283, -0.023078, 0.01559, -0.013169, -0.031499, -0.039786, 0.054516, -0.040513],
          [-0.11875, -0.082293, -0.095608, -0.020578, -0.051846, -0.010859, -0.022717, 0.12821, 0.20208, 0.10327, 0.19572, 0.018529, -0.062344, 0.036177, 0.04107, 0.0079762, -0.10314, 0.0064955, 0.12399, 0.024168, 0.030885, -0.074999, -0.0404, -0.026348, -0.0040063, -0.098214, -0.033436, 0.11941, 0.25556, 0.03896, -0.072604, -0.080306, -0.10381, -0.05732, 0.015516, 0.062556, -0.073829, 0.092347, 0.19891, 0.16973, -0.044618, -0.17459, -0.16856, -0.12959, 0.0028653, 0.039282, 0.051811, 0.05423, 0.13871, 0.27288, -0.31439, -0.4393, -0.14064, -0.11423, 0.047797, -0.065062, -0.0042604, 0.029463, 0.025105, 0.14743, -0.34598, -0.42017, 0.035073, 0.079596, 0.13323, 0.1334, -0.061958, 0.06892, -0.038536, 0.047215, -0.14334, -0.21161, 0.14176, 0.17098, 0.14175, 0.037859, 0.31086, -0.029229, 0.01515, 0.034324, -0.011782, -0.077397, 0.00082481, 0.042535, 0.049854, 0.13021, 0.20732, 0.070042, -0.037027, -0.031792, -0.064806, -0.082587, -0.074375, 0.013859, 0.15057, 0.13055, 0.023194, -0.079371, -0.076747, -0.056515, 0.070663, -0.082981, 0.038591, 0.036885, 0.10304, 0.028582, -0.11389, -0.023276, -0.020208, -0.1467, 0.023731, -0.018263, 0.11113, 0.01781, 0.20204, 0.050785, 0.06147, -0.0075508, 0.00039041, -0.14722, -0.3692],
          [-0.11817, 0.050808, 0.027086, -0.058324, -0.069752, -0.021027, -0.0010775, 0.07435, -0.0083997, 0.024897, 0.087436, -0.019099, -0.046098, -0.039781, 0.0088895, 0.0075569, -0.019311, 0.055368, 0.044256, 0.0032692, -0.010373, 0.072601, -0.0081004, -0.024375, -0.0051757, -0.0076083, -0.038608, 0.092478, 0.00029774, 0.041278, 0.081716, 0.02474, 0.18486, -0.025645, -0.025676, -0.069747, 0.054381, 0.049825, 0.13027, 0.1711, 0.059608, 0.089855, 0.095437, 0.15876, -0.059134, 0.090977, 0.095109, 0.11556, 0.17971, 0.033055, -0.035525, -0.10878, -0.050794, -0.076391, -0.056758, 0.13477, 0.12869, 0.13014, 0.0063887, -0.089729, -0.31295, -0.28325, -0.22477, -0.21457, -0.13308, -0.26981, 0.0050166, -0.080398, -0.085216, -0.18399, -0.23965, -0.12035, -0.076984, -0.01802, -0.023775, -0.10766, -0.167, 0.015041, 0.04251, -0.12958, 0.029351, -0.019786, 0.12164, 0.19449, 0.18157, 0.13918, 0.036259, -0.05933, -0.053816, -0.058012, -0.024991, -0.039656, 0.16051, 0.14621, 0.076529, 0.20618, 0.08613, 0.23683, 0.178, -0.031569, -0.011339, 0.0075929, 0.036795, 0.033074, 0.024137, 0.025796, 0.012497, -0.019553, 0.05285, 0.090518, -0.012948, 0.077672, 0.03561, 0.077328, -0.037094, -0.0047151, -0.059217, -0.13706, -0.084998, -0.20364, -0.1024],
          [0.0032467, -0.0050619, -0.021818, 0.020874, -0.023531, 0.032369, 0.02328, -0.069079, 0.028859, -0.022912, 0.03505, 0.021373, 0.043177, 0.031001, -0.022728, -0.04113, -0.011957, -0.0073658, 0.019513, 0.056489, -0.018007, 0.023594, -0.060975, 0.13275, -0.020289, 0.093323, 0.18376, 0.093308, 0.017002, 0.029001, -0.03262, -0.077144, -0.026313, -0.036376, 0.030017, 0.081068, 0.17134, 0.14545, 0.14412, 0.2509, 0.18953, 0.10962, 0.11869, 0.097649, 0.017539, -0.16077, -0.089442, -0.16627, -0.19946, -0.12054, -0.099975, -0.0030788, 0.17592, 0.0094048, 0.24138, -0.10617, -0.041295, -0.18663, -0.10129, -0.15612, -0.19263, -0.26517, -0.21075, -0.1524, -0.016384, 0.10147, 0.0087661, 0.033117, 0.022842, -0.12277, -0.10457, -0.046811, -0.05131, -0.12955, -0.085883, -0.21065, 0.067424, 0.07409, 0.082147, 0.095757, 0.12801, 0.19242, -0.010488, 0.002463, -0.014173, -0.069939, -0.071938, -0.073642, 0.031404, 0.11052, 0.082629, 0.072224, 0.081941, 0.14731, 0.13688, 0.093928, 0.026163, -0.034217, -0.096254, 0.052569, 0.058021, -0.069487, 0.10387, 0.016885, 0.0057524, -0.033858, 0.0992, 0.0027588, 0.028883, 0.0077988, -0.02613, -0.10093, -0.059725, -0.16032, -0.026296, -0.081817, 0.019856, 0.011593, 0.033536, -0.03719, 0.039209],
          [0.15106, 0.0077706, 0.040428, -0.0017943, -0.041654, -0.068591, 0.0062988, 0.026863, -0.032304, -0.019033, 0.007998, 0.27836, 0.068631, 0.10034, 0.09688, -0.0033598, 0.054326, -0.055942, -0.0054187, -0.0077552, 0.0045759, -0.00017646, -0.009476, 0.20486, 0.23126, 0.16314, 0.098539, -0.0099257, 0.053672, -0.088889, 0.023933, 0.012746, 0.013848, -0.39204, -0.21351, -0.17917, 0.010687, 0.16695, 0.2016, 0.16449, 0.011415, -0.026561, 0.0072565, -0.0063508, -0.16007, -0.15189, -0.22446, -0.21975, -0.14908, -0.011673, 0.10656, 0.16673, 0.027289, -0.0080445, 0.075809, 0.023838, -0.060319, -0.15809, -0.1508, -0.21785, -0.18411, -0.034762, -0.0030781, 0.14435, 0.098192, 0.0189, 0.14331, 0.13334, 0.10003, -0.011991, -0.081184, -0.091853, -0.059061, -0.030702, 0.0091318, 0.030031, -0.029166, 0.11125, 0.10479, 0.060406, 0.13088, 0.094447, 0.046888, -0.099894, 0.00043867, -0.079159, -0.030958, 0.051181, 0.036532, -0.026314, 0.048772, -0.019627, 0.041812, 0.020275, -0.035311, -0.0357, 0.037776, -0.01539, 0.10246, -0.004495, 0.0051588, 0.038344, 0.052952, -0.020141, 0.038911, -0.02581, -0.054107, -0.059081, -0.019798, 0.051849, -0.073763, -0.038341, -0.06688, -0.018986, 0.04871, -0.019809, 0.010562, -0.024563, -0.015141, -0.047958, 0.21089],
          [-0.12519, -0.11688, -0.058961, 0.042235, 0.027385, 0.073378, 0.1997, 0.18078, 0.17754, -0.12636, 0.08321, 0.029824, -0.0015425, -0.016459, 0.077534, 0.00013268, 0.09375, -0.044727, -0.19635, -0.22782, 0.11588, 0.28944, -0.068772, 0.010802, -0.0078676, 0.079851, 0.21293, -0.0089784, -0.068418, 0.022956, -0.026211, 0.057828, -0.079483, -0.016172, 0.062689, -0.021796, 0.12691, -0.047525, -0.049301, 0.048206, -0.21716, 0.02813, 0.12406, -0.086131, 0.076895, 0.038135, 0.011629, 0.070698, 0.0084135, -0.11267, -0.39755, 0.073041, 0.16994, -0.11001, -0.24501, -0.01654, 0.037589, 0.12221, 0.04684, -0.19362, -0.50341, -0.46225, 0.30127, 0.38513, -0.19299, -0.50883, 0.057766, 0.085916, 0.0025825, -0.15402, -0.081067, 0.13999, 0.1736, -0.0082113, 0.034164, 0.033688, -0.15384, -0.0035718, 0.011347, -0.017873, 0.039147, 0.10637, 0.076248, 0.13996, -0.12176, -0.064375, 0.022872, 0.20474, 0.014948, -0.039363, 0.024752, 0.06253, 0.0078273, 0.08754, -0.034543, 0.058746, -0.075126, 0.076597, 0.19454, 0.021682, -0.073489, -0.058083, 0.012328, 0.076039, -0.036913, -0.018863, -0.079317, 0.016094, -0.18419, 0.049227, -0.061457, 0.028283, 0.10422, 0.018037, 0.062905, 0.072053, 0.012388, 0.09073, 0.11439, 0.10143, 0.19506],
          [-0.037472, 0.079003, -0.11809, -0.011576, -0.047355, -0.04382, -0.022041, -0.015582, -0.06045, 0.0056711, 0.087342, -0.047485, 0.055578, 0.014641, 0.10885, 0.072561, 0.053636, -0.017556, 0.042134, -0.029061, -0.12502, -0.017197, -0.013398, 0.011501, 0.027702, 0.027412, 0.029975, 0.073364, 0.010914, 0.07541, 0.13044, 0.023411, -0.0048254, 0.074978, 0.054355, 0.042047, -0.015464, 0.022631, -0.063888, -0.040446, -0.11272, -0.077312, 0.018981, 0.079484, 0.042423, -0.00069404, -0.069229, 0.07743, 0.20474, 0.28719, 0.30504, 0.3255, 0.14073, -0.015201, -0.04186, 0.17136, 0.15274, 0.15944, -0.046361, -0.22277, -0.34374, -0.38756, -0.37353, -0.17546, 0.024942, 0.038533, 0.12622, -0.29897, -0.47417, -0.40534, -0.044667, 0.12588, 0.18503, 0.074482, -0.10022, -0.34732, -0.099282, -0.29838, -0.18662, 0.035652, 0.4013, 0.060801, -0.020916, -0.017432, 0.0064527, 0.31447, 0.27814, -0.042857, -0.10711, 0.12305, 0.34204, 0.11781, -0.098208, -0.22534, -0.17337, 0.025185, -0.11168, 0.2142, -0.04395, -0.023907, -0.065585, 0.092041, -0.03531, -0.13397, -0.038995, -0.12154, -0.13006, -0.17042, 0.11042, 0.092651, 0.13111, 0.058002, -0.0026521, 0.15722, 0.066071, 0.039488, 0.039274, 0.19072, 0.10773, -0.028126, 0.057979],
          [0.14781, -0.039386, -0.022921, 0.053882, 0.12599, 0.028203, 0.034607, -0.042381, 0.03885, 0.03641, 0.1629, 0.089845, -0.046053, -0.082096, -0.22397, -0.11679, 0.10054, -0.0082322, -0.010907, -0.029538, 0.0049451, 0.10219, 0.18664, 0.21337, 0.096928, 0.082225, -0.042534, -0.052259, -0.020309, -0.10672, -0.088221, -0.15579, 0.23093, -0.079956, -0.13801, -0.056966, -0.28523, -0.0068234, 0.26377, 0.035257, -0.00096948, -0.13355, -0.095292, 0.10809, -0.22622, 0.13751, 0.30589, 0.4709, -0.26226, -0.24292, 0.22232, 0.090544, 0.043301, -0.055195, 0.01245, -0.48339, -0.41102, 0.015183, 0.26867, -0.18588, -0.65746, -0.3708, 0.26182, 0.20686, -0.062913, -0.0046315, -0.34603, -0.057876, -0.080074, -0.060733, -0.063132, 0.33223, 0.16004, 0.084047, -0.02977, 0.045421, 0.034504, 0.37536, 0.088936, 0.18256, 0.079936, 0.23524, 0.11129, 0.10974, -0.047221, -0.11616, -0.06731, 0.034599, 0.23286, 0.1319, -0.041749, -0.18972, -0.070314, -0.04434, -0.052799, -0.12426, 0.045488, -0.13703, 0.059172, -0.056679, -0.074185, -0.096952, -0.021836, -0.065731, 0.021349, -0.083419, 0.052566, -0.0026602, 0.038735, 0.068176, 0.22646, 0.08289, 0.035399, 0.067321, 0.1424, 0.085139, 0.05037, 0.0010888, -0.01828, -0.017226, 0.08422],
          [0.11801, 0.048642, -0.10679, 0.0052911, 0.23136, 0.17221, 0.17682, 0.20045, 0.052122, -0.14026, 0.022439, -0.019828, -0.13731, 0.092577, 0.20996, -0.16372, -0.15701, -0.17369, -0.058054, -0.015724, 0.019399, -0.04931, -0.11375, -0.014247, 0.070739, -0.088328, -0.13682, -0.078888, 0.053145, -0.19438, -0.00017069, 0.13425, 0.0093321, -0.18143, 0.12021, 0.29639, -0.0090975, 0.039856, -0.084631, 0.036932, -0.14789, 0.19687, 0.40664, -0.14336, -0.18437, -0.038752, 0.29571, 0.053689, -0.19565, -0.34486, -0.50121, -0.40626, 0.13382, -0.00028762, -0.20092, 0.11021, -0.18696, -0.23952, -0.1882, -0.020408, -0.10626, 0.10776, 0.19942, -0.058277, 0.027522, 0.18135, 0.068695, 0.01411, 0.019796, -0.069519, 0.085999, 0.25122, 0.24992, 0.20675, 0.093802, -0.071506, 0.083957, 0.042664, -0.044898, 0.075633, 0.18471, 0.092312, 0.16477, 0.067407, -0.035391, -0.10051, -0.14948, -0.085912, 0.119, 0.022232, -0.059604, -0.083714, -0.12267, -0.071818, -0.061365, -0.037122, -0.024043, -0.0077183, -0.027903, -0.070229, 0.067283, -0.022097, 0.030069, 0.016509, 0.007991, 0.053658, -0.016975, 0.037888, -0.1034, 0.093947, 0.17569, 0.053193, 0.083328, -0.012242, 0.11153, 8.8778e-05, -0.0059795, 0.079576, -0.011219, 0.13063, 0.13094],
          [0.14423, -0.010081, 0.0073771, 0.065269, 0.055849, 0.052364, -0.022519, -0.0099854, 0.0074881, -0.007637, 0.095115, 0.0074869, 0.01523, 0.040218, -0.085367, -0.17283, 0.011588, -0.058982, -0.091214, -0.055486, -0.085056, -0.012889, 0.082192, -0.088216, -0.1761, 0.020768, 0.29732, 0.34473, 0.35075, 0.16758, -0.084317, -0.08765, -0.029301, 0.0082198, -0.14179, 0.20164, 0.30623, -0.089834, -0.32991, -0.2377, 0.14059, 0.22935, -0.069549, 0.13057, -0.031497, 0.0079274, 0.084812, -0.29146, -0.12913, 0.070966, -0.089487, -0.076857, -0.031867, -0.094906, -0.076821, -0.28838, 0.0878, 0.20019, -0.17097, 0.015334, -0.28908, -0.029527, -0.31385, 0.04304, 0.45577, -0.18071, -0.13847, 0.042623, 0.27232, -0.19148, -0.11016, -0.1177, -0.20542, -0.34623, 0.23755, 0.286, -0.077963, 0.034879, -0.026162, 0.12712, 0.14403, -0.034149, -0.088551, -0.027746, 0.12772, 0.10002, -0.18643, 0.041461, 0.057714, -0.083882, -0.083313, 0.026147, 0.057512, 0.098777, 0.20838, 0.081416, -0.031359, 0.010864, 0.054168, 0.036336, -0.037734, -0.05846, -0.050706, 0.0721, 0.077237, 0.032034, 0.083688, -0.018741, -0.068237, -0.067252, 0.12643, 0.092411, -0.032832, 0.10361, -0.020642, 0.050396, 0.014052, -0.024231, -0.050094, 0.029354, 0.10979],
          [0.060638, 0.011634, 0.11414, 0.11755, 0.020855, 0.10975, -0.04499, -0.011033, -0.053613, -0.044758, -0.10039, 0.13435, -0.024159, -0.084524, -0.09196, 0.10789, 0.045998, 0.055275, 0.064359, 0.01579, 0.02093, 0.040827, 0.13163, 0.059409, -0.026657, -0.14317, -0.10542, 0.073237, 0.082434, 0.062596, -0.0031044, -0.08584, -0.052855, -0.058037, 0.029722, 0.092669, -0.14987, -0.13354, 0.050258, 0.014996, 0.11314, 0.052153, 0.010578, 0.013768, -0.23145, -0.067587, 0.14188, 0.21502, -0.237, -0.2807, 0.024433, 0.017266, 0.017658, 0.026414, 0.088078, -0.19379, -0.33747, 0.1001, 0.36813, -0.034259, -0.51529, -0.21456, -0.029064, 0.029684, 0.11428, 0.035997, -0.31781, -0.038939, 0.17083, -0.019832, -0.015435, 0.21067, -0.06212, -0.026936, -0.055531, -0.02588, -0.056537, 0.082252, 0.13249, -0.050895, -0.023069, -0.0065804, -0.029029, 0.16671, 0.037287, 0.032007, 0.022986, 0.033098, 0.25107, 0.055248, -0.078427, -0.06518, 0.001903, 0.015118, 0.031629, 0.074471, 0.032408, 0.033763, -0.055109, 0.029518, -0.0055725, -0.022572, 0.0049783, -0.034893, 0.030152, -0.046318, 0.017217, -0.090595, 0.010987, 0.014754, 0.11881, -0.018854, 0.05457, 0.05288, 0.083388, 0.068291, 0.063598, 0.051887, 0.083087, 0.021603, -0.059861],
          [0.090807, 0.044777, -0.0060042, -0.050363, -0.038872, -0.12117, 0.022973, -0.031712, 0.038054, 0.0045987, -0.03566, -0.035675, -0.09299, -0.039163, -0.0069044, 0.013836, 0.030661, 0.070549, 0.02941, -0.012522, 0.051323, -0.0037635, -0.070014, 0.010861, 0.032727, 0.13749, 0.058184, 0.13751, 0.07872, 0.10379, -0.028949, 0.062082, -0.036945, 0.1129, 0.034426, 0.044915, -0.057007, -0.15438, -0.082871, -0.12982, -0.043612, 0.065964, 0.036324, 0.063714, 0.021735, -0.078259, -0.036957, 0.13355, 0.28201, 0.32487, 0.33827, 0.18538, 0.073223, 0.019788, 0.13765, 0.078068, 0.08518, -0.069126, -0.090879, -0.22904, -0.33514, -0.34107, -0.35148, -0.14298, 0.075348, 0.14776, -0.045856, -0.24152, -0.21753, -0.13094, 0.020511, 0.097672, 0.14601, -0.12507, -0.37252, -0.40824, -0.045906, -0.16008, 0.079378, 0.3144, 0.19158, 0.029031, -0.11483, 0.076726, 0.30135, 0.27546, -0.0068621, -0.36522, -0.067019, 0.2062, 0.0525, -0.13265, -0.07895, -0.20642, -0.24381, -0.086798, 0.23653, 0.22019, -0.036973, -0.049162, 0.14626, 0.14505, -0.22743, -0.082066, -0.12119, -0.043182, -0.098016, 0.02947, 0.13747, 0.0062917, 0.16322, -0.091364, 0.073288, 0.11423, 0.08521, 0.15332, -0.072661, 0.20467, 0.026701, 0.036011, 0.078828],
          [0.18112, 0.073306, 0.040736, -0.030592, -0.014723, -0.0097177, 0.12725, 0.030397, -0.058889, -0.026611, 0.066681, 0.066608, -0.071919, -0.0083165, -0.017286, 0.038603, 0.067084, -0.070282, -0.069691, -0.025275, -0.11015, 0.24938, 0.13938, -0.057198, -0.073331, -0.14479, 0.05242, -0.12935, 0.030685, 0.061611, -0.10213, 0.22393, 0.11686, 0.16687, -0.11111, -0.17122, 0.056582, -0.048939, 0.15918, 0.19178, -0.34144, -0.00029347, -0.046901, -0.19494, 0.045412, -0.0095034, -0.029117, 0.04141, 0.2315, 0.052449, -0.56727, 0.30029, 0.46091, 0.068319, -0.37008, 0.042656, -0.13943, 0.11478, 0.26741, -0.10449, -0.66828, -0.28238, 0.17754, 0.1737, -0.17216, -0.47505, 0.054836, -0.030162, 0.068493, 0.14671, 0.0071732, 0.29966, 0.2025, -0.17784, -0.11562, -0.13324, -0.097222, -0.028986, -0.035807, -0.10615, -0.13902, 0.016241, 0.1731, 0.19619, 0.11532, 0.085863, 0.16627, 0.31074, 0.046359, -0.0066806, -0.1195, 0.04915, -0.11685, -0.077622, -0.15566, -0.042823, -0.075959, -0.047232, 0.18267, 0.10711, -0.031804, 0.0641, -0.08334, 0.088606, -0.049002, -0.060791, -0.011939, -0.028966, -0.020443, 0.03072, 0.060614, -0.039898, 0.063701, 0.047369, 0.029398, 0.10606, 0.087013, 0.067144, -0.017892, 0.069808, 0.20794],
          [-0.036185, -0.068424, 0.033948, 0.25798, 0.055755, 0.14929, 0.20629, 0.22367, -0.046034, -0.10955, 0.12202, 0.033686, -0.11812, 0.12834, -0.12897, -0.056304, -0.29473, -0.025196, -0.049804, 0.052954, -0.067019, -0.068227, -0.047831, 0.026913, 0.088734, -0.19263, -0.011955, 0.086306, -0.16802, -0.083379, 0.087896, 0.12512, -0.12768, -0.2193, 0.40485, 0.21682, -0.072674, -0.087649, -0.11089, 0.015296, -0.1123, 0.29574, 0.080991, -0.1695, -0.097181, -0.07649, 0.24096, -0.24206, -0.33279, -0.40824, -0.16983, -0.11497, 0.28958, 0.028529, -0.048023, 0.063, -0.030722, -0.066963, -0.011014, 0.075932, -0.080862, -0.16771, 0.101, -0.24229, -0.31555, 0.037389, 0.1555, -0.021451, 0.078024, 0.2267, 0.30002, 0.24804, 0.095539, -0.038035, -0.028632, 0.0083028, 0.096554, -0.093656, -0.17003, -0.046728, 0.054387, -0.011591, 0.19039, 0.080097, 0.18123, 0.11932, 0.021024, 0.0092452, 0.067406, 0.017941, -0.04075, -0.082441, -0.11871, -0.13318, -0.054036, -0.081002, -0.026664, -0.010407, 0.076209, 0.011612, -0.0056684, -0.030538, 0.020575, 0.053928, 0.047349, -0.038219, 0.034337, -0.00018566, -0.026357, 0.080691, 0.12907, 0.054592, 0.056561, 0.048194, -0.032352, 0.015293, 0.016805, 0.13319, 0.0038584, 0.11728, 0.10129],
          [0.087039, -0.086031, 0.023999, -0.055001, -0.045275, 0.028719, 0.023279, 0.0072154, 0.079227, -0.032632, 0.15267, 0.044269, 0.10052, -0.11766, 0.067446, -0.016435, 0.030053, 0.10106, -0.1017, -0.066477, 0.012013, 0.0062465, -0.05766, -0.11952, -0.014951, -0.030954, 0.18712, 0.21588, 0.18761, 0.095823, -0.040222, -0.07325, 0.0042778, 0.055782, 0.082192, -0.012446, 0.17705, 0.1158, -0.24107, -0.085837, 0.15007, 0.28498, -0.14535, 0.010094, 0.095917, -0.29873, 0.17875, -0.22302, -0.17488, -0.043713, -0.1162, -0.23807, 0.0043004, 0.054212, -0.11568, -0.29339, 0.121, 0.4419, -0.15497, -0.022722, -0.21405, -0.020547, -0.27084, -0.095044, 0.2806, -0.27074, -0.13687, 0.17055, 0.3386, -0.2711, -0.35586, -0.26535, 0.082943, -0.35847, 0.34731, 0.15494, -0.1054, 0.094828, -0.10941, 0.019909, 0.13262, -0.049725, -0.10697, -0.25439, 0.17441, 0.1069, -0.077671, -0.0093719, 0.11752, 0.025752, 0.068028, 0.10986, 0.19781, 0.2037, 0.17359, 0.16858, -0.071588, -0.027858, 0.026995, -0.047967, -0.17448, -0.096432, -0.070821, 0.12976, 0.10169, -0.012905, -0.0072145, -0.076309, -0.074777, 0.049862, 0.13897, -0.01642, 0.087861, -0.035559, -0.034266, -0.041158, 0.11153, 0.021064, 0.066654, 0.031123, 0.21873],
          [0.024272, 0.21153, 0.10969, 0.059161, -0.04225, -0.08748, -0.010603, 0.082455, 0.12208, 0.17548, 0.048487, -0.10566, 0.0072713, 0.0048265, -0.037108, 0.036969, 0.059266, -0.091124, 0.016032, -0.026239, -0.059022, -0.088673, -0.077264, 0.056275, -0.051047, 0.023388, -0.017324, 0.012251, 0.025666, -0.020853, 0.0066968, 0.073686, -0.099903, -0.12413, -0.018049, -0.018586, -0.044793, 0.017308, 0.10244, 0.000328, 0.0064671, -0.10225, -0.025294, -0.034442, -0.12789, -0.022149, 0.014835, 0.12138, 0.031883, 0.03247, 0.0090957, -0.063479, 0.10607, -0.099169, -0.16382, -0.14343, -0.032183, -0.058018, 0.022916, 0.04015, 0.10591, 0.11703, 0.051143, 0.024664, 0.022331, -0.14794, -0.046226, -0.052976, 0.017633, -0.083088, 0.039154, 0.083559, 0.074372, -0.010152, 0.0052221, -0.094777, -0.071077, -0.01963, -0.040408, -0.046653, -0.012629, 0.026326, 0.057107, 0.091724, -0.0027242, -0.15414, 0.044172, -0.03748, -0.058582, -0.10282, -0.030064, -0.030479, 0.092608, 0.044945, 0.045404, -0.010357, 0.0060041, -0.074053, -0.041777, -0.00050145, -0.034991, -0.036126, -0.0451, 0.025861, -0.053218, 0.012117, 0.12779, -0.16438, -0.01274, 0.019185, 0.084771, 0.019614, -0.034807, -0.0017216, 0.15755, 0.005375, 0.039444, 0.14283, -0.047934, -0.10056, 0.083257],
          [-0.12767, -0.062412, -0.094141, -0.064796, -0.01781, -0.0691, -0.023075, -0.017484, -0.066453, -0.036872, 0.24167, -0.043101, 0.088798, 0.074579, 0.041306, 0.0411, 0.054755, 0.084087, -0.0097248, -0.049453, -0.081133, 0.064803, 0.058334, 0.048858, 0.003069, -0.037722, 0.054194, 0.0081354, 0.012382, -0.0081329, -0.053456, -0.091653, 0.06463, -0.0018238, 0.079983, -0.085168, 0.078834, -0.036841, 0.14405, 0.015137, -0.15092, -0.035986, 0.070901, 0.0031645, 0.012722, 0.017055, 0.03574, 0.020664, 0.288, -0.043946, -0.069905, -0.028876, 0.013241, -0.093933, 0.0073548, 0.021223, 0.088674, 0.15572, 0.18554, 0.051416, -0.30814, -0.1535, 0.015614, 0.033258, 0.007274, 0.068546, 0.15638, 0.027911, 0.18476, 0.017477, -0.32883, -0.27338, -0.082442, 0.040346, -0.010355, 0.048333, 0.10853, 0.20223, 0.060164, -0.016735, -0.16834, -0.29914, 0.034354, 0.045518, 0.020288, 5.4206e-05, 0.055521, 0.078561, 0.1685, -0.070184, -0.079489, -0.2965, 0.10263, 0.11174, 0.13931, 0.026571, 0.081658, 0.081828, 0.083098, 0.11143, -0.13933, -0.22918, -0.064352, 0.16181, 0.25167, 0.042481, 0.088318, 0.10703, 0.097667, 0.24657, 0.00077544, -0.20365, -0.12891, 0.074372, 0.25016, -0.0027412, -0.09113, -0.23136, -0.30385, -0.14846, -0.10313],
          [0.0047306, -0.025051, -0.005842, 0.023077, -0.0021831, 0.093205, 0.16892, 0.13474, -0.019109, -0.10105, 0.062619, 0.01684, 0.01172, -0.0013488, 0.038407, 0.054231, 0.20955, 0.051311, -0.17892, -0.15157, -0.10803, 0.021082, 0.050527, 0.037029, 0.084086, 0.097194, 0.1163, 0.10292, -0.16563, -0.29211, -0.054203, -0.025851, 0.13698, -0.071433, 0.10358, -0.058267, 0.041899, 0.12303, -0.12859, -0.32801, -0.028641, 0.13915, 0.070612, 0.17863, 0.03674, 0.082604, 0.0015218, 0.093696, -0.11859, -0.24264, -0.17082, 0.31937, 0.10806, -0.025076, 0.28906, 0.16912, -0.0059925, 0.11217, -0.11767, -0.055105, -0.35075, 0.075522, 0.29102, 0.032924, 0.073925, 0.13286, 0.11032, 0.017466, -0.0088771, -0.12337, -0.02645, -0.032574, -0.17412, 0.27115, 0.13019, -0.072333, -0.22304, -0.0049243, 0.062008, -0.054843, -0.077837, 0.062096, 0.21463, -0.092882, -0.28273, -0.2134, -0.17286, -0.2332, 0.10998, -0.0075162, -0.11007, -0.003427, 0.078591, 0.1035, 0.25431, -0.15927, -0.27034, -0.10635, 0.048935, -0.021263, -0.12239, 0.0070055, -0.042365, 0.067623, -0.048467, 0.15103, 0.22133, 0.039738, -0.08448, 0.051462, -7.7552e-07, -0.0097437, -0.011729, 0.091255, 0.03032, -0.0098684, -0.0043867, -0.063745, 0.18972, 0.083907, 0.081622],
          [0.35397, 0.22349, 0.057984, -0.17548, -0.28193, -0.035047, -0.061419, 0.073064, 0.061645, 0.077309, 0.17389, 0.092585, -0.19128, -0.21873, -0.15487, 0.14902, 0.20523, 0.089398, 0.029361, 0.18968, 0.069481, 0.22548, 0.093546, -0.13281, -0.17716, -0.13346, 0.26005, 0.18501, 0.053589, -0.04795, -0.068454, 0.090671, 0.11836, 0.067374, -0.079589, 0.00040371, -0.18012, 0.09018, 0.17516, 0.066704, -0.32349, -0.43602, -0.15344, 0.078031, 0.0026002, -0.0068308, 0.25009, 0.086593, -0.2945, -0.28058, -0.21672, 0.0075954, -0.057357, 0.050786, -0.13228, 0.063816, -0.02493, 0.1032, 0.27362, 0.10838, -0.10089, -0.36636, -0.099771, 0.16157, 0.055579, -0.12792, -0.097782, 0.03895, -0.011347, -0.0057841, 0.1616, 0.22732, 0.17202, 0.11473, -0.02501, -0.012533, -0.18287, 0.005862, 0.087637, -0.037285, -0.028907, -0.012641, 0.029752, 0.023716, 0.018978, -0.068872, 0.062344, -0.029721, -0.027412, 0.092857, -0.017031, -0.040569, 0.028207, -0.066991, 0.018046, 0.027421, 0.026029, -0.012257, 0.071946, 0.13443, -0.055826, 0.029494, 0.067669, -0.096084, 0.029157, -0.00057045, -0.10127, -0.024999, 0.1115, 0.06808, -0.0045362, -0.029235, -0.10839, -0.030881, -0.021536, 0.034917, -0.055573, 0.14693, 0.057093, 0.070054, 0.09283],
          [0.090302, -0.032234, 0.086011, 0.057656, 0.085002, -0.018557, 0.10988, 0.15414, 0.039386, 0.047347, 0.13261, 0.17209, 0.087977, 0.10798, 0.063005, -0.025038, 0.0015666, 0.042298, -0.010857, 0.038565, 0.09115, 0.070429, -0.33965, -0.21627, -0.079793, 0.052482, 0.11737, 0.12356, 0.14986, 0.15132, -0.020854, -0.27884, -0.36994, -0.23348, -0.35031, -0.21236, -0.0096203, 0.16879, 0.10884, 0.1951, -0.02216, -0.13795, -0.3823, -0.15708, 0.2465, 0.21041, 0.0038882, -0.15092, -0.14973, -0.27658, -0.13643, -0.20644, -0.10322, 0.20312, 0.24972, 0.098784, 0.050022, 0.11216, 0.0082125, -0.15896, -0.24966, -0.2242, -0.081867, 0.16097, 0.13085, 0.089777, 0.0095536, -0.045308, -0.023385, 0.05727, 0.11323, 0.14404, 0.076514, 0.16611, 0.0012914, -0.061225, 0.023338, 0.046303, 0.046502, 0.05308, -0.02208, -0.016463, -0.02459, 0.036155, 0.016853, 0.038351, -0.031623, -0.015009, -0.00256, -0.044171, 0.020136, 0.038923, 0.023164, 0.01893, 0.016295, -0.02645, -0.031756, 0.037952, 0.04783, 0.039081, 0.012653, 0.019182, 0.052408, 0.067772, 0.071084, -0.036646, 0.13604, 0.010095, 0.020674, 0.050958, -0.017289, -0.021564, -0.011485, -0.076477, 0.0025912, -0.03506, 0.022443, -0.022651, -0.013427, -0.084684, -0.02786],
          [0.22047, 0.13488, -0.0045314, -0.027832, 0.0031928, -0.11096, -0.14951, -0.26497, -0.0046697, 0.18623, 0.43027, 0.08365, 0.057113, 0.1422, 0.10169, 0.097731, 0.21612, 0.15447, -0.1386, -0.29659, -0.17497, 0.19818, 0.16783, 0.035357, -0.028903, -0.021291, 0.087221, 0.16959, 0.29274, -0.061147, -0.1512, -0.14884, -0.03919, 0.045408, -0.078471, -0.273, -0.38646, -0.05976, 0.17696, 0.1589, -0.090045, -0.0058036, -0.029934, 0.053751, 0.037133, 0.040635, -0.04802, -0.2107, -0.1441, -0.18667, -0.28265, -0.0036369, 0.22241, 0.039353, -0.0086786, -0.15038, -0.012859, 0.15635, 0.042299, -0.29268, -0.40523, 0.096518, 0.23155, 0.13543, 0.012292, -0.052369, -0.13532, -0.033103, 0.073328, 0.044657, 0.086151, 0.27385, 0.16267, 0.061526, -0.019745, 0.10503, -0.019421, -0.10477, -0.0051748, -0.069612, 0.013175, 0.080847, 0.064601, -0.021748, -0.0094289, -0.016282, -0.036344, 0.030459, 0.056434, 0.11018, -0.043666, -0.0042556, -0.073124, 0.029157, -0.045782, -0.018178, -0.026034, 0.062742, 0.057057, 0.11269, -0.014281, 0.066092, -0.026887, 0.015276, 0.0076592, -0.048903, -0.10792, 0.09321, 0.028853, 0.032763, -0.011491, 0.17616, 0.1057, 0.021853, -0.0058603, 0.0052496, 0.020608, 0.026462, -0.082618, -0.079352, -0.012265],
          [0.024463, -0.027352, -0.023265, 0.11579, 0.12541, 0.071656, 0.059076, -0.021125, -0.05219, -0.0033401, -0.0084537, 0.080912, -0.057403, -0.16721, -0.158, 0.063754, 0.19561, 0.071414, 0.11892, 0.037161, 0.077087, 0.035863, 0.1314, -0.1115, -0.040614, -0.26028, -0.18926, 0.066083, 0.13274, 0.034849, 0.019788, 0.014095, 0.062232, 0.14344, 0.042856, 0.10733, 0.0098224, -0.23834, -0.21249, 0.084274, 0.0088423, 0.032948, 0.071734, 0.0063217, 0.194, 0.014862, 0.10869, 0.19643, 0.010298, -0.29226, -0.080019, -0.013688, 0.11311, 0.012928, 0.1563, 0.25797, 0.0068688, 0.15136, 0.20517, 0.22377, -0.37619, -0.13386, -0.020441, -0.013775, 0.040573, 0.055189, -0.12709, -0.05821, -0.008442, 0.17523, 0.03337, -0.18113, 0.034219, -0.1109, -0.1463, -0.0069699, 0.094796, -0.23705, -0.15881, -0.22841, -0.054433, -0.17474, 0.067644, 0.085915, 0.063464, -0.020901, -0.038395, 0.071986, -0.052571, -0.092667, -0.13827, -0.249, 0.047883, 0.31224, 0.088266, -0.06281, 0.034915, -0.069708, -0.0018865, 0.098095, -0.055813, -0.060679, 0.056062, 0.17983, 0.074314, -0.027045, -0.00044359, -0.067458, -0.045453, 0.042969, 0.079381, 0.058881, 0.16904, 0.010963, 0.042321, -0.071452, 0.043646, 0.077058, 0.080224, -0.017561, -0.044482],
          [0.084549, 0.014073, -0.12307, -0.061069, 0.03087, -0.093121, -0.025168, 0.015404, -0.056966, -0.10833, -0.16715, 0.12222, 0.013801, -0.10225, 0.0023687, 0.087394, 0.049218, 0.029334, -0.00088026, 0.11339, 0.07953, 0.064893, 0.076669, -0.063082, 0.037023, -0.059661, 0.0166, 0.091314, -0.011486, -0.099932, 0.06516, -0.037572, 0.014463, 0.067622, 0.0025458, 0.015803, -0.10994, -0.069419, 0.021295, 0.060596, 0.026424, 0.0099006, 0.06539, 0.043328, 0.0095511, -0.076475, -0.034131, -0.075099, -0.049787, -0.0042179, 0.20028, -0.0015735, 0.11546, -0.0078019, 0.04754, 0.0074074, -0.0035661, 0.050506, 0.075847, -0.14426, -0.24271, -0.046073, 0.24353, 0.10855, 0.021319, 0.18208, 0.070465, 0.030956, 0.021331, 0.016481, 0.0086198, -0.29742, -0.41813, -0.16138, 0.14572, 0.16943, 0.15423, 0.11273, 0.046495, -0.023985, 0.1262, 0.029741, -0.012888, -0.11865, -0.25933, -0.10806, 0.041596, 0.18022, 0.1017, 0.018289, 0.13184, -0.004466, 0.052209, 0.17237, 0.14892, -0.1153, -0.2924, -0.13274, 0.14349, 0.12546, 0.1197, 0.096606, 0.083929, 0.24096, 0.18159, 0.21526, 0.094817, -0.17303, -0.16751, 0.053189, -0.014843, -0.13263, -0.2276, -0.28474, -0.2675, -0.11356, 0.12872, 0.2094, 0.038068, -0.18389, -0.098722],
          [-0.29332, -0.076674, -0.03075, 0.12028, 0.12711, 0.051897, 0.13914, 0.1154, -0.068125, -0.0090238, -0.29102, -0.061269, -0.054506, 0.051034, 0.012541, -0.0064693, 0.017938, -0.05423, 0.011336, -0.025654, 0.0483, -0.11406, -0.024236, 0.09794, -0.043137, -0.070786, -0.068497, 0.096858, -0.061432, -0.038064, 0.057071, -0.035895, 0.015329, 0.056504, -0.010336, 0.027054, -0.034953, -0.012868, 0.076343, 0.047322, -0.037463, -0.0093979, -0.014027, 0.064562, 0.053722, -0.06759, 0.013911, -0.016445, -0.019462, 0.01044, 0.099418, -0.092003, -0.01811, -0.069116, 0.090085, 0.05416, -0.0018643, 0.0040598, -0.085946, 0.10862, 0.0271, 0.099142, 0.00066682, -0.057661, 0.024057, 0.068221, 0.036722, -0.0013717, -0.028206, -0.04576, 0.053362, 0.052631, 0.0098104, -0.012204, -0.16439, -0.021002, 0.10557, 0.13827, -0.0070213, -0.16276, -0.18906, 0.059904, 0.10226, 0.07404, 0.0042852, -0.18459, -0.069684, 0.14111, 0.12749, -0.10699, -0.058973, -0.027184, 0.092294, 0.042731, 0.029014, 0.091553, -0.075057, -0.13843, 0.0049805, 0.0097377, -0.17763, -0.053056, 0.0051213, -0.03116, 0.018286, -0.062989, 0.0087673, 0.045406, -0.15525, -0.10424, -0.33859, 0.00092931, 0.071524, 0.24813, 0.17765, 0.054742, 0.12449, 0.21578, 0.11743, 0.1181, -0.27756],
          [0.23861, 0.03722, 0.03191, -0.14966, -0.09855, -0.095091, -0.030803, -0.040663, 0.017507, 0.028514, 0.08306, 0.0012191, -0.033229, -0.063142, 0.035545, -0.023608, 0.022431, -0.018828, 0.052736, 0.041581, 0.031034, -0.020525, -0.074378, -0.058852, -0.018417, -0.020185, 0.056556, -0.0026618, 0.052188, 0.12532, 0.019468, 0.096993, 0.052629, -0.095668, -0.1078, 0.047013, 0.12881, 0.1185, 0.046939, 0.011552, -0.10252, 0.034819, 0.089993, 0.11884, -0.026071, -0.10859, -0.028993, 0.12481, 0.24007, 0.40869, 0.26105, 0.050072, -0.0099467, -0.032287, -0.037881, -0.042541, 0.18047, 0.10729, 0.056245, -0.45229, -0.83931, -0.32647, 0.14836, 0.15629, 0.1474, 0.048456, 0.083157, 0.096331, -0.042531, 0.024992, -0.13245, -0.1692, -0.46441, -0.34745, -0.04738, 0.014762, 0.056736, 0.036695, 0.013279, -0.054248, -0.014839, 0.16411, 0.28499, 0.3327, 0.077933, -0.21058, -0.18028, -0.28799, 0.04902, -0.037058, 0.0052055, -0.017126, -0.0034699, 0.11284, 0.050042, 0.03923, 0.083779, 0.03011, -0.10733, 0.052781, 0.030826, 0.048218, -1.218e-05, 0.037878, -0.11301, 0.025972, -0.040362, 0.060663, -0.0029176, 0.019233, -0.023247, -0.024268, -0.048051, -0.039101, 0.055724, 0.019594, 0.001931, 0.052875, 0.11053, 0.059716, 0.065829],
          [0.067034, 0.026573, 0.061903, -0.050613, -0.071247, -0.061282, -0.13244, -0.077383, -0.032986, 0.050994, 0.23206, -0.017426, 0.016764, -0.0045263, 0.07268, 0.072143, -0.025652, 0.011719, 0.015719, -0.14235, -0.012766, -0.055815, 0.062228, 0.11099, 0.12777, 0.039054, -0.010543, 0.052522, 0.0455, 0.0047552, 0.040037, -0.04187, -0.077744, 0.036623, 0.026947, 0.0048713, 0.01145, -0.012158, 0.024207, 0.083283, 0.079838, 0.073616, -0.072412, -0.039881, 0.090275, -0.0059398, -0.079683, -0.055949, 0.16965, 0.46194, 0.27437, 0.17637, 0.0055755, -0.040969, -0.048391, 0.025695, 0.099983, 0.12605, 0.27677, -0.090382, -0.72367, -0.66542, -0.093851, 0.125, 0.090998, 0.018067, 0.023896, 0.1111, 0.033726, -0.22605, -0.55798, -0.23541, -0.094805, -0.091208, 0.0077773, 0.13248, 0.03986, -0.25216, -0.2025, -0.17881, -0.11431, 0.29677, 0.22717, 0.2741, 0.049649, -0.056866, -0.064785, 0.037313, -0.11707, -0.052502, 0.047053, 0.024036, 0.13017, 0.056206, -0.040238, 0.048845, -0.010397, 0.0059061, 0.038086, -0.010127, -0.011702, -0.036779, 0.010231, 0.010569, -0.0050323, 0.0022982, 0.017051, 0.01618, 0.046103, 0.010502, 0.092567, 0.079401, 0.1057, 0.10683, 0.057219, -0.049671, 0.042693, -0.038684, -0.039504, -0.02074, 0.014244],
          [0.062853, 0.070715, 0.0043518, -0.026667, 0.044525, 0.0088609, -0.059432, 0.12209, 0.10824, -0.025643, 0.055453, -0.03091, 0.0048755, -0.11083, -0.028824, -0.0050464, -0.0020802, 0.065154, 0.0042318, -0.016502, 0.039369, 0.1447, 0.036147, -0.025105, -0.0029753, -0.027231, -0.0265, 0.052084, 0.15939, 0.029111, 0.005888, 0.070684, -0.10502, -0.012995, -0.027731, -0.038084, -0.02885, 0.088899, 0.12716, 0.093878, 0.12446, -0.060464, -0.12926, 0.058859, 0.16395, 0.066259, 0.040324, -0.035531, 0.074783, 0.027442, -0.034548, -0.15238, -0.13605, 0.065147, -0.0074265, 0.004604, 0.078352, 0.12973, 0.095682, 0.10648, -0.47116, -0.76254, -0.35821, -0.013246, -0.13303, -0.10815, 0.012183, 0.014157, -0.026232, -0.04006, 0.013821, 0.24427, 0.3074, 0.050528, -0.023096, 0.032938, 0.085879, 0.041108, -0.0006755, 0.0383, -0.054725, -0.032597, 0.078231, 0.16873, 0.085156, -0.075477, 0.075846, -0.065616, 0.026372, -0.012261, 0.018816, -0.046021, 0.063677, 0.0091643, 0.021381, 0.010299, 0.025836, -0.0032034, 0.09386, -0.044507, -0.0094275, 0.014357, 0.00037736, -0.047078, -0.00096697, -0.010147, 0.0099517, -0.00041656, -0.03546, 0.013201, -0.034598, -0.040736, 0.051474, -0.030682, 0.033804, 0.043771, 0.089867, 0.0076302, 0.042986, 0.0073348, 0.089498],
          [0.15589, 0.01563, 0.077531, 0.035199, 0.098615, 0.06922, -0.051016, 0.013532, -0.16689, -0.077939, 0.021709, 0.051428, -0.064349, -0.015228, 0.012759, -0.012492, -0.052545, -0.06904, 0.050431, 0.036664, 0.10485, 0.086416, 0.050032, 0.056994, -0.002549, -0.0007908, 0.0014992, -0.18329, -0.0010931, -0.051995, 0.0076178, 0.05014, 0.083661, -0.028368, -0.057671, -0.024747, -0.17552, -0.053854, -0.049492, 0.028096, 0.16657, 0.17516, 0.11078, 0.23647, -0.019601, 0.0020069, -0.10476, -0.053073, 0.078984, 0.28337, 0.35166, 0.20796, -0.0051423, -0.066194, -0.049047, -0.035658, -0.053202, 0.076803, 0.29382, 0.27042, 0.32595, -0.14797, -0.18679, -0.049879, -0.099671, -0.040296, 0.022962, 0.11787, -0.072577, 0.15221, -0.11057, -0.27509, -0.22644, -0.21712, -0.065674, -0.05204, -0.09196, 0.052341, -0.029014, -0.026487, -0.099176, -0.11757, -0.13254, -0.076327, 0.079955, -0.17744, 0.080376, -0.073856, 0.08774, -0.13915, 0.0099844, -0.05868, -0.057029, -0.079794, 0.0015768, -0.0041526, 0.034597, 0.0086646, 0.057269, -0.026265, 0.048094, 0.021793, -0.11755, 0.00049937, -0.09137, 0.17327, 0.031573, 0.022297, 0.0028041, 0.12055, 0.22973, 0.053206, -0.01461, 0.11664, 0.082758, -0.089172, 0.061309, -0.041124, 0.0013241, -0.022405, 0.066514],
          [0.10641, 0.094792, -0.031529, -0.068663, -0.045583, -0.044171, -0.062373, -0.040882, 0.036681, -0.031891, -0.088635, 0.072486, 0.0017913, 0.071618, -0.10841, 0.055537, 0.020791, 0.052668, -0.011258, -0.084503, -0.055355, 0.069471, -0.028455, -0.092204, -0.059139, -0.0088604, 0.013756, 0.013008, 0.11917, -0.0054767, -0.0046385, 0.10607, 0.1319, 0.033045, -0.0059853, -0.063203, 0.04293, -0.07752, 0.10193, -0.12768, -0.091567, -0.057976, -0.13595, -0.048452, 0.011192, -0.0068851, -0.096621, 0.081772, -0.049007, 0.19762, 0.18536, 0.054459, -0.085416, -0.1103, 0.26784, -0.042453, 0.07976, 0.15028, 0.27327, 0.23584, 0.029238, 0.14907, 0.31049, 0.40128, 0.38541, 0.27327, 0.15637, 0.14855, 0.13417, -0.1554, -0.21625, -0.28189, -0.25441, -0.24392, -0.045056, -0.13584, -0.36047, 0.05411, -0.27378, -0.087569, -0.027321, -0.039262, 0.17563, 0.0038011, -0.11816, -0.14962, -0.071035, -0.11256, -0.067348, 0.043317, -0.10302, -0.15125, -0.045348, -0.22755, 0.0502, -0.02991, -0.10883, -0.0018045, -0.14576, 0.0095245, 0.017125, -0.0035127, -0.058373, 0.08984, -0.043367, 0.096739, 0.037002, 0.086995, 0.019892, 0.021145, -0.093457, 0.027113, -0.10194, 0.083879, 0.075076, 0.050127, 0.088653, 0.020525, 0.086116, -0.0054914, 0.1418],
          [-0.023176, -0.024545, -0.032358, 0.061548, -0.028032, -0.11117, -0.028557, 0.034625, -0.076973, -0.011746, -0.0099598, -0.054284, 0.047969, -0.058235, 0.032203, 0.031829, -0.0085909, -0.01854, 0.059493, 0.032667, 0.011822, 0.011903, -0.091303, 0.010421, 0.047574, -0.010086, -0.082131, -0.035238, -0.0095366, -0.0021083, -0.011205, -0.10622, 0.0088673, 0.080682, -0.090533, 0.0092003, 0.04758, -0.0034736, -0.26095, -0.19924, 0.12708, 0.076817, 0.0089468, -0.01743, 0.27183, 0.29541, 0.24001, 0.32835, 0.30453, 0.15738, 0.27144, 0.27187, 0.31738, 0.17968, 0.34964, 0.17948, -0.19852, -0.23132, -0.30349, -0.018142, 0.32802, 0.10088, -0.27373, -0.34405, -0.10799, -0.028605, -0.19185, -0.027746, -0.010639, -0.062358, -0.22873, -0.17307, -0.10579, -0.12595, 0.0052134, -0.033021, -0.071929, -0.084042, 0.037289, -0.14901, -0.051878, -0.06245, -0.14709, 0.018449, 0.0039521, -0.079257, -0.068342, -0.12332, -0.099563, -0.12283, -0.0063814, 0.15237, 0.056225, -0.0045107, -0.057588, 0.098403, 0.027092, -0.0051265, -0.17882, 0.012717, 0.014254, 0.10921, 0.12698, -0.041269, 0.08552, 0.043847, 0.024665, 0.12247, 0.1344, 0.0562, -0.070487, 0.050115, -0.00030554, -0.0023067, 0.054046, -0.05889, 0.056482, -0.074701, 0.054307, -0.0024485, -0.12796],
          [-0.0087719, -0.087903, -0.055052, -0.053895, -0.021765, -0.032496, -0.053937, -0.059602, 0.018682, -0.024042, 0.1808, 0.013387, -0.01946, 0.085841, -0.04296, 0.05614, -0.0074823, 0.072638, -0.045773, -0.0079074, -0.039618, 0.062009, 0.069674, -0.0017891, -0.017923, -0.017329, 0.10429, -0.075337, -0.019898, 0.066497, -0.04193, -0.017542, -0.049375, 0.047055, -0.11658, -0.050368, -0.087745, 0.10297, 0.0010435, -0.1119, -0.058552, -0.093602, -0.058917, 0.12428, 0.20422, -0.086927, -0.15846, -0.044231, 0.14028, 0.20301, 0.20997, 0.078368, 0.023616, 0.046474, -0.10919, 0.34228, 0.40922, 0.32978, 0.35276, 0.17348, 0.049654, 0.046853, 0.1854, 0.23487, 0.074066, 0.090895, -0.35637, -0.1789, 0.067024, -0.14509, -0.24145, -0.31352, -0.20854, -0.16942, -0.05073, 0.070839, 0.11262, -0.055654, -0.18253, -0.095111, -0.20811, -0.085216, -0.037808, 0.20963, -0.087519, -0.0083271, -0.18306, 0.012319, -0.16489, 0.074234, -0.11014, 0.00018777, 0.0033474, 0.10044, -0.2401, -0.055214, -0.098806, -0.014982, -0.12541, -0.035863, 0.046214, -0.11768, 0.075697, 0.25102, -0.15062, 0.10274, -0.14457, -0.0084316, 0.073822, 0.034203, 0.12998, 0.064947, 0.10038, -0.042683, 0.034386, 0.133, 0.084681, 0.1675, -0.14489, 0.097226, -0.17222],
          [-0.032221, 0.0081917, -0.080282, -0.081381, -0.063842, -0.015615, 0.10709, 0.080651, 0.054345, 0.027074, 0.16813, 0.13415, 0.038631, -0.0055507, 0.042335, -0.028374, 0.0039599, -0.063597, 0.056588, -0.027555, -0.0017875, 0.0041026, 0.092719, 0.0086585, 0.10684, -0.074196, -0.063057, -0.021523, 0.0092341, -0.1461, 0.014751, -0.0052165, 0.0032642, 0.097807, 0.12927, 0.062698, 0.27475, 0.092446, -0.12769, -0.14806, -0.019825, -0.0086315, 0.014481, -0.0089874, 0.10471, -0.11054, 0.0075036, 0.060006, 0.3171, 0.32324, 0.1072, -0.058102, -0.031761, -0.11429, -0.031551, 0.0017247, -0.032141, -0.013131, -0.14824, -0.10766, 0.10594, 0.40021, 0.19725, 0.083748, -0.030751, -0.02833, -0.099874, -0.26039, -0.025979, -0.074314, -0.14254, -0.27784, -0.10552, -0.011203, 0.12856, -0.00039207, 0.071697, -0.060715, 0.079555, -0.04445, -0.036239, -0.05495, -0.075878, -0.13219, -0.11464, -0.014322, 0.054633, -0.0021866, 0.047599, 0.071591, -0.061807, -0.098703, -0.17721, -0.050445, -0.088158, 0.17306, -0.18012, -0.1379, 0.069655, 0.1066, 0.042995, 0.13247, 0.10692, 0.063925, 0.084949, -0.14825, -0.17982, 0.079887, 0.0099879, 0.091659, 0.0039476, -0.022988, -0.025004, 0.022313, 0.032106, 0.0060978, -0.0091098, 0.13842, 0.057218, 0.034249, 0.14166],
          [0.077403, 0.0027903, 0.085849, 0.081622, 0.044687, -0.010721, 0.00076693, 0.10466, -0.015222, 0.00096215, 0.1025, 0.10103, -0.02864, -0.050144, 0.08803, -0.039184, 0.027942, -0.10922, -0.091551, 0.038578, -0.047089, 0.0082249, -0.016698, 0.14191, 0.023165, 0.072603, 0.11867, 0.014093, 0.0047639, -0.012687, -0.03666, -0.077417, 0.049268, -0.044394, -0.17872, 0.028784, -0.010362, 0.15181, 0.2186, 0.1163, -0.09258, -0.019701, -0.045861, 0.029997, 0.022719, 0.025102, -0.085651, -0.12411, -0.18246, 0.091966, 0.087081, 0.10736, 0.02811, 0.11508, 0.038288, -0.074858, 0.00036462, -0.075728, -0.25812, -0.60692, -0.57736, -0.12302, 0.10818, 0.016913, 0.13529, 0.090044, -0.017374, 0.016143, 0.0074706, 0.038153, 0.13808, 0.23128, 0.062212, -0.00078106, -0.0088352, 0.015948, -0.00050225, 0.11232, 0.010962, -0.063962, 0.042698, 0.075698, 0.18797, -0.034271, -0.07601, 0.040711, 0.0039277, -0.0081139, -0.015998, -0.060356, 0.025952, 0.042163, 0.082426, 0.1426, -0.042849, -0.063341, 0.0092863, 0.029864, 0.0060824, 0.059612, 0.030082, -0.027239, -0.0073659, -0.015225, 0.044419, -0.0053691, 0.022425, -0.0082636, -0.040837, -0.015422, 0.061348, -0.052846, 0.094366, 0.014526, 0.0037072, 0.044123, 0.045795, -0.030931, 0.017194, -0.019463, 0.0012436],
          [0.084114, -0.025621, -0.023222, 0.053008, 0.17224, 0.012469, 0.075122, 0.040763, 0.098101, 0.041479, 0.12636, 0.070298, -0.050007, -0.0054841, 0.030405, -0.089755, -0.21541, 0.01723, -0.13557, 0.095618, -0.1106, 0.10125, -0.076498, -0.00028541, -0.026246, -0.01948, -0.39778, -0.062144, -0.024341, -0.012827, -0.014662, -0.11255, 0.16096, -0.11228, -0.068533, -0.16356, -0.19654, 0.031038, 0.13193, -0.083423, -0.040716, 0.01381, 0.039666, 0.0099888, -0.047953, 0.00061003, 0.10343, 0.24891, 0.35782, -0.20933, -0.039926, 0.1942, 0.032188, -0.040504, -0.0032348, 0.17053, 0.35048, 0.24646, -0.12389, 0.01723, -0.20275, 0.13927, -0.014868, -0.11606, 0.050407, 0.052285, 0.21799, -0.056957, -0.20647, -0.045779, -0.17472, 0.05274, 0.099134, 0.094364, -0.060202, -0.043716, 0.05637, -0.008589, -0.096057, 0.019767, 0.0089128, -0.043515, 0.071434, 0.036366, 0.013984, 0.073848, 0.06407, -0.12431, -0.077473, -0.003077, 0.012412, -0.077233, 0.052213, 0.098481, -0.044983, 0.0093175, -0.014436, -0.018575, -0.016642, -0.20214, 0.023, -0.056258, -0.017621, 0.01913, 0.020008, 0.034833, -0.066635, 0.019123, 0.10428, 0.026511, 0.16287, 0.027933, 0.049607, 0.050049, 0.10194, -0.02588, 0.058534, -0.061181, 0.17253, -0.1346, -0.090408],
          [-0.027551, 0.20557, 0.082132, -0.04257, 0.015868, 0.0093698, -0.11463, 0.044712, -0.15996, 0.11866, 0.067392, -0.13863, -0.24992, -0.12742, -0.048942, -0.10909, -0.015852, 0.030011, -0.15749, -0.053421, -0.025663, -0.011093, 0.058389, 0.088245, -0.053728, -0.068366, 0.0026508, 0.097818, 0.016896, 0.0291, 0.15597, -0.017163, -0.047858, -0.066641, -0.04105, -0.029342, 0.18068, 0.23841, 0.1072, 0.0032504, -0.16876, -0.055652, 0.037864, 0.14497, 0.30165, 0.21781, 0.24781, 0.20611, -0.030505, -0.22355, -0.22058, 0.026161, -0.01449, -0.0013993, -0.032143, 0.069858, 0.12952, 0.062134, -0.09585, -0.15006, -0.04869, 0.027626, 0.087752, 0.059382, -0.15548, -0.008993, -0.21696, -0.20895, -0.17492, -0.10306, -0.08326, 0.10865, 0.060745, 0.050196, 0.059347, 0.08055, 0.096041, -0.17922, -0.08636, -0.19862, -0.085306, 0.073404, -0.00060916, 0.017865, 0.01523, -0.028739, -0.030631, 0.083547, -0.015199, 0.0079197, 0.10542, 0.04588, -0.016177, -0.064404, 0.05645, -0.0011676, 0.0019962, 0.067417, -0.0068873, 0.034856, 0.017611, -0.064975, 0.072135, -0.038534, -0.01402, 0.0002936, 0.12282, -0.084526, 0.072734, -0.026199, 0.26228, 0.056467, 0.026818, 0.093992, 0.035828, 0.18171, -0.015152, -0.017616, -0.0031862, -0.021179, -0.15214],
          [-0.13775, 0.038746, -0.00070857, 0.049355, -0.088279, 0.3385, -0.064155, 0.013423, -0.019629, -0.074514, -0.090356, 0.096941, -0.11911, -0.15101, -0.013947, -0.28748, -0.37904, -0.20281, -0.11304, 0.025054, -0.081019, 0.092552, 0.00082246, 0.24246, 0.12844, 0.13562, 0.089595, 0.23077, 0.17282, 0.1512, 0.2108, 0.13274, -0.11297, -0.23426, -0.15389, 0.04755, 0.13676, 0.14971, -0.014599, 0.024524, 0.15008, 0.02197, -0.017209, -0.12567, 0.057462, -0.12423, 0.027718, 0.07647, 0.15084, 0.16363, 0.10314, 0.098604, -0.077889, -0.1661, -0.015524, 0.033968, -0.0064288, -0.077784, -0.13139, -0.16493, -0.13708, -0.24997, -0.099387, -0.041816, 0.063393, 0.084657, 0.073596, 0.0096743, -0.056184, -0.097826, -0.20167, -0.035743, -0.053854, -0.094089, -0.11121, -0.037672, 0.031541, 0.092726, -0.024057, 0.0060108, 0.026069, 0.052952, -0.00074539, -0.039415, 0.00012582, -0.074806, 0.010524, 0.062406, 0.015814, -0.064838, 0.031266, 0.027508, 0.000127, 0.050797, 0.07897, 0.098318, 0.054193, -0.013031, 0.049683, 0.083509, 0.011784, 0.091872, -0.0066227, -0.047956, -0.01709, -0.078741, -0.046731, 0.018514, 0.0715, 0.064737, -0.032651, 0.061364, -0.039888, 0.06941, 0.077977, 0.066134, 0.055982, 0.072595, -0.053845, 0.096086, -0.028806],
          [0.044235, 0.034525, -0.13043, -0.035392, 0.017969, 0.035178, -0.010788, -0.0016502, 0.03915, 0.21473, -0.0948, -0.028715, 0.05486, -0.039324, -0.071941, -0.11931, 0.0078118, -0.13497, -0.22468, -0.041964, -0.1884, -0.12848, 0.032762, -0.0022056, 0.10278, 0.0012177, 0.077763, 0.014833, 0.25493, -0.14123, -0.028129, -0.090593, 0.078746, -0.013335, -0.013098, -0.085997, 0.0011501, -0.096292, 0.16218, -0.026281, 0.40592, 0.22426, 0.088915, 0.087381, 0.043236, 0.10435, -0.029683, -0.096107, -0.16573, -0.17367, -0.030961, 0.059506, 0.049326, 0.12757, 0.2398, 0.124, -0.27712, 0.1032, 0.071367, 0.066139, -0.017571, -0.21849, -0.096326, -0.013237, 0.141, 0.048656, 0.030847, 0.12063, 0.03194, 0.012664, 0.053035, 0.023359, 0.073601, -0.10515, -0.16524, -0.25669, -0.26897, 0.018566, 0.09359, 0.028128, 0.018697, -0.015875, -0.0079379, 0.03061, -0.015794, -0.095236, -0.029087, -0.13652, -0.073683, 0.054902, -0.060991, 0.09317, -0.0023871, -0.026191, -0.047989, 0.019892, 0.053632, 0.021996, -0.058485, -0.0082972, 0.085923, 0.007835, 0.0074973, 0.033528, 0.034259, 0.040069, 0.016642, 0.033377, 0.009459, 0.052065, -0.084929, -0.091861, -0.072335, 0.017511, 0.083823, 0.029829, 0.022676, 0.092824, 0.027105, 0.049933, 0.25204],
          [0.045017, 0.049864, 0.082321, 0.11789, 0.11184, -0.12533, 0.073011, 0.077004, -0.037179, 0.1153, 0.0573, 0.097849, -0.030605, -0.0069899, -0.043815, -0.041086, -0.10157, -0.030984, 0.062242, -0.08566, -0.031199, 0.094664, 0.18696, -0.16613, -0.0090085, -0.12607, 0.061744, -0.10059, -0.32554, -0.093973, -0.0841, -0.19413, -0.073753, 0.093207, 0.053699, -0.03051, 0.035499, -0.088218, 0.14082, -0.015418, -0.14008, -0.021416, 0.073018, -0.17727, 0.049671, 0.034513, 0.10331, -0.039224, 0.032001, -0.3171, 0.36395, 0.15239, 0.12007, 0.012633, 0.13528, -0.043263, -0.041986, 0.069839, 0.0010106, -0.0011775, -0.011795, -0.14349, 0.022137, -0.039688, 0.26218, 0.19437, 0.11018, 0.022791, -0.097375, -0.016626, 0.15981, 0.079561, -0.075452, -0.028024, -0.12778, -0.070601, 0.075855, -0.061104, -0.034255, 0.047001, 0.085957, 0.042827, 0.035824, -0.0061232, -0.038509, 0.052491, -0.012429, 0.027802, -0.045634, 0.05733, -0.074158, 0.001283, 0.047032, 0.024833, 0.037205, -0.028766, 0.04836, -0.05327, -0.12254, 0.03712, -0.089284, 0.064955, 0.077539, -0.027112, 0.095663, -0.024484, -0.036212, -0.093916, -0.01732, -0.10222, -0.088399, 0.018021, 0.014346, -0.0045931, -0.041331, 0.037071, 0.032109, 0.13273, 0.07511, 0.025628, 0.14213],
          [0.15729, -0.052979, -0.0026258, 0.078995, 0.082044, -0.13536, -0.013649, -0.013141, 0.011513, 0.051596, 0.02555, -0.039487, -0.034658, 0.072491, -0.11567, 0.067864, 0.068651, 0.073986, -0.16154, 0.040446, 0.071466, -0.11469, 0.054051, -0.041043, 0.14997, -0.25422, 0.19697, 0.11291, -0.020531, 0.1289, -0.10368, 0.096092, 0.15325, 0.05149, 0.03356, -0.2083, 0.022894, -0.2625, 0.019209, 0.23588, 0.012602, 0.20972, 0.092569, 0.10591, 0.074214, 0.028278, -0.034766, 0.025387, -0.21115, -0.18143, -0.036903, 0.074542, -0.073943, -0.12923, -0.10287, -0.0020479, 0.0070328, 0.041659, -0.030914, 0.20126, -0.36149, -0.59189, -0.34765, -0.29918, -0.043195, -0.30777, -0.054571, 0.035677, 0.033779, -0.11152, 0.11791, 0.50742, 0.23856, 0.10489, 0.074815, -0.010758, 0.098422, 0.068012, 0.040081, -0.17816, 0.015218, -0.043045, 0.069479, 0.26248, 0.13062, 0.15898, 0.098913, 0.16691, -0.045456, -0.051218, 0.088652, -0.024238, -0.12061, -0.13933, -0.098448, 0.084104, 0.036095, 0.064677, 0.019557, 0.054585, 0.011804, 0.049628, 0.03158, -0.042128, -0.037247, -0.00090228, 0.051276, 0.017591, 0.020608, 0.12021, 0.039022, 0.021712, 0.047172, 0.11458, 0.065529, 0.057133, -0.064146, -0.079154, -0.084204, -0.13318, -0.097193],
          [0.016239, 0.0039663, -0.0045547, 0.013554, 0.042874, -0.15275, -0.027275, 0.0096628, 0.00030503, 0.032218, -0.036021, -0.042601, -0.041216, 0.070225, 0.088251, -0.11944, 0.016009, -0.025892, 0.043719, 0.04635, -0.04552, 0.057802, 0.032998, -0.074789, 0.085613, -0.082967, 0.12226, 0.056996, 0.22311, -0.12892, 0.028712, -0.082295, 0.074671, 0.024026, 0.070656, 0.052863, 0.13163, 0.08385, 0.019373, 0.068601, 0.16045, 0.14512, 0.090972, -0.11721, -0.1096, -0.2299, -0.040375, -0.2017, 0.21032, 0.028437, 0.064869, -0.18349, -0.17888, -0.24993, -0.12182, -0.032695, -0.0037869, -0.24886, -0.15602, -0.42476, -0.4236, -0.3608, -0.18904, -0.056628, 0.0019947, 0.0099847, 0.10753, 0.21965, 0.18511, 0.1994, 0.23706, 0.15855, 0.23756, 0.24027, 0.14806, 0.22744, 0.12507, -0.12208, 0.041225, 0.12974, 0.13877, 0.092819, 0.041457, 0.12811, 0.086282, 0.046482, 0.035985, -0.15, -0.061995, -0.12775, -0.055469, -0.072056, -0.0312, -0.021698, -0.02032, -0.011808, -0.10717, -0.082342, -0.019256, 0.066679, -0.041537, -0.040688, 0.044725, -0.068305, 0.035585, 0.026946, -0.011423, 0.061366, -0.049741, 0.054485, 0.14247, 0.03771, 0.014815, -0.12197, -0.040853, -0.0048073, -0.093844, -0.11067, -0.013085, 0.020004, 0.11572],
          [0.02862, 0.054226, 0.017679, -0.054622, 0.00068166, -0.061011, 0.02545, 0.039249, -0.017614, 0.086689, 0.12902, -0.059156, -0.033658, -0.11303, -0.0094407, 0.0383, -0.024382, 0.13095, -0.17637, -0.042536, 0.024839, 0.025341, 0.073379, 0.1249, 0.052335, 0.019594, 0.01441, 0.069392, 0.10115, -0.017834, -0.0052539, -0.04945, -0.018515, 0.027327, 0.097636, 0.13398, 0.028129, 0.10346, 0.1456, -0.062226, -0.043205, -0.13615, 0.0094596, 0.077643, -0.018838, 0.040125, 0.046083, 0.11596, 0.041671, -0.035255, -0.2421, 0.13413, -0.12174, -0.002494, 0.019159, -0.28596, -0.064486, -0.31594, -0.32104, -0.52704, -0.52371, -0.22197, 0.078178, 0.037153, 0.079429, 0.054711, -0.030973, -0.17109, 0.096072, 0.023265, 0.1823, 0.50842, 0.36327, -0.17443, -0.075941, 0.084583, -0.082641, 0.24079, 0.12328, 3.0311e-05, 0.20734, 0.13349, 0.14204, -0.016683, 0.0026274, -0.0506, -0.093502, 0.049347, 0.02717, 0.0088067, 0.29974, -0.017371, 0.060473, -0.083275, -0.048734, -0.12259, 0.074538, 0.0016868, -0.046678, 0.10226, 0.096413, -0.085168, 0.011075, -0.058526, -0.032743, -0.17221, 0.10626, 0.045123, 0.063157, -0.023657, -0.086189, -0.097156, -0.11779, -0.0018161, -0.018375, -0.022155, 0.069073, 0.061843, 0.057417, 0.030372, 0.089788],
          [-0.0016376, -0.015234, 0.033084, 0.01043, 0.026387, -0.055493, -0.089868, 0.031318, -0.060212, 0.060345, 0.033638, 0.074908, 0.067344, 0.045409, -0.016588, 0.11809, 0.10675, 0.014357, -0.00029905, 0.03249, -0.079691, 0.0021152, 0.12843, 0.027686, 0.051037, 0.0095028, -0.088577, 0.072415, 0.18759, -0.04626, 0.032834, 0.00027334, -0.0056259, 0.051335, -0.028998, 0.010804, 0.039279, 0.059935, -0.036673, 0.0020456, 0.084205, 0.078722, 0.072928, 0.0029102, -0.014711, 0.061979, -0.0058614, -0.0065096, 0.15462, 0.10999, 0.05512, 0.057246, 0.084674, 0.045416, -0.027011, -0.41691, -0.23816, -0.26803, -0.42974, -0.47129, -0.47538, -0.23333, -0.028661, -0.046786, -0.013911, 0.063557, 0.20817, 0.1268, 0.19585, 0.24121, 0.34248, 0.22, 0.036994, -0.24941, -0.12912, 0.0067608, -0.01638, 0.023976, 0.17281, 0.067747, 0.099348, 0.035398, -0.034632, 0.11009, 0.0053132, -0.18523, -0.015871, 0.008623, 0.038924, -0.014894, -0.015236, 0.0015905, -0.025942, -0.048033, 0.056968, -0.005355, 0.070041, -0.019904, 0.10013, -0.030663, 0.014936, -0.053377, -0.046191, -0.049737, -0.032035, -0.026289, -0.0073802, -0.0085777, -0.067451, 0.036965, 0.012119, -0.012732, -0.014068, 0.011209, -0.0034198, 0.12162, -0.090967, 0.062061, -0.023761, 0.11195, 0.10944],
          [-0.061429, -0.024855, 0.037534, 0.053055, -0.02909, -0.076608, -0.05625, 0.038513, 0.0094111, 0.027628, -0.040484, 0.062572, 0.018534, 0.099954, -0.011584, -0.027052, -0.0059961, -0.021254, -0.031552, 0.13842, 0.0044655, 0.079159, 0.093307, 0.021057, -0.020072, 0.0078349, 0.10646, 0.11394, 0.095624, -0.00037973, -0.010567, -0.021229, 0.11951, 0.15659, 0.051157, -0.061499, 0.080078, -0.060313, 0.10862, 0.090833, 0.03775, 0.12669, 0.019289, 0.11166, -0.11612, -0.038271, -0.013962, 0.057456, 0.035911, 0.11685, 0.020811, 0.042275, -0.11787, -0.20632, -0.1034, -0.032371, -0.14327, -0.25192, -0.43351, -0.32253, -0.3976, -0.39288, -0.39114, -0.2467, -0.087921, -0.088613, -0.15981, 0.18786, 0.19151, 0.46364, 0.15919, 0.19353, 0.23198, 0.41944, 0.29117, 0.13265, -0.041281, 0.024461, -0.058649, -0.048431, 0.074459, 0.038048, -0.04011, 0.05987, 0.052512, -0.0090562, 0.023537, -0.068198, -0.058682, -0.031438, 0.05729, 0.096319, -0.010632, -0.072423, 0.026755, 0.018666, -0.035083, 0.0033659, -0.026, 0.051531, -0.095878, -0.072904, -0.067948, 0.0043261, -0.0040118, -0.0054864, -0.0070406, -0.023664, -0.021349, -0.055765, 0.076203, 0.057795, 0.0049914, -0.014554, -0.029744, -0.057165, -0.0010086, -0.035362, -0.0047531, -0.011301, 0.11501],
          [0.15174, -0.014179, 0.016877, -0.077205, 0.078108, -0.13113, 0.0027535, 0.051911, 0.028948, 0.050209, -0.0045795, -0.10685, 0.011155, 0.065186, -0.13027, -0.080144, 0.10736, 0.04888, 0.015759, 0.12191, 0.096985, -0.0080833, 0.020705, -0.081938, 0.0046465, 0.056148, 0.16628, 0.046183, 0.077658, -0.019961, -0.096538, 0.079466, 0.25805, 0.0077622, 0.06952, 0.0095238, 0.26152, 0.086788, -0.037402, 0.069486, 0.071695, 0.13258, -0.021458, 0.056046, -0.00039375, 0.032222, 0.18458, -0.04254, -0.012964, 0.1701, -0.023562, 0.051153, -0.13166, 0.020665, -0.24023, 0.038647, -0.025858, -0.081456, -0.11687, 0.044401, -0.35731, -0.6458, -0.40588, -0.30571, -0.12682, -0.33498, 0.015693, -0.078712, -0.043104, -0.15482, -0.23546, 0.11117, 0.45545, 0.18491, 0.29247, 0.19673, 0.19711, 0.073292, 0.0082412, -0.11507, -0.0097699, -0.10086, 0.06842, -0.054338, 0.077438, 0.17116, 0.001288, 0.13426, 0.1106, -0.073247, 0.037258, -0.012267, 0.073659, 0.043783, -0.10715, 0.086654, -0.068763, -0.058722, 0.044547, -0.055318, 0.033045, 0.057546, 0.0013722, 0.024826, -0.12204, -0.1019, 0.054773, -0.079578, -0.038229, 0.036495, 0.13217, 0.057211, -0.025832, -0.054716, 0.013914, 0.12333, 0.0048703, 0.0051744, 0.02839, -0.021508, -0.034672],
          [-0.0056384, -0.034135, -0.022985, -0.060425, 0.054919, 0.068881, -0.0070135, -0.0064886, -0.074997, -0.0025759, 0.023015, 0.0083653, -0.031176, 0.042573, -0.066109, 0.029356, -0.013292, 0.056362, 0.034219, -0.012595, -0.014012, -0.062381, -0.07114, 0.0024196, -0.035945, 0.045638, -0.0047184, 0.066745, 0.0453, -0.044479, 0.089641, -0.096496, -0.027741, -0.0057168, 0.015013, -0.024603, 0.0013274, -0.035627, 0.017129, -0.045973, 0.0070037, -0.043147, -0.029564, -0.020695, -0.079785, 0.026834, -0.0019309, 0.083258, 0.10733, 0.074877, 0.048498, 0.091698, 0.048185, 0.052096, 0.0076798, 0.10519, 0.02253, 0.12672, 0.059197, 0.073166, 0.11595, 0.056154, 0.12933, 0.088424, 0.030087, 0.069156, 0.12092, -0.089932, -0.019015, -0.044735, 0.11876, 0.0019622, 0.098963, -0.014936, -0.058157, -0.030281, 0.039004, -0.084991, -0.046013, -0.014914, 0.021156, 0.064216, -0.02398, 0.028088, -0.015711, 0.055355, -0.10472, -0.089683, -0.28534, -0.18319, -0.080774, 0.0051665, 0.057863, 0.064364, 0.089305, 0.033738, -0.12463, -0.15877, -0.35595, 0.095129, -0.14725, -0.20316, -0.084143, -0.2132, -0.18019, -0.21194, -0.10023, -0.021533, -0.037309, 0.12624, 0.22035, 0.1891, 0.15893, 0.012004, 0.054019, -0.028528, 0.0032336, -0.0066272, 0.084693, 0.11629, 0.19103],
          [-0.08632, -0.042516, -0.0087762, 0.021241, 0.0047851, -0.035472, 0.0066937, -0.00018714, 0.0082764, 0.03874, -0.068078, -0.050242, 0.0053628, -0.046723, 0.094159, 0.025987, 0.028403, 0.12799, 0.052174, 0.031742, 0.043517, 0.1003, 0.009888, -0.035094, -0.0070136, 0.069061, 0.096711, 0.081381, 0.057645, 0.011067, -0.018381, -0.082602, -0.052684, -0.01996, 0.019919, 0.074764, 0.0037734, -0.0014401, -0.10891, -0.057902, 0.062403, 0.10607, 0.093356, 0.16322, -0.044312, -0.0066519, 0.024113, 0.064553, 0.15171, 0.30458, 0.087042, -0.13006, -0.11938, 0.02659, -0.061874, 0.099973, 0.06382, 0.11767, 0.10413, -0.064651, -0.64839, -0.57719, -0.036256, 0.17484, -0.082879, -0.052896, 0.093451, 0.13223, -0.0031159, -0.20504, -0.56713, -0.17042, 0.51278, 0.080572, -0.069035, -0.076494, -0.0087908, 0.063359, -0.019296, -0.26311, -0.26432, 0.00439, 0.41748, 0.23966, -0.073562, -0.09551, -0.23475, 0.028298, 0.061075, -0.16177, -0.0028367, 0.094222, 0.12827, 0.14707, 0.071302, -0.074737, -0.23885, -0.085022, -0.07147, 0.0091791, -0.00092606, 0.084224, 0.07315, -0.027624, -0.10044, -0.0028873, 0.084866, 0.01031, -0.00054869, 0.084218, 0.005403, 0.095305, 0.021416, 0.032093, 0.095158, -0.064421, 0.028975, -0.0069886, 0.15811, 0.077388, 0.22282],
          [0.076468, 0.094525, 0.013417, -0.065411, 0.0022049, -0.19543, -0.010363, 0.0006824, -0.025036, 0.1071, 0.17509, 0.14614, 0.053718, 0.033399, 0.058514, 0.10089, 0.12393, 0.00030037, -0.072506, -0.053549, -0.068975, 0.068143, -0.0032047, -0.023764, -0.033057, -0.046769, -0.12086, 0.13198, 0.010909, 0.11806, 0.00055654, -0.0058049, 0.035993, -0.0082657, 0.068351, 0.0301, 0.113, 0.049423, -0.18769, -0.089816, 0.12209, 0.065398, -0.23088, 0.013401, -0.096887, 0.096593, 0.089715, -0.0038843, 0.12013, 0.37404, 0.21211, -0.011527, -0.049284, 0.018755, -0.082645, 0.10818, -0.058116, -0.049761, 0.038468, -0.27345, -0.84643, -0.29645, 0.088276, 0.11387, -0.043246, 0.0080367, -0.10745, -0.31047, -0.044148, -0.17805, 0.27176, 0.52375, -0.34603, -0.25553, 0.041699, 0.17631, 0.089, -0.034972, 0.015214, -0.16155, -0.0044616, -0.19608, 0.52391, 0.38353, -0.18308, -0.36866, -0.0516, 0.18508, -0.03906, -0.11294, -0.29448, -0.24258, -0.020336, 0.1646, 0.042029, -0.034579, -0.080621, 0.0023781, 0.09709, 0.25587, -0.25284, 0.061611, 0.09607, -0.053049, -0.016158, -0.051428, 0.15564, 0.18886, 0.0084349, -0.048989, 0.17712, 0.19164, 0.18133, 0.13612, 0.1653, -0.029342, -0.042788, -0.053546, 0.043048, 0.00043498, 0.043392],
          [-0.067392, 0.15604, 0.33006, 0.17019, -0.0097699, -0.11247, -0.09464, -0.024494, -0.0039792, 0.10994, 0.034233, 0.17574, -0.058308, -0.086036, -0.089378, 0.13061, 0.083343, 0.045589, -0.0215, -0.039618, -0.040283, -0.054908, -0.029621, 0.033422, -0.18107, 0.062628, -0.15452, 0.16302, -0.19246, 0.025899, 0.13802, 0.042581, -0.10232, -0.047879, -0.084652, -0.10421, -0.11475, -0.077448, 0.17513, 0.31631, -0.21234, -0.13718, 0.032256, 0.16117, 0.12437, -0.19602, -0.10317, -0.17989, -0.030777, 0.36723, 0.26823, -0.14256, -0.34284, -0.16863, 0.20718, -0.04361, -0.21591, -0.35645, -0.35914, -0.35654, -0.22838, -0.25415, -0.027038, 0.1043, 0.070313, 0.19633, 0.011469, 0.056101, 0.20979, 0.31383, 0.36266, 0.15633, 0.043118, 0.15942, 0.138, 0.082457, -0.097363, 0.017536, 0.18875, 0.1323, 0.09316, 0.10016, 0.041772, -0.16461, -0.01027, -0.016122, -0.10278, -0.093043, -0.049187, 0.011398, -0.00027008, 0.0074397, -0.20028, -0.11833, 0.015078, -0.018453, -0.036365, -0.020538, 0.067467, 0.098981, -0.0055674, -0.092027, -0.011441, 0.040493, 0.072107, 0.047545, -0.010628, 0.010379, -0.037361, 0.049441, 0.23173, 0.066224, 0.053604, 0.070224, 0.00044744, -0.024041, 0.017027, 0.082502, 0.044118, 0.094446, 0.02607],
          [-0.014874, 0.0064653, 0.18058, 0.1064, 0.14624, -0.18549, -0.11947, 0.13337, 0.14316, 0.21268, 0.074573, -0.023663, 0.00030163, 0.034924, 0.00049764, -0.27861, 0.019649, 0.22429, 0.10635, -0.055747, -0.17203, 0.14652, 0.083678, 0.08006, 0.12677, -0.2096, -0.11993, 0.079651, -7.05e-05, -0.1316, -0.12186, -0.12212, -0.063472, 0.11592, -0.00031212, -0.16159, -0.2051, -0.015211, 0.33419, -0.021198, 0.051574, -0.081191, -0.024248, 0.031953, 0.08989, -0.055348, -0.19027, -0.20571, -0.00342, 0.42337, 0.27261, -0.084998, -0.27009, -0.26985, -0.17357, 0.049621, -0.003575, 0.036593, 0.0086359, -0.27033, -0.39995, -0.17184, -0.24084, -0.20002, -0.25264, 0.04389, -0.06426, 0.074044, -0.01414, 0.12916, 0.13074, 0.027929, 0.018943, 0.12691, 0.28765, 0.28887, 0.29998, -0.037028, 0.049534, -0.018197, 0.19754, -0.0048382, -0.067002, 0.095329, -0.077329, 0.097922, 0.11727, 0.051206, 0.014744, 0.074516, 0.076595, -0.10213, -0.010104, 0.053405, 0.025968, 0.042843, -0.03165, -0.10112, -0.062004, 0.080997, -0.096227, 0.0027223, 0.0032193, 0.028018, -0.080393, -0.068244, -0.0065763, -0.10139, 0.005777, -0.0019333, -0.028478, 0.078148, 0.0046718, 0.086526, 0.07515, 0.080912, 0.14299, 0.058255, 0.060032, 0.069309, 0.13734],
          [-0.026403, -0.020918, -0.035102, -0.014307, -0.0042972, -0.058078, 0.038179, -0.0028112, -0.0038941, 0.0018813, -0.10079, 0.021583, 0.073512, 0.054528, 0.18988, 0.13986, 0.072941, 0.059257, 0.031091, -0.015845, -0.023618, -0.064937, 0.075643, -0.079466, -0.020769, -0.10404, -0.033013, 0.072788, 0.10548, 0.0019405, -0.0070426, -0.028399, 0.045186, -0.019186, 0.10715, 0.11823, 0.038571, -0.027458, -0.098265, 0.056391, 0.040157, 0.12887, -0.031556, -0.02314, 0.069122, 0.025102, 0.029789, -0.070653, 0.016315, 0.28689, 0.17026, 0.012541, 0.070851, 0.0048605, 0.033198, -0.091329, -0.15097, -0.024121, -0.02457, -0.41481, -0.77687, -0.27461, 0.13786, 0.13545, 0.13314, 0.082653, 0.089238, -0.044081, -0.076883, 0.126, 0.40959, 0.087069, -0.46621, -0.43761, -0.10812, 0.017686, 0.1273, -0.064747, -0.10763, -0.085248, -0.2315, 0.15315, 0.5562, 0.23775, -0.16669, -0.17716, -0.16977, 0.025009, 0.060378, -0.20713, -0.18646, -0.080662, -0.0061085, 0.13479, 0.056632, 0.17463, 0.017491, -0.015088, -0.051792, 0.086679, -0.043885, 0.048343, -0.11503, 0.1406, -0.062258, -0.11335, -0.064954, 0.027741, 0.11898, 0.030261, 0.17154, 0.057333, 0.16205, 0.098609, 0.073912, -0.090816, -0.010371, 0.092276, 0.1103, -0.0058808, 0.03315],
          [0.2655, -0.0011966, -0.022917, 0.04243, -0.13812, -0.037431, -0.04056, -0.023934, 0.079259, -0.034522, 0.1745, 0.041791, -0.022741, -0.001354, -0.10139, -0.053306, 0.058909, 0.093373, 0.05014, 0.0084539, 0.021167, 0.10388, 0.0076348, 0.013139, -0.075217, 0.015069, 0.24056, 0.064464, -0.061521, -0.084694, -0.068058, -0.010292, -0.035799, -0.047138, -0.030265, 0.025114, 0.16953, -0.081754, -0.16484, -0.090216, 0.19964, 0.18826, 0.045615, 0.10861, -0.028329, -0.10352, 0.075322, -0.034013, -0.058696, 0.44091, 0.084019, -0.01285, -0.042461, 0.13376, -0.12951, 0.0026411, 0.044978, -0.090312, 0.055734, 0.060061, -0.71528, -0.28235, 0.031272, 0.11881, -0.0042768, -0.011348, 0.0023675, 0.00043486, 0.18959, -0.08576, -0.45258, 0.15962, 0.31737, -0.062412, -0.33746, -0.24412, -0.061413, 0.13079, 0.20848, -0.20955, -0.28813, 0.14444, 0.46815, 0.085139, -0.22659, -0.027717, -0.16856, -0.13754, 0.1506, 0.00078477, -0.17891, -0.067289, 0.11814, 0.1094, 0.10648, -0.07785, -0.24214, -0.15597, 0.018452, -0.0653, 0.042694, 0.11064, 0.1346, 0.030738, -0.01497, 0.039307, 0.041005, -0.028334, 0.015742, 0.11427, 0.021003, 0.0077222, -0.00084806, 0.056397, -0.1125, -0.064031, 0.026888, 0.12622, 0.25062, 0.11068, 0.26257],
          [0.072041, -0.022942, 0.20655, 0.0021518, -0.14297, 0.00060653, -0.058092, 0.13818, 0.17792, 0.12334, 0.0044529, -0.04606, -0.071586, -0.10074, -0.07374, -0.018046, -0.11863, 0.17618, 0.14978, -0.060747, -0.0027956, 0.16786, -0.10698, 0.083, 0.12903, 0.047203, -0.030334, 0.099121, -0.051747, -0.20798, -0.0060523, -0.2464, 0.002543, 0.056676, 0.13754, -0.079126, -0.17639, 0.055182, 0.29993, -0.12375, -0.15473, -0.015286, -0.0054135, -0.08584, 0.22138, -0.1313, -0.33147, -0.21124, 0.24712, 0.46372, 0.0027062, -0.24161, -0.10142, -0.18323, 0.11158, 0.1676, 0.029994, 0.025682, -0.11959, -0.33142, -0.15445, -0.16382, -0.18307, -0.40205, -0.26594, -0.15682, -0.0002612, -0.028756, 0.27425, 0.21593, 0.25487, 0.097667, 0.20034, 0.19879, 0.30686, 0.17247, 0.018739, -0.031064, 0.026366, -0.18777, -0.15481, -0.037429, -0.11875, 0.10726, 0.17942, 0.11733, 0.0052779, 0.23972, 0.0079701, -0.051503, 0.05532, -0.040008, -0.092708, -0.031471, -0.098759, -0.09293, 0.055518, -0.037796, -0.0063426, 0.024883, 0.034983, 0.071931, -0.031592, -0.08635, -0.0090017, 0.071457, -0.060722, -0.14319, -0.048321, 0.081485, -0.028272, 0.063684, 0.005548, 0.11811, 0.14065, 0.00406, -0.013719, 0.12724, 0.099627, 0.13232, 0.13873],
          [-0.027796, 0.19015, 0.097864, 0.12603, -0.033269, -0.089501, 0.04756, 0.073741, 0.10899, 0.010866, -0.057266, 0.17803, -0.063867, 0.018021, 0.025919, 0.052576, -0.021274, -0.13049, 0.029636, 0.021721, 0.074926, 0.05983, -0.076901, -0.026485, -0.15053, -0.13725, 0.087833, 0.066023, -0.091947, -0.2149, -0.020022, 0.061471, 0.041399, 0.031512, -0.0153, 0.026068, -0.033971, -0.056572, 0.18971, 0.088995, -0.15964, -0.16587, -0.11188, 0.12235, -0.052308, -0.37845, -0.096614, -0.069048, 0.066169, 0.45011, 0.11905, -0.089093, -0.12905, -0.036526, 0.054822, 0.02481, -0.29747, -0.29999, -0.30525, 0.020997, -0.24089, -0.24201, -0.089791, 0.040398, 0.02526, 0.027389, 0.27071, 0.36232, 0.17799, 0.14461, 0.039188, -0.12174, 0.06238, 0.053787, 0.077565, 0.089143, -0.082913, 0.047936, 0.032228, 0.13504, 0.01206, -0.0045403, 0.048158, 0.081652, 0.042006, 0.0009472, 0.013452, 0.046158, -0.08677, -0.01951, -0.011155, 0.027566, 0.061728, 0.012115, -0.023208, -0.031607, 0.059643, -0.036766, -0.015929, 0.0064081, -0.081899, -0.02977, -0.088821, -0.028071, -0.023692, -0.019599, 0.057438, -0.038196, -0.011284, 0.039955, 0.099448, 0.06855, 0.073048, 0.062483, 0.026346, 0.051335, 0.055075, 0.054677, 0.024906, 0.045384, 0.032908]
        ],
        "sobel": [
          [0.021622, -0.039044, -0.037054, -0.070222, -0.14277, 0.010719, 0.23521, 0.042586, -0.066839, -0.035786, -0.040592, -0.04765, 0.015366, -0.0089413, -0.018094, -0.041156, 0.059194, 0.03497, 0.0085535, -0.012133, 0.037119, 0.011104, 0.013667, 0.057116, -0.039502, 0.0017173, -0.10081, 0.037478, 0.16095, -0.067174, -0.034198, 0.04378, -0.02895, -0.075339, -0.037953, 0.015621, -0.0062937, -0.11864, 0.049183, 0.1707, -0.019043, -0.042438, -0.017632, -0.075732, 0.0095324, 0.03293, -0.014258, -0.0098967, -0.080728, 0.076951, 0.1301, -0.11441, 0.020647, 0.0074901, 0.029524, -0.012759, -0.0093581, -0.0058362, 0.064104, -0.1647, 0.094418, 0.13507, -0.044142, -0.052786, -0.010841, -0.006663, -0.023002, 0.028816, 0.041661, -0.032028, -0.061565, 0.13252, 0.13007, -0.12915, 0.0036202, 0.036105, -0.012106, 0.0040582, -0.061908, 0.0076004, 0.03672, -0.14106, 0.20292, 0.060389, -0.09659, 0.054589, -0.10019, 0.041123, -0.036635, 0.116, -0.072959, 0.0058381, -0.080459, 0.15241, 0.064258, -0.09976, -0.038509, 0.0044402, -0.027742, -0.034369, -0.015116, 0.0058884, 0.046096, -0.057577, 0.10123, 0.074735, -0.08287, 0.016464, -0.035808, -0.034751, -0.0037474, -0.026826, 0.0056597, -0.06777, 0.056803, 0.22043, 0.017122, -0.14459, -0.079001, -0.0448, -0.099982],
